1440 12
4 0.00818067 0.06623718 0.01172631 0.00229497 0.00549373 0.00473101 0.00258366 0.00043701 0.00116979 0.00139345 0.00069251 0.00047908
4 0.00197547 0.04599071 0.00392340 0.00174470 0.00437417 0.00438334 0.00122487 0.00247092 0.00064972 0.00144011 0.00051593 0.00201072
3 0.01179230 0.04978209 0.02343042 0.00637790 0.01227547 0.00585717 0.00708475 0.00524267 0.00153752 0.00113751 0.00513135 0.00453844
2 0.00000000 0.03684748 0.00000001 0.01800293 0.00000000 0.01438443 0.00000000 0.00182984 0.00000001 0.00395866 0.00000001 0.00405729
5 0.00000000 0.00759793 0.00000000 0.03124335 0.00000000 0.00928337 0.00000000 0.00746159 0.00000000 0.00711775 0.00000000 0.00499405
3 0.00000000 0.04256260 0.00000000 0.03164083 0.00000000 0.01186555 0.00000000 0.00290641 0.00000000 0.01002539 0.00000000 0.00148804
3 0.00000000 0.03220508 0.00000000 0.01247777 0.00000001 0.01446669 0.00000000 0.00230490 0.00000000 0.00246353 0.00000000 0.00404699
6 0.01606056 0.05960956 0.01780970 0.02307363 0.00636591 0.01147107 0.00324848 0.00921291 0.00334789 0.00610321 0.00230695 0.00446348
0 0.00000000 0.03547731 0.00000000 0.01583035 0.00000000 0.01468085 0.00000000 0.00170032 0.00000000 0.00285818 0.00000000 0.00429811
1 0.00831249 0.05490134 0.02091410 0.01830681 0.00909489 0.00854490 0.00145566 0.00739844 0.00128545 0.00495629 0.00297542 0.00462840
6 0.00000000 0.04401379 0.00000000 0.03808165 0.00000000 0.00955174 0.00000000 0.00306258 0.00000000 0.00910468 0.00000000 0.00288759
6 0.00000000 0.02865980 0.00000000 0.03651664 0.00000000 0.01161142 0.00000000 0.00892984 0.00000000 0.00672262 0.00000001 0.00265009
1 0.03731532 0.04721786 0.01986210 0.02488969 0.00067766 0.01666458 0.00799273 0.01323654 0.00891816 0.00867605 0.00582342 0.00336222
0 0.00000000 0.01429650 0.00000000 0.01530596 0.00000000 0.01061420 0.00000000 0.00806958 0.00000000 0.00073079 0.00000000 0.00303619
1 0.00000000 0.03307364 0.00000000 0.01347106 0.00000000 0.01456418 0.00000000 0.00194159 0.00000000 0.00255091 0.00000000 0.00435896
5 0.13615321 0.03887326 0.01175666 0.03169561 0.09018044 0.01288997 0.01599013 0.00561841 0.01565485 0.01091321 0.02615203 0.00305529
6 0.00000000 0.03694295 0.00000000 0.03396184 0.00000000 0.01619476 0.00000000 0.00930809 0.00000000 0.00973315 0.00000000 0.00400285
3 0.00000000 0.00000000 0.00000000 0.04019333 0.00000000 0.00000000 0.00000000 0.01254593 0.00000000 0.00000000 0.00000000 0.00612088
2 0.00000000 0.02322977 0.00000000 0.00736403 0.00000000 0.01334582 0.00000000 0.00503522 0.00000000 0.00224958 0.00000000 0.00303794
3 0.00000001 0.01565422 0.00000000 0.01120799 0.00000000 0.01081787 0.00000000 0.00764268 0.00000000 0.00193627 0.00000000 0.00227405
1 0.00000000 0.04201524 0.00000000 0.04047662 0.00000000 0.01517276 0.00000000 0.01189195 0.00000000 0.00531536 0.00000000 0.00296992
4 0.01167430 0.10561687 0.00575015 0.01674912 0.00437552 0.00403496 0.00399227 0.00035322 0.00254685 0.00139126 0.00152755 0.00139426
2 0.00000000 0.00605909 0.00000000 0.03283426 0.00000000 0.00777836 0.00000000 0.00760087 0.00000000 0.00640850 0.00000000 0.00463151
1 0.41017234 0.54685163 0.08613736 0.06055421 0.05889950 0.01498111 0.06418271 0.00834231 0.01271065 0.00285769 0.01139021 0.01207824
3 0.00000000 0.04284164 0.00000000 0.04102373 0.00000000 0.01416792 0.00000000 0.01086350 0.00000000 0.00491972 0.00000000 0.00201227
0 0.00000000 0.03697321 0.00000000 0.01780418 0.00000000 0.01434367 0.00000000 0.00175350 0.00000000 0.00355924 0.00000000 0.00412420
3 0.01029660 0.01509400 0.02911027 0.02159706 0.01719756 0.00959468 0.01057664 0.00280927 0.00367859 0.00313126 0.00214602 0.00228360
3 0.00000000 0.04331046 0.00000000 0.04106231 0.00000000 0.01297929 0.00000000 0.00977116 0.00000000 0.00461776 0.00000000 0.00100039
6 0.00000000 0.02865980 0.00000000 0.03651664 0.00000000 0.01161142 0.00000000 0.00892984 0.00000000 0.00672262 0.00000001 0.00265009
4 0.01014571 0.07848930 0.00734514 0.00894654 0.00345892 0.00368563 0.00232786 0.00058067 0.00061030 0.00045666 0.00075140 0.00060625
3 0.18029299 0.18188781 0.12965985 0.03106868 0.05110148 0.06662857 0.00494120 0.01574975 0.01159046 0.01393708 0.00263377 0.01128995
0 0.00000000 0.01852929 0.00000000 0.00781149 0.00000000 0.01191706 0.00000000 0.00589794 0.00000000 0.00238521 0.00000000 0.00233638
2 0.00000000 0.01387041 0.00000000 0.02137156 0.00000000 0.01150463 0.00000000 0.00707034 0.00000000 0.00367178 0.00000000 0.00275016
1 0.02958579 0.06013343 0.02059667 0.01924280 0.00550379 0.00901886 0.00454912 0.00748337 0.00507613 0.00589187 0.00312891 0.00306588
6 0.00000000 0.00000000 0.00000000 0.04019333 0.00000000 0.00000000 0.00000000 0.01254593 0.00000000 0.00000000 0.00000000 0.00612088
4 0.00000000 0.04135875 0.00000000 0.02890333 0.00000000 0.01343983 0.00000000 0.00405889 0.00000000 0.00950784 0.00000000 0.00031325
1 0.00000000 0.04389232 0.00000000 0.03748897 0.00000000 0.00974719 0.00000001 0.00272165 0.00000000 0.00937887 0.00000000 0.00277259
1 0.00000000 0.01460990 0.00000000 0.01595474 0.00000000 0.01083473 0.00000000 0.00805515 0.00000000 0.00083596 0.00000000 0.00303111
6 0.00000000 0.02865482 0.00000000 0.03649447 0.00000000 0.01165512 0.00000000 0.00897004 0.00000000 0.00676133 0.00000001 0.00276310
5 0.00000000 0.01526012 0.00000000 0.01042503 0.00000000 0.01067678 0.00000000 0.00767994 0.00000000 0.00167556 0.00000000 0.00249877
5 0.00000000 0.03917640 0.00000000 0.02182600 0.00000000 0.01415374 0.00000000 0.00206847 0.00000000 0.00547671 0.00000000 0.00351811
0 0.00000000 0.01394488 0.00000000 0.01667137 0.00000000 0.01087951 0.00000000 0.00810949 0.00000000 0.00136547 0.00000000 0.00327756
6 0.00000000 0.00380373 0.00000000 0.03493936 0.00000000 0.00558490 0.00000000 0.00767800 0.00000000 0.00530707 0.00000000 0.00337921
4 0.00306773 0.05775592 0.00060731 0.00368217 0.00516173 0.00582748 0.00231748 0.00116596 0.00168889 0.00109814 0.00139714 0.00197222
1 0.00000000 0.01206928 0.00000000 0.02743747 0.00000000 0.01273977 0.00000000 0.00813223 0.00000000 0.00724184 0.00000000 0.00432443
0 0.01446089 0.11932064 0.00682294 0.03935271 0.00312357 0.01829117 0.00156388 0.01121222 0.00075394 0.00780377 0.00109397 0.00537016
4 0.00000000 0.02603431 0.00000000 0.00846026 0.00000000 0.01380096 0.00000000 0.00417560 0.00000000 0.00219314 0.00000000 0.00329084
3 0.00000000 0.01415677 0.00000000 0.01686562 0.00000000 0.01081172 0.00000000 0.00806763 0.00000000 0.00126887 0.00000000 0.00337742
3 0.00000000 0.03116040 0.00000000 0.03625613 0.00000000 0.01230749 0.00000000 0.00858902 0.00000000 0.00705688 0.00000000 0.00234106
6 0.00000000 0.02702483 0.00000000 0.03648378 0.00000000 0.01107278 0.00000000 0.00891690 0.00000000 0.00648798 0.00000000 0.00265474
5 0.00000000 0.01392338 0.00000000 0.01712233 0.00000000 0.01086188 0.00000000 0.00787872 0.00000000 0.00156328 0.00000000 0.00313893
5 0.00000000 0.03714502 0.00000000 0.01816081 0.00000000 0.01458214 0.00000000 0.00206096 0.00000000 0.00371969 0.00000000 0.00406501
6 0.00000000 0.01021078 0.00000000 0.02912447 0.00000000 0.01134086 0.00000000 0.00803854 0.00000000 0.00737308 0.00000000 0.00498756
5 0.00000000 0.01531055 0.00000000 0.00899223 0.00000000 0.01107165 0.00000000 0.00672079 0.00000000 0.00245696 0.00000000 0.00231331
5 0.22008824 0.07077820 0.03323598 0.10228392 0.04989246 0.03662306 0.00495932 0.01980850 0.00260002 0.00700339 0.00272658 0.00694326
0 0.00000000 0.01002220 0.00000000 0.02944481 0.00000000 0.01116811 0.00000000 0.00824598 0.00000000 0.00723444 0.00000000 0.00503595
3 0.00000000 0.01334967 0.00000000 0.02174601 0.00000000 0.01147294 0.00000000 0.00715391 0.00000000 0.00399239 0.00000000 0.00290382
2 0.00000000 0.02413103 0.00000000 0.00777549 0.00000000 0.01329049 0.00000000 0.00456284 0.00000000 0.00225602 0.00000000 0.00304348
0 0.00000000 0.02766994 0.00000000 0.03660363 0.00000000 0.01162983 0.00000000 0.00934734 0.00000000 0.00664509 0.00000000 0.00303063
3 0.01943424 0.04135046 0.02159244 0.00508838 0.00865634 0.00056862 0.00913182 0.00451345 0.00250954 0.00232860 0.00397299 0.00480501
0 0.00000001 0.01042459 0.00000000 0.02882604 0.00000000 0.01153888 0.00000000 0.00799096 0.00000000 0.00733222 0.00000000 0.00481460
5 0.00000000 0.01332032 0.00000000 0.02019340 0.00000000 0.01124479 0.00000000 0.00726766 0.00000000 0.00338601 0.00000000 0.00300412
6 0.00000000 0.04397803 0.00000000 0.04014473 0.00000000 0.01067585 0.00000000 0.00632514 0.00000000 0.00683007 0.00000000 0.00216360
0 0.00000000 0.01532566 0.00000000 0.01101174 0.00000000 0.01069780 0.00000000 0.00768103 0.00000000 0.00162844 0.00000000 0.00231598
0 0.00000000 0.02034664 0.00000000 0.00731989 0.00000000 0.01253052 0.00000000 0.00573049 0.00000000 0.00239965 0.00000000 0.00267672
5 0.00000526 0.04010132 0.00000526 0.02410577 0.00000526 0.01375940 0.00000526 0.00256289 0.00000526 0.00638299 0.00000526 0.00286677
4 0.00000000 0.04347762 0.00000000 0.04110328 0.00000000 0.01275363 0.00000000 0.00945307 0.00000000 0.00482392 0.00000001 0.00078590
6 0.00000000 0.04066546 0.00000000 0.02684580 0.00000000 0.01453426 0.00000000 0.00456367 0.00000000 0.00911346 0.00000000 0.00069090
1 0.00000000 0.04358553 0.00000000 0.03615404 0.00000000 0.01006401 0.00000000 0.00190543 0.00000000 0.01023538 0.00000000 0.00266919
3 0.01776103 0.03947619 0.02404320 0.00445266 0.00667044 0.00274397 0.00822569 0.00365540 0.00277957 0.00292032 0.00632347 0.00207430
5 0.00000000 0.03008105 0.00000000 0.03636257 0.00000000 0.01200735 0.00000000 0.00869155 0.00000000 0.00693065 0.00000000 0.00238139
0 0.04678957 0.09475443 0.01163646 0.03267364 0.00259625 0.01795532 0.00279192 0.00858501 0.00215633 0.00604273 0.00128661 0.00417041
2 0.00000000 0.01342536 0.00000000 0.02142006 0.00000000 0.01157575 0.00000000 0.00715876 0.00000000 0.00409235 0.00000000 0.00295574
2 0.00000000 0.00991569 0.00000000 0.02945032 0.00000000 0.01112265 0.00000000 0.00810896 0.00000000 0.00742820 0.00000000 0.00513101
0 0.00000000 0.02977152 0.00000000 0.03636530 0.00000000 0.01196872 0.00000000 0.00886370 0.00000000 0.00679767 0.00000000 0.00252087
1 0.00000000 0.03033257 0.00000000 0.03625341 0.00000000 0.01213265 0.00000000 0.00868113 0.00000000 0.00693188 0.00000000 0.00235247
5 0.00000000 0.03654410 0.00000000 0.01754264 0.00000000 0.01439919 0.00000000 0.00186380 0.00000000 0.00379418 0.00000001 0.00392029
6 0.03418763 0.05933168 0.03019604 0.02392752 0.01210252 0.01338860 0.00293208 0.00275088 0.00719074 0.00309272 0.00518792 0.00169486
3 0.00000000 0.01310000 0.00000000 0.02571157 0.00000000 0.01187958 0.00000000 0.00731348 0.00000000 0.00578529 0.00000000 0.00291054
2 0.01195972 0.07805296 0.00369022 0.02349067 0.00430599 0.01200122 0.00185714 0.00736082 0.00128805 0.00365322 0.00108564 0.00378370
4 0.00000000 0.02845772 0.00000000 0.03666995 0.00000000 0.01159301 0.00000000 0.00903251 0.00000000 0.00683998 0.00000000 0.00282589
1 0.00000000 0.04403196 0.00000000 0.03782538 0.00000000 0.00976202 0.00000000 0.00319568 0.00000000 0.00905384 0.00000000 0.00260784
1 0.03693920 0.04940841 0.01814356 0.01856080 0.00719039 0.01314695 0.00390783 0.00860070 0.00468111 0.00702770 0.00308424 0.00577351
3 0.01829306 0.04004958 0.01724670 0.00782007 0.01645366 0.00355551 0.00283691 0.00261058 0.00310978 0.00259193 0.00299652 0.00264481
1 0.03872677 0.05913035 0.02127462 0.02274681 0.00489841 0.00911085 0.00185228 0.00968215 0.00316215 0.00387906 0.00355337 0.00319923
1 0.03471603 0.05527308 0.01746801 0.01608203 0.00394767 0.01081225 0.00222116 0.00529177 0.00385675 0.00423746 0.00201637 0.00270835
2 0.00000000 0.03778289 0.00000000 0.03497612 0.00000000 0.01655420 0.00000000 0.01032520 0.00000000 0.00977274 0.00000000 0.00481989
2 0.00000000 0.02938396 0.00000000 0.03647960 0.00000000 0.01178173 0.00000000 0.00884163 0.00000000 0.00676435 0.00000000 0.00251825
4 0.01160066 0.07213188 0.01178386 0.00413637 0.00289852 0.00120466 0.00139223 0.00112223 0.00090393 0.00054290 0.00044475 0.00177585
0 0.00000000 0.04406358 0.00000001 0.03905033 0.00000000 0.00993093 0.00000000 0.00443634 0.00000000 0.00828260 0.00000000 0.00269551
4 0.00000000 0.04002062 0.00000000 0.02348753 0.00000000 0.01377250 0.00000000 0.00262625 0.00000000 0.00611305 0.00000000 0.00272997
0 0.00000000 0.01318417 0.00000000 0.02414908 0.00000000 0.01183801 0.00000000 0.00700205 0.00000000 0.00517984 0.00000000 0.00258148
1 0.04575880 0.05373137 0.01463942 0.01715791 0.00398912 0.00798628 0.00652954 0.00520905 0.00451623 0.00445554 0.00343002 0.00372776
1 0.01336418 0.06780674 0.01180862 0.02917276 0.00352787 0.01805397 0.00137402 0.00966448 0.00301205 0.00821794 0.00305238 0.00335206
5 0.00000000 0.01512105 0.00000000 0.01212343 0.00000000 0.01069261 0.00000000 0.00811954 0.00000000 0.00127405 0.00000000 0.00257414
1 0.03762243 0.05496065 0.02062258 0.02482623 0.00727469 0.01602624 0.00152069 0.00625224 0.00514419 0.00287438 0.00547761 0.00309330
0 0.00000000 0.02256999 0.00000000 0.00731132 0.00000000 0.01309979 0.00000000 0.00508299 0.00000000 0.00240270 0.00000000 0.00290286
5 0.00000000 0.04361266 0.00000000 0.03487469 0.00000000 0.01046342 0.00000000 0.00189785 0.00000000 0.01001242 0.00000000 0.00241553
6 0.00000000 0.01578905 0.00000000 0.00900535 0.00000000 0.01103446 0.00000000 0.00683070 0.00000000 0.00228988 0.00000000 0.00191710
0 0.00000000 0.02806618 0.00000001 0.00953261 0.00000000 0.01397464 0.00000000 0.00343749 0.00000000 0.00237205 0.00000000 0.00371480
1 0.01741019 0.05490196 0.01724315 0.01551264 0.00727179 0.01005907 0.00180881 0.00412245 0.00275920 0.00379461 0.00135062 0.00262448
1 0.00000000 0.03886165 0.00000000 0.02136030 0.00000000 0.01402659 0.00000000 0.00220542 0.00000000 0.00515036 0.00000000 0.00364716
1 0.00000000 0.01441456 0.00000000 0.01625621 0.00000000 0.01075711 0.00000000 0.00804474 0.00000000 0.00084522 0.00000000 0.00304412
3 0.00000000 0.01578024 0.00000000 0.00997210 0.00000000 0.01077589 0.00000000 0.00725774 0.00000000 0.00254201 0.00000000 0.00219890
3 0.00000000 0.04225221 0.00000000 0.04090412 0.00000000 0.01483354 0.00000000 0.01181136 0.00000000 0.00484085 0.00000000 0.00262516
2 0.00000000 0.01335543 0.00000000 0.02010153 0.00000000 0.01129818 0.00000000 0.00729587 0.00000000 0.00330739 0.00000000 0.00291057
3 0.00000000 0.04346017 0.00000000 0.04109579 0.00000000 0.01262450 0.00000000 0.00934695 0.00000000 0.00478527 0.00000001 0.00091461
5 0.00000000 0.04187117 0.00000000 0.03968921 0.00000000 0.01567009 0.00000000 0.01190749 0.00000000 0.00598407 0.00000000 0.00348298
4 0.00000000 0.01497485 0.00000000 0.01284942 0.00000000 0.01054996 0.00000000 0.00790676 0.00000000 0.00092116 0.00000000 0.00261181
5 0.00000000 0.01548201 0.00000000 0.01059567 0.00000000 0.01083357 0.00000000 0.00766628 0.00000000 0.00183665 0.00000000 0.00236081
1 0.02330008 0.06658293 0.01965049 0.01833565 0.00719527 0.00930812 0.00522457 0.00583368 0.00164687 0.00293468 0.00220454 0.00293291
1 0.00000000 0.04255146 0.00000000 0.03165703 0.00000000 0.01185811 0.00000000 0.00292301 0.00000000 0.01000910 0.00000000 0.00150380
4 0.01201659 0.07277623 0.01352257 0.00328297 0.00503423 0.00470895 0.00125051 0.00265287 0.00130183 0.00220561 0.00149627 0.00159712
2 0.00000000 0.01428222 0.00000000 0.01510150 0.00000000 0.01063278 0.00000000 0.00812416 0.00000000 0.00063771 0.00000000 0.00305587
1 0.00000000 0.01685521 0.00000000 0.00830442 0.00000000 0.01141818 0.00000000 0.00633398 0.00000000 0.00235347 0.00000000 0.00250997
1 0.00000000 0.04046892 0.00000000 0.02511684 0.00000000 0.01344782 0.00000000 0.00259744 0.00000000 0.00689833 0.00000000 0.00265599
5 0.15589729 0.07628351 0.01722676 0.05782259 0.07040679 0.03622710 0.03312819 0.00278641 0.01230396 0.00802396 0.02371603 0.00076269
2 0.00000000 0.02929780 0.00000000 0.03645372 0.00000000 0.01177966 0.00000000 0.00883042 0.00000000 0.00682470 0.00000000 0.00259360
6 0.01060338 0.06888719 0.01751201 0.02248600 0.00546142 0.01024417 0.00327355 0.00727096 0.00169441 0.00541669 0.00020940 0.00472233
2 0.00000000 0.00738719 0.00000001 0.03152227 0.00000000 0.00903674 0.00000000 0.00752474 0.00000000 0.00703782 0.00000000 0.00504959
0 0.00000000 0.01474046 0.00000000 0.01403385 0.00000000 0.01062746 0.00000000 0.00797911 0.00000000 0.00060787 0.00000000 0.00277392
2 0.00000000 0.04056111 0.00000000 0.03829031 0.00000000 0.01664056 0.00000000 0.01220947 0.00000000 0.00795414 0.00000000 0.00469331
4 0.00000000 0.04063565 0.00000000 0.02743393 0.00000001 0.01427918 0.00000000 0.00449994 0.00000000 0.00922664 0.00000000 0.00042764
3 0.02019496 0.05053924 0.02351376 0.00295425 0.00759526 0.00447161 0.00558364 0.00316325 0.00276000 0.00296874 0.00235851 0.00186621
0 0.00000000 0.02544146 0.00000000 0.00795313 0.00000000 0.01370080 0.00000000 0.00425579 0.00000000 0.00231683 0.00000000 0.00329080
3 0.00000000 0.02892734 0.00000000 0.03663115 0.00000000 0.01160436 0.00000000 0.00890357 0.00000000 0.00675531 0.00000001 0.00262131
0 0.00000000 0.01581116 0.00000000 0.00884424 0.00000000 0.01107599 0.00000000 0.00671721 0.00000000 0.00247746 0.00000000 0.00193254
6 0.00000000 0.02790485 0.00000001 0.00946173 0.00000000 0.01393873 0.00000000 0.00348899 0.00000000 0.00223498 0.00000000 0.00366288
3 0.00000000 0.03330259 0.00000000 0.01390888 0.00000000 0.01453149 0.00000000 0.00192003 0.00000000 0.00256882 0.00000000 0.00443464
2 0.00000000 0.01214149 0.00000000 0.02772776 0.00000000 0.01255463 0.00000000 0.00804787 0.00000000 0.00712556 0.00000000 0.00424046
3 0.00000000 0.03882013 0.00000000 0.03623553 0.00000000 0.01677481 0.00000000 0.01127599 0.00000000 0.00931003 0.00000000 0.00501343
4 0.00000000 0.01433212 0.00000000 0.01528995 0.00000000 0.01062779 0.00000000 0.00807716 0.00000000 0.00069687 0.00000000 0.00300287
3 0.01525696 0.05092279 0.03004233 0.01049325 0.01040179 0.00118681 0.01226222 0.00355488 0.00130808 0.00273950 0.00119254 0.00155178
5 0.00000000 0.02234769 0.00000000 0.00741595 0.00000000 0.01288739 0.00000000 0.00498110 0.00000000 0.00234794 0.00000000 0.00294650
3 0.02655050 0.04297079 0.01579247 0.01021598 0.00681452 0.00385154 0.01135466 0.00353380 0.00072670 0.00556077 0.00425520 0.00156521
4 0.00246578 0.02539838 0.00456083 0.00344071 0.00345869 0.00215617 0.00103532 0.00224663 0.00183554 0.00171510 0.00149843 0.00042476
1 0.00000000 0.01534181 0.00000000 0.01230556 0.00000000 0.01048717 0.00000000 0.00783563 0.00000000 0.00158437 0.00000000 0.00258007
1 0.01112808 0.05560673 0.00756040 0.02168015 0.00312994 0.01545019 0.00559677 0.00764007 0.00491071 0.00611424 0.00269735 0.00133387
6 0.00000000 0.03266728 0.00000000 0.01278500 0.00000001 0.01447725 0.00000000 0.00219648 0.00000000 0.00259031 0.00000000 0.00420514
0 0.00000000 0.01689858 0.00000000 0.00826433 0.00000000 0.01145688 0.00000000 0.00635150 0.00000000 0.00237853 0.00000000 0.00246962
0 0.00000000 0.03526294 0.00000000 0.01562161 0.00000000 0.01458926 0.00000000 0.00168705 0.00000000 0.00274131 0.00000000 0.00413376
1 0.01058474 0.06576946 0.01756514 0.01988166 0.00899490 0.01072284 0.00405973 0.00716741 0.00224534 0.00564522 0.00124494 0.00440024
0 0.00000000 0.01558287 0.00000000 0.00911006 0.00000000 0.01083792 0.00000000 0.00641776 0.00000000 0.00278312 0.00000000 0.00207165
3 0.00000000 0.01187688 0.00000000 0.02755824 0.00000000 0.01259308 0.00000000 0.00809868 0.00000000 0.00734111 0.00000000 0.00444164
0 0.00000000 0.01228886 0.00000000 0.02740110 0.00000000 0.01288598 0.00000000 0.00797134 0.00000000 0.00726416 0.00000000 0.00414528
6 0.00001955 0.04186529 0.00001956 0.03056187 0.00001955 0.01262654 0.00001955 0.00323856 0.00001955 0.00981590 0.00001956 0.00082746
6 0.04084447 0.08800811 0.00570126 0.02938152 0.00320431 0.01615814 0.00281036 0.00940026 0.00162035 0.00543695 0.00154350 0.00382264
3 0.00000000 0.01555284 0.00000000 0.00947533 0.00000000 0.01079370 0.00000000 0.00730264 0.00000000 0.00228959 0.00000000 0.00216285
4 0.73352253 0.10717665 0.10706800 0.00819775 0.05670213 0.00783281 0.02823603 0.00122312 0.02161834 0.00268203 0.01149524 0.00598143
4 0.00000000 0.01436766 0.00000000 0.01502470 0.00000000 0.01061021 0.00000000 0.00808379 0.00000000 0.00057779 0.00000000 0.00305342
2 0.00000000 0.03936473 0.00000000 0.02299168 0.00000000 0.01363928 0.00000000 0.00224351 0.00000000 0.00584060 0.00000000 0.00303461
0 0.00000000 0.03221509 0.00000000 0.01248400 0.00000001 0.01446883 0.00000000 0.00230520 0.00000000 0.00246898 0.00000000 0.00405111
3 0.00000000 0.02870060 0.00000000 0.01009380 0.00000000 0.01407610 0.00000000 0.00332759 0.00000000 0.00226896 0.00000000 0.00371116
1 0.00000000 0.03291382 0.00000000 0.01337202 0.00000000 0.01464284 0.00000000 0.00219438 0.00000000 0.00256873 0.00000000 0.00423991
4 0.00000000 0.03018506 0.00000000 0.03638129 0.00000000 0.01207506 0.00000000 0.00868066 0.00000000 0.00714201 0.00000000 0.00267058
2 0.00000000 0.04014944 0.00000000 0.02442859 0.00000000 0.01345899 0.00000000 0.00244878 0.00000000 0.00647799 0.00000000 0.00257856
0 0.00000000 0.03061621 0.00000000 0.03622603 0.00000000 0.01235780 0.00000000 0.00879990 0.00000000 0.00700875 0.00000000 0.00241031
3 0.00000000 0.01025742 0.00000000 0.02920851 0.00000000 0.01137102 0.00000000 0.00814097 0.00000000 0.00739863 0.00000000 0.00499966
3 0.00000000 0.03740833 0.00000000 0.03454382 0.00000000 0.01642765 0.00000000 0.00998943 0.00000000 0.00971967 0.00000000 0.00465240
1 0.00000000 0.00000000 0.00000000 0.04019333 0.00000000 0.00000000 0.00000000 0.01254593 0.00000000 0.00000000 0.00000000 0.00612088
4 0.00550826 0.06145141 0.00629139 0.00350068 0.00523326 0.00232818 0.00214193 0.00105430 0.00060264 0.00035482 0.00108884 0.00093971
4 0.00000000 0.02600168 0.00000000 0.00852120 0.00000000 0.01372052 0.00000000 0.00397440 0.00000000 0.00226785 0.00000000 0.00330388
6 0.00000000 0.02780810 0.00000000 0.03664608 0.00000000 0.01125276 0.00000000 0.00914835 0.00000000 0.00636521 0.00000000 0.00268056
6 0.00000000 0.03936473 0.00000000 0.02299168 0.00000000 0.01363928 0.00000000 0.00224351 0.00000000 0.00584060 0.00000000 0.00303461
5 0.15887228 0.07849351 0.01451837 0.06592610 0.06794136 0.02662513 0.03134116 0.00804520 0.01013263 0.00961127 0.02473174 0.00258724
6 0.00000000 0.01417285 0.00000000 0.01857522 0.00000000 0.01111866 0.00000000 0.00752504 0.00000000 0.00212564 0.00000000 0.00308975
4 0.00000001 0.01504704 0.00000000 0.01339503 0.00000000 0.01052629 0.00000000 0.00792502 0.00000000 0.00100739 0.00000000 0.00279081
1 0.00641841 0.06109610 0.01638001 0.02268208 0.00305076 0.00960682 0.00174289 0.00663842 0.00120884 0.00476056 0.00044768 0.00360311
4 0.00548411 0.05443134 0.00516983 0.00537360 0.00490528 0.00225984 0.00231504 0.00127612 0.00240638 0.00200986 0.00052552 0.00150633
3 0.02164586 0.05737663 0.03020275 0.00205042 0.01235081 0.00435103 0.00660172 0.00222365 0.00212224 0.00457579 0.00481623 0.00217205
6 0.00000000 0.01504469 0.00000000 0.01234005 0.00000000 0.01066103 0.00000000 0.00810125 0.00000000 0.00124174 0.00000000 0.00258522
1 0.00000000 0.03914547 0.00000000 0.03658181 0.00000000 0.01682716 0.00000000 0.01153027 0.00000000 0.00903452 0.00000000 0.00501288
0 0.00915798 0.10965405 0.00333028 0.03583083 0.00307435 0.01833733 0.00228138 0.01137692 0.00216065 0.00834677 0.00151399 0.00601862
2 0.00000000 0.03979220 0.00000000 0.02354166 0.00000000 0.01362056 0.00000000 0.00226225 0.00000000 0.00617879 0.00000000 0.00308040
5 0.13521008 0.05290638 0.01808069 0.06380249 0.08010007 0.01873992 0.01017756 0.00824949 0.00401389 0.01732900 0.01252009 0.01266360
2 0.01443309 0.08242255 0.00759671 0.03118207 0.00106271 0.01435983 0.00159285 0.01031524 0.00265085 0.00641119 0.00283499 0.00487791
2 0.00000000 0.03775006 0.00000000 0.01959984 0.00000000 0.01431233 0.00000000 0.00205359 0.00000000 0.00430847 0.00000000 0.00395829
3 0.03224085 0.07736137 0.03375802 0.00551484 0.01233957 0.00224258 0.00581704 0.00183855 0.00368369 0.00066204 0.00362950 0.00158122
6 0.00000000 0.01509664 0.00000000 0.01346844 0.00000000 0.01056602 0.00000000 0.00806264 0.00000000 0.00077001 0.00000000 0.00275635
2 0.04077883 0.08728945 0.00780030 0.02636839 0.01117435 0.01200335 0.00809407 0.00701523 0.00553191 0.00234002 0.00515604 0.00169389
2 0.00000000 0.04290519 0.00000000 0.03474274 0.00000000 0.01051741 0.00000000 0.00198428 0.00000000 0.01001088 0.00000000 0.00214142
6 0.00000000 0.01408579 0.00000000 0.02026054 0.00000000 0.01126061 0.00000000 0.00705971 0.00000000 0.00290414 0.00000000 0.00280797
5 0.17656612 0.08648112 0.04329695 0.07690969 0.07622907 0.00189758 0.02848888 0.01210334 0.00154997 0.01870681 0.01186828 0.01382672
1 0.00000000 0.01148887 0.00000000 0.02788536 0.00000000 0.01223829 0.00000000 0.00804450 0.00000000 0.00723440 0.00000000 0.00452838
0 0.00000000 0.03416625 0.00000000 0.01421770 0.00000000 0.01491788 0.00000000 0.00209168 0.00000000 0.00265987 0.00000000 0.00427394
0 0.00000000 0.01303711 0.00000000 0.02392064 0.00000000 0.01188122 0.00000000 0.00702369 0.00000000 0.00537378 0.00000000 0.00274936
1 0.01903352 0.05013898 0.02661022 0.01885934 0.00864080 0.01130885 0.00156914 0.00760036 0.00114368 0.00619397 0.00287737 0.00397143
6 0.03099948 0.07287960 0.00941204 0.02516215 0.00265611 0.01361864 0.00297774 0.00873803 0.00357165 0.00690162 0.00222025 0.00520676
3 0.00000000 0.01560640 0.00000000 0.01154843 0.00000000 0.01072481 0.00000000 0.00774440 0.00000000 0.00169146 0.00000000 0.00235474
0 0.03119141 0.10322101 0.01139928 0.03360919 0.00322873 0.01577639 0.00268703 0.00865491 0.00222369 0.00539884 0.00302392 0.00342220
5 0.20286351 0.09837922 0.04034823 0.04879341 0.05457634 0.05241189 0.02225885 0.01030888 0.00628460 0.01651707 0.00800474 0.00622292
0 0.00000000 0.01557205 0.00000000 0.01117382 0.00000000 0.01095057 0.00000000 0.00789291 0.00000000 0.00148323 0.00000000 0.00240229
0 0.00000000 0.04063267 0.00000000 0.02529988 0.00000000 0.01352256 0.00000000 0.00280826 0.00000000 0.00707053 0.00000000 0.00251905
4 0.00589742 0.06067127 0.00353617 0.00441399 0.00406976 0.00317229 0.00226196 0.00183529 0.00137828 0.00008569 0.00099264 0.00141477
3 0.00000000 0.04286335 0.00000000 0.03273948 0.00000000 0.01136569 0.00000000 0.00263690 0.00000000 0.01012076 0.00000000 0.00170223
1 0.00000000 0.01363575 0.00000000 0.01785162 0.00000001 0.01090387 0.00000001 0.00769986 0.00000000 0.00205134 0.00000000 0.00316635
2 0.00000000 0.01360061 0.00000000 0.02337963 0.00000000 0.01182537 0.00000000 0.00701073 0.00000000 0.00481743 0.00000000 0.00256181
4 0.00329622 0.06254777 0.00144855 0.00044002 0.00324807 0.00276461 0.00086999 0.00213997 0.00061984 0.00064446 0.00165508 0.00161108
2 0.00000000 0.03726678 0.00000001 0.01892352 0.00000000 0.01415725 0.00000000 0.00189161 0.00000000 0.00437117 0.00000000 0.00396142
1 0.00000000 0.01482848 0.00000000 0.01352013 0.00000000 0.01053210 0.00000000 0.00806247 0.00000000 0.00082699 0.00000000 0.00277489
0 0.04825389 0.10428036 0.01734578 0.03568684 0.00290104 0.01518957 0.00489886 0.00811142 0.00357735 0.00494329 0.00309468 0.00282199
4 0.00331282 0.05716739 0.00536548 0.00575261 0.00490227 0.00313989 0.00126969 0.00096897 0.00170346 0.00074915 0.00086724 0.00143978
0 0.02943747 0.11114872 0.01523039 0.03732853 0.00278061 0.01890296 0.00039316 0.00996944 0.00084805 0.00734602 0.00118799 0.00450341
4 0.00000000 0.01391814 0.00000000 0.01968439 0.00000000 0.01117016 0.00000000 0.00729503 0.00000000 0.00268043 0.00000000 0.00305942
1 0.00000000 0.03300284 0.00000000 0.03120933 0.00000000 0.01350598 0.00000000 0.00596357 0.00000000 0.00796988 0.00000000 0.00092618
5 0.16707245 0.21710031 0.16532043 0.07224129 0.01646531 0.02633207 0.04646443 0.02053210 0.04777248 0.01036572 0.02670966 0.00453274
3 0.02568940 0.04502016 0.02008424 0.00271949 0.00980606 0.00440433 0.00791381 0.00263970 0.00353477 0.00365715 0.00631017 0.00149855
5 0.00000000 0.04318140 0.00000000 0.03402518 0.00000000 0.01085217 0.00000000 0.00250720 0.00000000 0.00995060 0.00000000 0.00221846
0 0.00000000 0.01575846 0.00000000 0.00934035 0.00000000 0.01092912 0.00000000 0.00721176 0.00000000 0.00213301 0.00000000 0.00221838
5 0.00000000 0.04102147 0.00000000 0.02772656 0.00000000 0.01402416 0.00000000 0.00441285 0.00000000 0.00932793 0.00000000 0.00030152
5 0.00000000 0.03277733 0.00000000 0.03121378 0.00000000 0.01322874 0.00000000 0.00594458 0.00000000 0.00774274 0.00000000 0.00094172
1 0.00000000 0.02914911 0.00000000 0.01051832 0.00000000 0.01405651 0.00000000 0.00320144 0.00000000 0.00233456 0.00000000 0.00381177
3 0.00000000 0.01301181 0.00000000 0.02393643 0.00000000 0.01185746 0.00000000 0.00699997 0.00000000 0.00535486 0.00000000 0.00272993
5 0.00000000 0.01415332 0.00000000 0.02022110 0.00000000 0.01132415 0.00000000 0.00712677 0.00000000 0.00295696 0.00000000 0.00283463
6 0.02422003 0.05560653 0.01709309 0.02827838 0.00700521 0.01022968 0.00475995 0.00938720 0.00406723 0.00559912 0.00319977 0.00286899
6 0.00466356 0.06378430 0.01980250 0.02213016 0.00776454 0.01164219 0.00485737 0.00993704 0.00101602 0.00654816 0.00084429 0.00571490
3 0.02893683 0.05561705 0.03389718 0.00835940 0.01223494 0.00420920 0.00708064 0.00560639 0.00482127 0.00180202 0.00255045 0.00290335
1 0.00000000 0.01558287 0.00000000 0.00911006 0.00000000 0.01083792 0.00000000 0.00641776 0.00000000 0.00278312 0.00000000 0.00207165
3 0.00000000 0.01292493 0.00000000 0.02338948 0.00000000 0.01169701 0.00000000 0.00695843 0.00000000 0.00512917 0.00000000 0.00273871
1 0.02833206 0.06307914 0.01795903 0.02747043 0.00404228 0.01404919 0.00179620 0.00762770 0.00137128 0.00470640 0.00074699 0.00366717
2 0.00000000 0.04057295 0.00000000 0.02734280 0.00000000 0.01435590 0.00000000 0.00448482 0.00000000 0.00916099 0.00000000 0.00037139
1 0.00000000 0.01532566 0.00000000 0.01101174 0.00000000 0.01069780 0.00000000 0.00768103 0.00000000 0.00162844 0.00000000 0.00231598
0 0.02366402 0.10496458 0.00782452 0.03353784 0.00097243 0.01564232 0.00211037 0.01182560 0.00252316 0.00700173 0.00290965 0.00440890
4 0.00000000 0.01360061 0.00000000 0.02337963 0.00000000 0.01182537 0.00000000 0.00701073 0.00000000 0.00481743 0.00000000 0.00256181
0 0.03237462 0.09763604 0.00767566 0.03034859 0.00723163 0.01496303 0.00414931 0.00630851 0.00353466 0.00440784 0.00257978 0.00414132
0 0.00000000 0.04291280 0.00000000 0.03485103 0.00000000 0.01051296 0.00000000 0.00195054 0.00000000 0.00992296 0.00000000 0.00221280
0 0.00000000 0.03765418 0.00000000 0.01854586 0.00000000 0.01443102 0.00000000 0.00188426 0.00000000 0.00389417 0.00000000 0.00403497
0 0.00000000 0.02364117 0.00000000 0.00750868 0.00000000 0.01320289 0.00000000 0.00473382 0.00000000 0.00238554 0.00000000 0.00323748
4 0.00003430 0.04098840 0.00003429 0.02831229 0.00003429 0.01374256 0.00003430 0.00415926 0.00003430 0.00951080 0.00003430 0.00019525
4 0.01228514 0.04570973 0.01482255 0.00684593 0.00680356 0.00278244 0.00441999 0.00265899 0.00122900 0.00235546 0.00048026 0.00156646
1 0.00000000 0.04225221 0.00000000 0.04090412 0.00000000 0.01483354 0.00000000 0.01181136 0.00000000 0.00484085 0.00000000 0.00262516
0 0.00000000 0.01738235 0.00000000 0.00794851 0.00000000 0.01151776 0.00000000 0.00622527 0.00000000 0.00244447 0.00000000 0.00248933
1 0.00000000 0.01522522 0.00000000 0.01197557 0.00000000 0.01056340 0.00000000 0.00799819 0.00000000 0.00165416 0.00000000 0.00258896
1 0.00000001 0.01920023 0.00000000 0.00761469 0.00000000 0.01198223 0.00000000 0.00578381 0.00000000 0.00242653 0.00000000 0.00269460
6 0.00000000 0.01402251 0.00000000 0.01612792 0.00000000 0.01062397 0.00000000 0.00811415 0.00000000 0.00081697 0.00000000 0.00310909
0 0.00000000 0.04286746 0.00000000 0.03267103 0.00000000 0.01129394 0.00000000 0.00268111 0.00000000 0.01004326 0.00000000 0.00174896
3 0.00591970 0.05014412 0.01828783 0.00960964 0.01071891 0.00392209 0.00481361 0.00542377 0.00452415 0.00217518 0.00261275 0.00179045
6 0.00000000 0.00000000 0.00000000 0.04019333 0.00000000 0.00000000 0.00000000 0.01254593 0.00000000 0.00000000 0.00000000 0.00612088
2 0.02632010 0.08507241 0.00211677 0.03327728 0.00169750 0.01367573 0.00085183 0.00825010 0.00247765 0.00590765 0.00079227 0.00377285
0 0.00000000 0.04374581 0.00000000 0.03685847 0.00000000 0.00999804 0.00000000 0.00241441 0.00000000 0.00969031 0.00000000 0.00259058
2 0.00000000 0.02267498 0.00000000 0.00740920 0.00000000 0.01310529 0.00000000 0.00497582 0.00000000 0.00244470 0.00000000 0.00293279
0 0.00000000 0.02953601 0.00000000 0.03651888 0.00000000 0.01180995 0.00000000 0.00882558 0.00000000 0.00683341 0.00000000 0.00253222
0 0.00000000 0.03260060 0.00000000 0.01269078 0.00000001 0.01447622 0.00000000 0.00220265 0.00000000 0.00253685 0.00000000 0.00413578
4 0.00000000 0.02969320 0.00000000 0.01052924 0.00000000 0.01421173 0.00000000 0.00271617 0.00000000 0.00205123 0.00000000 0.00393319
3 0.06167603 0.16141394 0.03185709 0.06556267 0.03207207 0.04546399 0.00906444 0.01645941 0.00417927 0.00222503 0.01791888 0.01114422
5 0.16707945 0.25400195 0.14913781 0.08266938 0.00892951 0.03624144 0.03216059 0.03357831 0.05266039 0.01769560 0.02796459 0.01118830
5 0.13918938 0.02257141 0.01624195 0.04579943 0.07846093 0.01545823 0.02626059 0.00436179 0.00935188 0.01427506 0.00782890 0.00641238
6 0.00000000 0.04016114 0.00000000 0.02652741 0.00000000 0.01485762 0.00000000 0.00467064 0.00000000 0.00881746 0.00000000 0.00072744
3 0.01870945 0.03770898 0.02045070 0.00331210 0.00763632 0.00594106 0.00393156 0.00522052 0.00517120 0.00415145 0.00210160 0.00233853
1 0.00000000 0.03070214 0.00000000 0.01153456 0.00000000 0.01426822 0.00000000 0.00269037 0.00000000 0.00224955 0.00000000 0.00385930
4 0.00000001 0.01897548 0.00000000 0.00765743 0.00000000 0.01198933 0.00000000 0.00593080 0.00000000 0.00243261 0.00000000 0.00250947
6 0.00000000 0.00854716 0.00000000 0.03026507 0.00000000 0.01005681 0.00000000 0.00768860 0.00000000 0.00718784 0.00000000 0.00506208
1 0.00000000 0.01384189 0.00000000 0.01892711 0.00000000 0.01121742 0.00000000 0.00733618 0.00000000 0.00256869 0.00000000 0.00288492
2 0.02495639 0.06888766 0.00621114 0.02256994 0.00226479 0.00758905 0.00220937 0.00580721 0.00357474 0.00269124 0.00152682 0.00273610
4 0.00000000 0.02662543 0.00000001 0.00861105 0.00000000 0.01370931 0.00000000 0.00383693 0.00000000 0.00229066 0.00000000 0.00353821
5 0.00000000 0.01496087 0.00000000 0.01274458 0.00000000 0.01078754 0.00000000 0.00812680 0.00000000 0.00088234 0.00000000 0.00268769
3 0.10539893 0.12280012 0.09185676 0.06906264 0.05609409 0.02201565 0.04290209 0.01882832 0.01530647 0.01520095 0.00926550 0.00289798
4 0.00172969 0.06647351 0.00156965 0.00639104 0.00355474 0.00576915 0.00239368 0.00309513 0.00122957 0.00211299 0.00089914 0.00153118
3 0.00000000 0.04349890 0.00000000 0.03527032 0.00000000 0.01058092 0.00000000 0.00215427 0.00000000 0.00994210 0.00000000 0.00250845
4 0.00000000 0.02603431 0.00000000 0.00846026 0.00000000 0.01380096 0.00000000 0.00417560 0.00000000 0.00219314 0.00000000 0.00329084
2 0.00000000 0.04199102 0.00000000 0.03036160 0.00000000 0.01264740 0.00000000 0.00382106 0.00000000 0.00975587 0.00000001 0.00088197
6 0.00000000 0.03842494 0.00000000 0.02016900 0.00000000 0.01447291 0.00000000 0.00224260 0.00000000 0.00446237 0.00000000 0.00361230
2 0.04679863 0.08902000 0.01013983 0.02907497 0.00357946 0.01528063 0.00320123 0.00965437 0.00151510 0.00610604 0.00267493 0.00204394
6 0.00000000 0.04393030 0.00000000 0.04024867 0.00000000 0.01067390 0.00000000 0.00666609 0.00000000 0.00678701 0.00000000 0.00192952
0 0.00000000 0.03003051 0.00000000 0.03644510 0.00000000 0.01201216 0.00000000 0.00876584 0.00000000 0.00699765 0.00000000 0.00252097
5 0.00000000 0.01043177 0.00000000 0.02910736 0.00000001 0.01149317 0.00000000 0.00819939 0.00000000 0.00728979 0.00000001 0.00481680
6 0.00000000 0.01148887 0.00000000 0.02788536 0.00000000 0.01223829 0.00000000 0.00804450 0.00000000 0.00723440 0.00000000 0.00452838
1 0.00000000 0.04390045 0.00000000 0.03858578 0.00000000 0.00961585 0.00000000 0.00364796 0.00000000 0.00895047 0.00000000 0.00266906
2 0.00000000 0.03581857 0.00000000 0.03291045 0.00000000 0.01558123 0.00000000 0.00815388 0.00000000 0.00964069 0.00000000 0.00360616
5 0.00000000 0.02703194 0.00000000 0.03690170 0.00000000 0.01110304 0.00000000 0.00925004 0.00000000 0.00653225 0.00000000 0.00294369
4 0.00000000 0.00470531 0.00000000 0.03412978 0.00000000 0.00641628 0.00000000 0.00757098 0.00000000 0.00577286 0.00000000 0.00397714
4 0.00000000 0.02703194 0.00000000 0.03690170 0.00000000 0.01110304 0.00000000 0.00925004 0.00000000 0.00653225 0.00000000 0.00294369
1 0.27144861 0.52449125 0.05796915 0.06551077 0.04925089 0.03331571 0.05046641 0.01860038 0.01031244 0.00700411 0.01451931 0.00628519
1 0.01472124 0.06537957 0.00657093 0.02133648 0.00162519 0.00571587 0.00223878 0.00351900 0.00269940 0.00399375 0.00255550 0.00252626
3 0.02061113 0.06539273 0.02853494 0.00498394 0.01400270 0.00377941 0.00596392 0.00132989 0.00375137 0.00113460 0.00238901 0.00205269
5 0.00000000 0.02847847 0.00000000 0.03647303 0.00000000 0.01149954 0.00000000 0.00894218 0.00000000 0.00669322 0.00000000 0.00273413
6 0.00000000 0.00884716 0.00000000 0.03037606 0.00000000 0.01029151 0.00000000 0.00803078 0.00000000 0.00717661 0.00000000 0.00506030
4 0.00000000 0.01494985 0.00000000 0.01402552 0.00000000 0.01066172 0.00000000 0.00803501 0.00000000 0.00052895 0.00000000 0.00279246
1 0.00000000 0.01338210 0.00000000 0.02131883 0.00000000 0.01136235 0.00000000 0.00710211 0.00000000 0.00369222 0.00000000 0.00267926
6 0.01814886 0.07108051 0.01299234 0.02328129 0.00742136 0.01216187 0.00449112 0.00608926 0.00140606 0.00605680 0.00142229 0.00518960
6 0.00000000 0.03252927 0.00000000 0.01291346 0.00000000 0.01439049 0.00000000 0.00196843 0.00000000 0.00219313 0.00000000 0.00421522
2 0.00557014 0.07308981 0.00978108 0.01681896 0.00300936 0.01113393 0.00050019 0.00559427 0.00068923 0.00476082 0.00149071 0.00238786
4 0.00194293 0.06181940 0.00741467 0.00238208 0.00141272 0.00352116 0.00222337 0.00178360 0.00140247 0.00161680 0.00087891 0.00089923
2 0.00000000 0.04344058 0.00000000 0.04111877 0.00000000 0.01232065 0.00000000 0.00906817 0.00000000 0.00501142 0.00000000 0.00102216
0 0.00000000 0.04227433 0.00000000 0.04039962 0.00000000 0.01517929 0.00000000 0.01185756 0.00000000 0.00518947 0.00000000 0.00302397
2 0.00013603 0.01489634 0.00013377 0.01348036 0.00013065 0.01057099 0.00012672 0.00803555 0.00012200 0.00074906 0.00011654 0.00277339
3 0.00000000 0.01599369 0.00000000 0.00927712 0.00000000 0.01097813 0.00000000 0.00659105 0.00000000 0.00260646 0.00000000 0.00202640
2 0.00000000 0.01526983 0.00000000 0.00895693 0.00000000 0.01106102 0.00000000 0.00673957 0.00000000 0.00242803 0.00000000 0.00230772
1 0.00000000 0.01960170 0.00000000 0.00743804 0.00000000 0.01220203 0.00000000 0.00573621 0.00000000 0.00258134 0.00000000 0.00260448
6 0.00000000 0.01550002 0.00000000 0.00951996 0.00000000 0.01081702 0.00000000 0.00738906 0.00000000 0.00222608 0.00000000 0.00220720
3 0.00000000 0.04358667 0.00000000 0.03499892 0.00000000 0.01054638 0.00000000 0.00191700 0.00000000 0.00992541 0.00000000 0.00239518
4 0.00000000 0.01492079 0.00000000 0.01392879 0.00000000 0.01054144 0.00000000 0.00788612 0.00000000 0.00071632 0.00000000 0.00282931
2 0.00000000 0.01359716 0.00000000 0.01960962 0.00000000 0.01134084 0.00000000 0.00732569 0.00000000 0.00313995 0.00000000 0.00301955
0 0.00000000 0.03727307 0.00000000 0.01847850 0.00000000 0.01441230 0.00000000 0.00195736 0.00000000 0.00381495 0.00000000 0.00394904
2 0.00000000 0.04158529 0.00000000 0.03952850 0.00000000 0.01629752 0.00000000 0.01257437 0.00000000 0.00614903 0.00000000 0.00387745
1 0.00000000 0.03907994 0.00000000 0.03645211 0.00000000 0.01674475 0.00000000 0.01128612 0.00000000 0.00921604 0.00000000 0.00506731
2 0.01148275 0.07301227 0.00853490 0.02093130 0.00151438 0.00949112 0.00209793 0.00555963 0.00241597 0.00283152 0.00058117 0.00442142
4 0.00000000 0.01342701 0.00000000 0.02205421 0.00000000 0.01152981 0.00000000 0.00705421 0.00000000 0.00416865 0.00000000 0.00266008
0 0.00000000 0.03609791 0.00000000 0.01668647 0.00000000 0.01458114 0.00000000 0.00163204 0.00000000 0.00328412 0.00000000 0.00429217
4 0.00000000 0.01449805 0.00000000 0.01609037 0.00000000 0.01081666 0.00000000 0.00810986 0.00000000 0.00083953 0.00000000 0.00304831
4 0.00000000 0.01577218 0.00000000 0.01022291 0.00000000 0.01076322 0.00000000 0.00744051 0.00000000 0.00235355 0.00000000 0.00226539
1 0.01367689 0.05146549 0.01164497 0.01776079 0.00611867 0.01124674 0.00466025 0.00738818 0.00171534 0.00407125 0.00306512 0.00215466
5 0.25145063 0.08349627 0.08408462 0.08407851 0.01036082 0.03164199 0.01865208 0.01911513 0.00898851 0.00921734 0.00277618 0.01963156
6 0.02043780 0.06662349 0.00238587 0.02574066 0.00773777 0.01387830 0.00292935 0.01009724 0.00377898 0.00492333 0.00291437 0.00276345
4 0.00000001 0.01084423 0.00000000 0.02852577 0.00000000 0.01172153 0.00000000 0.00806582 0.00000000 0.00724117 0.00000000 0.00475476
1 0.00000000 0.03599155 0.00000000 0.01641861 0.00000000 0.01465601 0.00000000 0.00171075 0.00000000 0.00319665 0.00000000 0.00424714
3 0.00000000 0.03175751 0.00000000 0.01262838 0.00000000 0.01432582 0.00000000 0.00238073 0.00000000 0.00266457 0.00000000 0.00400876
3 0.01174731 0.05561769 0.02897191 0.00400099 0.01145322 0.00894415 0.00580779 0.00464028 0.00290008 0.00266748 0.00417370 0.00346591
2 0.00000001 0.04121583 0.00000000 0.03927339 0.00000000 0.01603562 0.00000000 0.01242761 0.00000000 0.00661183 0.00000000 0.00400377
2 0.02114627 0.07832019 0.00673083 0.01833534 0.00284040 0.01109241 0.00162284 0.00771258 0.00082783 0.00343606 0.00150591 0.00373700
0 0.00000000 0.03379006 0.00000000 0.03161213 0.00000000 0.01407692 0.00000000 0.00625894 0.00000000 0.00860611 0.00000000 0.00153272
5 0.00000000 0.01398292 0.00000000 0.01661914 0.00000000 0.01086880 0.00000000 0.00805572 0.00000000 0.00131392 0.00000000 0.00321578
3 0.00000000 0.01466842 0.00000000 0.01589371 0.00000000 0.01087149 0.00000000 0.00806725 0.00000000 0.00085453 0.00000000 0.00304013
2 0.00000000 0.04295673 0.00000000 0.03453481 0.00000000 0.01056346 0.00000000 0.00191365 0.00000000 0.01000322 0.00000000 0.00219787
3 0.00765153 0.01476701 0.02874662 0.02157799 0.01777468 0.00963456 0.01092406 0.00244352 0.00365870 0.00302010 0.00222931 0.00272968
3 0.02588436 0.00776772 0.03657195 0.02300371 0.01917104 0.01145108 0.00688811 0.00206691 0.00251273 0.00360457 0.00208120 0.00191588
1 0.00000000 0.02234769 0.00000000 0.00741595 0.00000000 0.01288739 0.00000000 0.00498110 0.00000000 0.00234794 0.00000000 0.00294650
1 0.00000000 0.03009538 0.00000000 0.03601724 0.00000000 0.01218099 0.00000000 0.00875799 0.00000000 0.00685873 0.00000000 0.00240843
6 0.00000000 0.01216883 0.00000000 0.02732693 0.00000000 0.01274193 0.00000000 0.00802447 0.00000000 0.00718184 0.00000000 0.00427806
1 0.00000000 0.04040037 0.00000000 0.02467860 0.00000000 0.01378367 0.00000000 0.00262418 0.00000000 0.00685028 0.00000000 0.00270313
2 0.00000001 0.04133482 0.00000000 0.03946666 0.00000000 0.01586267 0.00000000 0.01236715 0.00000000 0.00646943 0.00000000 0.00397708
0 0.00000000 0.02930785 0.00000000 0.03644523 0.00000000 0.01179609 0.00000000 0.00883301 0.00000000 0.00683973 0.00000000 0.00260797
5 0.00000000 0.04252393 0.00000000 0.03225099 0.00000000 0.01145270 0.00000000 0.00292387 0.00000000 0.00990311 0.00000000 0.00167304
3 0.00000000 0.04377760 0.00000000 0.03630242 0.00000000 0.00996141 0.00000000 0.00199921 0.00000000 0.00990262 0.00000000 0.00290975
4 0.00000000 0.01101583 0.00000000 0.02816796 0.00000000 0.01205036 0.00000000 0.00796818 0.00000000 0.00735020 0.00000000 0.00459172
2 0.03261649 0.08666157 0.00434481 0.03630790 0.00397088 0.01080122 0.00111273 0.01074678 0.00169047 0.00570457 0.00260821 0.00350522
4 0.00000000 0.02940265 0.00000000 0.01089985 0.00000000 0.01395269 0.00000000 0.00305703 0.00000000 0.00228262 0.00000000 0.00385654
3 0.00000000 0.01060383 0.00000000 0.02894050 0.00000001 0.01154009 0.00000000 0.00809298 0.00000001 0.00722640 0.00000001 0.00477725
3 0.00000000 0.04390045 0.00000000 0.03858578 0.00000000 0.00961585 0.00000000 0.00364796 0.00000000 0.00895047 0.00000000 0.00266906
6 0.00000000 0.01498356 0.00000000 0.01271573 0.00000000 0.01075248 0.00000000 0.00806913 0.00000000 0.00088714 0.00000000 0.00265157
4 0.00000000 0.01494985 0.00000000 0.01402552 0.00000000 0.01066172 0.00000000 0.00803501 0.00000000 0.00052895 0.00000000 0.00279246
3 0.01564807 0.02582767 0.02212281 0.00237540 0.00553502 0.00101009 0.00880091 0.00120653 0.00077054 0.00336705 0.00569333 0.00238089
0 0.02288144 0.10644504 0.00661625 0.03121547 0.00464665 0.01798156 0.00374091 0.01252551 0.00286028 0.00802973 0.00209494 0.00571905
5 0.10676032 0.03816836 0.02595970 0.03865431 0.07635051 0.01927944 0.01844187 0.01506626 0.02586540 0.02104153 0.01656071 0.00715927
4 0.00662310 0.10401557 0.00267444 0.02264622 0.00281296 0.00772978 0.00229032 0.00448311 0.00111824 0.00102521 0.00068495 0.00118515
0 0.00000000 0.00000000 0.00000000 0.04019333 0.00000000 0.00000000 0.00000000 0.01254593 0.00000000 0.00000000 0.00000000 0.00612088
2 0.00000000 0.04262801 0.00000000 0.03267458 0.00000000 0.01131780 0.00000000 0.00265661 0.00000000 0.01007138 0.00000000 0.00181150
3 0.00000000 0.01499514 0.00000000 0.01192084 0.00000000 0.01054696 0.00000000 0.00794988 0.00000000 0.00172491 0.00000000 0.00256197
4 0.02502036 0.05108551 0.02111939 0.00892298 0.00783089 0.00385075 0.00402237 0.00306026 0.00096225 0.00294071 0.00026307 0.00100890
2 0.01439976 0.08091806 0.00290446 0.02604176 0.00259691 0.01018771 0.00197951 0.00741147 0.00179148 0.00514000 0.00030496 0.00379804
3 0.00000000 0.02781335 0.00000000 0.00924974 0.00000000 0.01400506 0.00000000 0.00346051 0.00000000 0.00211830 0.00000000 0.00349419
2 0.00000000 0.02461544 0.00000000 0.00791095 0.00000000 0.01315629 0.00000000 0.00425857 0.00000000 0.00236716 0.00000000 0.00318776
3 0.01678941 0.05600182 0.03209585 0.00584981 0.01771827 0.00515921 0.00701917 0.00414879 0.00653932 0.00102965 0.00427969 0.00374461
5 0.00000000 0.04184240 0.00000000 0.03030376 0.00000000 0.01272469 0.00000000 0.00346112 0.00000000 0.00978179 0.00000000 0.00070141
1 0.00000000 0.00000000 0.00000000 0.04019333 0.00000000 0.00000000 0.00000000 0.01254593 0.00000000 0.00000000 0.00000000 0.00612088
0 0.00000000 0.03088543 0.00000000 0.01193041 0.00000000 0.01416028 0.00000000 0.00253045 0.00000000 0.00231869 0.00000000 0.00408138
5 0.19480331 0.06658754 0.00943573 0.03341068 0.08532809 0.03785545 0.01583637 0.01135933 0.01941860 0.01357669 0.01483702 0.01403832
3 0.00000000 0.04146877 0.00000000 0.02927703 0.00000000 0.01315762 0.00000000 0.00390116 0.00000000 0.00966322 0.00000000 0.00045859
3 0.00000000 0.02805259 0.00000000 0.03654821 0.00000000 0.01141081 0.00000000 0.00894038 0.00000000 0.00660326 0.00000000 0.00256741
0 0.00000000 0.04365733 0.00000000 0.04082543 0.00000000 0.01150463 0.00000000 0.00800002 0.00000000 0.00582332 0.00000000 0.00125193
6 0.00000000 0.02703194 0.00000000 0.03690170 0.00000000 0.01110304 0.00000000 0.00925004 0.00000000 0.00653225 0.00000000 0.00294369
2 0.00000000 0.04080012 0.00000000 0.02526807 0.00000000 0.01367193 0.00000000 0.00292283 0.00000000 0.00704196 0.00000000 0.00235709
1 0.00000000 0.01594456 0.00000000 0.00910151 0.00000000 0.01108109 0.00000000 0.00654406 0.00000000 0.00278374 0.00000000 0.00194629
4 0.00000000 0.01396738 0.00000000 0.01881825 0.00000000 0.01101019 0.00000000 0.00748585 0.00000000 0.00212876 0.00000000 0.00313136
5 0.00000000 0.03902896 0.00000000 0.02195311 0.00000000 0.01414764 0.00000000 0.00229406 0.00000000 0.00521685 0.00000000 0.00342917
2 0.02007591 0.09011097 0.00329522 0.02786351 0.00438710 0.01145339 0.00195334 0.00810039 0.00194816 0.00568380 0.00231277 0.00334921
0 0.04630439 0.10801227 0.02524458 0.03723669 0.00123743 0.01598904 0.00377108 0.00797249 0.00499599 0.00655908 0.00314676 0.00403408
1 0.04153570 0.06158353 0.01468875 0.02545673 0.00112982 0.01564605 0.00164962 0.00783806 0.00234979 0.00473527 0.00326053 0.00317911
1 0.00000000 0.03200694 0.00000000 0.03593593 0.00000000 0.01257723 0.00000000 0.00838695 0.00000000 0.00718520 0.00000000 0.00219227
4 0.00000000 0.01340006 0.00000000 0.02260027 0.00000000 0.01157070 0.00000000 0.00702652 0.00000000 0.00448823 0.00000000 0.00280912
5 0.00000000 0.04230614 0.00000000 0.03108883 0.00000000 0.01210620 0.00000000 0.00354354 0.00000000 0.00991507 0.00000000 0.00119005
0 0.00000000 0.00000000 0.00000000 0.04019333 0.00000000 0.00000000 0.00000000 0.01254593 0.00000000 0.00000000 0.00000000 0.00612088
0 0.02158812 0.10148700 0.00691650 0.03499528 0.00462773 0.01751107 0.00347468 0.01105031 0.00259919 0.00791100 0.00101447 0.00616002
0 0.00000000 0.01214149 0.00000000 0.02772776 0.00000000 0.01255463 0.00000000 0.00804787 0.00000000 0.00712556 0.00000000 0.00424046
3 0.00000000 0.04285674 0.00000000 0.03333538 0.00000000 0.01107903 0.00000000 0.00214943 0.00000000 0.01000839 0.00000000 0.00187609
3 0.16482641 0.16384947 0.08484805 0.08824446 0.04395855 0.01733888 0.04853955 0.01543406 0.00709230 0.01807701 0.00232265 0.00949486
4 0.00851394 0.05512799 0.00956246 0.00134735 0.00427429 0.00451990 0.00171616 0.00233292 0.00236351 0.00080710 0.00181839 0.00177167
2 0.00000000 0.03156999 0.00000000 0.03607575 0.00000000 0.01245273 0.00000000 0.00854539 0.00000000 0.00706496 0.00000000 0.00219921
2 0.00000000 0.01516126 0.00000000 0.01209587 0.00000000 0.01051527 0.00000000 0.00793140 0.00000000 0.00163114 0.00000000 0.00252688
6 0.02630285 0.08021531 0.01453324 0.02389497 0.00611202 0.01228631 0.00567068 0.00984120 0.00216907 0.00576835 0.00179104 0.00395126
5 0.00000000 0.03440957 0.00000000 0.01485355 0.00000000 0.01484397 0.00000000 0.00193295 0.00000000 0.00275442 0.00000000 0.00437250
0 0.00000001 0.01939095 0.00000000 0.00751845 0.00000000 0.01210297 0.00000000 0.00578039 0.00000000 0.00243734 0.00000000 0.00269143
2 0.00000000 0.00000000 0.00000000 0.04019333 0.00000000 0.00000000 0.00000000 0.01254593 0.00000000 0.00000000 0.00000000 0.00612088
1 0.00000000 0.01187964 0.00000000 0.02801094 0.00000000 0.01232694 0.00000000 0.00812886 0.00000000 0.00714089 0.00000000 0.00441817
3 0.00000000 0.00846759 0.00000000 0.03081181 0.00000000 0.00977390 0.00000000 0.00790330 0.00000000 0.00695697 0.00000000 0.00497791
5 0.00000000 0.01553347 0.00000000 0.01042935 0.00000000 0.01086163 0.00000000 0.00779396 0.00000000 0.00167265 0.00000000 0.00241344
4 0.00000000 0.02703194 0.00000000 0.03690170 0.00000000 0.01110304 0.00000000 0.00925004 0.00000000 0.00653225 0.00000000 0.00294369
0 0.00000000 0.03509390 0.00000000 0.01569125 0.00000000 0.01453510 0.00000000 0.00169058 0.00000000 0.00314602 0.00000000 0.00430970
3 0.11132282 0.21168667 0.07082757 0.06613334 0.02895485 0.05312271 0.00586218 0.01755130 0.01616830 0.00904300 0.01055040 0.01750591
0 0.02809456 0.09712687 0.00949680 0.03109187 0.00646420 0.01626967 0.00441485 0.00976164 0.00206281 0.00662824 0.00099317 0.00468546
4 0.00000000 0.04230641 0.00000000 0.03154348 0.00000000 0.01199000 0.00000000 0.00317952 0.00000000 0.01002606 0.00000000 0.00140687
3 0.00000000 0.03652189 0.00000000 0.01683322 0.00000000 0.01477830 0.00000000 0.00196071 0.00000000 0.00327097 0.00000000 0.00411963
4 0.00000001 0.01920023 0.00000000 0.00761469 0.00000000 0.01198223 0.00000000 0.00578381 0.00000000 0.00242653 0.00000000 0.00269460
6 0.03828236 0.06738280 0.02030465 0.02356231 0.00552275 0.01436236 0.00415809 0.00904873 0.00171642 0.00723039 0.00029841 0.00431088
5 0.00000000 0.00923916 0.00000000 0.02977429 0.00000000 0.01056819 0.00000000 0.00781284 0.00000000 0.00725476 0.00000000 0.00504699
1 0.00000000 0.01947791 0.00000000 0.00751826 0.00000000 0.01212798 0.00000000 0.00575642 0.00000000 0.00247242 0.00000000 0.00267555
0 0.00000000 0.01189210 0.00000000 0.02797699 0.00000000 0.01240629 0.00000000 0.00818575 0.00000000 0.00708117 0.00000000 0.00432436
3 0.00000000 0.03162789 0.00000000 0.03615614 0.00000000 0.01245781 0.00000000 0.00843679 0.00000000 0.00729375 0.00000000 0.00234001
0 0.00000000 0.03260060 0.00000000 0.01269078 0.00000001 0.01447622 0.00000000 0.00220265 0.00000000 0.00253685 0.00000000 0.00413578
5 0.21727821 0.10821120 0.02601605 0.13762809 0.02931001 0.02895169 0.00940957 0.00491930 0.01506830 0.01771936 0.01002166 0.00468193
5 0.00000000 0.04149419 0.00000000 0.03941252 0.00000000 0.01589093 0.00000000 0.01201243 0.00000000 0.00623030 0.00000000 0.00359253
1 0.00000000 0.01315134 0.00000000 0.02279986 0.00000000 0.01165391 0.00000000 0.00695371 0.00000000 0.00469053 0.00000000 0.00263694
6 0.00000001 0.01026381 0.00000000 0.02899712 0.00000000 0.01145168 0.00000000 0.00812598 0.00000000 0.00731801 0.00000000 0.00491475
2 0.00000000 0.02940265 0.00000000 0.01089985 0.00000000 0.01395269 0.00000000 0.00305703 0.00000000 0.00228262 0.00000000 0.00385654
5 0.00000000 0.01054163 0.00000000 0.02901272 0.00000001 0.01151645 0.00000000 0.00817595 0.00000000 0.00724185 0.00000001 0.00485969
2 0.00000000 0.04265499 0.00000000 0.04093787 0.00000000 0.01430879 0.00000000 0.01085041 0.00000000 0.00500573 0.00000000 0.00216811
2 0.00000000 0.04285895 0.00000000 0.03347959 0.00000000 0.01102492 0.00000000 0.00215395 0.00000000 0.01004243 0.00000000 0.00201321
2 0.00000000 0.03677732 0.00000000 0.01735049 0.00000000 0.01458485 0.00000000 0.00195449 0.00000000 0.00337934 0.00000000 0.00410324
2 0.01362266 0.07016586 0.00075670 0.02104061 0.00199763 0.00951021 0.00262286 0.00657180 0.00229217 0.00455159 0.00094719 0.00265580
6 0.04091166 0.05340526 0.02847651 0.02869577 0.00794584 0.01245340 0.00247076 0.00801377 0.00218368 0.00674206 0.00129303 0.00529303
3 0.00000000 0.00193868 0.00000000 0.03677633 0.00000000 0.00367964 0.00000000 0.00871307 0.00000000 0.00386615 0.00000000 0.00270409
1 0.00000001 0.02012530 0.00000000 0.00745275 0.00000000 0.01239502 0.00000000 0.00564091 0.00000000 0.00248627 0.00000000 0.00263978
6 0.02808007 0.06507056 0.01085063 0.02211519 0.00391929 0.01189576 0.00383680 0.00746382 0.00170973 0.00560121 0.00125649 0.00518737
5 0.00000000 0.02675762 0.00000001 0.00864157 0.00000000 0.01382069 0.00000000 0.00383002 0.00000000 0.00229525 0.00000000 0.00352556
1 0.00000000 0.03606173 0.00000000 0.01693091 0.00000000 0.01449546 0.00000000 0.00168196 0.00000000 0.00354594 0.00000000 0.00418658
3 0.00000000 0.03298250 0.00000000 0.01348734 0.00000000 0.01479265 0.00000000 0.00222022 0.00000000 0.00247438 0.00000000 0.00426976
0 0.01178212 0.11171036 0.01062425 0.03775861 0.00208767 0.01915367 0.00144113 0.01235491 0.00067024 0.00719277 0.00068853 0.00526995
5 0.00000000 0.04148819 0.00000000 0.02966457 0.00000000 0.01302602 0.00000000 0.00361795 0.00000000 0.00966718 0.00000000 0.00057014
0 0.00000000 0.03726678 0.00000001 0.01892352 0.00000000 0.01415725 0.00000000 0.00189161 0.00000000 0.00437117 0.00000000 0.00396142
2 0.03498238 0.08185110 0.01197280 0.03234997 0.00778272 0.01676507 0.00231680 0.01001658 0.00329209 0.00508556 0.00072590 0.00342335
6 0.00000000 0.01459161 0.00000000 0.01427363 0.00000000 0.01064856 0.00000000 0.00817508 0.00000000 0.00047721 0.00000000 0.00300282
6 0.00000000 0.04230127 0.00000000 0.03155707 0.00000000 0.01199391 0.00000000 0.00318365 0.00000000 0.01002487 0.00000000 0.00141800
6 0.01014695 0.06257144 0.01996692 0.02270491 0.00832628 0.01267388 0.00340742 0.01039651 0.00329362 0.00829684 0.00233755 0.00565944
0 0.00000000 0.03840619 0.00000000 0.02017033 0.00000000 0.01440684 0.00000000 0.00215610 0.00000000 0.00457263 0.00000000 0.00372419
5 0.00000000 0.01346072 0.00000000 0.02045795 0.00000000 0.01142235 0.00000000 0.00708146 0.00000000 0.00361290 0.00000000 0.00284108
1 0.00000000 0.04372447 0.00000000 0.03539966 0.00000000 0.01047933 0.00000000 0.00189559 0.00000000 0.01011498 0.00000000 0.00256188
2 0.00972130 0.06675898 0.00865332 0.02436814 0.00706324 0.01322806 0.00292758 0.00882932 0.00240002 0.00798837 0.00356066 0.00450264
2 0.00000000 0.02124168 0.00000000 0.00741319 0.00000000 0.01272466 0.00000000 0.00519275 0.00000000 0.00247349 0.00000000 0.00287831
1 0.00000000 0.04230127 0.00000000 0.03155707 0.00000000 0.01199391 0.00000000 0.00318365 0.00000000 0.01002487 0.00000000 0.00141800
4 0.00586761 0.05173594 0.01219280 0.00299516 0.00294690 0.00399635 0.00255955 0.00096576 0.00114597 0.00166559 0.00075451 0.00102871
3 0.00000000 0.00000000 0.00000000 0.04019333 0.00000000 0.00000000 0.00000000 0.01254593 0.00000000 0.00000000 0.00000000 0.00612088
5 0.00000000 0.00967348 0.00000000 0.02960070 0.00000000 0.01083152 0.00000000 0.00799050 0.00000000 0.00729435 0.00000000 0.00510718
4 0.00000000 0.04394589 0.00000001 0.04045452 0.00000000 0.01086604 0.00000000 0.00674249 0.00000000 0.00654821 0.00000000 0.00196163
5 0.00000000 0.00832071 0.00000000 0.03080704 0.00000000 0.00989031 0.00000000 0.00795014 0.00000000 0.00716401 0.00000000 0.00512314
5 0.00000000 0.04048575 0.00000000 0.02432986 0.00000000 0.01380381 0.00000000 0.00264833 0.00000000 0.00653393 0.00000000 0.00276393
0 0.00000000 0.01578024 0.00000000 0.00997210 0.00000000 0.01077589 0.00000000 0.00725774 0.00000000 0.00254201 0.00000000 0.00219890
2 0.00495654 0.05605854 0.00576851 0.01832063 0.00372738 0.00978332 0.00220954 0.00604106 0.00064719 0.00444760 0.00033038 0.00459366
4 0.00000000 0.03400658 0.00000000 0.01413670 0.00000000 0.01485050 0.00000000 0.00201940 0.00000000 0.00273040 0.00000000 0.00431259
2 0.00000000 0.03108136 0.00000000 0.03627936 0.00000000 0.01224287 0.00000000 0.00853967 0.00000000 0.00703920 0.00000000 0.00226132
0 0.02028983 0.10211607 0.00775391 0.03115999 0.00584534 0.01596778 0.00380642 0.01018189 0.00311726 0.00794768 0.00244505 0.00543576
4 0.00000000 0.02515502 0.00000000 0.00808609 0.00000000 0.01332374 0.00000000 0.00397888 0.00000000 0.00256050 0.00000000 0.00336340
5 0.00000000 0.04045610 0.00000000 0.03820114 0.00000000 0.01667234 0.00000000 0.01223494 0.00000000 0.00790747 0.00000000 0.00463392
1 0.00000000 0.01538225 0.00000000 0.01112265 0.00000000 0.01080010 0.00000000 0.00768488 0.00000000 0.00162831 0.00000000 0.00231313
1 0.00000000 0.04371628 0.00000000 0.03702099 0.00000000 0.00993001 0.00000000 0.00247105 0.00000000 0.00971404 0.00000000 0.00266625
3 0.00000000 0.04020826 0.00000000 0.02415742 0.00000000 0.01370315 0.00000000 0.00250102 0.00000000 0.00641788 0.00000000 0.00281675
4 0.00000000 0.04343561 0.00000000 0.04120287 0.00000000 0.01228737 0.00000000 0.00914519 0.00000000 0.00496485 0.00000000 0.00097817
0 0.03959126 0.10495313 0.00849084 0.03497579 0.00737443 0.01458632 0.00418592 0.00950921 0.00130610 0.00745472 0.00084866 0.00528304
0 0.00000000 0.04360130 0.00000000 0.04119870 0.00000000 0.01220686 0.00000000 0.00890552 0.00000000 0.00511891 0.00000000 0.00098838
5 0.00000000 0.02515502 0.00000000 0.00808609 0.00000000 0.01332374 0.00000000 0.00397888 0.00000000 0.00256050 0.00000000 0.00336340
6 0.00000000 0.04360746 0.00000000 0.04092373 0.00000000 0.01183919 0.00000000 0.00846187 0.00000000 0.00533294 0.00000000 0.00123276
6 0.00000000 0.01556244 0.00000000 0.01061490 0.00000000 0.01080278 0.00000000 0.00746284 0.00000000 0.00192371 0.00000000 0.00232000
4 0.00000000 0.04394415 0.00000000 0.03844167 0.00000000 0.00960959 0.00000000 0.00347084 0.00000000 0.00914720 0.00000000 0.00259067
2 0.01507062 0.08864325 0.00230152 0.02712555 0.00130628 0.01652569 0.00268253 0.00942580 0.00265244 0.00627770 0.00218713 0.00402754
1 0.00000000 0.00610400 0.00000000 0.03285266 0.00000000 0.00768985 0.00000000 0.00746512 0.00000000 0.00638217 0.00000000 0.00452508
5 0.00000000 0.01506122 0.00000000 0.00993739 0.00000000 0.01058881 0.00000000 0.00761868 0.00000000 0.00203088 0.00000000 0.00233331
4 0.00000000 0.03000977 0.00000000 0.03638583 0.00000000 0.01197472 0.00000000 0.00870449 0.00000000 0.00694862 0.00000000 0.00245515
2 0.00000000 0.04298119 0.00000000 0.03318605 0.00000000 0.01114037 0.00000000 0.00254175 0.00000000 0.01007404 0.00000000 0.00200581
2 0.00000000 0.01575964 0.00000000 0.00947734 0.00000000 0.01078149 0.00000000 0.00706906 0.00000000 0.00235819 0.00000000 0.00220376
2 0.00000001 0.02095014 0.00000000 0.00728665 0.00000000 0.01280347 0.00000000 0.00548710 0.00000000 0.00243233 0.00000000 0.00270260
2 0.00000000 0.02828269 0.00000000 0.03655965 0.00000000 0.01153847 0.00000000 0.00891101 0.00000000 0.00683284 0.00000000 0.00266592
4 0.00000000 0.00000000 0.00000000 0.04019333 0.00000000 0.00000000 0.00000000 0.01254593 0.00000000 0.00000000 0.00000000 0.00612088
6 0.00000000 0.01613021 0.00000000 0.00840687 0.00000000 0.01141709 0.00000000 0.00671165 0.00000000 0.00253989 0.00000000 0.00240059
4 0.00000000 0.03941233 0.00000000 0.02308336 0.00000000 0.01372720 0.00000000 0.00222876 0.00000000 0.00589441 0.00000000 0.00312075
2 0.00000000 0.00693266 0.00000000 0.03199072 0.00000000 0.00863712 0.00000000 0.00767421 0.00000000 0.00674944 0.00000000 0.00495221
0 0.00000000 0.01384339 0.00000000 0.01784523 0.00000000 0.01075856 0.00000000 0.00779952 0.00000000 0.00145149 0.00000000 0.00326347
3 0.00000000 0.00471231 0.00000000 0.03399717 0.00000000 0.00656673 0.00000000 0.00749666 0.00000000 0.00588813 0.00000000 0.00403008
5 0.00000000 0.01376006 0.00000000 0.02098671 0.00000000 0.01157484 0.00000000 0.00717949 0.00000000 0.00379514 0.00000000 0.00276083
4 0.00000001 0.04060501 0.00000000 0.02704108 0.00000001 0.01463818 0.00000000 0.00455318 0.00000000 0.00914345 0.00000000 0.00067188
4 0.00000000 0.01547156 0.00000000 0.00895763 0.00000000 0.01083790 0.00000000 0.00646127 0.00000000 0.00255733 0.00000000 0.00208716
5 0.00000000 0.01496087 0.00000000 0.01274458 0.00000000 0.01078754 0.00000000 0.00812680 0.00000000 0.00088234 0.00000000 0.00268769
4 0.00000000 0.02777546 0.00000000 0.03669698 0.00000000 0.01160223 0.00000000 0.00941967 0.00000000 0.00652354 0.00000000 0.00293056
3 0.00000000 0.02590773 0.00000000 0.00845857 0.00000000 0.01360011 0.00000000 0.00401318 0.00000000 0.00225108 0.00000000 0.00333425
4 0.00000000 0.02299067 0.00000000 0.00749684 0.00000000 0.01313847 0.00000000 0.00491772 0.00000000 0.00218222 0.00000000 0.00323071
3 0.00901595 0.05831681 0.02041577 0.00869545 0.00718412 0.00411968 0.01176204 0.00426142 0.00318354 0.00330141 0.00633491 0.00261560
4 0.00000000 0.04286955 0.00000000 0.03324185 0.00000000 0.01108723 0.00000000 0.00229175 0.00000000 0.01011297 0.00000000 0.00183714
5 0.14169075 0.06898544 0.01425896 0.06933976 0.06661575 0.01264978 0.02946202 0.01244087 0.00098869 0.00325825 0.02315786 0.00836341
6 0.00000000 0.01426746 0.00000000 0.01633924 0.00000000 0.01059343 0.00000000 0.00811477 0.00000000 0.00076158 0.00000000 0.00315698
0 0.00000000 0.02842681 0.00000000 0.03666173 0.00000000 0.01154737 0.00000000 0.00899554 0.00000000 0.00676546 0.00000000 0.00265275
4 0.01117981 0.04775111 0.00653609 0.00579840 0.00745186 0.00344453 0.00192917 0.00175186 0.00122153 0.00178929 0.00092416 0.00203100
5 0.00000000 0.02254308 0.00000000 0.00745442 0.00000000 0.01289777 0.00000000 0.00485534 0.00000000 0.00242191 0.00000000 0.00295226
5 0.17230007 0.08472728 0.08334800 0.06126643 0.06336021 0.01794736 0.02095725 0.00682607 0.02118579 0.00373443 0.01091959 0.00755657
5 0.00000000 0.04152672 0.00000000 0.03949622 0.00000000 0.01640955 0.00000000 0.01274328 0.00000000 0.00616577 0.00000000 0.00394873
0 0.00000000 0.01698002 0.00000000 0.00825604 0.00000000 0.01151398 0.00000000 0.00634712 0.00000000 0.00243454 0.00000000 0.00242120
0 0.04277800 0.09689713 0.00471574 0.03409506 0.00572273 0.01672975 0.00297278 0.00893930 0.00358025 0.00299302 0.00469423 0.00161538
1 0.05320495 0.06417399 0.00709200 0.02753810 0.00131821 0.01487256 0.00385583 0.00845356 0.00360096 0.00545995 0.00200083 0.00482268
1 0.00000000 0.03931050 0.00000000 0.03675095 0.00000000 0.01681996 0.00000000 0.01159102 0.00000000 0.00911341 0.00000000 0.00509397
6 0.77728254 0.13682677 0.05481822 0.09016204 0.02884479 0.03539012 0.02543400 0.02039326 0.00926413 0.00922399 0.01026926 0.00316385
6 0.00000000 0.02777546 0.00000000 0.03669698 0.00000000 0.01160223 0.00000000 0.00941967 0.00000000 0.00652354 0.00000000 0.00293056
1 0.00000000 0.02201398 0.00000000 0.00712024 0.00000000 0.01298088 0.00000000 0.00513946 0.00000000 0.00250339 0.00000000 0.00294002
4 0.00238724 0.03735393 0.00547999 0.00353366 0.00478530 0.00191322 0.00317293 0.00135102 0.00122134 0.00144734 0.00164284 0.00078691
6 0.00000000 0.01096209 0.00000000 0.02823068 0.00000000 0.01203390 0.00000000 0.00804010 0.00000000 0.00737014 0.00000000 0.00466022
6 0.00000000 0.01342701 0.00000000 0.02205421 0.00000000 0.01152981 0.00000000 0.00705421 0.00000000 0.00416865 0.00000000 0.00266008
2 0.00000000 0.04355172 0.00000000 0.04110957 0.00000000 0.01221778 0.00000000 0.00887547 0.00000000 0.00508947 0.00000000 0.00098549
5 0.20010918 0.10797873 0.02334944 0.05494029 0.09329724 0.02457551 0.03707764 0.00909887 0.01346511 0.00245850 0.02388122 0.00387743
2 0.00000000 0.01341170 0.00000000 0.02002910 0.00000000 0.01131468 0.00000000 0.00725356 0.00000000 0.00327143 0.00000000 0.00288237
5 0.00001976 0.04370828 0.00001976 0.04088762 0.00001976 0.01167367 0.00001976 0.00823674 0.00001976 0.00559085 0.00001976 0.00122623
2 0.02703915 0.08395916 0.00942707 0.03241938 0.00511553 0.01530816 0.00222020 0.00803983 0.00187854 0.00693084 0.00136987 0.00518956
1 0.00000000 0.04020826 0.00000000 0.02415742 0.00000000 0.01370315 0.00000000 0.00250102 0.00000000 0.00641788 0.00000000 0.00281675
3 0.00000000 0.03088543 0.00000000 0.01193041 0.00000000 0.01416028 0.00000000 0.00253045 0.00000000 0.00231869 0.00000000 0.00408138
3 0.00819775 0.04002750 0.02377414 0.00651214 0.01284130 0.00492741 0.00876752 0.00586785 0.00261638 0.00315014 0.00512518 0.00265360
0 0.00854555 0.10742924 0.00546730 0.03615602 0.00495855 0.01996509 0.00155694 0.01227608 0.00136366 0.00822014 0.00094710 0.00530377
2 0.03276607 0.09355536 0.00969081 0.03388041 0.00539352 0.01512746 0.00451876 0.01068241 0.00088688 0.00781067 0.00162882 0.00512044
0 0.00000000 0.03767694 0.00000000 0.01847063 0.00000000 0.01435483 0.00000000 0.00189420 0.00000000 0.00387846 0.00000000 0.00396905
2 0.00000000 0.02675762 0.00000001 0.00864157 0.00000000 0.01382069 0.00000000 0.00383002 0.00000000 0.00229525 0.00000000 0.00352556
4 0.00503425 0.07259943 0.00888147 0.00300048 0.00292200 0.00517465 0.00113713 0.00135655 0.00142866 0.00159280 0.00107846 0.00071854
3 0.04728533 0.07066933 0.03476301 0.01228429 0.01045564 0.00365761 0.00418147 0.00342667 0.00294269 0.00069011 0.00245826 0.00106063
1 0.00000000 0.02158988 0.00000000 0.00724727 0.00000000 0.01275748 0.00000000 0.00515209 0.00000000 0.00247649 0.00000000 0.00285976
0 0.00000001 0.02037597 0.00000000 0.00736245 0.00000000 0.01263594 0.00000000 0.00570374 0.00000000 0.00238576 0.00000000 0.00264266
6 0.00000000 0.01384189 0.00000000 0.01892711 0.00000000 0.01121742 0.00000000 0.00733618 0.00000000 0.00256869 0.00000000 0.00288492
6 0.00000000 0.04393160 0.00000000 0.03924628 0.00000000 0.00972072 0.00000000 0.00445689 0.00000000 0.00840596 0.00000000 0.00244251
2 0.00000000 0.01523467 0.00000000 0.01174427 0.00000000 0.01075900 0.00000000 0.00810855 0.00000000 0.00140436 0.00000000 0.00252385
6 0.00000000 0.04101172 0.00000000 0.02834488 0.00000000 0.01376578 0.00000000 0.00421537 0.00000000 0.00943273 0.00000000 0.00028185
2 0.02260112 0.08624847 0.00539377 0.02620398 0.00165651 0.01323208 0.00077818 0.01048422 0.00129228 0.00635582 0.00024191 0.00481142
2 0.00000000 0.04311735 0.00000000 0.04107318 0.00000000 0.01356854 0.00000000 0.01035953 0.00000000 0.00434949 0.00000000 0.00125502
1 0.00000000 0.00000000 0.00000000 0.04019333 0.00000000 0.00000000 0.00000000 0.01254593 0.00000000 0.00000000 0.00000000 0.00612088
5 0.18326889 0.07739820 0.02982781 0.12859468 0.04921209 0.02413045 0.00511666 0.01039578 0.00761617 0.02397995 0.00748784 0.00733738
1 0.00000000 0.03126936 0.00000000 0.01179467 0.00000000 0.01437671 0.00000000 0.00232405 0.00000000 0.00201952 0.00000000 0.00403037
2 0.00000000 0.03748771 0.00000000 0.01835673 0.00000000 0.01431319 0.00000000 0.00177782 0.00000000 0.00390631 0.00000000 0.00396803
3 0.00000000 0.04006588 0.00000000 0.02367104 0.00000000 0.01366265 0.00000000 0.00267657 0.00000000 0.00626661 0.00000000 0.00297121
2 0.01031044 0.07625826 0.00640671 0.02107778 0.00521381 0.00687429 0.00104839 0.00782830 0.00197932 0.00588090 0.00138131 0.00237034
3 0.00000000 0.01485495 0.00000000 0.01414370 0.00000000 0.01054180 0.00000000 0.00786441 0.00000000 0.00074223 0.00000000 0.00279443
2 0.02780457 0.08428983 0.00233148 0.03398397 0.00215235 0.01388707 0.00036374 0.00797859 0.00314566 0.00582124 0.00221657 0.00427080
4 0.00000000 0.01453767 0.00000000 0.01604777 0.00000000 0.01085186 0.00000000 0.00812703 0.00000000 0.00087541 0.00000000 0.00307756
5 0.00000000 0.02859485 0.00000000 0.03653103 0.00000000 0.01155048 0.00000000 0.00889108 0.00000000 0.00674138 0.00000001 0.00265886
5 0.00000000 0.03536676 0.00000000 0.01577392 0.00000000 0.01461971 0.00000000 0.00171755 0.00000000 0.00283959 0.00000000 0.00429724
3 0.00000000 0.00000000 0.00000000 0.04019333 0.00000000 0.00000000 0.00000000 0.01254593 0.00000000 0.00000000 0.00000000 0.00612088
3 0.02206703 0.05797631 0.02593125 0.00652281 0.01313472 0.01052915 0.00573334 0.00310893 0.00348895 0.00157308 0.00064326 0.00129385
4 0.00000000 0.04300193 0.00000000 0.03387267 0.00000000 0.01091905 0.00000000 0.00191031 0.00000000 0.01025895 0.00000000 0.00197945
0 0.00000000 0.01042176 0.00000000 0.02911714 0.00000001 0.01148302 0.00000000 0.00820137 0.00000000 0.00727940 0.00000001 0.00481451
0 0.01844735 0.10969829 0.01136683 0.03314415 0.00443330 0.02004942 0.00111543 0.01177261 0.00176313 0.00676016 0.00171545 0.00404497
5 0.00000000 0.03899338 0.00000000 0.02223056 0.00000000 0.01397764 0.00000000 0.00193719 0.00000000 0.00557766 0.00000001 0.00335821
0 0.00000000 0.01558710 0.00000000 0.01039062 0.00000000 0.01083928 0.00000000 0.00775977 0.00000000 0.00163498 0.00000000 0.00245765
3 0.00000000 0.03777082 0.00000000 0.01962465 0.00000000 0.01431623 0.00000000 0.00208106 0.00000000 0.00432327 0.00000000 0.00393368
0 0.00000000 0.01375803 0.00000000 0.01950129 0.00000000 0.01142913 0.00000000 0.00738076 0.00000000 0.00315508 0.00000000 0.00297524
4 0.00000000 0.01590040 0.00000000 0.00921120 0.00000000 0.01111746 0.00000000 0.00696485 0.00000000 0.00215776 0.00000000 0.00198164
6 0.00000000 0.00000000 0.00000000 0.04019333 0.00000000 0.00000000 0.00000000 0.01254593 0.00000000 0.00000000 0.00000000 0.00612088
2 0.00000000 0.04397207 0.00000000 0.03798047 0.00000000 0.00972073 0.00000000 0.00328738 0.00000000 0.00903760 0.00000000 0.00263961
5 0.00000000 0.03137125 0.00000000 0.01226435 0.00000000 0.01442055 0.00000000 0.00268371 0.00000000 0.00244094 0.00000000 0.00377244
0 0.00000000 0.04392315 0.00000000 0.04014096 0.00000000 0.01037414 0.00000000 0.00613330 0.00000000 0.00731239 0.00000000 0.00201613
5 0.00000000 0.04168504 0.00000000 0.03983821 0.00000000 0.01547221 0.00000000 0.01184154 0.00000000 0.00578599 0.00000000 0.00319423
2 0.00000000 0.04388575 0.00000000 0.03858382 0.00000001 0.00965596 0.00000000 0.00390185 0.00000000 0.00858535 0.00000000 0.00265415
6 0.00000000 0.00000000 0.00000000 0.04019333 0.00000000 0.00000000 0.00000000 0.01254593 0.00000000 0.00000000 0.00000000 0.00612088
5 0.00000000 0.01159953 0.00000000 0.02828105 0.00000000 0.01216144 0.00000000 0.00824222 0.00000000 0.00707876 0.00000000 0.00443729
4 0.00000000 0.01122462 0.00000000 0.02843942 0.00000000 0.01204012 0.00000000 0.00816414 0.00000000 0.00720530 0.00000000 0.00454521
4 0.00000000 0.02081449 0.00000000 0.00744960 0.00000000 0.01272158 0.00000000 0.00540353 0.00000000 0.00240639 0.00000000 0.00270152
3 0.00000000 0.04138584 0.00000000 0.02864571 0.00000000 0.01343666 0.00000000 0.00411975 0.00000000 0.00946417 0.00000000 0.00019147
5 0.00000000 0.04117297 0.00000000 0.02859917 0.00000000 0.01372145 0.00000000 0.00428012 0.00000000 0.00954644 0.00000000 0.00030141
5 0.00000000 0.04214555 0.00000000 0.04071196 0.00000000 0.01501903 0.00000000 0.01188665 0.00000000 0.00506735 0.00000000 0.00283189
2 0.00000000 0.02458268 0.00000000 0.00802534 0.00000000 0.01327820 0.00000000 0.00428349 0.00000000 0.00240857 0.00000000 0.00329451
3 0.00000000 0.04204965 0.00000000 0.03072189 0.00000000 0.01246206 0.00000000 0.00320846 0.00000000 0.00989719 0.00000000 0.00084594
4 0.00000000 0.01395562 0.00000000 0.01858707 0.00000000 0.01112016 0.00000000 0.00756404 0.00000000 0.00229269 0.00000000 0.00304932
5 0.13706465 0.06400903 0.02238010 0.03921277 0.05657915 0.06291704 0.01988060 0.01031191 0.01571680 0.01400982 0.01105823 0.01598943
5 0.00000000 0.00758706 0.00000000 0.03112518 0.00000000 0.00941699 0.00000000 0.00760995 0.00000000 0.00719745 0.00000000 0.00512705
0 0.00000000 0.04032685 0.00000000 0.03812147 0.00000000 0.01659517 0.00000000 0.01214799 0.00000000 0.00798788 0.00000000 0.00486432
0 0.00000000 0.02207315 0.00000000 0.00727713 0.00000000 0.01304108 0.00000000 0.00525099 0.00000000 0.00234565 0.00000000 0.00272131
4 0.00000000 0.01433140 0.00000000 0.01799815 0.00000000 0.01104550 0.00000000 0.00761704 0.00000000 0.00172652 0.00000000 0.00312388
4 0.00815966 0.06403239 0.00987813 0.00603056 0.00355210 0.00371415 0.00224312 0.00196744 0.00105583 0.00120534 0.00104699 0.00059641
1 0.00000000 0.03982777 0.00000000 0.02255038 0.00000000 0.01395941 0.00000000 0.00274472 0.00000000 0.00572005 0.00000000 0.00335211
6 0.00000000 0.03474281 0.00000000 0.01533620 0.00000000 0.01466254 0.00000000 0.00179940 0.00000000 0.00287475 0.00000000 0.00426547
2 0.00000000 0.01369354 0.00000000 0.01954554 0.00000000 0.01136515 0.00000000 0.00731751 0.00000000 0.00309372 0.00000000 0.00293079
5 0.00000000 0.03573521 0.00000000 0.01619599 0.00000000 0.01461644 0.00000000 0.00158840 0.00000000 0.00312521 0.00000000 0.00411602
0 0.00000000 0.04267418 0.00000000 0.03213784 0.00000000 0.01161316 0.00000000 0.00277658 0.00000000 0.01004028 0.00000000 0.00170073
3 0.00000000 0.04046892 0.00000000 0.02511684 0.00000000 0.01344782 0.00000000 0.00259744 0.00000000 0.00689833 0.00000000 0.00265599
6 0.00000000 0.03259100 0.00000000 0.01306800 0.00000000 0.01448206 0.00000000 0.00220079 0.00000000 0.00243504 0.00000000 0.00404824
4 0.00000000 0.02259569 0.00000000 0.00743177 0.00000000 0.01302965 0.00000000 0.00496099 0.00000000 0.00239003 0.00000000 0.00293556
5 0.00000000 0.04092001 0.00000000 0.02776365 0.00000000 0.01405837 0.00000000 0.00428167 0.00000000 0.00935259 0.00000000 0.00041926
5 0.17752850 0.07124482 0.03466547 0.04189678 0.07999119 0.05673267 0.02049772 0.01058297 0.01454898 0.01858805 0.02035919 0.01361227
4 0.00000000 0.04230127 0.00000000 0.03155707 0.00000000 0.01199391 0.00000000 0.00318365 0.00000000 0.01002487 0.00000000 0.00141800
6 0.00000000 0.04374061 0.00000000 0.04102971 0.00000000 0.01212352 0.00000000 0.00868645 0.00000000 0.00527459 0.00000000 0.00104698
6 0.02816553 0.07174043 0.01049238 0.02494601 0.00456544 0.01463946 0.00239844 0.00830771 0.00046858 0.00583627 0.00093299 0.00408415
3 0.03034122 0.06115784 0.03102306 0.00870346 0.01401496 0.00186740 0.00514751 0.00294917 0.00124891 0.00150408 0.00258736 0.00088160
3 0.00000000 0.04119643 0.00000000 0.02875329 0.00000000 0.01360100 0.00000000 0.00402315 0.00000000 0.00957690 0.00000000 0.00017669
2 0.00000000 0.00785468 0.00000000 0.03099916 0.00000000 0.00942640 0.00000000 0.00755214 0.00000000 0.00710025 0.00000000 0.00504501
0 0.00000000 0.04416599 0.00000000 0.03860606 0.00000000 0.00973810 0.00000000 0.00381688 0.00000000 0.00861184 0.00000000 0.00285747
0 0.00000000 0.01467737 0.00000000 0.01411413 0.00000000 0.01060153 0.00000000 0.00800917 0.00000000 0.00052724 0.00000000 0.00281976
0 0.00508133 0.10929061 0.00775216 0.03735017 0.00046863 0.01813687 0.00187531 0.01177922 0.00164075 0.00838050 0.00038217 0.00513220
1 0.00000000 0.04390939 0.00000000 0.03816399 0.00000000 0.00973814 0.00000000 0.00343235 0.00000000 0.00905210 0.00000000 0.00257645
2 0.01457647 0.07517333 0.00174316 0.01534501 0.00155409 0.01079083 0.00234355 0.00565123 0.00160524 0.00357631 0.00084333 0.00396442
2 0.01699888 0.08357751 0.00654365 0.01722452 0.00087024 0.00960980 0.00135332 0.00570868 0.00240857 0.00590427 0.00324535 0.00288288
0 0.00000000 0.01377446 0.00000000 0.01901063 0.00000000 0.01118309 0.00000000 0.00736223 0.00000000 0.00258764 0.00000000 0.00288844
6 0.00000000 0.01532566 0.00000000 0.01101174 0.00000000 0.01069780 0.00000000 0.00768103 0.00000000 0.00162844 0.00000000 0.00231598
2 0.00000000 0.03152673 0.00000000 0.01204857 0.00000000 0.01445200 0.00000000 0.00239175 0.00000000 0.00211906 0.00000000 0.00384026
4 0.00000000 0.01144029 0.00000000 0.02794047 0.00000000 0.01225815 0.00000000 0.00811590 0.00000000 0.00730536 0.00000000 0.00456562
6 0.00000000 0.03544038 0.00000000 0.03272791 0.00000000 0.01525997 0.00000000 0.00786918 0.00000000 0.00941885 0.00000000 0.00330052
4 0.00000000 0.04401640 0.00000000 0.03797166 0.00000001 0.00970136 0.00000001 0.00298695 0.00000000 0.00935740 0.00000000 0.00274865
0 0.00000000 0.01546145 0.00000000 0.00975829 0.00000000 0.01061865 0.00000000 0.00706028 0.00000000 0.00226901 0.00000000 0.00224102
4 0.00000000 0.03379733 0.00000000 0.03160521 0.00000000 0.01405296 0.00000000 0.00623336 0.00000000 0.00857769 0.00000000 0.00140060
6 0.00000000 0.03936473 0.00000000 0.02299168 0.00000000 0.01363928 0.00000000 0.00224351 0.00000000 0.00584060 0.00000000 0.00303461
0 0.01290067 0.11004829 0.00499392 0.03763174 0.00371171 0.01866109 0.00261532 0.01108084 0.00123866 0.00722256 0.00126058 0.00612323
0 0.00800243 0.10255726 0.01070961 0.03699129 0.00573319 0.01841573 0.00294168 0.01181414 0.00052156 0.00862034 0.00064856 0.00675723
1 0.00000000 0.04161507 0.00000000 0.03978735 0.00000000 0.01582226 0.00000000 0.01251772 0.00000000 0.00605815 0.00000000 0.00391470
2 0.00000000 0.02094542 0.00000000 0.00738326 0.00000000 0.01278220 0.00000000 0.00538892 0.00000000 0.00245952 0.00000000 0.00271491
2 0.00000000 0.04364711 0.00000000 0.04046431 0.00000000 0.01143300 0.00000000 0.00766944 0.00000000 0.00593212 0.00000000 0.00138750
6 0.00000000 0.04016114 0.00000000 0.02652741 0.00000000 0.01485762 0.00000000 0.00467064 0.00000000 0.00881746 0.00000000 0.00072744
1 0.00000000 0.01464094 0.00000000 0.01593104 0.00000000 0.01086615 0.00000000 0.00808525 0.00000000 0.00086275 0.00000000 0.00305934
5 0.00000000 0.02081449 0.00000000 0.00744960 0.00000000 0.01272158 0.00000000 0.00540353 0.00000000 0.00240639 0.00000000 0.00270152
2 0.00000000 0.02944540 0.00000000 0.03642479 0.00000000 0.01188493 0.00000000 0.00883646 0.00000000 0.00687524 0.00000000 0.00257050
1 0.01292490 0.05973434 0.02424228 0.02135158 0.00807129 0.01287820 0.00177674 0.00756033 0.00162785 0.00551456 0.00154172 0.00454417
1 0.03551484 0.06351688 0.01777725 0.01677171 0.00268587 0.00875534 0.00512300 0.00687016 0.00224498 0.00465281 0.00279147 0.00263354
4 0.00594067 0.05843640 0.00418309 0.00259951 0.00532090 0.00350609 0.00301826 0.00063879 0.00126947 0.00073913 0.00287974 0.00141741
3 0.00000000 0.00593062 0.00000000 0.03257043 0.00000000 0.00775526 0.00000000 0.00724120 0.00000000 0.00650136 0.00000000 0.00458186
5 0.00000000 0.03072375 0.00000000 0.01166009 0.00000000 0.01437211 0.00000000 0.00274485 0.00000000 0.00226051 0.00000000 0.00403361
0 0.00000000 0.00786728 0.00000000 0.03128218 0.00000000 0.00934560 0.00000000 0.00785607 0.00000000 0.00693720 0.00000000 0.00510423
6 0.00000000 0.04152672 0.00000000 0.03949622 0.00000000 0.01640955 0.00000000 0.01274328 0.00000000 0.00616577 0.00000000 0.00394873
4 0.00000000 0.01305291 0.00000000 0.02528017 0.00000000 0.01176719 0.00000000 0.00722249 0.00000000 0.00545442 0.00000000 0.00276909
3 0.00000000 0.01136224 0.00000000 0.02830447 0.00000000 0.01216575 0.00000000 0.00812459 0.00000000 0.00731517 0.00000000 0.00454027
3 0.00000000 0.03150004 0.00000000 0.03437338 0.00000000 0.01224276 0.00000000 0.00753775 0.00000000 0.00706841 0.00000000 0.00200393
6 0.00000000 0.04243331 0.00000000 0.04095232 0.00000000 0.01446282 0.00000000 0.01129997 0.00000000 0.00458478 0.00000000 0.00209230
2 0.00000000 0.00000000 0.00000000 0.04019333 0.00000000 0.00000000 0.00000000 0.01254593 0.00000000 0.00000000 0.00000000 0.00612088
5 0.17457956 0.06793992 0.03569962 0.02858462 0.07830145 0.05432570 0.01903648 0.00955458 0.01766138 0.01902216 0.00314094 0.01880553
1 0.02240666 0.05791653 0.01225442 0.01593898 0.00879659 0.00707289 0.00255759 0.00762567 0.00099178 0.00357302 0.00302626 0.00525398
3 0.02200112 0.06740933 0.02520039 0.00665941 0.01935509 0.00590091 0.00210517 0.00220917 0.00152965 0.00290213 0.00052440 0.00243648
5 0.17850214 0.07549965 0.02878167 0.05988678 0.07968142 0.04973494 0.03294211 0.00914079 0.00402353 0.01154100 0.02424802 0.00719701
3 0.00000000 0.03252927 0.00000000 0.01291346 0.00000000 0.01439049 0.00000000 0.00196843 0.00000000 0.00219313 0.00000000 0.00421522
3 0.00000000 0.04384308 0.00000000 0.03804521 0.00000000 0.00967549 0.00000000 0.00322942 0.00000000 0.00913794 0.00000000 0.00248327
3 0.00415492 0.03985852 0.03642863 0.01288303 0.01311361 0.00669910 0.01111465 0.00440176 0.00273201 0.00460178 0.00368560 0.00202617
3 0.04598615 0.06672258 0.03793960 0.01328436 0.00941958 0.00276365 0.00289577 0.00283275 0.00049660 0.00394165 0.00075955 0.00090261
6 0.00000000 0.01562021 0.00000000 0.01054915 0.00000000 0.01081372 0.00000000 0.00740933 0.00000000 0.00200973 0.00000000 0.00223219
6 0.00000000 0.04086705 0.00000000 0.02823277 0.00000000 0.01378309 0.00000000 0.00411599 0.00000000 0.00945582 0.00000000 0.00026486
1 0.00000000 0.01227299 0.00000000 0.02759370 0.00000000 0.01271168 0.00000000 0.00814713 0.00000000 0.00708834 0.00000000 0.00427394
0 0.00000000 0.04392862 0.00000000 0.03843972 0.00000000 0.00974503 0.00000000 0.00368552 0.00000000 0.00896914 0.00000000 0.00255157
6 0.00000000 0.02931541 0.00000000 0.01081803 0.00000000 0.01392662 0.00000000 0.00310279 0.00000000 0.00223822 0.00000000 0.00379307
1 0.00000000 0.01042176 0.00000000 0.02911714 0.00000001 0.01148302 0.00000000 0.00820137 0.00000000 0.00727940 0.00000001 0.00481451
4 0.00000001 0.01948145 0.00000000 0.00744062 0.00000000 0.01218514 0.00000000 0.00582117 0.00000000 0.00248406 0.00000000 0.00260380
1 0.02516390 0.04432961 0.01240266 0.00855662 0.00389244 0.00713941 0.00302676 0.00474353 0.00285045 0.00438800 0.00144287 0.00486039
1 0.00000000 0.01531055 0.00000000 0.00899223 0.00000000 0.01107165 0.00000000 0.00672079 0.00000000 0.00245696 0.00000000 0.00231331
0 0.00000000 0.04342521 0.00000000 0.04116185 0.00000000 0.01267109 0.00000000 0.00940906 0.00000000 0.00475552 0.00000000 0.00083486
0 0.00865407 0.11686198 0.00986062 0.03802225 0.00234647 0.01728042 0.00074086 0.00928400 0.00068858 0.00784926 0.00082793 0.00620235
2 0.00000000 0.04261482 0.00000000 0.03197241 0.00000000 0.01176537 0.00000000 0.00306051 0.00000000 0.01004458 0.00000000 0.00156037
0 0.00000000 0.01333864 0.00000000 0.02154015 0.00000000 0.01150251 0.00000000 0.00714855 0.00000000 0.00402683 0.00000000 0.00290612
5 0.10294358 0.03756443 0.01794994 0.03803609 0.08774517 0.02096367 0.02162309 0.00636658 0.01749065 0.02008762 0.01781641 0.01053079
4 0.00000000 0.04158529 0.00000000 0.03952850 0.00000000 0.01629752 0.00000000 0.01257437 0.00000000 0.00614903 0.00000000 0.00387745
4 0.00000000 0.03664367 0.00000000 0.01774564 0.00000000 0.01432123 0.00000000 0.00181152 0.00000000 0.00362836 0.00000000 0.00409798
2 0.00000000 0.01326496 0.00000000 0.02356218 0.00000000 0.01179965 0.00000000 0.00707478 0.00000000 0.00485795 0.00000000 0.00259501
1 0.00000000 0.03693958 0.00000000 0.03401424 0.00000000 0.01631523 0.00000000 0.00955677 0.00000000 0.00982139 0.00000000 0.00430971
2 0.00000000 0.04183076 0.00000000 0.02959782 0.00000000 0.01290886 0.00000001 0.00382354 0.00000000 0.00960654 0.00000001 0.00068812
0 0.00000000 0.04046892 0.00000000 0.02511684 0.00000000 0.01344782 0.00000000 0.00259744 0.00000000 0.00689833 0.00000000 0.00265599
0 0.00000000 0.01521651 0.00000000 0.01354192 0.00000000 0.01054205 0.00000000 0.00791048 0.00000000 0.00102626 0.00000001 0.00276818
4 0.00000000 0.01199284 0.00000000 0.02772303 0.00000000 0.01258802 0.00000000 0.00801116 0.00000000 0.00718045 0.00000000 0.00424960
6 0.00000000 0.01363622 0.00000000 0.02023793 0.00000000 0.01113406 0.00000001 0.00718433 0.00000000 0.00290055 0.00000000 0.00291577
3 0.00000000 0.01469650 0.00000000 0.01441628 0.00000000 0.01067370 0.00000000 0.00820616 0.00000000 0.00061010 0.00000000 0.00313435
2 0.00000000 0.01366431 0.00000000 0.02110963 0.00000000 0.01163305 0.00000000 0.00732823 0.00000000 0.00393244 0.00000000 0.00288375
1 0.00000000 0.01551816 0.00000000 0.01057463 0.00000000 0.01085629 0.00000000 0.00768838 0.00000000 0.00181099 0.00000000 0.00236612
3 0.00000000 0.01590040 0.00000000 0.00921120 0.00000000 0.01111746 0.00000000 0.00696485 0.00000000 0.00215776 0.00000000 0.00198164
3 0.01249926 0.04094446 0.02599947 0.01057502 0.00660974 0.00437875 0.00750168 0.00314274 0.00209572 0.00517936 0.00388471 0.00032906
6 0.00000000 0.04204965 0.00000000 0.03072189 0.00000000 0.01246206 0.00000000 0.00320846 0.00000000 0.00989719 0.00000000 0.00084594
2 0.02000287 0.06665500 0.00554557 0.02038494 0.00383763 0.00644448 0.00317856 0.00405242 0.00248969 0.00355970 0.00308214 0.00286279
6 0.05360457 0.06761225 0.01902709 0.02339369 0.00652435 0.01150674 0.00629167 0.00697533 0.00355099 0.00619942 0.00365915 0.00413615
2 0.00000000 0.03849731 0.00000000 0.03579947 0.00000000 0.01671046 0.00000000 0.01090532 0.00000000 0.00952900 0.00000000 0.00495453
5 0.00000000 0.01386911 0.00000000 0.01929764 0.00000000 0.01100032 0.00000000 0.00742486 0.00000000 0.00225980 0.00000000 0.00309432
1 0.00000000 0.01564486 0.00000000 0.01151256 0.00000000 0.01074032 0.00000000 0.00775431 0.00000000 0.00167414 0.00000000 0.00239067
3 0.00000000 0.04056865 0.00000000 0.02734300 0.00000001 0.01435486 0.00000000 0.00448304 0.00000000 0.00914928 0.00000000 0.00038474
1 0.00000000 0.00000000 0.00000000 0.04019333 0.00000000 0.00000000 0.00000000 0.01254593 0.00000000 0.00000000 0.00000000 0.00612088
1 0.00000000 0.02295276 0.00000000 0.00743731 0.00000000 0.01298476 0.00000000 0.00484251 0.00000000 0.00234317 0.00000000 0.00319659
1 0.01470417 0.05768075 0.00984736 0.01558046 0.00125620 0.00441502 0.00220052 0.00399333 0.00151331 0.00363900 0.00185587 0.00530147
4 0.00708582 0.05106559 0.00963346 0.00150921 0.00373305 0.00344349 0.00046025 0.00106764 0.00093053 0.00084423 0.00100266 0.00143474
3 0.00000000 0.04092001 0.00000000 0.02776365 0.00000000 0.01405837 0.00000000 0.00428167 0.00000000 0.00935259 0.00000000 0.00041926
4 0.00000000 0.01501877 0.00000000 0.01428193 0.00000000 0.01053459 0.00000000 0.00790952 0.00000000 0.00066838 0.00000000 0.00281547
3 0.00000000 0.02829209 0.00000000 0.00943954 0.00000000 0.01399871 0.00000000 0.00336784 0.00000000 0.00230177 0.00000000 0.00374579
3 0.02253860 0.05133838 0.02500423 0.00606615 0.00615587 0.00655451 0.00756280 0.00267561 0.00275288 0.00618476 0.00306640 0.00052710
3 0.03748920 0.01218758 0.03872042 0.02225572 0.01940613 0.01064335 0.01044270 0.00200345 0.00234834 0.00248318 0.00083407 0.00355405
6 0.01698865 0.06477821 0.01618865 0.02701963 0.00422771 0.01278272 0.00467884 0.00959076 0.00231956 0.00708076 0.00139016 0.00515969
1 0.00000000 0.01503095 0.00000000 0.01265610 0.00000000 0.01076920 0.00000000 0.00804448 0.00000000 0.00094838 0.00000000 0.00260954
3 0.00000000 0.03150380 0.00000000 0.03600928 0.00000000 0.01241542 0.00000000 0.00846411 0.00000000 0.00706023 0.00000000 0.00211925
0 0.00000000 0.01533708 0.00000000 0.01102570 0.00000000 0.01070477 0.00000000 0.00768318 0.00000000 0.00164214 0.00000000 0.00232620
5 0.00000000 0.01212706 0.00000000 0.02737170 0.00000000 0.01270467 0.00000000 0.00804912 0.00000000 0.00714754 0.00000000 0.00430128
1 0.00000000 0.03072375 0.00000000 0.01166009 0.00000000 0.01437211 0.00000000 0.00274485 0.00000000 0.00226051 0.00000000 0.00403361
2 0.00000000 0.01363622 0.00000000 0.02023793 0.00000000 0.01113406 0.00000001 0.00718433 0.00000000 0.00290055 0.00000000 0.00291577
6 0.00000000 0.04374581 0.00000000 0.03685847 0.00000000 0.00999804 0.00000000 0.00241441 0.00000000 0.00969031 0.00000000 0.00259058
0 0.00000000 0.03937363 0.00000000 0.02220938 0.00000000 0.01387065 0.00000000 0.00231724 0.00000000 0.00533424 0.00000000 0.00318105
3 0.00000000 0.04213291 0.00000000 0.03116598 0.00000000 0.01226771 0.00000000 0.00316727 0.00000000 0.00981994 0.00000000 0.00099415
4 0.00000000 0.04377171 0.00000000 0.03764207 0.00000000 0.00985374 0.00000000 0.00305069 0.00000000 0.00923647 0.00000000 0.00268123
0 0.00000000 0.01520849 0.00000000 0.01269258 0.00000000 0.01063414 0.00000000 0.00790637 0.00000000 0.00117799 0.00000000 0.00269237
2 0.00000000 0.04303043 0.00000000 0.03397572 0.00000000 0.01086503 0.00000000 0.00175071 0.00000000 0.01017074 0.00000000 0.00205021
3 0.00000000 0.01981901 0.00000000 0.00763660 0.00000000 0.01225683 0.00000000 0.00567830 0.00000000 0.00244832 0.00000000 0.00243397
4 0.00000000 0.01446611 0.00000000 0.01441134 0.00000000 0.01061997 0.00000000 0.00824878 0.00000000 0.00037770 0.00000000 0.00310855
3 0.02523357 0.06375744 0.03551487 0.00567224 0.01469787 0.00722990 0.00624490 0.00231836 0.00093732 0.00276583 0.00461705 0.00213108
5 0.10672323 0.02700109 0.01437638 0.02566273 0.08242285 0.04410721 0.01502975 0.02232436 0.02198110 0.01810659 0.01672860 0.01268078
4 0.00000000 0.02872071 0.00000000 0.00953051 0.00000000 0.01397176 0.00000000 0.00320814 0.00000000 0.00227403 0.00000000 0.00361462
2 0.04078756 0.08029190 0.00764214 0.02673608 0.00315793 0.01577885 0.00293595 0.00907050 0.00506338 0.00608835 0.00369303 0.00477882
1 0.00000000 0.02375287 0.00000000 0.00752782 0.00000000 0.01321932 0.00000000 0.00465438 0.00000000 0.00249371 0.00000000 0.00328662
2 0.00000000 0.01509610 0.00000000 0.01239583 0.00000000 0.01071163 0.00000000 0.00806634 0.00000000 0.00125725 0.00000000 0.00255048
2 0.00000000 0.04373366 0.00000000 0.03622044 0.00000000 0.00995135 0.00000000 0.00193932 0.00000000 0.01004009 0.00000000 0.00294416
1 0.00000001 0.04067643 0.00000000 0.02685517 0.00000001 0.01454236 0.00000000 0.00455473 0.00000000 0.00912410 0.00000000 0.00070706
5 0.00000000 0.04230028 0.00000000 0.03155306 0.00000000 0.01204128 0.00000000 0.00296086 0.00000000 0.01001830 0.00000000 0.00119263
6 0.05088854 0.06287372 0.01424560 0.02187639 0.00716291 0.01214323 0.00538438 0.00776045 0.00435487 0.00480417 0.00251348 0.00322712
1 0.00000000 0.01530046 0.00000000 0.01344691 0.00000000 0.01054839 0.00000000 0.00785713 0.00000000 0.00107764 0.00000001 0.00271409
4 0.00414763 0.06565416 0.00475790 0.00250984 0.00556456 0.00317472 0.00271632 0.00070772 0.00121080 0.00116579 0.00035255 0.00097670
1 0.00000000 0.03877178 0.00000000 0.02173286 0.00000000 0.01388035 0.00000000 0.00205401 0.00000000 0.00503764 0.00000000 0.00331932
2 0.00000000 0.00422782 0.00000000 0.03406690 0.00000000 0.00619130 0.00000000 0.00721294 0.00000000 0.00567385 0.00000000 0.00361532
3 0.00000000 0.04297949 0.00000000 0.04116601 0.00000000 0.01399906 0.00000000 0.01086454 0.00000000 0.00477738 0.00000000 0.00184129
3 0.00000000 0.02234769 0.00000000 0.00741595 0.00000000 0.01288739 0.00000000 0.00498110 0.00000000 0.00234794 0.00000000 0.00294650
4 0.00000000 0.03469691 0.00000000 0.01543240 0.00000000 0.01465687 0.00000000 0.00192204 0.00000000 0.00305438 0.00000000 0.00426118
1 0.01921131 0.06756822 0.01546350 0.02230374 0.00979632 0.00952065 0.00621818 0.00689596 0.00286581 0.00504765 0.00055109 0.00392498
4 0.00000000 0.04324032 0.00000000 0.03536182 0.00000000 0.01012602 0.00000000 0.00168896 0.00000000 0.01005054 0.00000000 0.00235306
6 0.00000000 0.01399228 0.00000000 0.02038074 0.00000000 0.01120713 0.00000000 0.00724930 0.00000000 0.00284852 0.00000000 0.00289102
5 0.19722684 0.30116972 0.08350415 0.09928728 0.00588022 0.04040414 0.00890166 0.05772630 0.03310369 0.01644139 0.04335409 0.01263380
5 0.00000000 0.01054163 0.00000000 0.02901272 0.00000001 0.01151645 0.00000000 0.00817595 0.00000000 0.00724185 0.00000001 0.00485969
0 0.04398764 0.09550830 0.01047504 0.03218232 0.00389252 0.01602027 0.00175076 0.00772823 0.00321804 0.00318959 0.00371569 0.00195375
3 0.00000630 0.01426181 0.00000630 0.01520027 0.00000630 0.01056322 0.00000630 0.00812094 0.00000630 0.00061550 0.00000630 0.00306514
5 0.12163246 0.03930227 0.00723669 0.02774833 0.07913969 0.04413908 0.00699830 0.02441526 0.02505160 0.02149096 0.01568366 0.01289380
4 0.00000000 0.03466892 0.00000000 0.01523807 0.00000000 0.01458270 0.00000000 0.00170749 0.00000000 0.00288024 0.00000000 0.00434644
4 0.00608293 0.05637287 0.01266544 0.01108010 0.00634748 0.00424688 0.00322253 0.00088392 0.00061901 0.00238156 0.00147054 0.00067128
4 0.00575264 0.07584438 0.00619615 0.00293607 0.00359509 0.00419025 0.00337074 0.00275433 0.00023552 0.00142176 0.00121137 0.00153128
4 0.00000000 0.01646275 0.00000000 0.00827385 0.00000000 0.01125748 0.00000000 0.00646092 0.00000000 0.00233447 0.00000000 0.00278409
1 0.00000000 0.04085239 0.00000000 0.02576699 0.00000000 0.01338569 0.00000000 0.00281415 0.00000000 0.00722859 0.00000000 0.00239042
4 0.01126404 0.03992300 0.01703504 0.00422154 0.01070760 0.00389272 0.00187906 0.00341169 0.00064934 0.00219438 0.00115357 0.00117269
6 0.00000000 0.04392595 0.00000000 0.03800910 0.00000000 0.00966455 0.00000000 0.00324600 0.00000000 0.00899851 0.00000000 0.00263437
1 0.02228805 0.05901447 0.01555818 0.02050173 0.00244177 0.01347235 0.00299289 0.00854825 0.00348029 0.00632750 0.00311902 0.00391503
1 0.00000000 0.01384189 0.00000000 0.01892711 0.00000000 0.01121742 0.00000000 0.00733618 0.00000000 0.00256869 0.00000000 0.00288492
1 0.00000000 0.01329159 0.00000000 0.02605319 0.00000000 0.01202688 0.00000000 0.00731464 0.00000000 0.00590847 0.00000000 0.00286812
3 0.00000000 0.04267950 0.00000000 0.03270979 0.00000000 0.01131723 0.00000000 0.00270703 0.00000000 0.01003292 0.00000000 0.00177428
5 0.14604594 0.02359257 0.02090340 0.00420005 0.08256786 0.02651765 0.00667073 0.02017506 0.01799871 0.00424959 0.00241875 0.01288505
0 0.00000000 0.02892734 0.00000000 0.03663115 0.00000000 0.01160436 0.00000000 0.00890357 0.00000000 0.00675531 0.00000001 0.00262131
1 0.00000000 0.00859305 0.00000000 0.03070709 0.00000000 0.00989321 0.00000000 0.00792349 0.00000000 0.00705423 0.00000000 0.00506412
2 0.02131389 0.10210143 0.00314214 0.03285555 0.00339341 0.01450284 0.00282852 0.00998346 0.00226382 0.00757716 0.00134773 0.00358749
1 0.00000000 0.03701273 0.00000001 0.01847711 0.00000000 0.01424339 0.00000000 0.00184545 0.00000000 0.00413259 0.00000000 0.00411031
5 0.00000000 0.03312440 0.00000000 0.01362850 0.00000000 0.01480730 0.00000000 0.00221244 0.00000000 0.00256969 0.00000000 0.00438796
6 0.00000000 0.03119700 0.00000000 0.03616356 0.00000000 0.01245102 0.00000000 0.00861964 0.00000000 0.00712646 0.00000000 0.00235073
2 0.00342724 0.07261060 0.00340061 0.01681224 0.00165475 0.00919516 0.00172579 0.00653221 0.00188874 0.00490847 0.00226344 0.00351270
2 0.00000000 0.03581912 0.00000000 0.01635598 0.00000000 0.01464127 0.00000000 0.00174120 0.00000000 0.00342253 0.00000000 0.00408885
2 0.01015957 0.07507695 0.01088258 0.02370238 0.00680831 0.01134486 0.00324220 0.00779865 0.00094930 0.00532574 0.00026141 0.00284541
2 0.00000000 0.04268416 0.00000000 0.04080135 0.00000000 0.01438946 0.00000000 0.01088539 0.00000000 0.00492504 0.00000000 0.00210695
2 0.02661633 0.07282446 0.00892570 0.01719165 0.00535756 0.01007125 0.00171400 0.00451687 0.00078808 0.00416275 0.00026390 0.00189409
1 0.00000000 0.01550002 0.00000000 0.00951996 0.00000000 0.01081702 0.00000000 0.00738906 0.00000000 0.00222608 0.00000000 0.00220720
1 0.00000000 0.04289846 0.00000000 0.04118104 0.00000000 0.01395749 0.00000000 0.01079415 0.00000000 0.00485040 0.00000000 0.00191067
4 0.00000000 0.04061878 0.00000000 0.02530523 0.00000000 0.01350827 0.00000000 0.00281737 0.00000000 0.00706963 0.00000000 0.00252219
3 0.00004142 0.04320022 0.00004142 0.03532314 0.00004142 0.01015198 0.00004142 0.00168578 0.00004142 0.01005448 0.00004142 0.00239424
3 0.00000000 0.04108796 0.00000000 0.02838371 0.00000000 0.01374385 0.00000000 0.00424256 0.00000000 0.00946474 0.00000000 0.00016716
1 0.00000000 0.00786728 0.00000000 0.03128218 0.00000000 0.00934560 0.00000000 0.00785607 0.00000000 0.00693720 0.00000000 0.00510423
1 0.00000000 0.01469650 0.00000000 0.01441628 0.00000000 0.01067370 0.00000000 0.00820616 0.00000000 0.00061010 0.00000000 0.00313435
6 0.00000000 0.02849128 0.00000000 0.03673370 0.00000000 0.01156552 0.00000000 0.00907605 0.00000000 0.00673954 0.00000000 0.00274610
1 0.00887250 0.05790507 0.02267384 0.02207424 0.00610730 0.01090312 0.00215295 0.00715761 0.00137292 0.00535537 0.00124805 0.00267558
0 0.00000000 0.01375746 0.00000000 0.01769211 0.00000001 0.01095753 0.00000001 0.00769529 0.00000000 0.00206362 0.00000000 0.00318436
5 0.00000000 0.01344496 0.00000000 0.02139658 0.00000000 0.01158613 0.00000000 0.00714805 0.00000000 0.00408976 0.00000000 0.00294961
3 0.01027759 0.05295567 0.03497240 0.00501923 0.01148066 0.00230017 0.01135322 0.00466656 0.00266527 0.00303948 0.00524378 0.00343127
5 0.00000000 0.01383175 0.00000000 0.01940565 0.00000000 0.01137224 0.00000000 0.00726456 0.00000000 0.00305216 0.00000000 0.00288979
3 0.00000000 0.04302399 0.00000000 0.04103877 0.00000000 0.01366460 0.00000000 0.01052280 0.00000000 0.00435399 0.00000000 0.00136266
2 0.01391998 0.06928689 0.00605504 0.01600109 0.00518131 0.00841877 0.00355751 0.00768727 0.00317111 0.00475238 0.00247185 0.00465689
2 0.00000000 0.00000000 0.00000000 0.04019333 0.00000000 0.00000000 0.00000000 0.01254593 0.00000000 0.00000000 0.00000000 0.00612088
4 0.00000000 0.04246561 0.00000000 0.04058532 0.00000000 0.01483670 0.00000000 0.01117203 0.00000000 0.00492973 0.00000000 0.00235903
1 0.00000000 0.03743537 0.00000000 0.01870269 0.00000000 0.01432531 0.00000000 0.00200731 0.00000000 0.00424004 0.00000000 0.00401660
4 0.00286220 0.05311022 0.00629986 0.00786457 0.00035974 0.00438114 0.00387120 0.00057659 0.00215191 0.00133739 0.00139805 0.00050852
3 0.00000000 0.01482848 0.00000000 0.01352013 0.00000000 0.01053210 0.00000000 0.00806247 0.00000000 0.00082699 0.00000000 0.00277489
2 0.00000000 0.01399839 0.00000000 0.01812591 0.00000000 0.01095478 0.00000000 0.00762752 0.00000000 0.00182768 0.00000000 0.00320541
6 0.01390202 0.07126278 0.01849784 0.02076295 0.00572184 0.01196790 0.00360039 0.00673094 0.00323821 0.00503751 0.00317261 0.00467672
0 0.00000000 0.04383463 0.00000000 0.03728487 0.00000000 0.00970554 0.00000000 0.00252966 0.00000000 0.00953379 0.00000000 0.00270731
4 0.02604862 0.05228829 0.02011280 0.00895635 0.00799573 0.00423551 0.00397859 0.00274792 0.00069765 0.00314818 0.00035534 0.00131488
6 0.00000000 0.00000000 0.00000000 0.04019333 0.00000000 0.00000000 0.00000000 0.01254593 0.00000000 0.00000000 0.00000000 0.00612088
5 0.00000000 0.04360876 0.00000000 0.04095447 0.00000000 0.01180301 0.00000000 0.00837451 0.00000000 0.00547906 0.00000000 0.00119215
2 0.00000000 0.04056865 0.00000000 0.02734300 0.00000001 0.01435486 0.00000000 0.00448304 0.00000000 0.00914928 0.00000000 0.00038474
6 0.00000000 0.02990957 0.00000000 0.01122107 0.00000000 0.01417615 0.00000000 0.00302439 0.00000000 0.00232339 0.00000000 0.00364322
4 0.00000000 0.03258541 0.00000000 0.01310086 0.00000000 0.01453942 0.00000000 0.00222552 0.00000000 0.00244342 0.00000000 0.00410626
6 0.00000000 0.02757723 0.00000000 0.03657115 0.00000000 0.01156563 0.00000000 0.00925731 0.00000000 0.00670534 0.00000000 0.00304896
6 0.02932586 0.06616744 0.01774320 0.01944895 0.00867720 0.01084281 0.00572412 0.00687320 0.00057554 0.00508170 0.00136956 0.00378004
1 0.03264549 0.06838614 0.01097814 0.01714836 0.00221255 0.01227754 0.00412460 0.00553794 0.00394020 0.00438064 0.00264492 0.00452099
