1440 12
4 0.00818067 0.06623718 0.01172631 0.00229497 0.00549373 0.00473101 0.00258366 0.00043701 0.00116979 0.00139345 0.00069251 0.00047908
4 0.00085111 0.04502448 0.00436430 0.00247758 0.00464104 0.00473544 0.00109783 0.00235233 0.00104622 0.00157616 0.00077328 0.00194553
3 0.01539165 0.05759470 0.02545558 0.00431601 0.01303005 0.00445825 0.00678255 0.00251978 0.00179653 0.00328166 0.00277206 0.00230227
2 0.00000000 0.03707254 0.00000000 0.01728044 0.00000000 0.01479445 0.00000000 0.00129143 0.00000000 0.00323001 0.00000000 0.00333792
5 0.00000000 0.01417837 0.00000000 0.01069115 0.00000000 0.01098059 0.00000000 0.00750188 0.00000000 0.00304875 0.00000000 0.00234476
3 0.00000000 0.01084601 0.00000000 0.01860898 0.00000000 0.00862472 0.00000000 0.00963286 0.00000000 0.00279561 0.00000000 0.00331282
3 0.00000000 0.04224343 0.00000000 0.03198349 0.00000000 0.01222364 0.00000000 0.00261849 0.00000000 0.00775267 0.00000000 0.00147676
6 0.00975966 0.06229848 0.01589878 0.02360923 0.00592505 0.01086820 0.00339817 0.00883590 0.00309636 0.00611128 0.00192332 0.00462779
0 0.00000000 0.01387999 0.00000000 0.01089648 0.00000000 0.01100142 0.00000000 0.00769025 0.00000000 0.00309855 0.00000000 0.00232983
1 0.00741248 0.06378778 0.01759106 0.01943391 0.00940864 0.00786196 0.00319448 0.00478560 0.00137597 0.00201603 0.00141821 0.00192252
6 0.00000000 0.01375191 0.00000000 0.01006275 0.00000000 0.01130194 0.00000000 0.00713466 0.00000000 0.00278660 0.00000000 0.00231179
6 0.00000000 0.04107981 0.00000000 0.03589992 0.00000000 0.01324578 0.00000000 0.00690035 0.00000000 0.00640258 0.00000000 0.00036297
1 0.00000000 0.03501138 0.00000000 0.03534143 0.00000000 0.01330304 0.00000000 0.00770013 0.00000000 0.00776514 0.00000000 0.00195588
0 0.00000000 0.04047752 0.00000000 0.02347787 0.00000000 0.01370106 0.00000000 0.00166253 0.00000000 0.00593883 0.00000000 0.00181810
1 0.00000000 0.01063096 0.00000000 0.01909764 0.00000000 0.00854007 0.00000000 0.00962420 0.00000000 0.00269329 0.00000000 0.00338284
5 0.14843018 0.04556892 0.01759870 0.06076561 0.11488748 0.00896220 0.03075127 0.00554095 0.00831827 0.01713911 0.02988597 0.00847767
6 0.00000000 0.01247075 0.00000000 0.01602226 0.00000000 0.00927362 0.00000000 0.00879202 0.00000000 0.00301442 0.00000000 0.00280977
3 0.00000000 0.03493829 0.00000000 0.01535750 0.00000000 0.01474108 0.00000000 0.00136570 0.00000000 0.00242259 0.00000000 0.00364038
2 0.00000000 0.03534690 0.00000000 0.03401937 0.00000000 0.01326573 0.00000000 0.00676048 0.00000000 0.00780415 0.00000000 0.00127393
3 0.00000000 0.02366052 0.00000000 0.00827001 0.00000000 0.01375910 0.00000000 0.00447548 0.00000000 0.00150775 0.00000000 0.00339722
1 0.00000000 0.03380873 0.00000000 0.01460396 0.00000000 0.01495502 0.00000000 0.00161574 0.00000000 0.00230636 0.00000000 0.00375008
4 0.00000000 0.00283947 0.00000000 0.03625349 0.00000000 0.00407632 0.00000000 0.01009177 0.00000000 0.00335458 0.00000000 0.00545475
2 0.00000000 0.02634802 0.00000000 0.00936964 0.00000000 0.01410560 0.00000000 0.00337290 0.00000000 0.00133277 0.00000000 0.00385724
1 0.00000000 0.04024001 0.00000000 0.02313563 0.00000000 0.01382033 0.00000000 0.00194959 0.00000000 0.00542245 0.00000000 0.00150989
3 0.00000000 0.03290036 0.00000000 0.03559626 0.00000000 0.01271222 0.00000000 0.00808771 0.00000000 0.00721470 0.00000000 0.00194475
0 0.00000000 0.02293752 0.00000000 0.00835457 0.00000000 0.01370422 0.00000000 0.00429723 0.00000000 0.00184148 0.00000000 0.00341544
3 0.01402152 0.01818609 0.03189001 0.02285658 0.01900345 0.01062167 0.01101896 0.00295979 0.00391710 0.00267670 0.00268602 0.00180885
3 0.00000000 0.02644692 0.00000000 0.00941353 0.00000000 0.01409790 0.00000000 0.00330486 0.00000000 0.00137254 0.00000000 0.00391913
6 0.00000000 0.01011762 0.00000000 0.02146058 0.00000000 0.00797269 0.00000001 0.00950640 0.00000000 0.00230827 0.00000000 0.00387692
4 0.01007057 0.07844264 0.00727596 0.00900147 0.00350482 0.00360878 0.00227896 0.00065705 0.00062267 0.00040363 0.00083500 0.00068439
3 0.00000000 0.01010724 0.00000000 0.02137467 0.00000000 0.00799037 0.00000000 0.00954099 0.00000000 0.00247828 0.00000000 0.00381950
0 0.00000000 0.00643428 0.00000000 0.03123186 0.00000000 0.00617277 0.00000000 0.00930110 0.00000000 0.00269281 0.00000001 0.00463304
2 0.00000000 0.04154386 0.00000000 0.02619709 0.00000000 0.01295804 0.00000000 0.00173506 0.00000000 0.00673716 0.00000000 0.00062500
1 0.02601167 0.06377278 0.01918071 0.01901988 0.00575316 0.00819546 0.00571354 0.00588777 0.00495308 0.00623705 0.00386174 0.00348877
6 0.00000000 0.00852648 0.00000000 0.02459347 0.00000000 0.00720786 0.00000000 0.00943558 0.00000000 0.00178928 0.00000000 0.00453275
4 0.01896927 0.09133171 0.00317420 0.02257641 0.00480782 0.00848029 0.00407135 0.00359811 0.00280280 0.00228067 0.00192864 0.00160898
1 0.00000000 0.01089709 0.00000000 0.01869934 0.00000000 0.00861436 0.00000000 0.00959410 0.00000000 0.00263621 0.00000000 0.00329103
1 0.00000000 0.04137955 0.00000000 0.02699368 0.00000000 0.01264211 0.00000000 0.00136007 0.00000000 0.00716368 0.00000000 0.00042636
6 0.02273510 0.07021845 0.01078788 0.02637650 0.00512143 0.01338546 0.00356403 0.00942950 0.00180153 0.00649830 0.00028511 0.00555444
5 0.00000000 0.00512974 0.00000000 0.03348911 0.00000000 0.00574476 0.00000000 0.00942812 0.00000000 0.00366321 0.00000000 0.00481712
5 0.00000000 0.03925133 0.00000000 0.02243059 0.00000000 0.01374051 0.00000000 0.00167059 0.00000000 0.00550111 0.00000000 0.00193439
0 0.00000000 0.01165980 0.00000000 0.01737819 0.00000000 0.00905135 0.00000000 0.00914840 0.00000000 0.00280202 0.00000000 0.00284939
6 0.00000000 0.03436826 0.00000000 0.01490564 0.00000000 0.01470850 0.00000000 0.00135006 0.00000000 0.00242244 0.00000000 0.00371170
4 0.00250838 0.05672929 0.00160988 0.00428242 0.00517386 0.00615390 0.00239259 0.00115386 0.00187034 0.00090352 0.00173952 0.00166485
1 0.00000000 0.02667828 0.00000000 0.00962177 0.00000000 0.01430700 0.00000000 0.00320671 0.00000000 0.00123188 0.00000000 0.00386982
0 0.01395150 0.11890275 0.00686578 0.03912815 0.00372576 0.01831676 0.00198490 0.01134255 0.00078261 0.00788279 0.00103599 0.00528585
4 0.00000000 0.00554145 0.00000000 0.03315376 0.00000000 0.00589058 0.00000000 0.00941893 0.00000000 0.00351702 0.00000000 0.00479938
3 0.00000000 0.03162330 0.00000000 0.03615496 0.00000000 0.01249331 0.00000000 0.00834789 0.00000000 0.00746548 0.00000000 0.00241018
3 0.00000000 0.00720235 0.00000000 0.02908020 0.00000000 0.00638837 0.00000000 0.00943495 0.00000000 0.00211846 0.00000000 0.00504790
6 0.00000000 0.00000000 0.00000000 0.04019333 0.00000000 0.00000000 0.00000000 0.01254593 0.00000000 0.00000000 0.00000000 0.00612088
5 0.00000000 0.03527669 0.00000000 0.03539038 0.00000000 0.01335616 0.00000000 0.00778488 0.00000000 0.00749367 0.00000000 0.00175298
5 0.00000000 0.01297196 0.00000000 0.01404971 0.00000000 0.00994269 0.00000000 0.00853639 0.00000000 0.00317964 0.00000000 0.00242011
6 0.00000000 0.04098988 0.00000000 0.02529560 0.00000000 0.01332120 0.00000000 0.00145523 0.00000000 0.00644959 0.00000000 0.00104982
5 0.00000000 0.02634745 0.00000000 0.00937121 0.00000000 0.01417440 0.00000000 0.00338260 0.00000000 0.00124446 0.00000000 0.00389885
5 0.21817736 0.07998804 0.02029200 0.15783761 0.04840361 0.05048586 0.01948565 0.00142244 0.00466779 0.01954598 0.01092125 0.01073097
0 0.00000000 0.03128054 0.00000000 0.01225726 0.00000000 0.01464746 0.00000000 0.00188254 0.00000000 0.00152557 0.00000000 0.00389872
3 0.00000000 0.01402934 0.00000000 0.01019075 0.00000000 0.01107276 0.00000000 0.00717375 0.00000000 0.00267853 0.00000000 0.00224715
2 0.00000000 0.01201966 0.00000000 0.01593653 0.00000000 0.00931192 0.00000000 0.00892770 0.00000000 0.00286839 0.00000000 0.00272693
0 0.00000000 0.03265580 0.00000000 0.03585061 0.00000000 0.01274536 0.00000000 0.00824299 0.00000000 0.00729595 0.00000000 0.00203676
3 0.01244953 0.04678110 0.02110008 0.00746331 0.00836082 0.00428544 0.00719116 0.00216345 0.00304844 0.00202891 0.00258071 0.00275325
0 0.00000000 0.03896146 0.00000000 0.02010370 0.00000000 0.01438495 0.00000000 0.00149575 0.00000000 0.00460737 0.00000000 0.00255465
5 0.00000000 0.03162004 0.00000000 0.03614861 0.00000000 0.01248820 0.00000000 0.00834231 0.00000000 0.00745910 0.00000000 0.00240599
6 0.00000000 0.03425715 0.00000000 0.03535479 0.00000000 0.01305500 0.00000000 0.00798587 0.00000000 0.00720420 0.00000000 0.00175378
0 0.00000000 0.00785245 0.00000000 0.02766867 0.00000000 0.00671943 0.00000000 0.00934949 0.00000000 0.00186001 0.00000000 0.00472592
0 0.00000000 0.04127546 0.00000000 0.03531542 0.00000000 0.01269673 0.00000000 0.00572856 0.00000000 0.00673700 0.00000000 0.00087327
5 0.00000000 0.03522742 0.00000000 0.03547795 0.00000000 0.01339333 0.00000000 0.00794467 0.00000000 0.00756716 0.00000000 0.00179808
4 0.00000000 0.02965456 0.00000000 0.03649085 0.00000000 0.01190920 0.00000000 0.00883780 0.00000000 0.00689788 0.00000000 0.00256008
6 0.00000000 0.03053553 0.00000000 0.03617460 0.00000000 0.01228727 0.00000000 0.00873511 0.00000000 0.00694851 0.00000000 0.00233493
1 0.00000000 0.04106175 0.00000000 0.03368415 0.00000000 0.01230812 0.00000000 0.00426843 0.00000000 0.00737437 0.00000000 0.00162607
3 0.00724665 0.04737259 0.02798999 0.00809231 0.00685947 0.00313736 0.00714522 0.00298627 0.00585775 0.00181920 0.00436860 0.00249377
5 0.00000000 0.01363970 0.00000000 0.01144717 0.00000000 0.01080932 0.00000000 0.00784579 0.00000000 0.00326522 0.00000000 0.00216073
0 0.04678957 0.09475443 0.01163646 0.03267364 0.00259625 0.01795532 0.00279192 0.00858501 0.00215633 0.00604273 0.00128661 0.00417041
2 0.00000001 0.00842472 0.00000000 0.02640909 0.00000000 0.00690710 0.00000000 0.00949263 0.00000000 0.00176286 0.00000000 0.00477575
2 0.00000000 0.03809073 0.00000000 0.01881471 0.00000000 0.01491758 0.00000000 0.00149239 0.00000000 0.00414939 0.00000000 0.00307103
0 0.00000000 0.03474523 0.00000000 0.03566327 0.00000000 0.01333705 0.00000000 0.00811786 0.00000000 0.00755850 0.00000000 0.00194253
1 0.00000000 0.04201667 0.00000000 0.02910533 0.00000000 0.01261565 0.00000000 0.00179698 0.00000000 0.00746918 0.00000000 0.00063144
5 0.00000000 0.03615012 0.00000000 0.01632000 0.00000000 0.01476485 0.00000000 0.00129449 0.00000000 0.00277795 0.00000000 0.00344491
6 0.00000000 0.04146324 0.00000000 0.03492726 0.00000000 0.01209625 0.00000000 0.00457895 0.00000000 0.00728672 0.00000000 0.00124053
3 0.00000000 0.03779838 0.00000000 0.01798394 0.00000000 0.01474456 0.00000000 0.00136603 0.00000000 0.00381126 0.00000000 0.00322434
2 0.01206834 0.07862819 0.00326994 0.02355066 0.00416549 0.01230885 0.00163410 0.00752152 0.00165170 0.00405584 0.00104882 0.00408720
4 0.00000000 0.01386670 0.00000000 0.01025528 0.00000000 0.01118357 0.00000000 0.00742966 0.00000000 0.00274496 0.00000000 0.00220052
1 0.01248360 0.08784492 0.00583118 0.02520885 0.00105297 0.00898582 0.00244223 0.00374501 0.00194487 0.00185922 0.00262317 0.00157307
1 0.01530926 0.06840654 0.01552965 0.02119345 0.00724460 0.01096414 0.00121901 0.00560215 0.00232862 0.00464687 0.00085871 0.00421699
3 0.00188333 0.04912666 0.01982002 0.00349631 0.01577734 0.00266175 0.00300688 0.00334298 0.00338404 0.00174690 0.00272069 0.00211281
1 0.04005725 0.05991019 0.02179486 0.02169223 0.00593731 0.00911348 0.00255690 0.00873876 0.00357816 0.00359674 0.00313068 0.00305744
1 0.03492959 0.05488842 0.01729053 0.01497734 0.00368969 0.01021928 0.00235975 0.00479469 0.00421160 0.00371757 0.00240891 0.00246998
2 0.00000000 0.00638993 0.00000000 0.03149873 0.00000000 0.00619969 0.00000000 0.00937261 0.00000000 0.00279523 0.00000000 0.00463744
2 0.00000000 0.01217157 0.00000000 0.01520493 0.00000000 0.00952807 0.00000000 0.00882083 0.00000000 0.00299048 0.00000000 0.00269695
4 0.00955676 0.07064518 0.01303228 0.00364404 0.00350185 0.00168108 0.00210217 0.00152749 0.00145064 0.00088682 0.00088407 0.00135740
0 0.00000000 0.01756425 0.00000000 0.00841231 0.00000000 0.01237853 0.00000000 0.00574911 0.00000000 0.00269746 0.00000000 0.00274488
4 0.00000000 0.00483529 0.00000000 0.03553279 0.00000000 0.00547081 0.00000000 0.01038075 0.00000000 0.00387947 0.00000000 0.00572423
0 0.00000000 0.03444267 0.00000000 0.03560493 0.00000000 0.01325678 0.00000000 0.00808268 0.00000000 0.00748267 0.00000000 0.00193200
1 0.05042662 0.05392196 0.01432594 0.01718001 0.00381071 0.00837160 0.00626276 0.00503338 0.00435597 0.00417662 0.00346901 0.00343344
1 1.35403752 0.32057434 0.40033215 0.20934483 0.05737592 0.16610752 0.11093912 0.04019100 0.01269949 0.02799949 0.02817107 0.02275363
5 0.00000000 0.01367090 0.00000000 0.01073394 0.00000000 0.01078820 0.00000000 0.00767072 0.00000000 0.00298099 0.00000000 0.00230990
1 0.02702430 0.06203511 0.01422904 0.01829343 0.00486976 0.01174159 0.00217076 0.00529580 0.00288428 0.00323903 0.00232646 0.00365031
0 0.00000000 0.03960137 0.00000000 0.02103002 0.00000000 0.01430455 0.00000000 0.00169463 0.00000000 0.00483694 0.00000000 0.00237554
5 0.00000000 0.04139979 0.00000000 0.03499516 0.00000000 0.01196590 0.00000000 0.00461762 0.00000000 0.00710453 0.00000000 0.00128944
6 0.00000000 0.03395834 0.00000000 0.01448845 0.00000000 0.01491201 0.00000000 0.00137160 0.00000000 0.00205728 0.00000000 0.00382250
0 0.00000000 0.03961774 0.00000000 0.02186633 0.00000000 0.01399866 0.00000000 0.00162557 0.00000000 0.00523312 0.00000000 0.00221697
1 0.01040921 0.05676356 0.01845299 0.01497497 0.00783890 0.01038382 0.00160003 0.00537048 0.00249225 0.00414754 0.00153177 0.00306987
1 0.00000000 0.00912184 0.00000000 0.02487025 0.00000000 0.00715690 0.00000000 0.00948191 0.00000000 0.00185790 0.00000000 0.00445120
1 0.00000000 0.03377881 0.00000000 0.01426092 0.00000000 0.01474412 0.00000000 0.00126571 0.00000000 0.00192802 0.00000000 0.00370459
3 0.00000000 0.04075800 0.00000000 0.02404144 0.00000000 0.01359259 0.00000000 0.00166364 0.00000000 0.00598802 0.00000000 0.00145065
3 0.00000000 0.01307011 0.00000000 0.01408998 0.00000000 0.01007137 0.00000000 0.00861415 0.00000000 0.00300739 0.00000000 0.00231762
2 0.00000000 0.01325069 0.00000000 0.01278583 0.00000000 0.01040297 0.00000000 0.00843520 0.00000000 0.00308288 0.00000000 0.00222897
3 0.00000000 0.03998624 0.00000000 0.02300713 0.00000000 0.01370280 0.00000000 0.00192139 0.00000000 0.00545946 0.00000000 0.00187020
5 0.00000000 0.04197276 0.00000000 0.03256957 0.00000000 0.01218655 0.00000000 0.00287688 0.00000000 0.00777578 0.00000000 0.00151895
4 0.00000000 0.03946899 0.00000000 0.02193866 0.00000000 0.01360885 0.00000000 0.00141205 0.00000000 0.00557575 0.00000000 0.00205285
5 0.00000000 0.01005828 0.00000000 0.02240375 0.00000000 0.00763005 0.00000000 0.00934872 0.00000000 0.00211423 0.00000000 0.00389189
1 1.25655544 0.24149656 0.06667719 0.10127053 0.10049930 0.06854191 0.03171410 0.02472415 0.02349384 0.02018584 0.02393371 0.01333626
1 0.00000000 0.03236767 0.00000000 0.01342356 0.00000000 0.01468901 0.00000000 0.00158591 0.00000000 0.00194035 0.00000000 0.00398391
4 0.01067671 0.07182091 0.01444893 0.00308725 0.00543418 0.00467870 0.00162566 0.00257905 0.00151239 0.00193034 0.00184268 0.00135714
2 0.00000000 0.04091715 0.00000000 0.02518184 0.00000000 0.01333437 0.00000000 0.00149485 0.00000000 0.00638802 0.00000000 0.00099662
1 0.00000000 0.03008105 0.00000000 0.03636257 0.00000000 0.01200735 0.00000000 0.00869155 0.00000000 0.00693065 0.00000000 0.00238139
1 0.00000000 0.03298761 0.00000000 0.03559373 0.00000000 0.01293824 0.00000000 0.00821729 0.00000000 0.00738548 0.00000000 0.00214056
5 0.82914484 0.05090916 0.19902737 0.07387257 0.10604440 0.08314928 0.04442263 0.10061997 0.11560425 0.08790351 0.05606585 0.10195549
2 0.00000000 0.04098456 0.00000000 0.02531032 0.00000000 0.01332224 0.00000000 0.00151277 0.00000000 0.00646256 0.00000000 0.00113025
6 0.73690403 0.44781196 0.20474534 0.16868128 0.05749691 0.09846491 0.01938447 0.01607376 0.06028141 0.03078764 0.04215510 0.02582988
2 0.00000000 0.01390178 0.00000000 0.01067461 0.00000000 0.01099529 0.00000000 0.00746782 0.00000000 0.00316001 0.00000000 0.00233508
0 0.00000000 0.01710243 0.00000000 0.00860658 0.00000000 0.01229975 0.00000000 0.00586092 0.00000000 0.00233915 0.00000000 0.00266932
2 0.00000000 0.04111550 0.00000000 0.03609157 0.00000000 0.01333309 0.00000000 0.00704419 0.00000000 0.00644224 0.00000000 0.00021482
4 0.00000000 0.04134990 0.00000000 0.03553471 0.00000000 0.01272096 0.00000000 0.00596010 0.00000000 0.00655372 0.00000000 0.00080206
3 0.01827471 0.05223621 0.02466130 0.00222053 0.00782949 0.00470395 0.00562325 0.00333921 0.00255396 0.00297150 0.00221720 0.00182954
0 0.00000000 0.03450655 0.00000000 0.01536387 0.00000000 0.01452747 0.00000000 0.00162298 0.00000000 0.00263669 0.00000000 0.00333111
3 0.00000000 0.02474656 0.00000000 0.00896212 0.00000000 0.01376915 0.00000000 0.00367966 0.00000000 0.00183481 0.00000000 0.00363886
0 0.00000001 0.03856753 0.00000000 0.01900997 0.00000000 0.01468654 0.00000000 0.00143574 0.00000000 0.00412035 0.00000000 0.00291369
6 0.00000000 0.04129722 0.00000000 0.03448828 0.00000000 0.01216228 0.00000000 0.00453330 0.00000001 0.00717761 0.00000000 0.00141465
3 0.00000000 0.00823286 0.00000000 0.02629751 0.00000000 0.00696216 0.00000000 0.00947846 0.00000000 0.00186394 0.00000000 0.00485133
2 0.00000000 0.03893612 0.00000000 0.03570698 0.00000000 0.01479655 0.00000000 0.00846589 0.00000000 0.00808200 0.00000000 0.00228376
3 0.00000000 0.01247344 0.00000000 0.01476147 0.00000000 0.00977461 0.00000000 0.00874966 0.00000000 0.00294418 0.00000000 0.00244341
4 0.00000001 0.00849131 0.00000000 0.02583363 0.00000000 0.00699668 0.00000000 0.00954821 0.00000000 0.00176434 0.00000000 0.00481045
3 0.99830866 0.46973810 0.12683034 0.16490881 0.08330416 0.07673478 0.03512491 0.06871976 0.01257091 0.02001716 0.02455044 0.03202795
5 0.00000000 0.01032507 0.00000000 0.02096542 0.00000000 0.00821374 0.00000000 0.00963665 0.00000000 0.00254351 0.00000000 0.00381969
3 0.85632616 0.26752096 0.28339913 0.15700743 0.11221738 0.02752788 0.05273571 0.04227845 0.02947578 0.01239119 0.00413317 0.00980264
4 0.00246578 0.02539838 0.00456083 0.00344071 0.00345869 0.00215617 0.00103532 0.00224663 0.00183554 0.00171510 0.00149843 0.00042476
1 0.00000000 0.04001551 0.00000000 0.02339453 0.00000000 0.01362330 0.00000000 0.00168077 0.00000000 0.00572325 0.00000000 0.00145047
1 0.00739602 0.06411436 0.01801710 0.01861127 0.00715995 0.01082497 0.00190539 0.00375952 0.00247620 0.00506853 0.00289585 0.00390783
6 0.00000000 0.03833371 0.00000000 0.03543730 0.00000000 0.01485259 0.00000000 0.00831522 0.00000000 0.00838725 0.00000000 0.00234077
0 0.00000000 0.04104654 0.00000000 0.03626485 0.00000000 0.01336265 0.00000000 0.00722908 0.00000000 0.00645763 0.00000000 0.00063856
0 0.00000000 0.04130054 0.00000000 0.03470423 0.00000000 0.01221061 0.00000000 0.00469743 0.00000000 0.00709602 0.00000000 0.00150767
1 0.01813484 0.06580183 0.01815614 0.01663135 0.00776365 0.00886929 0.00375272 0.00572937 0.00402661 0.00413284 0.00249207 0.00368449
0 0.00000000 0.02898617 0.00000000 0.03652683 0.00000000 0.01175319 0.00000000 0.00892126 0.00000000 0.00681885 0.00000001 0.00260615
3 0.00000000 0.01206113 0.00000000 0.01582976 0.00000000 0.00940415 0.00000000 0.00897525 0.00000000 0.00291154 0.00000000 0.00278775
0 0.00000000 0.02297474 0.00000000 0.00833641 0.00000000 0.01373324 0.00000000 0.00430357 0.00000000 0.00187676 0.00000000 0.00338612
6 0.00000000 0.01633136 0.00000000 0.00873550 0.00000000 0.01244067 0.00000000 0.00610874 0.00000000 0.00253368 0.00000000 0.00256653
6 0.52589464 0.13166435 0.12622331 0.02503758 0.01624796 0.04313520 0.03232436 0.03226233 0.00562129 0.01814926 0.01460995 0.01011493
3 0.00000000 0.00864273 0.00000000 0.02502493 0.00000000 0.00711939 0.00000000 0.00972842 0.00000000 0.00196749 0.00000000 0.00472106
4 0.46533909 0.05728798 0.09236038 0.00622547 0.03687958 0.00776665 0.02396951 0.00305420 0.01211452 0.00546423 0.01145620 0.00314181
4 0.00000000 0.03988157 0.00000000 0.02205447 0.00000000 0.01382045 0.00000000 0.00146738 0.00000000 0.00567482 0.00000000 0.00225381
2 0.01381318 0.09852353 0.00756483 0.02909305 0.00316570 0.01663050 0.00028406 0.00863516 0.00173139 0.00731405 0.00052618 0.00470104
0 0.00000000 0.00867733 0.00000000 0.02558542 0.00000000 0.00711576 0.00000000 0.00957631 0.00000000 0.00193007 0.00000000 0.00467995
3 0.00000000 0.00000000 0.00000000 0.04019333 0.00000000 0.00000000 0.00000000 0.01254593 0.00000000 0.00000000 0.00000000 0.00612088
1 0.00000001 0.00888301 0.00000000 0.02553564 0.00000000 0.00713320 0.00000000 0.00948179 0.00000000 0.00197723 0.00000000 0.00471658
4 0.00000000 0.04104654 0.00000000 0.03626485 0.00000000 0.01336265 0.00000000 0.00722908 0.00000000 0.00645763 0.00000000 0.00063856
2 0.00000000 0.02420867 0.00000000 0.00857614 0.00000000 0.01373824 0.00000000 0.00405041 0.00000000 0.00152164 0.00000000 0.00354926
0 0.00000000 0.03871794 0.00000000 0.03562523 0.00000000 0.01476804 0.00000000 0.00837280 0.00000000 0.00814193 0.00000000 0.00225269
3 0.00000000 0.04216018 0.00000000 0.02982879 0.00000000 0.01244462 0.00000000 0.00195075 0.00000000 0.00759945 0.00000000 0.00088061
3 0.00000000 0.04215332 0.00000000 0.03024117 0.00000000 0.01236519 0.00000000 0.00201994 0.00000000 0.00760076 0.00000000 0.00106894
1 0.00000000 0.03008105 0.00000000 0.03636257 0.00000000 0.01200735 0.00000000 0.00869155 0.00000000 0.00693065 0.00000000 0.00238139
4 0.00540223 0.06135394 0.00641223 0.00357473 0.00529984 0.00239339 0.00212880 0.00100509 0.00057557 0.00043566 0.00111386 0.00089817
4 0.00000000 0.04140629 0.00000000 0.03500487 0.00000000 0.01193795 0.00000000 0.00458811 0.00000000 0.00712821 0.00000000 0.00129808
6 0.00000000 0.00044274 0.00000000 0.03903267 0.00000000 0.00126975 0.00000000 0.01118218 0.00000000 0.00142963 0.00000000 0.00487649
6 0.00000000 0.03237795 0.00000000 0.03578664 0.00000000 0.01263120 0.00000000 0.00827089 0.00000000 0.00718973 0.00000000 0.00212513
5 0.14217649 0.05800421 0.01902311 0.07597408 0.11423020 0.01134375 0.04147745 0.00722755 0.01272556 0.02331726 0.03286800 0.00845593
6 0.00000000 0.04096785 0.00000000 0.02493694 0.00000000 0.01341023 0.00000000 0.00155102 0.00000000 0.00636956 0.00000000 0.00113766
4 0.00003149 0.01119075 0.00003150 0.01986259 0.00003150 0.00862222 0.00003150 0.00946997 0.00003150 0.00272472 0.00003150 0.00345764
1 1.36089587 0.45279425 0.52430880 0.27860069 0.04062628 0.15779598 0.10366991 0.01719817 0.01946792 0.01811727 0.02298093 0.03494975
4 0.00669614 0.05346321 0.00487763 0.00560957 0.00493712 0.00264182 0.00262823 0.00129754 0.00239619 0.00168257 0.00074821 0.00120751
3 0.02060254 0.06190806 0.03230769 0.00135900 0.01361497 0.00147373 0.00514164 0.00108851 0.00510306 0.00060911 0.00295319 0.00177563
6 0.00000000 0.03910732 0.00000000 0.03602551 0.00000000 0.01469762 0.00000000 0.00846287 0.00000000 0.00810705 0.00000000 0.00243959
1 0.00000000 0.00958206 0.00000000 0.02212758 0.00000000 0.00780006 0.00000000 0.00958252 0.00000000 0.00221917 0.00000000 0.00395074
0 0.01309081 0.11137301 0.00396706 0.03739134 0.00055230 0.01877677 0.00062713 0.01107774 0.00045849 0.00778600 0.00048181 0.00562957
2 0.00000000 0.03851621 0.00000000 0.01929416 0.00000000 0.01460473 0.00000000 0.00154545 0.00000000 0.00434124 0.00000000 0.00301081
5 0.14648448 0.06459147 0.02626773 0.10187176 0.09443431 0.03512491 0.01340867 0.01132441 0.01404248 0.01885039 0.01255863 0.01373807
2 0.01684106 0.08341382 0.00672139 0.03175765 0.00160163 0.01377477 0.00111291 0.01057121 0.00256332 0.00638933 0.00220834 0.00523723
2 0.00000000 0.03480128 0.00000000 0.03560938 0.00000000 0.01341047 0.00000000 0.00803124 0.00000000 0.00763983 0.00000000 0.00181751
3 0.04049738 0.08605385 0.03512749 0.00546875 0.01309270 0.00142411 0.00698179 0.00115259 0.00456023 0.00053440 0.00383234 0.00156229
6 0.00000000 0.00642197 0.00000000 0.03071310 0.00000000 0.00619009 0.00000000 0.00913039 0.00000000 0.00267352 0.00000000 0.00472959
2 0.04086045 0.08758054 0.00699211 0.02619488 0.01152790 0.01176349 0.00795384 0.00695574 0.00575171 0.00196497 0.00542488 0.00177785
2 0.00000000 0.00000000 0.00000000 0.04019333 0.00000000 0.00000000 0.00000000 0.01254593 0.00000000 0.00000000 0.00000000 0.00612088
6 0.00000000 0.01292902 0.00000000 0.01382487 0.00000000 0.01006760 0.00000000 0.00858886 0.00000000 0.00309672 0.00000000 0.00231331
5 1.25178874 0.29904059 0.15116324 0.13823090 0.08186180 0.09111511 0.11599623 0.11033560 0.10113163 0.05378187 0.04194993 0.01953085
1 0.00000000 0.04066819 0.00000001 0.02446710 0.00000001 0.01347092 0.00000000 0.00161795 0.00000000 0.00615044 0.00000000 0.00126635
0 0.00000000 0.01311705 0.00000000 0.01393936 0.00000000 0.01002905 0.00000000 0.00855877 0.00000000 0.00318657 0.00000000 0.00237860
0 0.00000000 0.01936283 0.00000000 0.00802811 0.00000000 0.01272966 0.00000000 0.00533626 0.00000000 0.00205971 0.00000000 0.00301749
1 0.00695849 0.06284056 0.02135161 0.01874192 0.00829422 0.00995945 0.00181837 0.00519412 0.00069990 0.00388611 0.00120748 0.00246553
6 1.54963934 0.47417536 0.26461935 0.13431449 0.04172143 0.20109574 0.06433377 0.03274102 0.02607445 0.06030207 0.01515343 0.02202159
3 0.00000000 0.01283323 0.00000000 0.01491830 0.00000000 0.00978756 0.00000000 0.00881416 0.00000000 0.00288189 0.00000000 0.00255011
0 0.03174521 0.10336071 0.01169804 0.03379252 0.00320800 0.01575488 0.00218027 0.00890451 0.00244399 0.00552705 0.00280375 0.00361270
5 0.21778122 0.11976319 0.07733539 0.04647096 0.10592072 0.04302698 0.03467046 0.01249327 0.01031337 0.01299695 0.00378020 0.01053645
0 0.00000000 0.03420030 0.00000000 0.03340135 0.00000000 0.01297098 0.00000000 0.00688589 0.00000000 0.00712263 0.00000000 0.00125740
0 0.00000000 0.00000000 0.00000000 0.04019333 0.00000000 0.00000000 0.00000000 0.01254593 0.00000000 0.00000000 0.00000000 0.00612088
4 1.69007313 0.55046743 0.02832970 0.07199012 0.08090856 0.12844186 0.01341188 0.06223194 0.00620236 0.03366475 0.00815727 0.03099189
3 0.00000000 0.04093705 0.00000000 0.02513789 0.00000000 0.01331923 0.00000000 0.00149256 0.00000000 0.00631167 0.00000000 0.00091889
1 0.00000000 0.04056603 0.00000000 0.02384746 0.00000000 0.01355926 0.00000000 0.00165279 0.00000000 0.00606509 0.00000000 0.00166227
2 0.00000000 0.00000000 0.00000000 0.04019333 0.00000000 0.00000000 0.00000000 0.01254593 0.00000000 0.00000000 0.00000000 0.00612088
4 0.00319544 0.06243984 0.00154540 0.00048280 0.00327695 0.00284707 0.00078360 0.00203673 0.00062200 0.00052832 0.00168797 0.00158564
2 0.00000000 0.00000000 0.00000000 0.04019333 0.00000000 0.00000000 0.00000000 0.01254593 0.00000000 0.00000000 0.00000000 0.00612088
1 0.00000000 0.01951469 0.00000000 0.00818475 0.00000000 0.01288409 0.00000000 0.00522376 0.00000000 0.00235918 0.00000000 0.00296327
0 0.04881907 0.10404035 0.01761971 0.03545230 0.00309838 0.01493531 0.00461876 0.00793249 0.00327344 0.00489910 0.00296792 0.00295295
4 0.00331282 0.05716739 0.00536548 0.00575261 0.00490227 0.00313989 0.00126969 0.00096897 0.00170346 0.00074915 0.00086724 0.00143978
0 0.02943747 0.11114872 0.01523039 0.03732853 0.00278061 0.01890296 0.00039316 0.00996944 0.00084805 0.00734602 0.00118799 0.00450341
4 0.00000000 0.04123120 0.00000000 0.03368912 0.00000000 0.01179594 0.00000000 0.00351305 0.00000000 0.00767725 0.00000000 0.00181545
1 0.00000000 0.00804697 0.00000000 0.02658528 0.00000000 0.00688310 0.00000000 0.00953679 0.00000000 0.00183872 0.00000000 0.00470317
5 0.00000000 0.03437819 0.00000000 0.03559970 0.00000000 0.01332736 0.00000000 0.00816342 0.00000000 0.00745858 0.00000000 0.00187125
3 0.02369552 0.05097236 0.02248026 0.00482621 0.00847173 0.00462399 0.00590134 0.00288435 0.00543080 0.00072266 0.00379797 0.00176234
5 0.00000000 0.03206467 0.00000000 0.03607027 0.00000000 0.01265246 0.00000000 0.00844673 0.00000000 0.00725565 0.00000000 0.00220795
0 0.00000000 0.04224644 0.00000000 0.03249190 0.00000000 0.01221591 0.00000000 0.00299947 0.00000000 0.00761559 0.00000000 0.00182642
5 0.00000000 0.04046305 0.00000000 0.02340356 0.00000000 0.01354240 0.00000000 0.00165622 0.00000000 0.00599145 0.00000000 0.00168247
5 0.00000000 0.02729642 0.00000000 0.03639602 0.00000000 0.01141727 0.00000000 0.00895228 0.00000000 0.00684318 0.00000000 0.00282685
1 0.00000000 0.01498116 0.00000000 0.00917122 0.00000000 0.01206241 0.00000000 0.00667284 0.00000000 0.00256027 0.00000000 0.00262249
3 0.00000000 0.03475301 0.00000000 0.01485600 0.00000000 0.01465578 0.00000000 0.00121714 0.00000000 0.00214098 0.00000000 0.00361384
5 0.00000000 0.01243767 0.00000000 0.01545150 0.00000000 0.00956317 0.00000001 0.00891044 0.00000000 0.00295510 0.00000000 0.00281973
6 0.38441604 0.05882899 0.07690215 0.10846068 0.03292513 0.03145720 0.04740719 0.04406609 0.01926346 0.00491449 0.00925389 0.00350749
6 0.00743681 0.06662174 0.01779376 0.02260207 0.00736095 0.01179341 0.00508967 0.00930665 0.00130481 0.00571613 0.00084029 0.00537501
3 0.03818903 0.06258583 0.03443722 0.00970931 0.01378233 0.00306418 0.00576133 0.00240802 0.00412497 0.00074496 0.00242186 0.00235304
1 0.00000000 0.00090096 0.00000000 0.03853985 0.00000000 0.00183635 0.00000000 0.01087001 0.00000000 0.00190895 0.00000000 0.00491908
3 0.00000000 0.00000000 0.00000000 0.04019333 0.00000000 0.00000000 0.00000000 0.01254593 0.00000000 0.00000000 0.00000000 0.00612088
1 0.03001057 0.06570470 0.02118132 0.02550349 0.00069352 0.01113358 0.00261720 0.00614295 0.00314869 0.00340204 0.00170467 0.00247700
2 0.00000000 0.00593863 0.00000000 0.03119379 0.00000000 0.00605356 0.00000000 0.00919054 0.00000000 0.00296282 0.00000000 0.00477524
1 0.00000000 0.01331563 0.00000000 0.01239848 0.00000000 0.01046589 0.00000000 0.00830073 0.00000000 0.00313761 0.00000000 0.00229010
0 0.02638575 0.10921974 0.00819611 0.03689345 0.00236859 0.01732732 0.00170652 0.01310078 0.00123211 0.00843137 0.00103789 0.00477197
4 0.00000000 0.00300959 0.00000000 0.03647852 0.00000000 0.00413874 0.00000000 0.01046128 0.00000000 0.00330109 0.00000000 0.00568240
0 0.03938795 0.10418455 0.01153617 0.03397811 0.00629695 0.01865401 0.00060803 0.00819072 0.00160567 0.00514779 0.00247032 0.00442004
0 0.00000000 0.01061140 0.00000000 0.02041663 0.00000000 0.00822966 0.00000000 0.00955270 0.00000000 0.00248572 0.00000000 0.00370548
0 0.00000000 0.01355652 0.00000000 0.01090917 0.00000001 0.01077347 0.00000001 0.00750983 0.00000000 0.00309012 0.00000000 0.00220980
0 0.00000000 0.00730335 0.00000000 0.02800404 0.00000000 0.00650869 0.00000000 0.00928602 0.00000000 0.00195175 0.00000000 0.00476698
4 0.00000000 0.01421337 0.00000000 0.01021505 0.00000000 0.01123155 0.00000000 0.00707139 0.00000000 0.00312180 0.00000000 0.00228572
4 0.01340611 0.04497764 0.01432928 0.00632148 0.00672465 0.00284979 0.00443914 0.00234954 0.00153078 0.00226642 0.00083158 0.00155262
1 0.00000000 0.01951469 0.00000000 0.00818475 0.00000000 0.01288409 0.00000000 0.00522376 0.00000000 0.00235918 0.00000000 0.00296327
0 0.00000000 0.01457626 0.00000000 0.00924586 0.00000000 0.01175635 0.00000000 0.00658161 0.00000000 0.00304996 0.00000000 0.00258510
1 0.00000000 0.02874727 0.00000000 0.03653419 0.00000000 0.01162301 0.00000000 0.00890889 0.00000000 0.00675117 0.00000000 0.00263419
1 0.00000000 0.04096785 0.00000000 0.02493694 0.00000000 0.01341023 0.00000000 0.00155102 0.00000000 0.00636956 0.00000000 0.00113766
6 0.00000000 0.03491439 0.00000000 0.03489983 0.00000000 0.01373511 0.00000000 0.00800086 0.00000000 0.00746731 0.00000000 0.00166805
0 0.00000000 0.01826857 0.00000000 0.00826059 0.00000000 0.01270788 0.00000000 0.00544674 0.00000000 0.00265992 0.00000000 0.00282363
3 0.94150388 0.56346482 0.10606716 0.16554919 0.05993019 0.04189712 0.02372986 0.01271218 0.00929878 0.02049197 0.00890522 0.01737329
6 0.00000000 0.02910375 0.00000000 0.03634814 0.00000000 0.01176785 0.00000000 0.00879541 0.00000000 0.00684159 0.00000000 0.00258165
2 0.02380458 0.08519966 0.00159332 0.03468826 0.00211454 0.01413772 0.00136944 0.00773793 0.00193896 0.00605932 0.00127293 0.00491251
0 0.00000000 0.04034353 0.00000000 0.02342105 0.00000000 0.01363419 0.00000000 0.00163645 0.00000000 0.00584406 0.00000000 0.00176465
2 0.00000000 0.02647106 0.00000000 0.00952425 0.00000000 0.01422895 0.00000000 0.00331861 0.00000000 0.00119126 0.00000000 0.00389790
0 0.00000000 0.03374479 0.00000000 0.03558920 0.00000000 0.01288238 0.00000001 0.00796635 0.00000000 0.00734394 0.00000000 0.00186346
0 0.00000000 0.04216018 0.00000000 0.02982879 0.00000000 0.01244462 0.00000000 0.00195075 0.00000000 0.00759945 0.00000000 0.00088061
4 0.00000000 0.04104753 0.00000000 0.02557265 0.00000000 0.01318426 0.00000000 0.00137976 0.00000000 0.00647484 0.00000000 0.00096545
3 0.00000000 0.01269354 0.00000000 0.01383956 0.00000000 0.01002451 0.00000000 0.00861655 0.00000000 0.00314985 0.00000000 0.00238781
5 0.14792801 0.02999870 0.00222275 0.04161598 0.10326262 0.03510261 0.03306003 0.00726326 0.01827943 0.02193558 0.02256089 0.00671928
5 0.15327804 0.04402341 0.00999682 0.06126346 0.11073426 0.01743673 0.03101754 0.01528468 0.00559154 0.01091625 0.01386811 0.01362489
6 1.68083811 0.67998451 0.05614600 0.14815721 0.09352311 0.12266147 0.16936716 0.04605224 0.04440237 0.08443114 0.03363311 0.06380478
3 0.95096612 0.53071332 0.14662933 0.09630327 0.05255782 0.02952413 0.06027241 0.02669662 0.02810125 0.02647071 0.01516864 0.02362959
1 0.00000000 0.02208485 0.00000000 0.00812574 0.00000000 0.01339703 0.00000000 0.00465777 0.00000000 0.00174136 0.00000000 0.00326078
4 0.00000000 0.02892540 0.00000000 0.03657502 0.00000000 0.01168257 0.00000000 0.00894111 0.00000000 0.00675227 0.00000000 0.00260539
6 0.00000000 0.03358687 0.00000000 0.03558980 0.00000001 0.01288241 0.00000001 0.00804252 0.00000000 0.00731339 0.00000000 0.00196471
1 0.00000000 0.02766219 0.00000000 0.03664796 0.00000000 0.01155290 0.00000000 0.00932440 0.00000000 0.00661810 0.00000000 0.00299352
2 0.02497610 0.06893013 0.00620366 0.02249894 0.00238730 0.00769334 0.00224760 0.00587487 0.00353281 0.00255246 0.00129184 0.00257622
4 0.00000000 0.04023415 0.00000000 0.02315598 0.00000000 0.01384091 0.00000000 0.00194219 0.00000000 0.00543954 0.00000000 0.00153116
5 0.00000000 0.02483623 0.00000000 0.00909337 0.00000000 0.01370478 0.00000000 0.00358310 0.00000000 0.00171824 0.00000000 0.00362002
3 0.00000000 0.01724493 0.00000000 0.00863424 0.00000000 0.01222509 0.00000000 0.00572045 0.00000000 0.00274369 0.00000000 0.00264349
4 0.00268907 0.06582872 0.00179390 0.00590802 0.00370326 0.00575639 0.00246673 0.00313276 0.00105742 0.00208996 0.00117769 0.00141921
3 0.00000000 0.03012971 0.00000000 0.03617686 0.00000000 0.01209039 0.00000000 0.00858021 0.00000000 0.00705514 0.00000000 0.00240996
4 0.00000000 0.00651319 0.00000000 0.03042031 0.00000000 0.00625030 0.00000000 0.00922886 0.00000000 0.00250617 0.00000000 0.00476225
2 0.00000000 0.02656448 0.00000000 0.00952332 0.00000000 0.01427848 0.00000000 0.00331527 0.00000000 0.00124631 0.00000000 0.00387390
6 0.00000000 0.04106175 0.00000000 0.03368415 0.00000000 0.01230812 0.00000000 0.00426843 0.00000000 0.00737437 0.00000000 0.00162607
2 0.04628711 0.08775790 0.01010524 0.02769233 0.00357524 0.01330207 0.00332811 0.00947857 0.00023431 0.00551979 0.00224385 0.00216172
6 0.50704134 0.06772619 0.10983817 0.09066278 0.07937197 0.04513786 0.04469850 0.03875696 0.02326154 0.02088817 0.00423490 0.01097213
0 0.00000000 0.03871794 0.00000000 0.03562523 0.00000000 0.01476804 0.00000000 0.00837280 0.00000000 0.00814193 0.00000000 0.00225269
5 0.00000000 0.02835416 0.00000000 0.03667275 0.00000000 0.01152680 0.00000000 0.00901656 0.00000000 0.00674532 0.00000000 0.00270283
6 0.00000000 0.03443852 0.00000000 0.03554240 0.00000000 0.01326710 0.00000000 0.00805574 0.00000000 0.00748921 0.00000000 0.00191645
1 0.00000000 0.03240891 0.00000000 0.03624186 0.00000000 0.01274226 0.00000000 0.00855483 0.00000000 0.00726769 0.00000000 0.00223682
2 0.00000000 0.03478768 0.00000000 0.01510332 0.00000000 0.01474145 0.00000000 0.00142222 0.00000000 0.00233139 0.00000000 0.00362870
5 0.00000000 0.04123431 0.00000000 0.02575871 0.00000000 0.01314723 0.00000000 0.00149983 0.00000000 0.00656873 0.00000000 0.00072295
4 0.00000000 0.01408289 0.00000000 0.01041355 0.00000000 0.01097270 0.00000000 0.00737080 0.00000000 0.00309773 0.00000000 0.00241803
4 0.00000000 0.04128293 0.00000000 0.03557649 0.00000000 0.01270329 0.00000000 0.00584291 0.00000000 0.00684101 0.00000000 0.00066359
1 0.00000000 0.01272214 0.00000000 0.01318742 0.00000000 0.01023386 0.00000000 0.00867095 0.00000000 0.00302153 0.00000000 0.00240590
1 1.26477301 0.36952522 0.49178919 0.24523841 0.06268348 0.15297127 0.09504545 0.02435738 0.03343626 0.01097608 0.01584792 0.04462918
3 0.02228074 0.06633893 0.02957074 0.00752177 0.01442459 0.00360775 0.00659376 0.00163075 0.00369969 0.00071734 0.00291148 0.00188857
5 0.00000000 0.03900347 0.00000000 0.02000202 0.00000000 0.01455885 0.00000000 0.00146101 0.00000000 0.00443523 0.00000000 0.00271858
6 0.00000000 0.00000000 0.00000000 0.04019333 0.00000000 0.00000000 0.00000000 0.01254593 0.00000000 0.00000000 0.00000000 0.00612088
4 0.00000000 0.03236767 0.00000000 0.01342356 0.00000000 0.01468901 0.00000000 0.00158591 0.00000000 0.00194035 0.00000000 0.00398391
1 0.00000000 0.03507164 0.00000000 0.03508090 0.00000000 0.01368801 0.00000000 0.00799481 0.00000000 0.00745687 0.00000000 0.00169605
6 1.18714225 0.66014189 0.07298068 0.15489510 0.10476715 0.11890926 0.01016867 0.05529060 0.01502343 0.01089645 0.04227411 0.01771836
6 0.00000000 0.01147116 0.00000000 0.01781638 0.00000000 0.00896860 0.00000000 0.00920856 0.00000000 0.00286677 0.00000000 0.00285126
2 0.00946611 0.07954703 0.00419968 0.01937008 0.00172164 0.01177804 0.00118565 0.00620333 0.00094353 0.00429341 0.00139222 0.00276076
4 0.00185402 0.06190486 0.00735705 0.00229469 0.00150255 0.00357954 0.00227456 0.00177677 0.00144017 0.00154458 0.00089141 0.00098576
2 0.00000000 0.04126571 0.00000000 0.03575816 0.00000000 0.01281738 0.00000000 0.00621659 0.00000000 0.00653102 0.00000000 0.00058394
0 0.00000000 0.01603380 0.00000000 0.00890215 0.00000000 0.01227285 0.00000000 0.00612819 0.00000000 0.00245790 0.00000000 0.00263824
2 0.00000000 0.00122111 0.00000000 0.03823503 0.00000000 0.00213345 0.00000000 0.01060343 0.00000000 0.00217360 0.00000000 0.00475730
3 0.00000001 0.01287434 0.00000000 0.01477423 0.00000001 0.00974762 0.00000000 0.00865053 0.00000000 0.00301430 0.00000000 0.00253535
2 0.00000000 0.04170289 0.00000000 0.02779411 0.00000000 0.01282301 0.00000000 0.00176374 0.00000000 0.00715350 0.00000000 0.00017897
1 0.00000000 0.01201599 0.00000000 0.01709286 0.00000000 0.00918445 0.00000000 0.00911457 0.00000000 0.00277082 0.00000000 0.00277897
6 0.00000000 0.03916715 0.00000000 0.02043662 0.00000000 0.01427563 0.00000000 0.00152513 0.00000000 0.00461258 0.00000000 0.00247272
3 0.00003807 0.02788764 0.00003807 0.00981182 0.00003808 0.01454816 0.00003807 0.00291962 0.00003808 0.00116147 0.00003807 0.00399664
4 0.00000000 0.04033139 0.00000000 0.02340268 0.00000000 0.01363851 0.00000000 0.00171607 0.00000000 0.00556121 0.00000000 0.00133797
2 0.00000000 0.03515151 0.00000000 0.03394904 0.00000000 0.01327223 0.00000000 0.00702959 0.00000000 0.00737084 0.00000000 0.00114154
0 0.00000000 0.04226143 0.00000000 0.03210088 0.00000000 0.01231234 0.00000000 0.00274162 0.00000000 0.00780003 0.00000000 0.00168558
2 0.00000000 0.00842999 0.00000000 0.02516316 0.00000000 0.00711879 0.00000000 0.00943100 0.00000000 0.00172664 0.00000000 0.00455738
1 0.00000000 0.04211043 0.00000000 0.03291304 0.00000000 0.01196989 0.00000000 0.00307010 0.00000000 0.00758180 0.00000000 0.00176185
2 0.01148140 0.07294694 0.00867349 0.02099123 0.00152840 0.00958023 0.00207077 0.00539772 0.00242867 0.00255918 0.00064028 0.00442144
4 0.00000000 0.00774414 0.00000000 0.02701073 0.00000000 0.00676656 0.00000000 0.00960667 0.00000000 0.00183648 0.00000000 0.00488830
0 0.00000000 0.01033299 0.00000000 0.02189049 0.00000000 0.00792245 0.00000000 0.00956394 0.00000000 0.00208477 0.00000000 0.00403336
4 0.00000000 0.02995503 0.00000000 0.03606058 0.00000000 0.01181452 0.00000000 0.00837653 0.00000000 0.00700715 0.00000000 0.00244261
4 0.00000000 0.03884783 0.00000000 0.03570777 0.00000000 0.01476238 0.00000000 0.00836512 0.00000000 0.00816909 0.00000000 0.00224906
1 0.01191595 0.05558844 0.01185392 0.01663606 0.00682066 0.01113596 0.00473326 0.00778664 0.00228566 0.00394706 0.00324024 0.00208541
5 0.25634393 0.09824284 0.09062520 0.14055693 0.02424880 0.01840148 0.02377763 0.00980446 0.01469367 0.00369441 0.01370337 0.03361940
6 0.01882364 0.06583987 0.00352428 0.02572269 0.00809658 0.01416864 0.00301074 0.01042542 0.00364457 0.00486475 0.00285075 0.00250798
4 0.00000000 0.04136764 0.00000000 0.03496901 0.00000000 0.01191723 0.00000000 0.00457438 0.00000000 0.00710943 0.00000000 0.00144311
1 0.00000000 0.04052817 0.00000000 0.02358565 0.00000000 0.01366253 0.00000000 0.00165788 0.00000000 0.00598913 0.00000000 0.00170941
3 0.00000000 0.02393667 0.00000000 0.00838710 0.00000000 0.01388981 0.00000000 0.00420571 0.00000000 0.00189153 0.00000000 0.00352670
3 0.95985603 0.54182422 0.06576923 0.18919808 0.07057104 0.04679767 0.02080537 0.05388937 0.01407261 0.03191159 0.02650690 0.01182630
2 0.00000000 0.00736295 0.00000000 0.02824980 0.00000000 0.00661162 0.00000000 0.00942522 0.00000000 0.00206078 0.00000000 0.00484159
2 0.01944953 0.08314231 0.00741102 0.01857682 0.00345736 0.01231776 0.00258307 0.00857157 0.00171123 0.00504241 0.00176331 0.00407236
0 0.00000000 0.00760009 0.00000000 0.02858118 0.00000000 0.00658181 0.00000000 0.00919940 0.00000000 0.00207152 0.00000000 0.00477786
5 0.00000000 0.03372383 0.00000000 0.01457957 0.00000000 0.01486473 0.00000000 0.00164219 0.00000000 0.00239562 0.00000000 0.00373588
3 0.00000000 0.04126589 0.00000000 0.03565798 0.00000000 0.01278377 0.00000000 0.00613459 0.00000000 0.00652037 0.00000000 0.00070304
2 0.00000000 0.03415996 0.00000000 0.03526429 0.00000000 0.01308742 0.00000000 0.00793887 0.00000000 0.00729682 0.00000000 0.00183411
3 0.00000000 0.01348087 0.00000000 0.01130444 0.00000000 0.01080730 0.00000000 0.00774987 0.00000000 0.00300177 0.00000000 0.00205165
3 0.03479569 0.01397668 0.04090327 0.02425111 0.01959779 0.01030721 0.00652263 0.00213098 0.00339670 0.00249964 0.00308163 0.00045261
1 0.00000000 0.03946669 0.00000000 0.03599149 0.00000000 0.01460482 0.00000000 0.00834639 0.00000000 0.00793477 0.00000000 0.00217655
1 0.00000000 0.00863113 0.00000001 0.02598595 0.00000000 0.00699102 0.00000000 0.00948196 0.00000000 0.00172990 0.00000000 0.00476010
6 0.00000000 0.04001836 0.00000000 0.02299226 0.00000000 0.01364206 0.00000000 0.00187000 0.00000000 0.00524632 0.00000000 0.00159757
1 0.00000000 0.04214965 0.00000000 0.02990236 0.00000000 0.01235876 0.00000000 0.00188308 0.00000000 0.00758695 0.00000000 0.00079267
2 0.00000000 0.04214965 0.00000000 0.02990236 0.00000000 0.01235876 0.00000000 0.00188308 0.00000000 0.00758695 0.00000000 0.00079267
0 0.00000000 0.01133406 0.00000000 0.01800688 0.00000000 0.00897004 0.00000000 0.00938994 0.00000000 0.00279004 0.00000000 0.00300928
5 0.00000000 0.00000000 0.00000000 0.04019333 0.00000000 0.00000000 0.00000000 0.01254593 0.00000000 0.00000000 0.00000000 0.00612088
3 0.00000000 0.04147302 0.00000000 0.03494187 0.00000000 0.01208488 0.00000000 0.00456696 0.00000000 0.00730026 0.00000000 0.00123671
4 0.00000000 0.01292226 0.00000000 0.01324439 0.00000000 0.01015283 0.00000000 0.00861385 0.00000000 0.00298555 0.00000000 0.00239299
2 0.03229696 0.08701360 0.00453094 0.03648249 0.00448301 0.01073303 0.00125940 0.01091266 0.00173441 0.00560361 0.00276826 0.00328190
4 0.00000000 0.04138461 0.00000000 0.02605846 0.00000001 0.01312937 0.00000000 0.00151311 0.00000000 0.00675329 0.00000000 0.00073795
3 0.00000000 0.00000000 0.00000000 0.04019333 0.00000000 0.00000000 0.00000000 0.01254593 0.00000000 0.00000000 0.00000000 0.00612088
3 0.00000000 0.04192097 0.00000000 0.03201827 0.00000000 0.01216190 0.00000000 0.00261723 0.00000000 0.00771577 0.00000000 0.00170758
6 0.00000000 0.00576235 0.00000000 0.03251714 0.00000000 0.00590506 0.00000000 0.00925956 0.00000000 0.00326502 0.00000000 0.00470805
4 0.00000000 0.03764451 0.00000000 0.01832424 0.00000000 0.01483585 0.00000000 0.00148017 0.00000000 0.00374327 0.00000000 0.00332323
3 0.00279173 0.03527505 0.02608036 0.00175542 0.00660757 0.00382142 0.00827368 0.00177721 0.00360077 0.00069231 0.00413232 0.00086097
0 0.02828159 0.11134400 0.00990721 0.03512243 0.00132935 0.01962981 0.00215879 0.01279277 0.00042352 0.00735726 0.00117787 0.00567045
5 0.12554589 0.04550306 0.03867992 0.06812134 0.09488135 0.01974027 0.04044066 0.01331701 0.02665691 0.02789212 0.02277946 0.01432843
4 0.00000000 0.03955460 0.00000000 0.03607488 0.00000000 0.01455551 0.00000000 0.00836573 0.00000000 0.00773013 0.00000000 0.00211034
0 0.00000000 0.04120176 0.00000000 0.03355982 0.00000000 0.01237804 0.00000000 0.00420699 0.00000000 0.00744783 0.00000001 0.00155641
2 0.00740176 0.09981549 0.00322837 0.03097976 0.00341982 0.01531752 0.00128461 0.00913216 0.00088583 0.00707871 0.00175253 0.00393839
3 0.00000000 0.04170289 0.00000000 0.02779411 0.00000000 0.01282301 0.00000000 0.00176374 0.00000000 0.00715350 0.00000000 0.00017897
4 0.00000000 0.04102368 0.00000000 0.03621998 0.00000000 0.01346226 0.00000000 0.00731711 0.00000000 0.00642249 0.00000000 0.00073317
2 0.01335572 0.08051693 0.00223647 0.02578928 0.00201670 0.01084456 0.00194020 0.00746867 0.00150678 0.00533147 0.00060400 0.00346535
3 0.00000000 0.04133132 0.00000000 0.02617697 0.00000001 0.01317072 0.00000000 0.00156174 0.00000000 0.00674877 0.00000000 0.00072132
2 0.00000000 0.03395834 0.00000000 0.01448845 0.00000000 0.01491201 0.00000000 0.00137160 0.00000000 0.00205728 0.00000000 0.00382250
3 0.01284955 0.06431006 0.03358116 0.00465905 0.01705136 0.00652888 0.00710386 0.00158607 0.00558540 0.00131143 0.00328278 0.00246029
5 0.00000000 0.02806945 0.00000000 0.01014720 0.00000000 0.01453017 0.00000000 0.00284255 0.00000000 0.00118920 0.00000000 0.00400428
1 0.00000000 0.04139812 0.00000000 0.03508780 0.00000000 0.01222175 0.00000000 0.00483039 0.00000000 0.00735775 0.00000000 0.00099458
0 0.00000000 0.01181092 0.00000000 0.01745630 0.00000000 0.00899901 0.00000000 0.00918427 0.00000000 0.00297656 0.00000000 0.00312032
5 0.22284839 0.08942322 0.02417419 0.08128358 0.11825198 0.01502318 0.04263115 0.01987603 0.01590509 0.01000664 0.01926912 0.01171191
3 0.00000000 0.03440223 0.00000000 0.01508542 0.00000000 0.01479052 0.00000000 0.00185129 0.00000000 0.00255320 0.00000000 0.00345082
3 0.00000000 0.00000000 0.00000000 0.04019333 0.00000000 0.00000000 0.00000000 0.01254593 0.00000000 0.00000000 0.00000000 0.00612088
0 0.00000000 0.00512974 0.00000000 0.03348911 0.00000000 0.00574476 0.00000000 0.00942812 0.00000000 0.00366321 0.00000000 0.00481712
6 0.00000000 0.03817138 0.00000000 0.03536920 0.00000000 0.01466329 0.00000000 0.00812525 0.00000000 0.00840659 0.00000000 0.00236051
2 0.00000001 0.01040817 0.00000000 0.02061575 0.00000000 0.00808415 0.00000000 0.00958708 0.00000000 0.00232582 0.00000000 0.00375841
1 0.00000000 0.04188903 0.00000000 0.03078691 0.00000000 0.01207486 0.00000000 0.00194051 0.00000000 0.00782017 0.00000000 0.00098653
4 0.00000001 0.01040817 0.00000000 0.02061575 0.00000000 0.00808415 0.00000000 0.00958708 0.00000000 0.00232582 0.00000000 0.00375841
5 0.00000000 0.02773018 0.00000000 0.03667402 0.00000000 0.01158033 0.00000000 0.00938947 0.00000000 0.00657221 0.00000000 0.00297417
2 0.02033931 0.09045692 0.00326450 0.02760088 0.00423774 0.01146090 0.00226737 0.00812971 0.00223256 0.00555052 0.00206918 0.00347975
0 0.04580881 0.10747705 0.02466182 0.03664612 0.00172413 0.01556379 0.00404158 0.00763177 0.00528754 0.00623379 0.00335790 0.00386435
1 2.18439984 0.57074529 0.06358484 0.11845776 0.15642142 0.10762709 0.04234550 0.03565829 0.03420415 0.04315757 0.02451356 0.04115627
1 0.00000001 0.00833908 0.00000000 0.02644935 0.00000000 0.00682826 0.00000000 0.00941169 0.00000000 0.00175289 0.00000000 0.00471392
4 0.00000000 0.01094512 0.00000000 0.01959121 0.00000000 0.00870867 0.00000000 0.00948794 0.00000000 0.00272368 0.00000000 0.00334274
5 0.00000000 0.01357598 0.00000000 0.01138236 0.00000000 0.01078855 0.00000000 0.00769795 0.00000000 0.00307603 0.00000000 0.00201439
0 0.00000000 0.01384015 0.00000000 0.01093951 0.00000000 0.01096048 0.00000000 0.00767129 0.00000000 0.00306982 0.00000000 0.00234510
0 0.02560278 0.10406808 0.00886953 0.03552442 0.00192717 0.01682706 0.00101401 0.00961155 0.00173109 0.00661312 0.00116919 0.00525149
0 0.00000000 0.03948652 0.00000000 0.02148366 0.00000000 0.01404323 0.00000000 0.00142679 0.00000000 0.00518586 0.00000000 0.00222379
3 0.00000000 0.01083155 0.00000000 0.01981629 0.00000000 0.00865218 0.00000000 0.00955290 0.00000000 0.00269141 0.00000000 0.00338578
3 0.00000000 0.00053664 0.00000000 0.03912163 0.00000000 0.00118227 0.00000000 0.01130702 0.00000000 0.00129481 0.00000000 0.00495522
4 0.00851394 0.05512799 0.00956246 0.00134735 0.00427429 0.00451990 0.00171616 0.00233292 0.00236351 0.00080710 0.00181839 0.00177167
2 0.00000000 0.02787625 0.00000000 0.03680138 0.00000000 0.01153499 0.00000000 0.00944171 0.00000000 0.00643255 0.00000000 0.00281373
2 0.00000000 0.01755377 0.00000000 0.00838304 0.00000000 0.01243937 0.00000000 0.00581071 0.00000000 0.00264056 0.00000000 0.00280653
6 0.02733441 0.08126532 0.01368851 0.02432032 0.00577646 0.01260059 0.00537810 0.01008954 0.00197476 0.00605173 0.00181006 0.00419934
5 0.00000000 0.03518786 0.00000000 0.03559608 0.00000000 0.01362913 0.00000000 0.00807584 0.00000000 0.00793130 0.00000000 0.00242548
0 0.00000000 0.04061075 0.00000000 0.02388932 0.00000000 0.01354463 0.00000000 0.00169423 0.00000000 0.00605982 0.00000000 0.00169682
2 0.00000000 0.03742713 0.00000000 0.03491623 0.00000000 0.01451342 0.00000000 0.00786269 0.00000000 0.00837241 0.00000000 0.00210231
1 0.00000000 0.00595689 0.00000000 0.03233391 0.00000000 0.00605789 0.00000000 0.00919058 0.00000000 0.00336891 0.00000000 0.00471860
3 0.00000000 0.01394332 0.00000000 0.01082982 0.00000000 0.01100021 0.00000000 0.00760431 0.00000000 0.00314619 0.00000000 0.00228315
5 0.00000000 0.03961810 0.00000000 0.02180240 0.00000000 0.01405995 0.00000000 0.00163457 0.00000000 0.00521018 0.00000000 0.00225803
4 0.00000000 0.04191610 0.00000000 0.03171077 0.00000000 0.01228961 0.00000000 0.00239480 0.00000000 0.00795395 0.00000000 0.00129791
0 0.00000000 0.01354712 0.00000000 0.01167681 0.00000000 0.01074302 0.00000000 0.00797694 0.00000000 0.00291315 0.00000000 0.00213066
3 0.00000000 0.00000000 0.00000000 0.04019333 0.00000000 0.00000000 0.00000000 0.01254593 0.00000000 0.00000000 0.00000000 0.00612088
0 0.03376315 0.10035053 0.01146102 0.03281044 0.00286109 0.01595845 0.00283026 0.00911414 0.00251053 0.00565639 0.00228272 0.00356423
4 0.00000000 0.00893899 0.00000000 0.02352295 0.00000000 0.00741909 0.00000000 0.00951063 0.00000000 0.00195723 0.00000000 0.00427738
3 0.00000000 0.02877609 0.00000000 0.01069209 0.00000000 0.01455588 0.00000000 0.00272786 0.00000000 0.00104132 0.00000000 0.00395053
4 0.00000000 0.04115169 0.00000000 0.03571898 0.00000000 0.01298616 0.00000000 0.00639528 0.00000000 0.00651919 0.00000000 0.00043024
6 0.03691877 0.06684531 0.02085341 0.02311392 0.00627530 0.01378759 0.00429450 0.00882061 0.00222467 0.00683582 0.00061360 0.00423425
5 0.00000000 0.04130890 0.00000000 0.03541491 0.00000000 0.01266453 0.00000000 0.00573923 0.00000001 0.00673937 0.00000000 0.00083178
1 0.00000000 0.01281372 0.00000000 0.01467689 0.00000000 0.00977528 0.00000000 0.00866975 0.00000000 0.00288865 0.00000000 0.00241799
0 0.00000000 0.03909733 0.00000000 0.03602498 0.00000000 0.01460680 0.00000000 0.00846469 0.00000000 0.00793182 0.00000000 0.00222182
3 0.00000000 0.03487275 0.00000000 0.03561267 0.00000000 0.01342320 0.00000000 0.00802082 0.00000000 0.00763711 0.00000000 0.00180474
0 0.00000000 0.04195975 0.00000000 0.03214677 0.00000000 0.01228906 0.00000000 0.00283436 0.00000000 0.00768600 0.00000000 0.00138569
5 0.22492480 0.12725264 0.03921317 0.21119669 0.00565344 0.03902365 0.01349390 0.01095860 0.01784000 0.02326190 0.01275156 0.01951265
5 0.00000000 0.03903420 0.00000000 0.03592907 0.00000000 0.01476295 0.00000000 0.00849658 0.00000000 0.00803973 0.00000000 0.00239368
1 0.00000000 0.02609750 0.00000001 0.00930598 0.00000000 0.01421160 0.00000000 0.00345333 0.00000000 0.00135742 0.00000000 0.00379803
6 0.00000000 0.03961119 0.00000000 0.02185785 0.00000000 0.01399474 0.00000000 0.00161623 0.00000000 0.00522375 0.00000000 0.00222639
2 0.00000000 0.03578110 0.00000000 0.01585041 0.00000000 0.01469077 0.00000000 0.00131376 0.00000000 0.00285361 0.00000001 0.00362677
5 0.00000000 0.00970012 0.00000000 0.02162526 0.00000000 0.00775038 0.00000000 0.00945230 0.00000000 0.00211799 0.00000000 0.00383512
2 0.00000000 0.00598853 0.00000000 0.03189918 0.00000000 0.00611024 0.00000000 0.00918624 0.00000000 0.00322985 0.00000000 0.00460917
2 0.00000000 0.01380987 0.00000000 0.00956580 0.00000000 0.01138937 0.00000000 0.00686283 0.00000000 0.00280580 0.00000000 0.00238734
2 0.00004031 0.03538818 0.00004031 0.03544601 0.00004031 0.01343708 0.00004031 0.00785472 0.00004032 0.00753585 0.00004032 0.00184692
2 0.01200382 0.07041936 0.00148277 0.02146195 0.00202246 0.00928502 0.00274297 0.00653348 0.00178071 0.00469054 0.00107098 0.00273858
6 0.04099787 0.05295918 0.02903092 0.02852364 0.00868212 0.01229563 0.00262459 0.00751463 0.00229200 0.00645446 0.00171989 0.00541620
3 0.00000000 0.01420898 0.00000000 0.01067317 0.00000000 0.01094953 0.00000000 0.00746389 0.00000000 0.00302950 0.00000000 0.00236660
1 0.00000000 0.03916742 0.00000000 0.02076983 0.00000000 0.01436306 0.00000000 0.00163475 0.00000000 0.00482821 0.00000000 0.00236506
6 1.54285502 0.30736229 0.20253100 0.15471239 0.06832529 0.05779761 0.09993199 0.09638103 0.04582225 0.06831095 0.05631835 0.05797729
5 0.00000000 0.02824705 0.00000000 0.01017169 0.00000000 0.01445926 0.00000000 0.00269749 0.00000000 0.00115551 0.00000000 0.00399530
1 0.00000000 0.02347668 0.00000000 0.00818724 0.00000000 0.01379540 0.00000000 0.00449005 0.00000000 0.00156530 0.00000000 0.00351109
3 0.00000000 0.04112772 0.00000000 0.03590971 0.00000000 0.01309043 0.00000000 0.00668973 0.00000000 0.00640287 0.00000000 0.00033966
0 0.01181514 0.11184109 0.01079329 0.03802705 0.00223841 0.01935039 0.00142298 0.01228231 0.00055239 0.00734473 0.00062133 0.00534748
5 0.00000000 0.01909995 0.00000000 0.00831588 0.00000000 0.01257286 0.00000000 0.00519988 0.00000000 0.00238958 0.00000000 0.00308161
0 0.00000000 0.02913939 0.00000000 0.03646614 0.00000000 0.01169210 0.00000000 0.00881518 0.00000000 0.00680393 0.00000000 0.00259863
2 0.03651454 0.08319756 0.01246027 0.03130189 0.00741475 0.01647284 0.00258403 0.00936630 0.00369007 0.00480721 0.00100686 0.00358079
6 0.02493355 0.07155938 0.01499530 0.01667815 0.00678503 0.01260688 0.00410645 0.00890671 0.00397461 0.00646818 0.00386339 0.00516935
6 0.00000000 0.00014328 0.00000000 0.03963293 0.00000000 0.00064227 0.00000000 0.01180777 0.00000000 0.00076549 0.00000001 0.00533415
6 0.01025950 0.06237787 0.02014516 0.02248196 0.00850167 0.01253711 0.00339204 0.01027039 0.00316203 0.00842135 0.00210868 0.00576845
0 0.00000000 0.01576047 0.00000000 0.00909917 0.00000000 0.01198667 0.00000000 0.00618515 0.00000000 0.00274169 0.00000000 0.00256536
5 0.00000000 0.01366379 0.00000000 0.00964883 0.00000000 0.01129563 0.00000000 0.00652921 0.00000000 0.00275419 0.00000000 0.00227582
1 0.00000000 0.00980668 0.00000000 0.02288125 0.00000000 0.00752801 0.00000000 0.00945454 0.00000000 0.00202090 0.00000000 0.00415521
2 0.01156348 0.06663352 0.00754235 0.02398958 0.00665234 0.01362686 0.00254343 0.00862521 0.00197432 0.00758236 0.00287549 0.00538691
2 0.00000000 0.03578110 0.00000000 0.01585041 0.00000000 0.01469077 0.00000000 0.00131376 0.00000000 0.00285361 0.00000001 0.00362677
1 0.00000000 0.03520584 0.00000000 0.03568177 0.00000000 0.01350289 0.00000000 0.00803234 0.00000000 0.00779748 0.00000000 0.00225204
4 0.00586761 0.05173594 0.01219280 0.00299516 0.00294690 0.00399635 0.00255955 0.00096576 0.00114597 0.00166559 0.00075451 0.00102871
3 0.00000001 0.01412728 0.00000000 0.01050257 0.00000000 0.01108779 0.00000000 0.00717031 0.00000000 0.00298784 0.00000000 0.00229183
5 0.00000000 0.01374696 0.00000000 0.00989856 0.00000000 0.01132605 0.00000000 0.00655041 0.00000000 0.00293704 0.00000000 0.00255065
4 0.00000000 0.01361720 0.00000000 0.01190870 0.00000000 0.01070468 0.00000000 0.00795573 0.00000000 0.00304926 0.00000000 0.00228792
5 0.00000000 0.04192922 0.00000000 0.03234878 0.00000000 0.01208066 0.00000000 0.00284735 0.00000000 0.00760818 0.00000000 0.00175400
5 0.00000000 0.03528871 0.00000000 0.01577128 0.00000000 0.01476677 0.00000000 0.00130686 0.00000000 0.00265943 0.00000000 0.00368015
0 0.00000000 0.00264304 0.00000000 0.03671092 0.00000000 0.00380381 0.00000000 0.01025497 0.00000000 0.00322076 0.00000000 0.00551199
2 0.00809292 0.05399847 0.00743119 0.01747628 0.00500256 0.00946645 0.00313597 0.00576956 0.00063229 0.00409671 0.00091296 0.00442094
4 0.00000000 0.02188088 0.00000000 0.00816046 0.00000000 0.01340838 0.00000000 0.00468584 0.00000000 0.00188255 0.00000000 0.00314793
2 0.00000000 0.01721699 0.00000000 0.00840119 0.00000000 0.01246413 0.00000000 0.00591369 0.00000000 0.00230558 0.00000000 0.00262572
0 0.02486645 0.10555936 0.00882418 0.03432768 0.00184721 0.01626937 0.00081409 0.00911564 0.00137337 0.00638219 0.00107537 0.00440799
4 0.00000000 0.03154963 0.00000000 0.01239046 0.00000000 0.01465222 0.00000000 0.00182899 0.00000000 0.00142786 0.00000000 0.00384554
5 0.00000000 0.03200694 0.00000000 0.03593593 0.00000000 0.01257723 0.00000000 0.00838695 0.00000000 0.00718520 0.00000000 0.00219227
1 0.00000000 0.04091318 0.00000000 0.02459921 0.00000000 0.01325930 0.00000000 0.00144623 0.00000000 0.00610833 0.00000000 0.00126289
1 0.00000000 0.01032507 0.00000000 0.02096542 0.00000000 0.00821374 0.00000000 0.00963665 0.00000000 0.00254351 0.00000000 0.00381969
3 0.00000000 0.04124270 0.00000000 0.02676737 0.00000000 0.01267187 0.00000000 0.00141266 0.00000000 0.00704719 0.00000000 0.00067100
4 0.00000000 0.01369386 0.00000000 0.01165753 0.00000000 0.01052122 0.00000000 0.00770642 0.00000000 0.00299767 0.00000000 0.00227073
0 0.04343406 0.10961047 0.00725041 0.03805300 0.00374633 0.01649623 0.00208999 0.00913269 0.00189767 0.00666085 0.00172004 0.00393713
0 0.00000000 0.01247075 0.00000000 0.01602226 0.00000000 0.00927362 0.00000000 0.00879202 0.00000000 0.00301442 0.00000000 0.00280977
5 0.00000000 0.03351060 0.00000000 0.01425715 0.00000000 0.01486044 0.00000000 0.00153220 0.00000000 0.00218596 0.00000000 0.00389965
6 0.00000000 0.04176546 0.00000000 0.03352272 0.00000000 0.01225324 0.00000000 0.00385674 0.00000000 0.00723569 0.00000000 0.00196485
6 0.00000000 0.03148616 0.00000000 0.01243633 0.00000000 0.01460628 0.00000000 0.00194057 0.00000000 0.00153888 0.00000000 0.00382110
4 0.00000000 0.01380975 0.00000000 0.00967360 0.00000000 0.01134570 0.00000000 0.00651734 0.00000000 0.00277783 0.00000000 0.00235503
2 0.01039752 0.08588462 0.00126088 0.02559961 0.00095813 0.01534227 0.00378299 0.00886966 0.00227257 0.00595331 0.00156709 0.00390342
1 0.00000000 0.04100391 0.00000000 0.03604982 0.00000000 0.01339030 0.00000000 0.00711415 0.00000000 0.00645623 0.00000000 0.00057588
5 0.00003865 0.01313907 0.00003865 0.01221603 0.00003866 0.01046101 0.00003865 0.00808638 0.00003866 0.00311521 0.00003865 0.00205414
4 0.00000000 0.03972102 0.00000000 0.02294488 0.00000000 0.01346892 0.00000000 0.00177936 0.00000000 0.00560102 0.00000000 0.00202821
2 0.00000000 0.01131818 0.00000000 0.01872746 0.00000000 0.00874586 0.00000000 0.00944907 0.00000000 0.00292902 0.00000000 0.00333820
2 0.00000000 0.04216951 0.00000000 0.02982746 0.00000000 0.01241615 0.00000000 0.00192543 0.00000000 0.00767110 0.00000000 0.00086709
2 0.00000000 0.01936283 0.00000000 0.00802811 0.00000000 0.01272966 0.00000000 0.00533626 0.00000000 0.00205971 0.00000000 0.00301749
2 0.00000000 0.01217157 0.00000000 0.01520493 0.00000000 0.00952807 0.00000000 0.00882083 0.00000000 0.00299048 0.00000000 0.00269695
4 0.00000000 0.01198490 0.00000000 0.01641532 0.00000000 0.00910399 0.00000000 0.00895693 0.00000000 0.00270387 0.00000000 0.00289193
6 0.00000000 0.01390178 0.00000000 0.01067461 0.00000000 0.01099529 0.00000000 0.00746782 0.00000000 0.00316001 0.00000000 0.00233508
4 0.00267438 0.06169423 0.00726906 0.00286871 0.00128521 0.00348163 0.00274731 0.00105750 0.00177055 0.00140880 0.00107577 0.00046681
2 0.00000000 0.01364652 0.00000000 0.01157588 0.00000000 0.01064068 0.00000000 0.00777430 0.00000000 0.00286697 0.00000000 0.00218296
0 0.00000000 0.00831199 0.00000000 0.02670452 0.00000000 0.00689292 0.00000000 0.00951365 0.00000000 0.00187260 0.00000000 0.00484423
3 0.00000000 0.01278570 0.00000000 0.01333677 0.00000000 0.01017103 0.00000000 0.00855993 0.00000000 0.00309281 0.00000000 0.00236829
5 0.00000000 0.03725572 0.00000000 0.03489917 0.00000000 0.01449153 0.00000000 0.00788716 0.00000000 0.00830440 0.00000000 0.00195297
4 0.00000000 0.04147302 0.00000000 0.03494187 0.00000000 0.01208488 0.00000000 0.00456696 0.00000000 0.00730026 0.00000000 0.00123671
4 0.00000000 0.01803741 0.00000000 0.00824891 0.00000000 0.01258146 0.00000000 0.00555327 0.00000000 0.00210314 0.00000000 0.00284216
5 0.00000744 0.03960153 0.00000744 0.02183364 0.00000744 0.01402049 0.00000744 0.00164358 0.00000744 0.00521113 0.00000744 0.00224978
4 0.00000000 0.01402001 0.00000000 0.01016496 0.00000000 0.01115556 0.00000000 0.00721735 0.00000000 0.00276532 0.00000000 0.00216086
3 0.00000000 0.00873103 0.00000000 0.02546042 0.00000000 0.00706639 0.00000000 0.00950410 0.00000000 0.00181004 0.00000000 0.00458489
4 0.00000000 0.03591785 0.00000000 0.03422495 0.00000000 0.01381340 0.00000000 0.00724564 0.00000000 0.00811260 0.00000000 0.00196855
3 0.00427143 0.06422462 0.02245308 0.01060853 0.00716708 0.00252679 0.01179894 0.00405569 0.00099161 0.00250742 0.00645260 0.00453633
4 0.00308836 0.10534110 0.00039686 0.02241422 0.00115077 0.00827706 0.00331754 0.00374602 0.00149660 0.00243810 0.00120878 0.00099304
5 0.12396455 0.04782231 0.02299690 0.07247373 0.11169802 0.01616073 0.02956906 0.00842195 0.00312504 0.00869479 0.03269282 0.00867422
6 0.00000000 0.04147302 0.00000000 0.03494187 0.00000000 0.01208488 0.00000000 0.00456696 0.00000000 0.00730026 0.00000000 0.00123671
0 0.00000000 0.04209912 0.00000000 0.03010505 0.00000000 0.01230416 0.00000000 0.00204693 0.00000000 0.00757256 0.00000000 0.00105494
4 0.01225422 0.04649429 0.00555109 0.00577857 0.00723827 0.00348722 0.00182916 0.00182829 0.00168207 0.00154593 0.00126487 0.00178178
5 0.00000000 0.04131129 0.00000000 0.03562504 0.00000000 0.01284056 0.00000000 0.00616551 0.00000000 0.00655242 0.00000000 0.00064636
5 0.20480922 0.11771419 0.08680421 0.16096249 0.05579995 0.04699109 0.01641850 0.01133546 0.01991640 0.02247809 0.00799181 0.02355444
5 0.00000000 0.04141555 0.00000000 0.03569275 0.00000000 0.01273552 0.00000000 0.00603473 0.00000000 0.00659753 0.00000000 0.00074529
0 0.00000000 0.01366379 0.00000000 0.00964883 0.00000000 0.01129563 0.00000000 0.00652921 0.00000000 0.00275419 0.00000000 0.00227582
0 0.05317361 0.10179752 0.00590186 0.03365455 0.00531747 0.01506123 0.00393755 0.00891045 0.00260703 0.00473941 0.00316605 0.00313688
1 0.05151815 0.06517215 0.00733938 0.02627691 0.00102321 0.01435983 0.00384576 0.00811678 0.00411480 0.00507543 0.00221852 0.00433468
1 0.00000000 0.00870322 0.00000000 0.02549287 0.00000000 0.00708021 0.00000000 0.00952369 0.00000000 0.00183904 0.00000000 0.00458590
6 0.00000000 0.02413164 0.00000000 0.00866862 0.00000000 0.01369702 0.00000000 0.00401022 0.00000000 0.00169294 0.00000000 0.00358148
6 0.00003809 0.03409636 0.00003808 0.03565045 0.00003809 0.01320457 0.00003808 0.00815112 0.00003809 0.00748401 0.00003809 0.00199794
1 0.00000000 0.03842391 0.00000001 0.01876046 0.00000000 0.01479763 0.00000000 0.00158003 0.00000000 0.00417875 0.00000001 0.00302144
4 0.00189067 0.03685869 0.00587133 0.00311262 0.00449537 0.00238039 0.00306967 0.00133992 0.00075123 0.00150780 0.00144481 0.00070721
6 0.00000000 0.04183613 0.00000000 0.02979715 0.00000000 0.01234728 0.00000000 0.00172498 0.00000000 0.00763302 0.00000000 0.00070490
6 0.00000000 0.02622802 0.00000000 0.00936653 0.00000000 0.01411196 0.00000000 0.00339473 0.00000000 0.00141139 0.00000000 0.00376188
2 0.03062290 0.08219260 0.00185507 0.02186347 0.00494380 0.01080600 0.00394425 0.00520657 0.00583552 0.00238309 0.00346957 0.00178118
5 0.22322662 0.11799151 0.03979655 0.09100895 0.14205572 0.02318713 0.04475145 0.02215802 0.01734573 0.01291820 0.01486153 0.01117282
2 0.00000000 0.04135399 0.00000000 0.02624122 0.00000000 0.01303073 0.00000000 0.00167544 0.00000000 0.00664428 0.00000000 0.00045019
5 0.00000000 0.01268351 0.00000000 0.01496807 0.00000000 0.00977750 0.00000000 0.00881603 0.00000000 0.00279771 0.00000000 0.00257572
2 0.02705370 0.08446644 0.00967624 0.03294490 0.00519863 0.01506432 0.00236914 0.00780970 0.00178390 0.00684236 0.00147967 0.00547143
1 0.00000000 0.02675386 0.00000000 0.00969975 0.00000000 0.01425175 0.00000000 0.00313250 0.00000000 0.00122918 0.00000000 0.00390242
3 0.00000000 0.01333597 0.00000000 0.01207892 0.00000000 0.01045283 0.00000000 0.00812067 0.00000000 0.00291691 0.00000000 0.00230993
3 0.00653232 0.04284055 0.02490553 0.00666181 0.01336692 0.00308185 0.00758685 0.00406787 0.00412231 0.00235227 0.00499244 0.00195020
0 0.00854555 0.10742924 0.00546730 0.03615602 0.00495855 0.01996509 0.00155694 0.01227608 0.00136366 0.00822014 0.00094710 0.00530377
2 0.03163437 0.09260050 0.00993756 0.03333133 0.00632024 0.01548902 0.00466329 0.01098049 0.00096744 0.00809404 0.00157063 0.00503765
0 0.00000000 0.03201417 0.00000000 0.03590331 0.00000000 0.01261908 0.00000000 0.00846386 0.00000000 0.00709174 0.00000000 0.00214907
2 0.00000000 0.04172507 0.00000000 0.02802609 0.00000000 0.01259921 0.00000000 0.00159431 0.00000000 0.00723830 0.00000000 0.00020739
4 0.00505210 0.07259957 0.00890045 0.00300281 0.00293974 0.00516163 0.00112624 0.00137215 0.00141228 0.00161187 0.00108542 0.00069904
3 0.92949241 0.61292732 0.10529003 0.20723477 0.06518991 0.08385207 0.02507390 0.05695586 0.00950032 0.02673908 0.01199986 0.02376018
1 0.00000000 0.03412884 0.00000000 0.03559781 0.00000000 0.01309401 0.00000000 0.00808232 0.00000000 0.00735519 0.00000000 0.00190213
0 0.00000000 0.02763286 0.00000000 0.03660747 0.00000000 0.01157386 0.00000000 0.00930371 0.00000000 0.00666379 0.00000000 0.00303591
6 0.00000000 0.03905573 0.00000000 0.02028231 0.00000000 0.01426730 0.00000000 0.00143394 0.00000000 0.00471382 0.00000000 0.00245627
6 0.00000000 0.01083481 0.00000000 0.01877539 0.00000000 0.00858224 0.00000000 0.00965656 0.00000000 0.00265737 0.00000000 0.00339912
2 0.00000000 0.04192004 0.00000000 0.03240881 0.00000000 0.01200933 0.00000000 0.00291099 0.00000000 0.00750284 0.00000000 0.00182687
6 0.00000000 0.00808970 0.00000000 0.02598075 0.00000000 0.00688644 0.00000000 0.00954468 0.00000000 0.00168933 0.00000000 0.00470386
2 0.02151527 0.08610374 0.00506944 0.02653504 0.00292824 0.01247257 0.00071584 0.01033035 0.00078231 0.00616914 0.00092570 0.00458536
2 0.00000000 0.03338454 0.00000000 0.01363000 0.00000000 0.01470751 0.00000000 0.00148874 0.00000000 0.00182590 0.00000000 0.00379040
1 0.00000000 0.00014328 0.00000000 0.03963293 0.00000000 0.00064227 0.00000000 0.01180777 0.00000000 0.00076549 0.00000001 0.00533415
5 0.20458585 0.10121138 0.04762663 0.17547019 0.03339255 0.04398433 0.01183315 0.01521326 0.00843343 0.02107511 0.02021143 0.00931084
1 0.00000000 0.03819454 0.00000000 0.03540579 0.00000000 0.01474430 0.00000000 0.00819496 0.00000000 0.00844596 0.00000000 0.00234509
2 0.00000000 0.02816994 0.00000000 0.03664615 0.00000000 0.01143290 0.00000000 0.00901736 0.00000000 0.00658287 0.00000000 0.00258557
3 0.00000000 0.03975759 0.00000000 0.03622758 0.00000000 0.01454410 0.00000000 0.00847207 0.00000000 0.00747511 0.00000000 0.00198252
2 0.01271744 0.07486283 0.00838582 0.01921856 0.00672199 0.00544925 0.00261777 0.00727483 0.00154568 0.00569971 0.00178936 0.00270359
3 0.00000000 0.03534690 0.00000000 0.03401937 0.00000000 0.01326573 0.00000000 0.00676048 0.00000000 0.00780415 0.00000000 0.00127393
2 0.02833932 0.08645793 0.00183359 0.03449536 0.00304116 0.01401033 0.00104679 0.00797878 0.00225719 0.00575996 0.00211819 0.00464712
4 0.00000000 0.01322147 0.00000000 0.01393499 0.00000000 0.01008506 0.00000000 0.00854469 0.00000000 0.00298086 0.00000000 0.00234723
5 0.00000000 0.02609750 0.00000001 0.00930598 0.00000000 0.01421160 0.00000000 0.00345333 0.00000000 0.00135742 0.00000000 0.00379803
5 0.00000000 0.03401583 0.00000000 0.03567807 0.00000000 0.01312528 0.00000001 0.00812687 0.00000000 0.00745751 0.00000001 0.00198475
3 0.00000001 0.00786425 0.00000001 0.02746083 0.00000000 0.00681064 0.00000000 0.00950139 0.00000000 0.00190625 0.00000000 0.00482402
3 0.02694826 0.06243442 0.02643393 0.00678140 0.01407847 0.01058014 0.00646355 0.00288035 0.00381256 0.00157732 0.00097545 0.00114300
4 0.00989510 0.10841921 0.00297455 0.02432694 0.00104921 0.00833495 0.00316971 0.00300579 0.00195303 0.00084266 0.00121443 0.00024500
0 0.00000000 0.04079461 0.00000000 0.03623466 0.00000000 0.01360745 0.00000000 0.00744119 0.00000000 0.00659962 0.00000000 0.00061125
0 0.01894340 0.10931435 0.01174819 0.03292613 0.00472125 0.02000275 0.00137047 0.01163696 0.00141463 0.00676628 0.00141697 0.00429043
5 0.00000000 0.04191696 0.00000000 0.03222462 0.00000000 0.01225747 0.00000000 0.00290621 0.00000000 0.00763584 0.00000000 0.00140211
0 0.00000000 0.03751392 0.00000000 0.03513804 0.00000000 0.01445670 0.00000000 0.00786887 0.00000000 0.00843526 0.00000000 0.00223157
3 0.00000000 0.04025227 0.00000000 0.02292187 0.00000000 0.01387922 0.00000000 0.00202475 0.00000000 0.00522353 0.00000000 0.00170682
0 0.00000000 0.01274030 0.00000000 0.01527042 0.00000000 0.00957189 0.00000000 0.00889796 0.00000000 0.00281439 0.00000000 0.00280425
4 0.00000000 0.03916148 0.00000000 0.02026736 0.00000000 0.01431519 0.00000000 0.00155107 0.00000000 0.00453681 0.00000000 0.00246363
6 0.00000000 0.01404622 0.00000000 0.01073877 0.00000000 0.01103837 0.00000000 0.00761273 0.00000000 0.00312103 0.00000000 0.00235370
2 0.00000000 0.03809073 0.00000000 0.01881471 0.00000000 0.01491758 0.00000000 0.00149239 0.00000000 0.00414939 0.00000000 0.00307103
5 0.00000000 0.00957064 0.00000000 0.02279308 0.00000000 0.00758165 0.00000000 0.00949661 0.00000000 0.00202281 0.00000000 0.00424474
0 0.00000000 0.03415887 0.00000000 0.03571585 0.00000000 0.01315409 0.00000001 0.00813436 0.00000000 0.00741452 0.00000000 0.00189490
5 0.00000000 0.01417837 0.00000000 0.01069115 0.00000000 0.01098059 0.00000000 0.00750188 0.00000000 0.00304875 0.00000000 0.00234476
2 0.00000000 0.01010847 0.00000000 0.02132856 0.00000000 0.00794714 0.00000000 0.00942032 0.00000000 0.00251995 0.00000000 0.00368376
6 0.00000001 0.04189675 0.00000000 0.03326770 0.00000000 0.01201034 0.00000000 0.00331078 0.00000000 0.00759169 0.00000000 0.00182988
5 0.00000000 0.01069388 0.00000000 0.01988810 0.00000001 0.00854495 0.00000000 0.00952915 0.00000000 0.00258805 0.00000000 0.00337502
4 0.00000000 0.03474523 0.00000000 0.03566327 0.00000000 0.01333705 0.00000000 0.00811786 0.00000000 0.00755850 0.00000000 0.00194253
4 0.00000000 0.04046183 0.00000000 0.02445146 0.00000000 0.01344062 0.00000000 0.00145976 0.00000000 0.00620350 0.00000000 0.00129931
3 0.00000000 0.01068508 0.00000000 0.02005235 0.00000000 0.00836910 0.00000000 0.00953838 0.00000000 0.00241846 0.00000000 0.00341015
5 0.00000000 0.00900327 0.00000000 0.02410219 0.00000000 0.00732470 0.00000000 0.00943127 0.00000000 0.00166483 0.00000000 0.00426062
5 0.00000000 0.01615391 0.00000000 0.00891801 0.00000000 0.01201664 0.00000000 0.00604309 0.00000000 0.00266783 0.00000000 0.00271851
2 0.00002369 0.03716316 0.00002369 0.01740922 0.00002369 0.01474105 0.00002369 0.00129478 0.00002369 0.00352573 0.00002369 0.00323520
3 0.00000000 0.01399133 0.00000001 0.01010362 0.00000001 0.01134490 0.00000000 0.00701793 0.00000000 0.00318664 0.00000000 0.00230553
4 0.00000000 0.04132007 0.00000000 0.03577496 0.00000000 0.01277061 0.00000000 0.00616268 0.00000000 0.00654008 0.00000000 0.00071104
5 0.11275494 0.02951688 0.01277859 0.03554864 0.09728694 0.06098559 0.02412827 0.02564569 0.03111724 0.02647026 0.01913659 0.01216996
5 0.11923806 0.04406224 0.02129280 0.04740364 0.10736531 0.04404421 0.03271971 0.02208898 0.02717838 0.02465941 0.02214181 0.00636278
0 0.00000000 0.03621726 0.00000000 0.01676019 0.00000000 0.01459284 0.00000000 0.00125588 0.00000000 0.00320533 0.00000000 0.00320639
0 0.00000000 0.00090096 0.00000000 0.03853985 0.00000000 0.00183635 0.00000000 0.01087001 0.00000000 0.00190895 0.00000000 0.00491908
4 0.00000000 0.04107981 0.00000000 0.03589992 0.00000000 0.01324578 0.00000000 0.00690035 0.00000000 0.00640258 0.00000000 0.00036297
4 0.00602817 0.06245495 0.01133550 0.00674055 0.00419159 0.00446019 0.00166840 0.00190791 0.00074912 0.00153078 0.00156278 0.00021314
1 0.00000000 0.02486546 0.00000000 0.00889012 0.00000000 0.01380857 0.00000000 0.00366284 0.00000000 0.00159432 0.00000000 0.00364802
6 0.00000000 0.01247075 0.00000000 0.01602226 0.00000000 0.00927362 0.00000000 0.00879202 0.00000000 0.00301442 0.00000000 0.00280977
2 0.00000000 0.03341193 0.00000000 0.01412591 0.00000000 0.01477121 0.00000001 0.00157027 0.00000000 0.00205194 0.00000000 0.00381081
5 0.00000000 0.00797046 0.00000000 0.02713212 0.00000001 0.00676192 0.00000000 0.00958622 0.00000001 0.00184802 0.00000000 0.00486148
0 0.00000000 0.01406204 0.00000000 0.00951170 0.00000000 0.01147794 0.00000000 0.00661637 0.00000000 0.00288408 0.00000000 0.00218400
3 0.00000000 0.04099353 0.00000000 0.02526902 0.00000000 0.01327780 0.00000000 0.00153244 0.00000000 0.00641911 0.00000000 0.00108441
6 0.00000000 0.01423266 0.00000000 0.00969722 0.00000000 0.01134706 0.00000000 0.00690527 0.00000000 0.00260914 0.00000000 0.00237888
4 0.00000000 0.00870322 0.00000000 0.02549287 0.00000000 0.00708021 0.00000000 0.00952369 0.00000000 0.00183904 0.00000000 0.00458590
5 0.00000000 0.01214248 0.00000001 0.01585693 0.00000000 0.00933687 0.00000000 0.00889993 0.00000000 0.00284749 0.00000000 0.00265185
5 0.19870687 0.07700308 0.03177717 0.07976163 0.11849990 0.05818398 0.04403351 0.01630317 0.00786273 0.02352702 0.02715676 0.00508844
4 0.00000000 0.04112772 0.00000000 0.03590971 0.00000000 0.01309043 0.00000000 0.00668973 0.00000000 0.00640287 0.00000000 0.00033966
6 0.00000000 0.04201854 0.00000000 0.03221083 0.00000000 0.01214859 0.00000000 0.00267718 0.00000000 0.00777796 0.00000000 0.00174710
6 0.02269237 0.07428574 0.01118543 0.02510463 0.00579903 0.01590424 0.00338093 0.00919927 0.00147570 0.00648299 0.00037275 0.00424983
3 0.03714918 0.06541234 0.03288922 0.00931553 0.01474998 0.00248098 0.00579267 0.00243716 0.00189572 0.00111948 0.00344199 0.00060568
3 0.00002764 0.03197093 0.00002764 0.03606030 0.00002764 0.01248551 0.00002764 0.00844386 0.00002764 0.00710024 0.00002764 0.00217707
2 0.00000000 0.02474656 0.00000000 0.00896212 0.00000000 0.01376915 0.00000000 0.00367966 0.00000000 0.00183481 0.00000000 0.00363886
0 0.00000000 0.01196000 0.00000000 0.01667391 0.00000000 0.00916840 0.00000000 0.00900611 0.00000000 0.00278511 0.00000000 0.00275660
0 0.00000000 0.01283374 0.00000000 0.01403454 0.00000000 0.01003463 0.00000000 0.00861359 0.00000000 0.00298899 0.00000000 0.00236716
0 0.00989438 0.11006018 0.00669296 0.03708989 0.00287516 0.01853071 0.00168535 0.01088129 0.00175108 0.00847996 0.00106197 0.00659433
1 0.00000000 0.01624410 0.00000000 0.00880078 0.00000000 0.01238905 0.00000000 0.00613867 0.00000000 0.00245534 0.00000000 0.00261211
2 0.01933681 0.07568450 0.00206544 0.01543185 0.00218402 0.01156928 0.00225509 0.00499560 0.00095661 0.00336579 0.00044655 0.00386820
2 0.01849443 0.08282019 0.00566639 0.01601727 0.00075282 0.01029652 0.00131628 0.00604228 0.00207506 0.00583619 0.00303510 0.00311595
0 0.00000000 0.04126609 0.00000000 0.03549170 0.00000000 0.01272061 0.00000000 0.00584884 0.00000000 0.00673530 0.00000000 0.00078097
6 0.00000000 0.01388847 0.00000000 0.00974837 0.00000000 0.01131563 0.00000000 0.00692392 0.00000000 0.00270240 0.00000000 0.00238299
2 0.00000000 0.00000000 0.00000000 0.04019333 0.00000000 0.00000000 0.00000000 0.01254593 0.00000000 0.00000000 0.00000000 0.00612088
4 0.00000000 0.03741102 0.00000000 0.03498791 0.00000000 0.01451029 0.00000000 0.00788472 0.00000000 0.00835208 0.00000000 0.00213999
6 0.00000000 0.01338699 0.00000000 0.01192707 0.00000000 0.01045842 0.00000000 0.00823222 0.00000000 0.00292747 0.00000000 0.00244815
4 0.00000000 0.04136726 0.00000000 0.02707200 0.00000000 0.01263831 0.00000000 0.00144237 0.00000000 0.00715391 0.00000000 0.00034738
0 0.00000000 0.04136517 0.00000000 0.02695743 0.00000000 0.01265043 0.00000000 0.00136618 0.00000000 0.00716542 0.00000000 0.00046956
4 0.00000000 0.01395645 0.00000000 0.01177779 0.00000000 0.01067354 0.00000000 0.00794282 0.00000000 0.00322122 0.00000000 0.00230293
6 0.00000000 0.02892343 0.00000000 0.03655078 0.00000000 0.01171658 0.00000000 0.00896262 0.00000000 0.00675650 0.00000001 0.00263162
0 0.01364225 0.11194680 0.00448601 0.03899267 0.00252046 0.01945296 0.00101767 0.01142051 0.00069037 0.00677552 0.00090740 0.00533420
0 0.00810387 0.10245308 0.01078707 0.03687314 0.00585349 0.01830116 0.00306551 0.01171142 0.00041456 0.00855434 0.00076871 0.00677569
1 0.00000000 0.01448537 0.00000000 0.00933229 0.00000000 0.01170311 0.00000000 0.00648277 0.00000000 0.00314706 0.00000000 0.00248542
2 0.00000000 0.03199286 0.00000000 0.01281286 0.00000000 0.01467298 0.00000000 0.00183014 0.00000000 0.00169767 0.00000000 0.00384599
2 0.00000000 0.00863891 0.00000000 0.02527973 0.00000000 0.00693118 0.00000000 0.00957225 0.00000000 0.00180598 0.00000000 0.00462858
6 0.00000000 0.01826857 0.00000000 0.00826059 0.00000000 0.01270788 0.00000000 0.00544674 0.00000000 0.00265992 0.00000000 0.00282363
1 0.00000000 0.00637300 0.00000000 0.03066624 0.00000001 0.00613808 0.00000000 0.00913548 0.00000000 0.00261828 0.00000000 0.00477051
5 0.00000000 0.04093393 0.00000000 0.03616692 0.00000000 0.01366964 0.00000000 0.00743784 0.00000000 0.00647462 0.00000000 0.00049247
2 0.00000000 0.02708041 0.00000000 0.00985497 0.00000000 0.01433461 0.00000000 0.00310208 0.00000000 0.00129968 0.00000000 0.00389845
1 0.01950425 0.06499942 0.02331482 0.02056994 0.00640257 0.01182603 0.00118877 0.00784307 0.00205054 0.00420547 0.00090792 0.00530578
1 0.03330726 0.06439561 0.01717955 0.01548684 0.00159081 0.00739490 0.00489146 0.00660786 0.00331094 0.00448429 0.00283776 0.00229728
4 0.00528517 0.05766052 0.00503883 0.00334652 0.00575092 0.00390543 0.00289934 0.00099041 0.00106052 0.00039664 0.00309114 0.00114905
3 0.00000000 0.01808117 0.00000000 0.00834992 0.00000000 0.01265432 0.00000000 0.00551557 0.00000000 0.00260710 0.00000000 0.00283027
5 0.00000000 0.03053553 0.00000000 0.03617460 0.00000000 0.01228727 0.00000000 0.00873511 0.00000000 0.00694851 0.00000000 0.00233493
0 0.00000000 0.04200026 0.00000000 0.03338106 0.00000000 0.01213170 0.00000000 0.00350754 0.00000000 0.00746572 0.00000000 0.00191259
6 0.00000000 0.01276607 0.00000000 0.01313163 0.00000000 0.01026015 0.00000000 0.00864126 0.00000000 0.00307696 0.00000000 0.00234910
4 0.00000000 0.03908674 0.00000000 0.02066320 0.00000000 0.01427610 0.00000000 0.00134494 0.00000000 0.00479908 0.00000000 0.00250415
3 0.00000000 0.03008105 0.00000000 0.03636257 0.00000000 0.01200735 0.00000000 0.00869155 0.00000000 0.00693065 0.00000000 0.00238139
3 0.00000000 0.02142884 0.00000000 0.00819384 0.00000000 0.01310259 0.00000000 0.00463462 0.00000000 0.00219784 0.00000000 0.00326927
6 0.00000000 0.03025393 0.00000000 0.01171365 0.00000000 0.01452066 0.00000000 0.00210590 0.00000000 0.00117242 0.00000000 0.00385161
2 0.00000000 0.03700591 0.00000000 0.03469294 0.00000000 0.01434676 0.00000000 0.00756637 0.00000000 0.00836303 0.00000000 0.00178802
5 0.18901725 0.08465012 0.04685453 0.07050543 0.12728058 0.05723954 0.04987114 0.01628541 0.00918358 0.02403714 0.01851434 0.02051805
1 0.03361205 0.06538625 0.01884831 0.01931118 0.00663448 0.00825020 0.00243257 0.00738270 0.00149237 0.00273811 0.00285938 0.00450504
3 1.04583383 0.45501050 0.07460722 0.19821244 0.10352193 0.07945633 0.03815746 0.06990470 0.02482896 0.03269220 0.01741162 0.00825365
5 0.15970975 0.05862068 0.00430659 0.06177356 0.13716035 0.03422058 0.03586642 0.00191022 0.00990595 0.02750472 0.03130708 0.01097378
3 0.00000000 0.03828720 0.00000000 0.03546586 0.00000000 0.01476042 0.00000000 0.00828146 0.00000000 0.00833490 0.00000000 0.00241409
3 0.00000001 0.00827895 0.00000000 0.02664587 0.00000000 0.00683240 0.00000000 0.00951932 0.00000000 0.00181120 0.00000000 0.00482015
3 0.00522340 0.04456848 0.03931064 0.01069296 0.01538676 0.00286474 0.01067958 0.00293438 0.00505207 0.00289988 0.00342487 0.00227944
3 0.04900001 0.06908547 0.04002995 0.01364147 0.01049609 0.00349394 0.00304751 0.00296373 0.00062562 0.00410218 0.00113832 0.00085798
6 0.00000000 0.01222243 0.00000000 0.01565219 0.00000000 0.00948537 0.00000000 0.00889656 0.00000000 0.00301442 0.00000000 0.00266722
6 0.00000000 0.03457601 0.00000000 0.03562256 0.00000000 0.01329888 0.00000000 0.00810820 0.00000000 0.00749172 0.00000000 0.00194433
1 0.00000000 0.01427019 0.00000000 0.00989053 0.00000000 0.01140768 0.00000000 0.00673048 0.00000000 0.00303536 0.00000000 0.00230067
0 0.00000000 0.01208425 0.00000000 0.01545107 0.00000000 0.00962245 0.00000000 0.00901019 0.00000000 0.00295914 0.00000000 0.00281765
6 0.00000000 0.03494786 0.00000000 0.03392368 0.00000000 0.01315538 0.00000000 0.00706020 0.00000000 0.00723767 0.00000000 0.00120469
1 0.00000000 0.03171023 0.00000000 0.03604455 0.00000000 0.01229538 0.00000000 0.00843377 0.00000000 0.00694793 0.00000000 0.00219836
4 0.00000000 0.00503602 0.00000000 0.03402081 0.00000000 0.00559060 0.00000000 0.00955075 0.00000000 0.00365454 0.00000000 0.00492744
1 0.03615199 0.04968857 0.01669256 0.01231193 0.00379613 0.00748479 0.00298948 0.00466327 0.00347560 0.00300046 0.00292923 0.00310000
1 0.00000000 0.02267089 0.00000000 0.00826805 0.00000000 0.01352903 0.00000000 0.00432792 0.00000000 0.00204271 0.00000000 0.00327969
0 0.00000000 0.02080927 0.00000000 0.00811988 0.00000000 0.01324062 0.00000000 0.00504472 0.00000000 0.00200541 0.00000000 0.00303890
0 0.00738773 0.11741942 0.01060219 0.03979980 0.00330211 0.01752427 0.00197120 0.00971719 0.00137580 0.00753668 0.00043141 0.00618836
2 0.00000000 0.01411541 0.00000000 0.00952948 0.00000000 0.01132384 0.00000000 0.00679643 0.00000000 0.00267084 0.00000000 0.00244217
0 0.00000000 0.01201599 0.00000000 0.01709286 0.00000000 0.00918445 0.00000000 0.00911457 0.00000000 0.00277082 0.00000000 0.00277897
5 0.87742478 0.05054285 0.18606287 0.02382978 0.13175042 0.02265373 0.04285581 0.09881885 0.17861524 0.04882454 0.07758450 0.06653441
4 0.00000000 0.01132827 0.00000000 0.01848450 0.00000000 0.00882345 0.00000000 0.00939653 0.00000000 0.00290794 0.00000000 0.00317610
4 0.00000000 0.03403462 0.00000000 0.03565064 0.00000000 0.01316363 0.00000001 0.00813071 0.00000000 0.00748766 0.00000000 0.00201529
2 0.00000000 0.00921426 0.00000000 0.02376861 0.00000000 0.00719294 0.00000000 0.00950412 0.00000000 0.00201686 0.00000000 0.00425926
1 0.00000000 0.00784787 0.00000000 0.02662336 0.00000000 0.00680014 0.00000000 0.00955623 0.00000000 0.00184590 0.00000000 0.00484647
2 0.00000000 0.04129722 0.00000000 0.03448828 0.00000000 0.01216228 0.00000000 0.00453330 0.00000001 0.00717761 0.00000000 0.00141465
0 0.00000000 0.03902372 0.00000000 0.02081371 0.00000000 0.01426923 0.00000000 0.00153743 0.00000000 0.00472341 0.00000000 0.00227819
0 0.00000000 0.04163249 0.00000000 0.02763548 0.00000000 0.01286597 0.00000000 0.00176081 0.00000001 0.00708378 0.00000000 0.00020379
4 0.00000000 0.01398519 0.00000000 0.00976722 0.00000000 0.01127797 0.00000000 0.00697661 0.00000000 0.00269729 0.00000000 0.00237982
6 0.00000000 0.03581483 0.00000000 0.01637542 0.00000000 0.01469220 0.00000000 0.00135829 0.00000000 0.00309436 0.00000000 0.00346295
3 0.00000000 0.01179614 0.00000000 0.01675628 0.00000000 0.00914072 0.00000000 0.00903990 0.00000000 0.00278625 0.00000000 0.00286517
2 0.00000000 0.00940067 0.00000000 0.02358246 0.00000000 0.00760449 0.00000000 0.00961437 0.00000000 0.00187909 0.00000000 0.00436416
1 0.00000000 0.00995026 0.00000000 0.02156050 0.00000000 0.00797359 0.00000000 0.00957097 0.00000000 0.00232944 0.00000000 0.00393965
3 0.00000000 0.01226581 0.00000000 0.01560031 0.00000000 0.00950918 0.00000000 0.00885892 0.00000000 0.00300530 0.00000000 0.00263911
3 0.00269807 0.04630531 0.02856420 0.00803456 0.00762445 0.00207140 0.00570425 0.00292696 0.00152024 0.00225618 0.00340333 0.00137432
6 0.00000000 0.01246811 0.00000000 0.01528290 0.00000000 0.00963990 0.00000000 0.00890058 0.00000000 0.00292693 0.00000000 0.00275852
2 0.02410287 0.06474154 0.00579690 0.01987198 0.00391921 0.00643682 0.00320861 0.00464209 0.00212594 0.00349286 0.00260347 0.00161498
6 0.04663338 0.06570209 0.02162835 0.02376954 0.00778102 0.01192436 0.00657688 0.00734115 0.00333635 0.00715883 0.00263933 0.00508599
2 0.00000000 0.04120176 0.00000000 0.03355982 0.00000000 0.01237804 0.00000000 0.00420699 0.00000000 0.00744783 0.00000001 0.00155641
5 0.00000000 0.04191351 0.00000000 0.02780481 0.00000000 0.01272937 0.00000000 0.00168198 0.00000000 0.00717608 0.00000000 0.00027427
1 0.00000000 0.01284411 0.00000000 0.01354634 0.00000000 0.01010389 0.00000000 0.00854336 0.00000000 0.00310393 0.00000000 0.00222783
3 0.00000000 0.04201528 0.00000000 0.02804142 0.00000000 0.01266299 0.00000000 0.00168088 0.00000000 0.00726710 0.00000000 0.00029158
1 0.00000000 0.01185109 0.00000000 0.01645103 0.00000000 0.00924758 0.00000000 0.00910711 0.00000000 0.00283867 0.00000000 0.00285362
1 0.00000000 0.03241231 0.00000000 0.03641216 0.00000000 0.01253485 0.00000000 0.00845007 0.00000000 0.00729951 0.00000000 0.00226656
1 0.55110693 0.72085273 0.49114221 0.09037656 0.07573146 0.08445131 0.03866712 0.03411991 0.02841662 0.03339244 0.03724820 0.03433338
4 0.00699043 0.05098275 0.00973180 0.00157841 0.00377638 0.00350290 0.00055919 0.00100385 0.00091509 0.00076783 0.00104218 0.00134094
3 0.00000000 0.01076261 0.00000000 0.01864573 0.00000000 0.00856500 0.00000000 0.00955461 0.00000000 0.00283560 0.00000000 0.00324533
4 0.00000000 0.01382608 0.00000000 0.01064954 0.00000000 0.01119431 0.00000000 0.00756446 0.00000000 0.00291726 0.00000000 0.00231308
3 0.00000000 0.04161361 0.00000000 0.02871824 0.00000000 0.01250144 0.00000000 0.00164299 0.00000000 0.00729207 0.00000000 0.00045678
3 1.08129144 0.48968491 0.05813465 0.14421183 0.08054844 0.03664182 0.04257454 0.04005064 0.04134386 0.04438514 0.02060853 0.02006817
3 0.03111571 0.01222953 0.03911595 0.02348297 0.02134588 0.01154988 0.01171396 0.00318852 0.00224299 0.00169710 0.00120746 0.00235588
6 0.01812236 0.06597494 0.01575331 0.02645673 0.00507324 0.01248427 0.00487951 0.00952295 0.00236053 0.00703009 0.00091006 0.00532717
1 0.00000000 0.03360663 0.00000000 0.01442465 0.00000000 0.01488881 0.00000000 0.00149499 0.00000000 0.00225647 0.00000000 0.00381420
3 0.00000000 0.02223310 0.00000000 0.00828837 0.00000000 0.01330209 0.00000000 0.00446653 0.00000000 0.00206401 0.00000000 0.00328138
0 0.00000000 0.04121700 0.00000000 0.03517199 0.00000000 0.01270933 0.00000000 0.00567915 0.00000000 0.00681823 0.00000000 0.00078731
5 0.00000000 0.01380095 0.00000000 0.01078228 0.00000000 0.01093849 0.00000000 0.00751006 0.00000000 0.00307297 0.00000000 0.00240677
1 0.00000000 0.02575976 0.00000000 0.00924302 0.00000000 0.01406184 0.00000000 0.00348977 0.00000000 0.00123061 0.00000000 0.00378112
2 0.00000000 0.03009538 0.00000000 0.03601724 0.00000000 0.01218099 0.00000000 0.00875799 0.00000000 0.00685873 0.00000000 0.00240843
6 0.00000000 0.03273621 0.00000000 0.03557940 0.00000000 0.01271289 0.00000000 0.00818986 0.00000000 0.00711765 0.00000000 0.00198618
0 0.00000000 0.04136542 0.00000000 0.03512234 0.00000000 0.01269083 0.00000000 0.00551051 0.00000000 0.00696644 0.00000000 0.00087986
3 0.00000000 0.00869572 0.00000000 0.02467519 0.00000000 0.00718609 0.00000000 0.00946864 0.00000000 0.00170862 0.00000000 0.00452302
4 0.00000000 0.01381200 0.00000000 0.00991049 0.00000000 0.01125402 0.00000000 0.00647006 0.00000000 0.00299312 0.00000000 0.00246274
0 0.00000000 0.01340659 0.00000000 0.01232648 0.00000000 0.01043005 0.00000000 0.00823685 0.00000000 0.00313163 0.00000000 0.00231684
2 0.00000000 0.04098456 0.00000000 0.02531032 0.00000000 0.01332224 0.00000000 0.00151277 0.00000000 0.00646256 0.00000000 0.00113025
3 0.00000000 0.03025376 0.00000000 0.01168805 0.00000000 0.01456860 0.00000000 0.00235087 0.00000000 0.00135340 0.00000000 0.00397443
4 0.00000000 0.02284362 0.00000000 0.00831499 0.00000000 0.01358210 0.00000000 0.00444826 0.00000000 0.00151216 0.00000000 0.00363597
3 0.48901662 0.04106222 0.09305246 0.02001600 0.04646852 0.00858700 0.02235566 0.00857586 0.01831902 0.00187247 0.01119950 0.00600255
5 0.90115201 0.07560374 0.17446509 0.01939880 0.09380218 0.02722864 0.04011286 0.07472663 0.14211409 0.11021615 0.06523684 0.07024053
4 0.00000000 0.01023913 0.00000000 0.02096911 0.00000000 0.00809441 0.00000000 0.00979120 0.00000000 0.00228754 0.00000000 0.00389018
2 0.04019450 0.08015912 0.00782962 0.02679918 0.00330253 0.01548502 0.00280484 0.00880598 0.00479134 0.00592783 0.00358878 0.00479272
1 0.00000000 0.04196347 0.00000000 0.02991918 0.00000000 0.01236611 0.00000000 0.00183829 0.00000000 0.00762765 0.00000000 0.00078605
2 0.00000000 0.01916299 0.00000000 0.00808637 0.00000000 0.01269218 0.00000000 0.00530721 0.00000000 0.00220370 0.00000000 0.00293784
2 0.00000000 0.03846107 0.00000000 0.03547030 0.00000000 0.01469706 0.00000000 0.00820050 0.00000000 0.00822631 0.00000000 0.00234738
1 0.00785165 0.09424959 0.00269215 0.02437746 0.00567147 0.00813086 0.00601909 0.00274136 0.00580242 0.00246272 0.00426339 0.00168664
5 0.13039975 0.02957490 0.01025455 0.04948415 0.10336243 0.02778462 0.03805101 0.00157817 0.02416573 0.02660648 0.02102449 0.01175565
6 1.11934447 0.57448810 0.08679400 0.08625644 0.07202152 0.11670788 0.02242897 0.07128750 0.03137678 0.01852551 0.01225357 0.04451915
1 0.00000000 0.03484969 0.00000000 0.03502784 0.00000000 0.01350066 0.00000000 0.00786817 0.00000000 0.00753037 0.00000000 0.00172740
4 0.00426098 0.06551447 0.00492627 0.00245917 0.00552268 0.00317236 0.00265682 0.00054875 0.00135211 0.00108487 0.00046758 0.00081968
1 0.00000000 0.00000000 0.00000000 0.04019333 0.00000000 0.00000000 0.00000000 0.01254593 0.00000000 0.00000000 0.00000000 0.00612088
2 0.00000000 0.03856232 0.00000000 0.01883609 0.00000000 0.01481453 0.00000000 0.00162890 0.00000000 0.00410734 0.00000000 0.00306960
3 0.00000000 0.01264474 0.00000000 0.01413971 0.00000000 0.00991092 0.00000000 0.00874079 0.00000000 0.00299470 0.00000000 0.00249567
3 0.00000001 0.00843508 0.00000000 0.02594703 0.00000000 0.00702583 0.00000000 0.00954944 0.00000000 0.00189335 0.00000000 0.00488661
4 0.00000000 0.01433149 0.00000000 0.00976265 0.00000000 0.01123459 0.00000000 0.00633927 0.00000000 0.00299403 0.00000000 0.00232269
1 0.92040741 1.14033818 0.69820607 0.15851362 0.09996533 0.08719482 0.05227030 0.09480972 0.02751321 0.05332386 0.04767313 0.01768117
4 0.00000000 0.03360663 0.00000000 0.01442465 0.00000000 0.01488881 0.00000000 0.00149499 0.00000000 0.00225647 0.00000000 0.00381420
6 0.00000000 0.02076337 0.00000000 0.00822694 0.00000000 0.01314491 0.00000000 0.00486669 0.00000000 0.00226561 0.00000000 0.00315948
5 0.00000000 0.00141021 0.00000000 0.03767787 0.00000000 0.00243326 0.00000000 0.01020225 0.00000000 0.00240201 0.00000000 0.00465306
5 0.00000000 0.03418178 0.00000000 0.03527836 0.00000000 0.01310439 0.00000000 0.00796045 0.00000000 0.00730528 0.00000000 0.00186006
0 0.04750090 0.09656285 0.00980478 0.03202072 0.00229379 0.01526847 0.00240261 0.00786632 0.00234964 0.00467633 0.00242336 0.00343938
3 0.00000000 0.01330963 0.00000000 0.01242949 0.00000000 0.01044928 0.00000000 0.00831041 0.00000000 0.00311348 0.00000000 0.00232559
5 0.13226025 0.04396441 0.01415758 0.05358545 0.09657472 0.05757936 0.02922243 0.02262359 0.03025088 0.03366338 0.02133631 0.00964882
4 0.00000000 0.03527669 0.00000000 0.03539038 0.00000000 0.01335616 0.00000000 0.00778488 0.00000000 0.00749367 0.00000000 0.00175298
4 0.00534087 0.05463440 0.01421164 0.01213137 0.00703604 0.00516012 0.00345644 0.00049262 0.00126344 0.00278996 0.00206583 0.00070193
4 0.00570946 0.07570488 0.00629816 0.00280868 0.00370699 0.00423977 0.00342010 0.00283147 0.00008940 0.00146113 0.00136065 0.00156493
4 0.00000000 0.03346508 0.00000000 0.03587239 0.00000000 0.01296121 0.00000000 0.00825208 0.00000000 0.00736368 0.00000000 0.00206137
1 0.00000000 0.01332735 0.00000000 0.01177806 0.00000000 0.01058684 0.00000000 0.00824174 0.00000000 0.00317304 0.00000000 0.00234332
4 1.30968559 0.55860323 0.05682507 0.12348484 0.05679880 0.08540235 0.01966677 0.06832302 0.01062643 0.04570673 0.00745958 0.02449711
6 0.00000000 0.04136764 0.00000000 0.03496901 0.00000000 0.01191723 0.00000000 0.00457438 0.00000000 0.00710943 0.00000000 0.00144311
1 0.02994654 0.06658180 0.01409168 0.01852920 0.00068421 0.01245258 0.00109791 0.00671561 0.00315231 0.00529554 0.00187487 0.00473436
1 0.00000000 0.04128789 0.00000000 0.03486282 0.00000000 0.01201208 0.00000000 0.00463121 0.00000000 0.00711347 0.00000000 0.00144321
1 0.00000000 0.04106579 0.00000000 0.03363423 0.00000000 0.01227693 0.00000000 0.00422059 0.00000000 0.00732574 0.00000000 0.00168746
3 0.00000000 0.01332227 0.00000000 0.01250415 0.00000000 0.01050598 0.00000000 0.00829097 0.00000000 0.00314859 0.00000001 0.00227393
5 0.15495934 0.04826859 0.01639618 0.01925380 0.09321337 0.05220952 0.01443763 0.01529335 0.02416213 0.03754907 0.01375928 0.00668441
0 0.00000000 0.01284411 0.00000000 0.01354634 0.00000000 0.01010389 0.00000000 0.00854336 0.00000000 0.00310393 0.00000000 0.00222783
1 0.00000000 0.01055682 0.00000000 0.02014430 0.00000000 0.00833060 0.00000000 0.00959091 0.00000000 0.00230619 0.00000000 0.00370625
2 0.02337720 0.10299447 0.00280776 0.03393938 0.00330602 0.01451913 0.00436079 0.01083020 0.00211084 0.00755808 0.00107071 0.00395698
1 0.00000000 0.03706985 0.00000000 0.03477929 0.00000000 0.01443299 0.00000000 0.00774900 0.00000000 0.00833859 0.00000000 0.00184263
5 0.00000000 0.00521660 0.00000000 0.03463602 0.00000000 0.00566825 0.00000000 0.01003559 0.00000000 0.00366098 0.00000000 0.00509265
6 0.00000000 0.04098535 0.00000000 0.03606327 0.00000000 0.01343222 0.00000000 0.00716117 0.00000000 0.00646835 0.00000000 0.00034523
2 0.00460594 0.07237133 0.00395701 0.01711759 0.00190319 0.00948976 0.00130737 0.00612872 0.00180452 0.00548859 0.00183067 0.00407022
2 0.00000000 0.03362761 0.00000000 0.01411762 0.00000000 0.01465685 0.00000000 0.00129472 0.00000001 0.00203129 0.00000000 0.00381378
2 0.86312658 0.54318154 0.07294858 0.16205940 0.09238558 0.06509592 0.03300065 0.05584579 0.03270802 0.00647426 0.00099188 0.00520451
2 0.00000000 0.03998624 0.00000000 0.02300713 0.00000000 0.01370280 0.00000000 0.00192139 0.00000000 0.00545946 0.00000000 0.00187020
2 0.02778312 0.07284827 0.00937997 0.01748826 0.00555225 0.00982292 0.00127535 0.00466704 0.00042600 0.00417362 0.00070175 0.00176076
1 0.00000000 0.03236097 0.00000000 0.01318525 0.00000000 0.01483011 0.00000000 0.00167796 0.00000000 0.00168049 0.00000000 0.00402588
1 0.00000000 0.01698691 0.00000000 0.00869596 0.00000000 0.01213908 0.00000000 0.00576702 0.00000000 0.00268633 0.00000000 0.00273175
4 0.00000000 0.04121432 0.00000000 0.03580604 0.00000000 0.01296878 0.00000000 0.00644463 0.00000000 0.00650188 0.00000000 0.00039837
3 0.00000000 0.01429032 0.00000000 0.00977330 0.00000000 0.01146421 0.00000000 0.00652828 0.00000000 0.00315520 0.00000000 0.00213909
3 0.00000000 0.04164408 0.00000000 0.02695918 0.00000000 0.01302691 0.00000000 0.00175983 0.00000000 0.00683388 0.00000000 0.00024728
1 0.00000000 0.01283374 0.00000000 0.01403454 0.00000000 0.01003463 0.00000000 0.00861359 0.00000000 0.00298899 0.00000000 0.00236716
1 0.00000000 0.01366379 0.00000000 0.00964883 0.00000000 0.01129563 0.00000000 0.00652921 0.00000000 0.00275419 0.00000000 0.00227582
6 0.00000000 0.01524063 0.00000000 0.00916324 0.00000000 0.01195974 0.00000000 0.00648658 0.00000000 0.00239743 0.00000000 0.00280969
1 0.00928041 0.05949904 0.02259751 0.02111662 0.00634840 0.01135869 0.00165817 0.00695423 0.00087634 0.00526591 0.00106130 0.00297541
0 0.00000000 0.01153899 0.00000000 0.01817901 0.00000000 0.00891213 0.00000000 0.00939662 0.00000000 0.00286284 0.00000000 0.00317303
5 0.00000000 0.03552190 0.00000000 0.03576910 0.00000000 0.01351282 0.00000000 0.00813808 0.00000000 0.00764651 0.00000000 0.00194424
3 0.00339751 0.05993510 0.03627764 0.00218545 0.01179016 0.00118350 0.01014331 0.00319823 0.00409644 0.00202359 0.00317157 0.00189936
5 0.00000000 0.02482473 0.00000000 0.00891338 0.00000000 0.01376943 0.00000000 0.00363367 0.00000000 0.00159178 0.00000000 0.00368762
3 0.00000000 0.01053578 0.00000000 0.02049395 0.00000000 0.00815811 0.00000000 0.00954530 0.00000000 0.00241190 0.00000000 0.00367948
2 0.01386510 0.06949867 0.00616034 0.01591275 0.00513741 0.00838745 0.00362625 0.00789310 0.00323968 0.00461198 0.00251808 0.00473005
2 0.00000000 0.02929470 0.00000000 0.03640745 0.00000000 0.01175970 0.00000000 0.00879034 0.00000000 0.00678496 0.00000000 0.00252739
4 0.00000000 0.03241231 0.00000000 0.03641216 0.00000000 0.01253485 0.00000000 0.00845007 0.00000000 0.00729951 0.00000000 0.00226656
1 0.00000000 0.01684742 0.00000000 0.00866009 0.00000000 0.01228420 0.00000000 0.00581337 0.00000000 0.00242792 0.00000000 0.00255548
4 0.00286220 0.05311022 0.00629986 0.00786457 0.00035974 0.00438114 0.00387120 0.00057659 0.00215191 0.00133739 0.00139805 0.00050852
3 0.00000000 0.04066476 0.00000001 0.02435792 0.00000001 0.01357292 0.00000000 0.00178756 0.00000000 0.00618503 0.00000000 0.00138947
2 0.00000000 0.03250721 0.00000000 0.03582634 0.00000000 0.01270849 0.00000000 0.00831361 0.00000000 0.00720287 0.00000000 0.00209191
6 0.87537855 0.66866547 0.03597255 0.11976618 0.09581721 0.07090364 0.01840281 0.07975812 0.03357178 0.03620105 0.02548714 0.01263754
0 0.00000000 0.00000000 0.00000000 0.04019333 0.00000000 0.00000000 0.00000000 0.01254593 0.00000000 0.00000000 0.00000000 0.00612088
4 0.02637219 0.05202954 0.01987864 0.00877392 0.00803543 0.00451910 0.00425974 0.00295835 0.00068907 0.00313381 0.00043590 0.00124412
6 0.00000000 0.03014579 0.00000000 0.01173717 0.00000000 0.01451841 0.00000000 0.00232471 0.00000000 0.00135243 0.00000000 0.00390105
5 0.00000000 0.03141678 0.00000000 0.03590392 0.00000000 0.01219076 0.00000000 0.00826277 0.00000000 0.00698443 0.00000000 0.00220461
2 0.00000000 0.00897742 0.00000000 0.02414213 0.00000000 0.00735729 0.00000000 0.00948384 0.00000000 0.00170930 0.00000000 0.00429585
6 0.00000000 0.04130890 0.00000000 0.03541491 0.00000000 0.01266453 0.00000000 0.00573923 0.00000001 0.00673937 0.00000000 0.00083178
4 0.00000000 0.02734114 0.00000000 0.03642180 0.00000000 0.01146404 0.00000000 0.00900886 0.00000000 0.00685818 0.00000000 0.00288486
6 0.00000000 0.02875722 0.00000000 0.01055341 0.00000000 0.01469592 0.00000000 0.00276654 0.00000000 0.00114959 0.00000000 0.00403364
6 2.43714690 0.62216991 0.07234176 0.16541119 0.12607780 0.18711674 0.04534793 0.05198963 0.02051257 0.09205265 0.02708150 0.02704803
1 0.03160190 0.06867773 0.01122942 0.01852062 0.00141285 0.01180923 0.00468449 0.00487137 0.00455449 0.00456751 0.00272962 0.00414349
