1440 12
4 0.00818067 0.06623718 0.01172631 0.00229497 0.00549373 0.00473101 0.00258366 0.00043701 0.00116979 0.00139345 0.00069251 0.00047908
4 0.00085111 0.04502448 0.00436430 0.00247758 0.00464104 0.00473544 0.00109783 0.00235233 0.00104622 0.00157616 0.00077328 0.00194553
3 0.01539165 0.05759470 0.02545558 0.00431601 0.01303005 0.00445825 0.00678255 0.00251978 0.00179653 0.00328166 0.00277206 0.00230227
2 0.01421711 0.09343913 0.00233488 0.02956735 0.00119623 0.01488541 0.00069051 0.00909132 0.00169346 0.00589761 0.00058902 0.00428219
5 0.29705638 0.17565304 0.23939969 0.07691929 0.06757419 0.05122372 0.08763076 0.11994120 0.01629984 0.07624090 0.01443049 0.02517906
3 0.51822197 0.15215129 0.09039725 0.05664847 0.00678957 0.03612945 0.02667587 0.03309159 0.01650113 0.03285154 0.01158006 0.01960506
3 0.29003656 0.16006036 0.12430492 0.03303590 0.03441691 0.04204530 0.01332190 0.02075624 0.00721368 0.00998398 0.00517840 0.00933724
6 0.00975966 0.06229848 0.01589878 0.02360923 0.00592505 0.01086820 0.00339817 0.00883590 0.00309636 0.00611128 0.00192332 0.00462779
0 0.00411213 0.11164136 0.00648861 0.04169345 0.00342958 0.02006200 0.00269174 0.01337216 0.00117821 0.00880512 0.00120729 0.00645701
1 0.00741248 0.06378778 0.01759106 0.01943391 0.00940864 0.00786196 0.00319448 0.00478560 0.00137597 0.00201603 0.00141821 0.00192252
6 1.70943880 0.44834599 0.08000549 0.10803270 0.08583025 0.19193916 0.07936982 0.04675488 0.07188513 0.02423093 0.04383546 0.04592000
6 0.02943098 0.06543722 0.02299623 0.02621004 0.00711595 0.01261404 0.00387461 0.00715745 0.00303336 0.00649043 0.00117001 0.00576855
1 0.05484100 0.05158097 0.00279090 0.02150265 0.00289434 0.01183992 0.00533300 0.00661655 0.00469324 0.00422954 0.00258873 0.00384645
0 1.71386051 0.51639032 0.04483951 0.08298914 0.11337041 0.14277314 0.04545749 0.07618287 0.04852809 0.03544983 0.03830292 0.04148978
1 0.00457369 0.09081712 0.00500031 0.02532587 0.00331731 0.01140102 0.00102611 0.00620771 0.00223259 0.00482540 0.00114844 0.00369590
5 0.14843018 0.04556892 0.01759870 0.06076561 0.11488748 0.00896220 0.03075127 0.00554095 0.00831827 0.01713911 0.02988597 0.00847767
6 0.02247864 0.10142031 0.00498179 0.02906756 0.00343400 0.01486481 0.00204657 0.01011684 0.00332265 0.00664947 0.00159008 0.00514217
3 0.67399722 0.27841207 0.01510822 0.28463283 0.07043835 0.11101981 0.01733655 0.07520505 0.02712461 0.05590497 0.06453465 0.01429243
2 0.01770704 0.09138715 0.00525853 0.03105306 0.00204922 0.01460171 0.00097224 0.00918961 0.00312354 0.00553726 0.00048042 0.00322942
3 0.04594930 0.01043905 0.05035974 0.02512524 0.02498885 0.01237498 0.00931993 0.00286119 0.00114029 0.00312904 0.00035366 0.00197166
1 0.18179844 0.10438515 0.05727057 0.03178868 0.02790734 0.01306949 0.01844213 0.00886547 0.00898501 0.00520419 0.00762881 0.00325821
4 2.10763216 0.30342516 0.06697174 0.08519755 0.19066861 0.06644525 0.06505953 0.01014076 0.05006205 0.01073484 0.04368796 0.00699927
2 0.00803518 0.06814092 0.00552973 0.01919379 0.00162632 0.00900254 0.00143849 0.00691941 0.00154700 0.00597498 0.00157682 0.00433296
1 0.10447605 0.10565078 0.02973991 0.04123263 0.01377291 0.02301722 0.00584061 0.01563470 0.00438259 0.00955714 0.00331105 0.00728821
3 0.00968074 0.05153102 0.03556997 0.00690905 0.01246282 0.00254248 0.00968785 0.00288052 0.00441038 0.00357726 0.00362563 0.00246917
0 0.01280195 0.11948547 0.01641437 0.04084947 0.00387358 0.01775635 0.00244415 0.00915133 0.00090780 0.00703555 0.00077205 0.00509608
3 0.01402152 0.01818609 0.03189001 0.02285658 0.01900345 0.01062167 0.01101896 0.00295979 0.00391710 0.00267670 0.00268602 0.00180885
3 1.17085218 0.61208731 0.09288735 0.17423578 0.06912785 0.14040110 0.02763518 0.02901275 0.02296199 0.00491450 0.00793132 0.04175939
6 0.01419151 0.08394235 0.01735506 0.02945695 0.00854699 0.01539293 0.00377335 0.00904111 0.00199794 0.00634044 0.00103482 0.00479064
4 0.01007057 0.07844264 0.00727596 0.00900147 0.00350482 0.00360878 0.00227896 0.00065705 0.00062267 0.00040363 0.00083500 0.00068439
3 0.45422265 0.22828072 0.31933656 0.26376757 0.17344892 0.07786023 0.05076056 0.04759396 0.01918781 0.05375381 0.04825307 0.01051204
0 1.88411701 0.06761716 0.03534224 0.08067267 0.18647180 0.03471426 0.01591372 0.03654800 0.06630744 0.02131435 0.01629820 0.03365360
2 0.01421937 0.09360893 0.00368340 0.02865206 0.00339387 0.01229537 0.00181768 0.00978050 0.00314326 0.00390137 0.00065857 0.00404510
1 0.02601167 0.06377278 0.01918071 0.01901988 0.00575316 0.00819546 0.00571354 0.00588777 0.00495308 0.00623705 0.00386174 0.00348877
6 0.05826794 0.06909573 0.02268219 0.02450596 0.00503503 0.01147866 0.00328152 0.00708166 0.00305942 0.00385128 0.00266360 0.00501461
4 0.02051095 0.06932297 0.00900623 0.01248974 0.00551830 0.00391771 0.00316650 0.00043615 0.00132538 0.00221846 0.00086825 0.00245162
1 1.05890560 0.41255531 0.03983169 0.05968470 0.01922277 0.08517855 0.05127201 0.01521555 0.01543026 0.02363639 0.05341607 0.01497206
1 0.07852362 0.11199683 0.02063498 0.04245220 0.00688517 0.02356125 0.00544990 0.01439201 0.00585361 0.00911015 0.00447933 0.00667590
6 0.00831827 0.08136551 0.01471874 0.02821886 0.00815598 0.01280178 0.00305978 0.00841050 0.00181137 0.00680922 0.00200213 0.00645437
5 0.10838377 0.18066576 0.13635597 0.03954326 0.14372258 0.14985527 0.05275723 0.03440530 0.02812637 0.02533816 0.01260241 0.04104911
5 0.13065022 0.04985892 0.03539959 0.06206505 0.10951734 0.01786841 0.02333122 0.01837927 0.00635535 0.01382193 0.02034141 0.01025617
0 0.01375565 0.12323489 0.00613653 0.04232181 0.00269977 0.02045542 0.00130657 0.01245762 0.00116701 0.00846107 0.00086454 0.00538485
6 1.15749502 0.78422064 0.12112287 0.06228174 0.10555489 0.11998709 0.05552217 0.05578569 0.08975448 0.04928391 0.01726592 0.03919457
4 0.00250838 0.05672929 0.00160988 0.00428242 0.00517386 0.00615390 0.00239259 0.00115386 0.00187034 0.00090352 0.00173952 0.00166485
1 0.84350175 0.78522390 0.60501891 0.17086807 0.03210260 0.10084620 0.02034406 0.07916336 0.02715081 0.03121213 0.01239506 0.02850215
0 0.01395150 0.11890275 0.00686578 0.03912815 0.00372576 0.01831676 0.00198490 0.01134255 0.00078261 0.00788279 0.00103599 0.00528585
4 1.98126519 0.29601321 0.05848534 0.05595077 0.18655151 0.05935893 0.04287463 0.00847007 0.05202780 0.01673278 0.02828214 0.00349064
3 1.28491080 0.65096325 0.07369702 0.14826727 0.07729008 0.09342730 0.05116752 0.05537532 0.02730672 0.04451818 0.03307928 0.02231505
3 0.03163521 0.02991293 0.04180810 0.02481682 0.02254151 0.00964773 0.01048896 0.00260257 0.00401335 0.00189435 0.00303621 0.00106668
6 2.55997729 0.38405967 0.04739046 0.13666512 0.26323146 0.10653009 0.01576124 0.06079145 0.11204103 0.02709560 0.01817565 0.02584168
5 0.14685057 0.04636119 0.02121870 0.07592243 0.09977828 0.02819916 0.03783113 0.00929612 0.02583781 0.03082043 0.02931588 0.01115810
5 0.11689331 0.03872532 0.02612587 0.04646285 0.10723167 0.03210255 0.03645226 0.00855691 0.01848620 0.02537840 0.02010681 0.00937205
6 2.65430355 0.43779889 0.03606852 0.16230820 0.28161582 0.10631625 0.02920913 0.07399262 0.10096240 0.05207231 0.02479802 0.02560065
5 0.13507682 0.06819145 0.07404725 0.06178015 0.03240784 0.09677283 0.08516651 0.06072822 0.01527025 0.01358470 0.00394820 0.00885820
5 0.21817736 0.07998804 0.02029200 0.15783761 0.04840361 0.05048586 0.01948565 0.00142244 0.00466779 0.01954598 0.01092125 0.01073097
0 0.03225734 0.10843508 0.01675326 0.03703123 0.00201564 0.01842944 0.00238001 0.00767056 0.00137385 0.00580781 0.00090621 0.00489673
3 0.01209412 0.00327905 0.02768098 0.01628717 0.02337022 0.01027693 0.01283879 0.00373114 0.00559326 0.00201223 0.00331989 0.00142174
2 0.02208249 0.08757097 0.00537037 0.02480506 0.00272075 0.01230116 0.00189984 0.00968461 0.00082063 0.00558518 0.00040239 0.00440944
0 0.00164921 0.11094300 0.00641762 0.03887839 0.00203541 0.01944227 0.00203414 0.01261666 0.00084552 0.00844553 0.00032994 0.00587731
3 0.01244953 0.04678110 0.02110008 0.00746331 0.00836082 0.00428544 0.00719116 0.00216345 0.00304844 0.00202891 0.00258071 0.00275325
0 1.69120705 0.04083291 0.07601526 0.03022210 0.18366311 0.00624374 0.01655759 0.01166615 0.06907668 0.00097770 0.01060732 0.01234442
5 0.06828203 0.05003229 0.06662133 0.08137266 0.04206102 0.11102699 0.07775229 0.03429626 0.02222097 0.00971693 0.01148329 0.01523233
6 0.01673791 0.08992683 0.00652224 0.03302705 0.00691462 0.01571412 0.00373558 0.00937190 0.00098731 0.00524480 0.00049727 0.00382319
0 0.00681709 0.11730740 0.00950651 0.04009960 0.00357125 0.02061597 0.00168832 0.01083963 0.00250866 0.00894186 0.00188512 0.00786117
0 1.93556309 0.09129172 0.01880267 0.06999149 0.20819582 0.04005844 0.01310675 0.04818040 0.06678771 0.02500679 0.01147873 0.03523095
5 0.02938735 0.10041441 0.13192636 0.04309681 0.15645736 0.02752965 0.02664473 0.01749988 0.01835690 0.02228239 0.02512445 0.01099904
4 0.01295103 0.10994433 0.00293672 0.02742334 0.00341938 0.00830010 0.00294759 0.00503791 0.00271809 0.00136042 0.00190410 0.00058115
6 1.18003869 0.46720025 0.56342286 0.29488802 0.09362735 0.07833105 0.09739991 0.01979983 0.03884427 0.03452560 0.00703958 0.02745342
1 0.00279503 0.09059107 0.00512460 0.02469102 0.00290271 0.01031736 0.00136275 0.00577765 0.00214413 0.00484783 0.00140834 0.00379974
3 0.00724665 0.04737259 0.02798999 0.00809231 0.00685947 0.00313736 0.00714522 0.00298627 0.00585775 0.00181920 0.00436860 0.00249377
5 0.14519356 0.05351970 0.04586523 0.09040955 0.09937418 0.03383410 0.01684963 0.01794472 0.01686441 0.01887156 0.00742098 0.01395391
0 0.04678957 0.09475443 0.01163646 0.03267364 0.00259625 0.01795532 0.00279192 0.00858501 0.00215633 0.00604273 0.00128661 0.00417041
2 0.02416455 0.08244511 0.00345464 0.02099182 0.00243464 0.00883576 0.00266858 0.00600311 0.00245114 0.00514764 0.00045118 0.00323942
2 0.00999081 0.06901224 0.01020714 0.02173460 0.00759173 0.01381427 0.00340362 0.00811455 0.00129855 0.00713835 0.00294598 0.00448270
0 0.01632179 0.12266260 0.01078867 0.03970958 0.00482246 0.02031156 0.00175796 0.01211039 0.00119059 0.00700807 0.00077948 0.00531524
1 0.41065875 0.34286511 0.11476295 0.05373158 0.02552702 0.02915665 0.00372196 0.03516439 0.01855755 0.01630420 0.00294525 0.00827630
5 0.18906547 0.04068280 0.04633549 0.08438132 0.12661271 0.02642578 0.00859884 0.01114680 0.01904055 0.00341963 0.01240802 0.01096930
6 0.02976166 0.06780844 0.01601345 0.02111754 0.01089392 0.01253150 0.00141220 0.00920407 0.00183458 0.00453231 0.00117572 0.00372364
3 0.68327594 0.28018659 0.18473099 0.09500166 0.12141211 0.11668351 0.03939616 0.01638904 0.05174424 0.03001675 0.05004704 0.00910572
2 0.01206834 0.07862819 0.00326994 0.02355066 0.00416549 0.01230885 0.00163410 0.00752152 0.00165170 0.00405584 0.00104882 0.00408720
4 0.00235352 0.11027252 0.00293427 0.02379967 0.00249786 0.00586433 0.00370897 0.00228960 0.00170725 0.00076348 0.00164579 0.00120379
1 0.00765376 0.07713000 0.00573666 0.02008121 0.00245817 0.00853996 0.00127441 0.00349041 0.00102402 0.00102856 0.00200045 0.00220935
1 0.01530926 0.06840654 0.01552965 0.02119345 0.00724460 0.01096414 0.00121901 0.00560215 0.00232862 0.00464687 0.00085871 0.00421699
3 0.00188333 0.04912666 0.01982002 0.00349631 0.01577734 0.00266175 0.00300688 0.00334298 0.00338404 0.00174690 0.00272069 0.00211281
1 0.04005725 0.05991019 0.02179486 0.02169223 0.00593731 0.00911348 0.00255690 0.00873876 0.00357816 0.00359674 0.00313068 0.00305744
1 0.03492959 0.05488842 0.01729053 0.01497734 0.00368969 0.01021928 0.00235975 0.00479469 0.00421160 0.00371757 0.00240891 0.00246998
2 0.01225780 0.09740001 0.00757256 0.03730025 0.00155927 0.01615300 0.00128108 0.01149642 0.00016001 0.00771386 0.00075362 0.00562431
2 0.00882486 0.08285305 0.00789104 0.02793774 0.00582924 0.01036415 0.00422663 0.00787404 0.00285750 0.00580904 0.00102218 0.00598521
4 0.00955676 0.07064518 0.01303228 0.00364404 0.00350185 0.00168108 0.00210217 0.00152749 0.00145064 0.00088682 0.00088407 0.00135740
0 3.14759302 0.00863161 0.03564259 0.16839692 0.33140779 0.02651545 0.01136006 0.06691725 0.11380670 0.02223776 0.01036152 0.03832847
4 2.11452460 0.31435546 0.06693838 0.08437820 0.19445682 0.06587893 0.06345465 0.00903242 0.04922060 0.01414037 0.04476616 0.00669955
0 0.03582954 0.10091433 0.01288515 0.02779437 0.00010256 0.01231779 0.00252563 0.00664069 0.00318107 0.00357853 0.00282375 0.00267066
1 0.05042662 0.05392196 0.01432594 0.01718001 0.00381071 0.00837160 0.00626276 0.00503338 0.00435597 0.00417662 0.00346901 0.00343344
1 1.35403752 0.32057434 0.40033215 0.20934483 0.05737592 0.16610752 0.11093912 0.04019100 0.01269949 0.02799949 0.02817107 0.02275363
5 0.17368689 0.10934754 0.07915027 0.04755187 0.01966581 0.08181826 0.06221763 0.01562322 0.02769064 0.01633267 0.03009737 0.00894412
1 0.02702430 0.06203511 0.01422904 0.01829343 0.00486976 0.01174159 0.00217076 0.00529580 0.00288428 0.00323903 0.00232646 0.00365031
0 2.54722977 0.04367617 0.03976371 0.07699995 0.27865389 0.01191193 0.02056108 0.04737624 0.09991881 0.01669065 0.00706525 0.02335758
5 0.14372577 0.04023193 0.02365424 0.05200526 0.11602426 0.01244537 0.03481017 0.00389066 0.01116377 0.01911305 0.02904743 0.00565447
6 0.02467517 0.07647773 0.00742918 0.02669070 0.00686991 0.01353399 0.00374099 0.00900507 0.00213780 0.00677118 0.00058745 0.00558968
0 2.23512101 0.15051307 0.04417772 0.16639368 0.19720842 0.07109881 0.03133082 0.07350504 0.04026077 0.03385912 0.04156079 0.03816567
1 0.01040921 0.05676356 0.01845299 0.01497497 0.00783890 0.01038382 0.00160003 0.00537048 0.00249225 0.00414754 0.00153177 0.00306987
1 0.09738733 0.11383006 0.02724511 0.04205387 0.01868537 0.02225674 0.01082232 0.01419854 0.00527409 0.00943389 0.00480631 0.00703104
1 0.02336502 0.05625285 0.01282243 0.00928714 0.00285388 0.00494648 0.00513425 0.00471886 0.00259440 0.00430159 0.00303360 0.00277063
3 0.31521749 0.13119476 0.09808769 0.04638139 0.00913182 0.04123397 0.03038132 0.01562067 0.00842904 0.00708757 0.00216849 0.01060099
3 0.00533088 0.03664809 0.03716716 0.01547570 0.01658248 0.00652782 0.00893432 0.00207981 0.00569631 0.00492962 0.00038573 0.00103693
2 0.01337396 0.10635151 0.00361355 0.03328806 0.00065808 0.01788062 0.00105769 0.01050626 0.00107708 0.00727056 0.00077148 0.00583155
3 0.01713906 0.01632651 0.00911136 0.00976431 0.01827797 0.00798568 0.01153497 0.00152216 0.00449420 0.00150632 0.00328343 0.00295825
5 0.66699374 0.15612336 0.21368942 0.03748268 0.12522769 0.02550351 0.04667154 0.07132252 0.14646257 0.06256659 0.06141556 0.04104023
4 0.00074967 0.06219249 0.00865945 0.01012645 0.00498328 0.00216755 0.00128334 0.00119636 0.00010773 0.00213838 0.00241190 0.00064114
5 0.22451873 0.13136287 0.08804786 0.08410706 0.06547078 0.05758367 0.04729684 0.05954118 0.02387289 0.01898193 0.02804386 0.01842456
1 1.25655544 0.24149656 0.06667719 0.10127053 0.10049930 0.06854191 0.03171410 0.02472415 0.02349384 0.02018584 0.02393371 0.01333626
1 0.14294010 0.09562574 0.04708138 0.02711640 0.03033866 0.01118421 0.01803909 0.01004853 0.01217468 0.00945603 0.00952122 0.00626852
4 0.01067671 0.07182091 0.01444893 0.00308725 0.00543418 0.00467870 0.00162566 0.00257905 0.00151239 0.00193034 0.00184268 0.00135714
2 0.18373594 0.07267107 0.02903178 0.07834048 0.02524508 0.01996779 0.01661823 0.01126348 0.02193306 0.00823736 0.00803105 0.00171866
1 0.00091450 0.11974829 0.00024587 0.04570324 0.00021658 0.02440805 0.00029794 0.01540858 0.00024893 0.01068325 0.00022313 0.00796535
1 1.40748322 1.64767408 0.41755030 0.29703805 0.14506893 0.10411660 0.13901938 0.03849044 0.01878070 0.05458422 0.03441043 0.08782023
5 0.82914484 0.05090916 0.19902737 0.07387257 0.10604440 0.08314928 0.04442263 0.10061997 0.11560425 0.08790351 0.05606585 0.10195549
2 0.02121900 0.06742626 0.00679893 0.02226615 0.00278228 0.00714626 0.00288208 0.00681019 0.00380914 0.00221816 0.00199372 0.00276528
6 0.73690403 0.44781196 0.20474534 0.16868128 0.05749691 0.09846491 0.01938447 0.01607376 0.06028141 0.03078764 0.04215510 0.02582988
2 0.01190224 0.07794617 0.00426979 0.02214684 0.00398652 0.01029181 0.00335749 0.00894920 0.00212879 0.00498988 0.00243022 0.00444064
0 1.12258720 0.19929269 0.05155180 0.12076128 0.04889949 0.04747318 0.06331313 0.02717539 0.01128496 0.01108482 0.03253016 0.00699202
2 0.00791835 0.10401209 0.00037410 0.03320834 0.00128428 0.01717622 0.00097516 0.00992620 0.00115992 0.00552063 0.00118130 0.00433819
4 0.01163899 0.10232460 0.00200244 0.02037831 0.00162783 0.00552361 0.00397567 0.00192653 0.00127577 0.00201081 0.00213804 0.00066810
3 0.01827471 0.05223621 0.02466130 0.00222053 0.00782949 0.00470395 0.00562325 0.00333921 0.00255396 0.00297150 0.00221720 0.00182954
0 0.04546543 0.11635882 0.01254454 0.03436413 0.00544844 0.00978952 0.00324893 0.00677717 0.00413191 0.00517048 0.00202365 0.00501779
3 0.02841632 0.05312161 0.03848355 0.01503431 0.01506057 0.00690881 0.00737149 0.00566863 0.00122557 0.00387066 0.00051742 0.00262809
0 0.04500623 0.10041485 0.01580105 0.02806090 0.00288361 0.01263889 0.00472282 0.00691759 0.00464153 0.00379301 0.00420027 0.00188586
6 1.99565506 0.40606847 0.02553667 0.15852360 0.17979777 0.13336642 0.00771022 0.05338402 0.06845832 0.05547062 0.01325676 0.04341836
3 0.09610668 0.04595108 0.19204332 0.15408501 0.03622620 0.09167663 0.03757221 0.02669540 0.03568634 0.03043678 0.00327074 0.01726313
2 0.00915325 0.09204010 0.00759215 0.02830929 0.00403656 0.01375204 0.00254245 0.00981469 0.00148382 0.00597479 0.00103690 0.00347131
3 0.65899694 0.17460096 0.19661503 0.26600805 0.06275737 0.02776742 0.08377678 0.09654669 0.03068931 0.03781304 0.02923865 0.01763712
4 0.01080670 0.07594645 0.00316888 0.01360244 0.00216127 0.00671574 0.00201758 0.00345344 0.00156215 0.00149277 0.00009313 0.00119716
3 0.99830866 0.46973810 0.12683034 0.16490881 0.08330416 0.07673478 0.03512491 0.06871976 0.01257091 0.02001716 0.02455044 0.03202795
5 0.21463698 0.10729828 0.02570465 0.08331320 0.12567160 0.01949848 0.05137978 0.01736939 0.00537927 0.00963450 0.02407395 0.00634801
3 0.85632616 0.26752096 0.28339913 0.15700743 0.11221738 0.02752788 0.05273571 0.04227845 0.02947578 0.01239119 0.00413317 0.00980264
4 0.00246578 0.02539838 0.00456083 0.00344071 0.00345869 0.00215617 0.00103532 0.00224663 0.00183554 0.00171510 0.00149843 0.00042476
1 2.20479655 0.33000591 0.06304535 0.02890642 0.21065894 0.05555860 0.03421773 0.00362774 0.07539256 0.01932373 0.02262736 0.00570550
1 0.00739602 0.06411436 0.01801710 0.01861127 0.00715995 0.01082497 0.00190539 0.00375952 0.00247620 0.00506853 0.00289585 0.00390783
6 0.01827441 0.05293304 0.02231805 0.02622076 0.00645238 0.01133877 0.00403153 0.00695713 0.00249968 0.00512972 0.00115238 0.00364633
0 2.17142749 0.04278427 0.08802278 0.04089503 0.24545540 0.00159273 0.04247564 0.02319143 0.09220070 0.01121296 0.02639702 0.01829136
0 2.48094583 0.18833888 0.09822688 0.14639921 0.25987405 0.05629828 0.04882538 0.06538656 0.09545886 0.02309533 0.02339800 0.04137924
1 0.01813484 0.06580183 0.01815614 0.01663135 0.00776365 0.00886929 0.00375272 0.00572937 0.00402661 0.00413284 0.00249207 0.00368449
0 2.08881593 0.08508001 0.02588093 0.09034485 0.20703070 0.04001635 0.02539455 0.05723001 0.06983577 0.02766449 0.00416050 0.03867163
3 1.56526077 1.04711938 0.17147772 0.28157169 0.07586068 0.07987420 0.04965435 0.04169307 0.06181829 0.10315520 0.01680227 0.01337661
0 1.74140251 0.14008242 0.03848252 0.13560775 0.15509801 0.05704834 0.01965037 0.07289239 0.03505023 0.02624228 0.03168278 0.03388407
6 0.00462276 0.06863563 0.01616120 0.02638977 0.00540049 0.01322557 0.00288223 0.00888805 0.00075262 0.00614653 0.00134463 0.00495666
6 0.52589464 0.13166435 0.12622331 0.02503758 0.01624796 0.04313520 0.03232436 0.03226233 0.00562129 0.01814926 0.01460995 0.01011493
3 0.02470436 0.04257657 0.02773570 0.01426388 0.01477410 0.01261697 0.00897384 0.00144941 0.00359402 0.00275322 0.00181150 0.00143427
4 0.46533909 0.05728798 0.09236038 0.00622547 0.03687958 0.00776665 0.02396951 0.00305420 0.01211452 0.00546423 0.01145620 0.00314181
4 2.10831928 0.35502151 0.05072352 0.02596328 0.19631822 0.06974430 0.04578459 0.00548536 0.06356221 0.01558186 0.02330269 0.00331586
2 0.53040200 0.58577180 0.12090948 0.21057315 0.02610910 0.00966297 0.02316858 0.02184585 0.03965954 0.00963836 0.02225509 0.02288385
0 1.96283507 0.12805855 0.08704003 0.12658691 0.19386072 0.03642530 0.04337373 0.06831919 0.05398928 0.01053720 0.01433876 0.03992456
3 0.03244803 0.02953574 0.03983464 0.02398976 0.02906457 0.01077758 0.01260680 0.00172871 0.00279261 0.00352221 0.00099758 0.00240471
1 2.33819890 0.58458561 0.03132813 0.06352491 0.18628542 0.11141046 0.05455277 0.03461884 0.05146291 0.02632680 0.03089158 0.01875740
4 0.00858203 0.09035222 0.00769413 0.01771978 0.00267688 0.00473218 0.00126352 0.00309712 0.00078763 0.00229058 0.00019220 0.00094979
2 2.57411599 0.31103045 0.04934673 0.05455520 0.26503068 0.05486076 0.03915538 0.01951557 0.08503677 0.01226729 0.02281242 0.02539964
0 0.00891710 0.12583037 0.00541191 0.04977050 0.00283848 0.02663697 0.00132407 0.01561482 0.00116694 0.00981527 0.00062298 0.00653228
3 0.65583688 0.20633069 0.28301647 0.21047387 0.15978310 0.07144234 0.04206217 0.07511375 0.01276661 0.05255973 0.03451766 0.03766428
3 0.63875538 0.31183422 0.34802765 0.22629499 0.04804770 0.09737227 0.04482976 0.05654506 0.06449047 0.03688843 0.04997830 0.01866621
1 0.02942389 0.05646169 0.01794793 0.01298108 0.00616948 0.01017156 0.00103937 0.00321014 0.00361258 0.00399625 0.00188987 0.00405484
4 0.00540223 0.06135394 0.00641223 0.00357473 0.00529984 0.00239339 0.00212880 0.00100509 0.00057557 0.00043566 0.00111386 0.00089817
4 0.00353786 0.07017104 0.00635359 0.00779429 0.00404129 0.00336601 0.00232517 0.00196855 0.00027852 0.00190468 0.00158646 0.00086620
6 0.01575131 0.08829495 0.01110531 0.02196867 0.00595110 0.01292073 0.00488222 0.00839312 0.00381895 0.00676579 0.00366901 0.00494594
6 0.12555529 0.09299166 0.06038363 0.03378674 0.03789594 0.01483822 0.02197138 0.00725673 0.01318679 0.00229173 0.01299235 0.00271360
5 0.14217649 0.05800421 0.01902311 0.07597408 0.11423020 0.01134375 0.04147745 0.00722755 0.01272556 0.02331726 0.03286800 0.00845593
6 0.38881472 0.04496911 0.08092808 0.10539480 0.06520420 0.02059026 0.02962133 0.02912906 0.01608802 0.01907755 0.02052965 0.01301767
4 0.01801941 0.09086429 0.00586711 0.01975027 0.00617683 0.00779779 0.00235998 0.00229682 0.00220232 0.00178508 0.00204888 0.00231927
1 1.36089587 0.45279425 0.52430880 0.27860069 0.04062628 0.15779598 0.10366991 0.01719817 0.01946792 0.01811727 0.02298093 0.03494975
4 0.00669614 0.05346321 0.00487763 0.00560957 0.00493712 0.00264182 0.00262823 0.00129754 0.00239619 0.00168257 0.00074821 0.00120751
3 0.02060254 0.06190806 0.03230769 0.00135900 0.01361497 0.00147373 0.00514164 0.00108851 0.00510306 0.00060911 0.00295319 0.00177563
6 0.01963033 0.08312518 0.01257530 0.02627245 0.00651876 0.01501847 0.00417486 0.00901030 0.00362661 0.00497391 0.00101043 0.00384943
1 0.00111473 0.08143848 0.00924188 0.02199669 0.00325275 0.01070636 0.00219800 0.00774824 0.00071537 0.00549194 0.00158931 0.00388366
0 0.01309081 0.11137301 0.00396706 0.03739134 0.00055230 0.01877677 0.00062713 0.01107774 0.00045849 0.00778600 0.00048181 0.00562957
2 0.04271394 0.09145889 0.01184659 0.02999601 0.00092345 0.01627447 0.00261737 0.00880259 0.00340094 0.00577714 0.00322135 0.00426111
5 0.14648448 0.06459147 0.02626773 0.10187176 0.09443431 0.03512491 0.01340867 0.01132441 0.01404248 0.01885039 0.01255863 0.01373807
2 0.01684106 0.08341382 0.00672139 0.03175765 0.00160163 0.01377477 0.00111291 0.01057121 0.00256332 0.00638933 0.00220834 0.00523723
2 0.02978820 0.09876376 0.00848499 0.03420865 0.00352858 0.01679017 0.00145202 0.01141018 0.00086262 0.00716582 0.00144523 0.00325755
3 0.04049738 0.08605385 0.03512749 0.00546875 0.01309270 0.00142411 0.00698179 0.00115259 0.00456023 0.00053440 0.00383234 0.00156229
6 0.02513058 0.05653869 0.02114205 0.02674277 0.00818833 0.01317886 0.00242791 0.00618684 0.00164628 0.00617608 0.00059923 0.00411515
2 0.04086045 0.08758054 0.00699211 0.02619488 0.01152790 0.01176349 0.00795384 0.00695574 0.00575171 0.00196497 0.00542488 0.00177785
2 0.02405058 0.08466890 0.00298988 0.02612273 0.00095984 0.01282951 0.00069505 0.00612950 0.00294278 0.00558705 0.00144863 0.00288376
6 0.01740136 0.08378884 0.00864728 0.02512158 0.00769478 0.01362795 0.00318211 0.00901417 0.00230450 0.00601025 0.00156636 0.00440920
5 1.25178874 0.29904059 0.15116324 0.13823090 0.08186180 0.09111511 0.11599623 0.11033560 0.10113163 0.05378187 0.04194993 0.01953085
1 2.00984836 0.32282633 0.06482211 0.03395871 0.20231371 0.03423710 0.02996138 0.03155902 0.07464933 0.02490685 0.01274841 0.01167850
0 2.01299906 0.07431380 0.03422896 0.09651921 0.21245596 0.03970161 0.00402224 0.04560236 0.07107047 0.01547112 0.01155418 0.03429075
0 0.01255612 0.11624852 0.00517020 0.03837632 0.00238103 0.01838530 0.00168565 0.01121950 0.00039088 0.00738630 0.00107590 0.00511420
1 0.00695849 0.06284056 0.02135161 0.01874192 0.00829422 0.00995945 0.00181837 0.00519412 0.00069990 0.00388611 0.00120748 0.00246553
6 1.54963934 0.47417536 0.26461935 0.13431449 0.04172143 0.20109574 0.06433377 0.03274102 0.02607445 0.06030207 0.01515343 0.02202159
3 0.94229615 0.51830065 0.05807666 0.16651461 0.01652227 0.07343525 0.03750870 0.04251425 0.02293020 0.03203730 0.02358028 0.00644477
0 0.03174521 0.10336071 0.01169804 0.03379252 0.00320800 0.01575488 0.00218027 0.00890451 0.00244399 0.00552705 0.00280375 0.00361270
5 0.21778122 0.11976319 0.07733539 0.04647096 0.10592072 0.04302698 0.03467046 0.01249327 0.01031337 0.01299695 0.00378020 0.01053645
0 0.05405155 0.10575498 0.01349513 0.03818151 0.00490530 0.01365238 0.00522937 0.00822423 0.00355313 0.00419823 0.00371502 0.00386248
0 0.00221809 0.11340848 0.00541893 0.04070548 0.00122457 0.02030461 0.00196291 0.01263347 0.00030892 0.00880149 0.00056576 0.00687577
4 1.69007313 0.55046743 0.02832970 0.07199012 0.08090856 0.12844186 0.01341188 0.06223194 0.00620236 0.03366475 0.00815727 0.03099189
3 1.28337312 0.34979677 0.12582810 0.07342678 0.03455416 0.10256580 0.04668874 0.01561963 0.02104837 0.01930465 0.03141914 0.01685185
1 0.02783559 0.08465341 0.01494131 0.02626764 0.00187490 0.01328908 0.00266193 0.00691271 0.00250008 0.00542123 0.00210343 0.00333094
2 0.00889224 0.05434146 0.00687146 0.01755523 0.00515754 0.00946443 0.00276365 0.00613830 0.00062443 0.00419743 0.00040793 0.00432761
4 0.00319544 0.06243984 0.00154540 0.00048280 0.00327695 0.00284707 0.00078360 0.00203673 0.00062200 0.00052832 0.00168797 0.00158564
2 0.00641397 0.08080734 0.00968157 0.02243648 0.00276260 0.01158412 0.00225712 0.00629919 0.00074934 0.00522755 0.00198204 0.00372876
1 0.10390354 0.10270658 0.02671773 0.03850082 0.01822191 0.02033195 0.01391073 0.01335315 0.01044020 0.01095299 0.00596157 0.00909865
0 0.04881907 0.10404035 0.01761971 0.03545230 0.00309838 0.01493531 0.00461876 0.00793249 0.00327344 0.00489910 0.00296792 0.00295295
4 0.00331282 0.05716739 0.00536548 0.00575261 0.00490227 0.00313989 0.00126969 0.00096897 0.00170346 0.00074915 0.00086724 0.00143978
0 0.02943747 0.11114872 0.01523039 0.03732853 0.00278061 0.01890296 0.00039316 0.00996944 0.00084805 0.00734602 0.00118799 0.00450341
4 0.00206862 0.09744429 0.00477282 0.02101376 0.00314335 0.00729723 0.00119016 0.00212918 0.00137859 0.00038646 0.00090301 0.00037758
1 1.77423668 0.94188643 0.22927435 0.20998511 0.16994298 0.26516905 0.00658826 0.06043431 0.02329260 0.00243182 0.06106289 0.01967035
5 0.12241064 0.03000453 0.02535515 0.03952638 0.10066482 0.03307991 0.03064674 0.00229261 0.01843825 0.01935201 0.02154885 0.00236102
3 0.02369552 0.05097236 0.02248026 0.00482621 0.00847173 0.00462399 0.00590134 0.00288435 0.00543080 0.00072266 0.00379797 0.00176234
5 0.47297463 0.15848497 0.06755212 0.05867999 0.08285654 0.15801243 0.08019783 0.08123394 0.04895500 0.04669455 0.02988480 0.02355405
0 0.00780537 0.12230628 0.01072006 0.04356070 0.00302795 0.02141170 0.00138763 0.01166719 0.00104745 0.00806539 0.00067469 0.00572980
5 0.90773249 0.24631245 0.23586522 0.08212456 0.11258928 0.07813202 0.04590058 0.13651061 0.13575983 0.03869829 0.04111168 0.04749383
5 0.14620851 0.06217720 0.01343199 0.08579474 0.09657641 0.03097378 0.02271474 0.01234835 0.01064675 0.01326125 0.01317665 0.01735045
1 0.08354251 0.10895122 0.02223863 0.04176000 0.00899619 0.02306711 0.00644335 0.01351408 0.00487644 0.00834990 0.00415052 0.00500449
3 0.67169976 0.16469285 0.26409578 0.16455078 0.16566746 0.11737703 0.10330620 0.02981965 0.04184810 0.04059010 0.04435876 0.04458977
5 0.11673012 0.02346247 0.03272608 0.04935622 0.09092794 0.05070673 0.02855413 0.02867484 0.03613124 0.02739224 0.00815135 0.01085802
6 0.38441604 0.05882899 0.07690215 0.10846068 0.03292513 0.03145720 0.04740719 0.04406609 0.01926346 0.00491449 0.00925389 0.00350749
6 0.00743681 0.06662174 0.01779376 0.02260207 0.00736095 0.01179341 0.00508967 0.00930665 0.00130481 0.00571613 0.00084029 0.00537501
3 0.03818903 0.06258583 0.03443722 0.00970931 0.01378233 0.00306418 0.00576133 0.00240802 0.00412497 0.00074496 0.00242186 0.00235304
1 0.08989908 0.10787386 0.02424292 0.04155505 0.01109727 0.02200209 0.00637487 0.01364561 0.00534768 0.00825491 0.00417478 0.00641654
3 0.25414467 0.20066506 0.12270898 0.01353881 0.04997184 0.04665627 0.01216161 0.01551925 0.00315630 0.00630180 0.01322274 0.00386167
1 0.03001057 0.06570470 0.02118132 0.02550349 0.00069352 0.01113358 0.00261720 0.00614295 0.00314869 0.00340204 0.00170467 0.00247700
2 0.01458445 0.10045110 0.00210428 0.03352156 0.00052272 0.01437499 0.00049571 0.01008660 0.00031114 0.00647079 0.00056547 0.00228696
1 0.67527074 0.20124714 0.03734808 0.05096467 0.02030575 0.01683817 0.03347035 0.01471941 0.01163644 0.01863957 0.01289706 0.00873193
0 0.02638575 0.10921974 0.00819611 0.03689345 0.00236859 0.01732732 0.00170652 0.01310078 0.00123211 0.00843137 0.00103789 0.00477197
4 0.01188929 0.07289674 0.00755819 0.00300579 0.00383780 0.00386472 0.00232648 0.00161104 0.00066292 0.00187334 0.00114234 0.00076641
0 0.03938795 0.10418455 0.01153617 0.03397811 0.00629695 0.01865401 0.00060803 0.00819072 0.00160567 0.00514779 0.00247032 0.00442004
0 1.77890348 0.13430637 0.03605303 0.14252914 0.16120782 0.06217993 0.02410579 0.07365546 0.03461413 0.02822850 0.03309365 0.03322598
0 0.00680425 0.12174658 0.00131669 0.04408889 0.00233159 0.02355161 0.00172860 0.01434729 0.00035847 0.00954481 0.00085257 0.00633061
0 0.01892468 0.12912673 0.01277013 0.04008384 0.00431787 0.01935209 0.00184703 0.01386003 0.00136106 0.00734963 0.00113138 0.00382882
4 0.00544242 0.10188702 0.00691967 0.01815573 0.00433024 0.00462522 0.00255514 0.00153714 0.00097542 0.00052535 0.00181936 0.00107955
4 0.01340611 0.04497764 0.01432928 0.00632148 0.00672465 0.00284979 0.00443914 0.00234954 0.00153078 0.00226642 0.00083158 0.00155262
1 1.66970372 0.28821403 0.09812252 0.03862135 0.11958776 0.05324971 0.06187116 0.03672293 0.03553636 0.03167974 0.03663989 0.02322564
0 0.03815837 0.10143498 0.01402789 0.03863549 0.00322734 0.01760688 0.00164274 0.00976665 0.00166939 0.00599513 0.00202983 0.00389769
1 0.04224535 0.05792571 0.00985034 0.02011435 0.00310326 0.01274160 0.00333237 0.00726300 0.00133858 0.00370735 0.00178928 0.00382166
1 0.18526207 0.08418652 0.07205720 0.02108818 0.03540951 0.01376686 0.02511793 0.01240908 0.01580522 0.00706014 0.01056144 0.00452816
6 1.53822768 0.73223490 0.60002899 0.47424594 0.03249826 0.19408973 0.05528031 0.04365112 0.10271715 0.04985697 0.03892578 0.01704966
0 0.00761028 0.12452417 0.00214985 0.04410315 0.00065880 0.02288426 0.00134119 0.01371726 0.00100555 0.00932124 0.00066509 0.00656616
3 0.94150388 0.56346482 0.10606716 0.16554919 0.05993019 0.04189712 0.02372986 0.01271218 0.00929878 0.02049197 0.00890522 0.01737329
6 1.46342361 0.24853571 0.19209161 0.12734124 0.07754554 0.03456248 0.07751481 0.07147176 0.04878193 0.05440539 0.04349020 0.03690059
2 0.02380458 0.08519966 0.00159332 0.03468826 0.00211454 0.01413772 0.00136944 0.00773793 0.00193896 0.00605932 0.00127293 0.00491251
0 1.00953972 0.20047972 0.06293398 0.11454324 0.02921681 0.03616363 0.06507588 0.01981819 0.01219832 0.01469159 0.02582962 0.01136859
2 0.03305500 0.08681311 0.00425290 0.03616533 0.00383268 0.01220201 0.00181696 0.01048316 0.00167311 0.00564538 0.00251143 0.00385332
0 2.78499126 0.06869815 0.04996998 0.05255102 0.30605495 0.01016712 0.01599631 0.02724889 0.12002928 0.00717643 0.00785269 0.01998816
0 2.08292007 0.16311023 0.04663922 0.16621715 0.18859276 0.06074710 0.04257388 0.07536320 0.04139763 0.02989428 0.04034800 0.03619528
4 0.00089971 0.12000067 0.00168626 0.04643729 0.00259135 0.02478400 0.00292322 0.01433373 0.00267637 0.00876030 0.00217764 0.00643639
3 0.27900052 0.12394546 0.06436893 0.04091297 0.02570033 0.02566788 0.04317763 0.02176825 0.00914189 0.00604863 0.00148735 0.01037872
5 0.16160731 0.04727018 0.01747982 0.07424859 0.11092901 0.01342250 0.03661588 0.01222581 0.00274739 0.01259609 0.02852663 0.01266326
5 0.15327804 0.04402341 0.00999682 0.06126346 0.11073426 0.01743673 0.03101754 0.01528468 0.00559154 0.01091625 0.01386811 0.01362489
6 1.15127504 0.19235730 0.14119020 0.08933241 0.12394688 0.03111426 0.03248997 0.07836754 0.03293824 0.01956998 0.03757997 0.02068150
3 0.95096612 0.53071332 0.14662933 0.09630327 0.05255782 0.02952413 0.06027241 0.02669662 0.02810125 0.02647071 0.01516864 0.02362959
1 0.12254798 0.10491600 0.02745035 0.03944978 0.01760536 0.01959284 0.01056631 0.01319474 0.00840060 0.00965784 0.00701167 0.00936240
4 0.00292976 0.08346771 0.00427641 0.01578464 0.00383060 0.00466000 0.00254302 0.00276921 0.00194229 0.00185793 0.00145284 0.00135614
6 0.03296604 0.07657320 0.01389671 0.02739584 0.00689434 0.01301850 0.00474499 0.00865882 0.00390766 0.00553533 0.00223226 0.00385786
1 0.10543497 0.11007266 0.02500018 0.04411411 0.01205915 0.02372201 0.00687933 0.01479291 0.00356588 0.01113265 0.00349712 0.00716307
2 0.02497610 0.06893013 0.00620366 0.02249894 0.00238730 0.00769334 0.00224760 0.00587487 0.00353281 0.00255246 0.00129184 0.00257622
4 0.00803410 0.06607874 0.00720126 0.00436317 0.00563961 0.00185527 0.00388669 0.00173021 0.00162646 0.00066277 0.00116212 0.00079556
5 0.14936008 0.05608078 0.00993612 0.04813103 0.09628256 0.04433315 0.01837176 0.01550179 0.02208192 0.03706716 0.02676639 0.01350101
3 1.01865816 0.62613124 0.06788041 0.22544637 0.07655126 0.08326299 0.03091544 0.06686592 0.01195446 0.02834495 0.02839376 0.02769846
4 0.00268907 0.06582872 0.00179390 0.00590802 0.00370326 0.00575639 0.00246673 0.00313276 0.00105742 0.00208996 0.00117769 0.00141921
3 1.00819957 0.27763319 0.23990263 0.22204553 0.15724786 0.09274517 0.03271329 0.10067014 0.07342225 0.06266748 0.01810383 0.00835026
4 0.00249457 0.08438285 0.00539373 0.01334145 0.00540558 0.00246386 0.00380515 0.00033927 0.00150936 0.00045770 0.00034122 0.00129056
2 0.01290832 0.06413832 0.00786096 0.01817211 0.00616653 0.00950540 0.00436087 0.00569992 0.00193561 0.00578278 0.00136222 0.00346547
6 0.02200884 0.07018318 0.01821278 0.02877069 0.00943147 0.01391439 0.00463459 0.00721069 0.00249465 0.00629160 0.00246971 0.00441180
2 0.04628711 0.08775790 0.01010524 0.02769233 0.00357524 0.01330207 0.00332811 0.00947857 0.00023431 0.00551979 0.00224385 0.00216172
6 1.36613250 0.34272718 0.54077792 0.26835534 0.15956594 0.04407681 0.14622572 0.03857643 0.01504985 0.01827333 0.03956129 0.02321376
0 0.00457718 0.10938998 0.00864035 0.03973739 0.00316024 0.01837312 0.00206038 0.01268269 0.00088376 0.00815923 0.00042462 0.00663557
5 0.11122166 0.08458945 0.07899848 0.07143606 0.03563122 0.06335250 0.09977353 0.03330953 0.02900667 0.01548512 0.01308065 0.01047283
6 0.20481801 0.12703148 0.06981400 0.05062712 0.02183272 0.02372926 0.03355259 0.02248585 0.00702873 0.01082331 0.00608416 0.00901198
1 1.87265956 0.30068985 0.06994075 0.05223066 0.17537707 0.04575859 0.04106277 0.03943188 0.05814478 0.02700545 0.03025062 0.02224145
2 0.01074868 0.09959238 0.00133897 0.03216466 0.00220917 0.01600122 0.00195666 0.01019181 0.00117376 0.00514190 0.00092003 0.00527825
5 0.21104203 0.07745428 0.10424528 0.13633527 0.01261747 0.03734647 0.03947157 0.01683087 0.01714754 0.00325174 0.02925744 0.00578513
4 0.00295110 0.10440190 0.00467566 0.02119678 0.00450371 0.00564191 0.00352666 0.00122419 0.00157270 0.00077790 0.00162664 0.00016109
4 0.00456233 0.05445359 0.00197201 0.00183933 0.00435565 0.00445983 0.00226014 0.00172931 0.00282154 0.00125771 0.00158726 0.00098059
1 1.92078483 0.36462796 0.06533011 0.04697176 0.16230570 0.07550348 0.02846518 0.02920914 0.04652777 0.03716172 0.01988749 0.02369650
1 1.26477301 0.36952522 0.49178919 0.24523841 0.06268348 0.15297127 0.09504545 0.02435738 0.03343626 0.01097608 0.01584792 0.04462918
3 0.02228074 0.06633893 0.02957074 0.00752177 0.01442459 0.00360775 0.00659376 0.00163075 0.00369969 0.00071734 0.00291148 0.00188857
5 0.24978361 0.12441429 0.08234611 0.18421055 0.01882274 0.03527975 0.02392346 0.01440357 0.02216077 0.01025413 0.00905074 0.02853038
6 1.23827791 0.45833969 0.35839194 0.16582765 0.10495430 0.11547822 0.05519867 0.02675704 0.02546590 0.04298134 0.08949564 0.04868300
4 0.00594410 0.07670592 0.00918664 0.00977639 0.00348909 0.00433074 0.00083714 0.00180244 0.00051136 0.00142124 0.00218445 0.00103266
1 0.00512461 0.05269930 0.02091033 0.01808064 0.00776056 0.01108994 0.00138568 0.00422622 0.00067452 0.00380097 0.00141394 0.00310502
6 1.18714225 0.66014189 0.07298068 0.15489510 0.10476715 0.11890926 0.01016867 0.05529060 0.01502343 0.01089645 0.04227411 0.01771836
6 0.01969050 0.06191360 0.01523034 0.02605016 0.00751958 0.01454881 0.00494134 0.00896806 0.00253095 0.00670400 0.00046657 0.00489962
2 0.00946611 0.07954703 0.00419968 0.01937008 0.00172164 0.01177804 0.00118565 0.00620333 0.00094353 0.00429341 0.00139222 0.00276076
4 0.00185402 0.06190486 0.00735705 0.00229469 0.00150255 0.00357954 0.00227456 0.00177677 0.00144017 0.00154458 0.00089141 0.00098576
2 0.02079895 0.10300580 0.00626110 0.03342325 0.00090902 0.01583546 0.00057768 0.00966494 0.00026961 0.00641166 0.00048731 0.00476613
0 0.01456682 0.11791771 0.00664237 0.04164152 0.00382335 0.02234496 0.00262783 0.01238459 0.00231063 0.00720390 0.00146783 0.00440611
2 0.02246562 0.09412821 0.00311280 0.03093654 0.00246644 0.01688294 0.00214282 0.00953368 0.00241104 0.00677737 0.00098060 0.00459373
3 0.93629020 0.40590355 0.43127155 0.11189735 0.15409270 0.06344552 0.07574676 0.01359234 0.02865475 0.02205905 0.01956587 0.00332905
2 0.02442338 0.08432395 0.00367990 0.02941419 0.00190233 0.01404779 0.00155247 0.00813132 0.00329136 0.00663445 0.00220441 0.00419307
1 0.63701302 0.18823768 0.18173744 0.02959516 0.03071568 0.03387575 0.03523378 0.02084605 0.03061659 0.00676267 0.00543686 0.01763742
6 0.03575886 0.07327291 0.01809974 0.02017355 0.00542449 0.01431093 0.00384058 0.00986839 0.00344959 0.00759964 0.00275725 0.00463288
3 0.23824127 0.08274379 0.05106255 0.03351448 0.03525628 0.01079659 0.01244330 0.00594559 0.00086163 0.00851859 0.00459794 0.00855059
4 0.00866244 0.10579007 0.00672331 0.02394365 0.00208624 0.00843818 0.00179076 0.00220865 0.00218106 0.00089984 0.00146158 0.00127146
2 0.01136443 0.08877485 0.00277677 0.03009935 0.00173875 0.01239595 0.00171372 0.00725236 0.00286206 0.00636911 0.00096587 0.00352662
0 0.01045777 0.11841600 0.00393059 0.04169176 0.00407861 0.02209013 0.00231593 0.01405774 0.00146813 0.00926095 0.00096188 0.00676604
2 0.02694669 0.10249887 0.00944167 0.03357817 0.00231110 0.01593009 0.00117318 0.01048195 0.00120846 0.00705600 0.00182025 0.00392271
1 0.55077511 0.16662544 0.17739104 0.00746258 0.01509036 0.03439533 0.03075301 0.01561586 0.02405037 0.00672483 0.01139282 0.01056165
2 0.01148140 0.07294694 0.00867349 0.02099123 0.00152840 0.00958023 0.00207077 0.00539772 0.00242867 0.00255918 0.00064028 0.00442144
4 2.22717857 0.20748070 0.04884009 0.05990371 0.23152418 0.05069577 0.03696364 0.01606775 0.07683408 0.01230814 0.02283880 0.00980107
0 0.02656551 0.12309837 0.01457390 0.03663283 0.00315715 0.01969324 0.00097072 0.01339805 0.00106441 0.00692483 0.00075008 0.00500851
4 0.00690936 0.06177732 0.00537791 0.00289347 0.00583161 0.00158265 0.00175080 0.00064233 0.00278941 0.00162847 0.00032392 0.00193202
4 0.00718343 0.08598336 0.01109064 0.01360390 0.00346075 0.00637963 0.00212881 0.00296713 0.00121011 0.00128164 0.00084256 0.00041965
1 0.01191595 0.05558844 0.01185392 0.01663606 0.00682066 0.01113596 0.00473326 0.00778664 0.00228566 0.00394706 0.00324024 0.00208541
5 0.25634393 0.09824284 0.09062520 0.14055693 0.02424880 0.01840148 0.02377763 0.00980446 0.01469367 0.00369441 0.01370337 0.03361940
6 0.01882364 0.06583987 0.00352428 0.02572269 0.00809658 0.01416864 0.00301074 0.01042542 0.00364457 0.00486475 0.00285075 0.00250798
4 0.01562677 0.08295204 0.00474380 0.01540356 0.00744647 0.00414615 0.00501465 0.00195617 0.00286721 0.00148778 0.00207072 0.00132242
1 0.00813613 0.04840143 0.01950477 0.01721142 0.00441411 0.00787859 0.00372477 0.00689220 0.00266680 0.00496067 0.00127401 0.00327141
3 0.00910319 0.01422843 0.01003516 0.00830020 0.01806084 0.00973977 0.01153987 0.00232533 0.00554203 0.00091517 0.00281685 0.00319471
3 0.95985603 0.54182422 0.06576923 0.18919808 0.07057104 0.04679767 0.02080537 0.05388937 0.01407261 0.03191159 0.02650690 0.01182630
2 0.01880929 0.10613023 0.00545508 0.03595522 0.00170887 0.01581350 0.00073250 0.00970503 0.00127022 0.00728048 0.00053245 0.00493367
2 0.01944953 0.08314231 0.00741102 0.01857682 0.00345736 0.01231776 0.00258307 0.00857157 0.00171123 0.00504241 0.00176331 0.00407236
0 1.86919451 0.13076767 0.05662498 0.11506099 0.18817474 0.04585419 0.01828952 0.06768212 0.04054246 0.01547242 0.01491187 0.03700527
5 0.14975744 0.05241314 0.02786047 0.03903905 0.09361849 0.05997648 0.02913810 0.02545527 0.03482416 0.02232176 0.01292009 0.01597233
3 0.05500266 0.03983857 0.04790636 0.02845987 0.02134338 0.00548676 0.00647207 0.00065941 0.00251999 0.00074846 0.00245818 0.00075630
2 0.03164232 0.07979564 0.00871275 0.02636583 0.00365327 0.01354735 0.00228519 0.00708890 0.00277744 0.00413200 0.00082026 0.00428148
3 0.01599184 0.03162595 0.03208874 0.02437726 0.01937319 0.00840434 0.00967673 0.00093227 0.00441365 0.00251699 0.00266344 0.00196861
3 0.03479569 0.01397668 0.04090327 0.02425111 0.01959779 0.01030721 0.00652263 0.00213098 0.00339670 0.00249964 0.00308163 0.00045261
1 0.53623950 0.82746983 0.47452003 0.11047851 0.04728414 0.03762763 0.04619128 0.05880548 0.06965685 0.03094980 0.02129810 0.01770910
1 0.10323457 0.10656972 0.02773557 0.04001552 0.01403768 0.02353438 0.00560094 0.01507088 0.00486486 0.01020080 0.00298631 0.00817436
6 0.01386556 0.08760363 0.01013757 0.03257098 0.00744648 0.01638412 0.00300049 0.00849166 0.00086234 0.00614156 0.00058548 0.00402277
1 0.01932207 0.05287588 0.01546001 0.01615665 0.00367708 0.00896254 0.00149855 0.00636298 0.00046639 0.00278044 0.00110248 0.00332232
2 0.01545326 0.08620067 0.00123198 0.02754640 0.00116923 0.01113071 0.00074387 0.00870590 0.00035094 0.00587482 0.00052491 0.00457389
0 2.56203556 0.06304899 0.03067875 0.05700033 0.27482215 0.01290213 0.01604239 0.02085345 0.10713416 0.00134787 0.01319278 0.01936419
5 0.87740982 0.26590422 0.27699453 0.06622031 0.15666935 0.09931748 0.08422089 0.22156730 0.02867925 0.09407239 0.00939661 0.09374216
3 0.94407415 0.54322833 0.21155167 0.01246353 0.15085877 0.07587035 0.08153832 0.04589034 0.05912029 0.02335614 0.00936203 0.02003093
4 0.01095225 0.08221985 0.01197556 0.00891581 0.00419010 0.00499753 0.00162780 0.00246105 0.00233329 0.00161952 0.00193602 0.00079894
2 0.03229696 0.08701360 0.00453094 0.03648249 0.00448301 0.01073303 0.00125940 0.01091266 0.00173441 0.00560361 0.00276826 0.00328190
4 0.01879366 0.08995659 0.00281630 0.02282454 0.00464786 0.00833052 0.00327333 0.00329709 0.00137208 0.00225958 0.00203906 0.00188917
3 0.30486798 0.09131590 0.05308262 0.05198561 0.04623443 0.00489463 0.01721690 0.01281362 0.00827296 0.00645779 0.01137064 0.00602065
3 0.26884657 0.10177926 0.04579183 0.04772135 0.03782831 0.00562841 0.02366991 0.01727179 0.01013693 0.00581227 0.00743598 0.00188848
6 1.96753216 0.10296172 0.16614516 0.21568742 0.08008295 0.09339424 0.08500277 0.08858439 0.02294041 0.07435637 0.04292455 0.01745505
4 0.00200580 0.10238163 0.00344931 0.02114084 0.00259216 0.00931068 0.00183771 0.00498561 0.00137374 0.00317190 0.00229370 0.00139690
3 0.00279173 0.03527505 0.02608036 0.00175542 0.00660757 0.00382142 0.00827368 0.00177721 0.00360077 0.00069231 0.00413232 0.00086097
0 0.02828159 0.11134400 0.00990721 0.03512243 0.00132935 0.01962981 0.00215879 0.01279277 0.00042352 0.00735726 0.00117787 0.00567045
5 0.12554589 0.04550306 0.03867992 0.06812134 0.09488135 0.01974027 0.04044066 0.01331701 0.02665691 0.02789212 0.02277946 0.01432843
4 0.00819760 0.09900884 0.00409666 0.02383868 0.00304932 0.00860520 0.00200769 0.00399103 0.00171352 0.00051886 0.00196535 0.00133599
0 0.03287552 0.10562616 0.01079326 0.03403230 0.00497592 0.01955225 0.00078357 0.01025506 0.00198235 0.00625841 0.00144636 0.00449692
2 0.01675171 0.08903957 0.00259257 0.02549029 0.00130678 0.01209376 0.00168974 0.00809915 0.00121775 0.00526278 0.00090175 0.00382578
3 0.85690600 0.45368272 0.12932315 0.20024285 0.04646249 0.02858871 0.02093692 0.05986996 0.02294748 0.03157924 0.02277674 0.03219039
4 0.02286948 0.05468100 0.01536925 0.00736396 0.00882198 0.00212242 0.00324737 0.00344637 0.00100879 0.00290691 0.00154817 0.00155766
2 0.01335572 0.08051693 0.00223647 0.02578928 0.00201670 0.01084456 0.00194020 0.00746867 0.00150678 0.00533147 0.00060400 0.00346535
3 0.02064639 0.03400003 0.01807524 0.01047486 0.01244048 0.00320372 0.00725043 0.00350921 0.00613249 0.00332800 0.00320987 0.00323245
2 0.02536225 0.08084969 0.01122230 0.02343693 0.00638736 0.01038070 0.00270016 0.00571683 0.00159138 0.00370953 0.00064972 0.00402366
3 0.01284955 0.06431006 0.03358116 0.00465905 0.01705136 0.00652888 0.00710386 0.00158607 0.00558540 0.00131143 0.00328278 0.00246029
5 0.04782420 0.04569525 0.05438692 0.10060896 0.01764287 0.11305581 0.04310365 0.02994225 0.02065676 0.02127925 0.00710077 0.00957046
1 0.11261576 0.10374788 0.03162639 0.03429234 0.01842933 0.01725678 0.01527367 0.01096124 0.00940291 0.00796183 0.00949938 0.00550641
0 0.00765043 0.11401150 0.00237689 0.03556128 0.00744151 0.01362695 0.00834490 0.00472958 0.00823292 0.00244047 0.00802271 0.00216371
5 0.22284839 0.08942322 0.02417419 0.08128358 0.11825198 0.01502318 0.04263115 0.01987603 0.01590509 0.01000664 0.01926912 0.01171191
3 0.01001180 0.02031385 0.02947798 0.01480354 0.01694149 0.00398130 0.01610608 0.00443202 0.00813494 0.00103313 0.00231567 0.00158738
3 0.31125426 0.09493289 0.04982455 0.06863732 0.04719675 0.00955203 0.02182781 0.00701218 0.00887580 0.01377109 0.01035895 0.00589429
0 2.32191038 0.07315852 0.07246159 0.10149916 0.22921076 0.03172005 0.03244602 0.05623563 0.07619331 0.01055367 0.01429055 0.04634168
6 0.01676785 0.06270616 0.01399398 0.02563376 0.00898041 0.01183608 0.00470786 0.00651700 0.00270691 0.00439631 0.00028292 0.00489150
2 0.02073740 0.11507885 0.00525130 0.03586395 0.00169865 0.01933412 0.00189630 0.01245076 0.00155014 0.00703332 0.00083450 0.00442134
1 1.95484090 1.29534292 0.34365502 0.30060410 0.17057328 0.26921296 0.04080179 0.02580573 0.02785789 0.02332333 0.08014975 0.03909145
4 0.00954334 0.07908223 0.01050922 0.01261768 0.00470726 0.00657410 0.00126773 0.00322753 0.00104474 0.00221616 0.00072513 0.00133649
5 0.13037968 0.01676928 0.00354770 0.03338500 0.09660944 0.04460804 0.03266865 0.00279513 0.02667775 0.02464965 0.01445561 0.00616259
2 0.02033931 0.09045692 0.00326450 0.02760088 0.00423774 0.01146090 0.00226737 0.00812971 0.00223256 0.00555052 0.00206918 0.00347975
0 0.04580881 0.10747705 0.02466182 0.03664612 0.00172413 0.01556379 0.00404158 0.00763177 0.00528754 0.00623379 0.00335790 0.00386435
1 2.18439984 0.57074529 0.06358484 0.11845776 0.15642142 0.10762709 0.04234550 0.03565829 0.03420415 0.04315757 0.02451356 0.04115627
1 0.00442421 0.06075131 0.02044767 0.01881014 0.00697219 0.00975620 0.00163001 0.00489384 0.00051821 0.00330185 0.00071688 0.00196194
4 0.00645377 0.07524944 0.00760825 0.00926788 0.00876382 0.00038580 0.00343517 0.00302156 0.00292337 0.00118530 0.00107253 0.00224539
5 0.10478106 0.03781539 0.01550402 0.06214573 0.03636535 0.09131797 0.06848645 0.01905387 0.02524807 0.00762806 0.02174718 0.02286661
0 2.76930547 0.06436017 0.06449110 0.04812636 0.30684185 0.01389595 0.02003857 0.02774098 0.11591783 0.00569386 0.01435395 0.02000074
0 0.02560278 0.10406808 0.00886953 0.03552442 0.00192717 0.01682706 0.00101401 0.00961155 0.00173109 0.00661312 0.00116919 0.00525149
0 2.32990837 0.05954751 0.01831818 0.13535975 0.23384616 0.05223190 0.00575064 0.06000478 0.07839545 0.02749856 0.00012357 0.04178147
3 0.05840197 0.03022437 0.04464023 0.02838662 0.02431252 0.00934366 0.00595159 0.00478436 0.00291595 0.00513489 0.00198551 0.00230647
3 0.01432588 0.04917143 0.02961913 0.01204366 0.01771514 0.00710331 0.00653077 0.00357563 0.00253157 0.00322191 0.00237133 0.00276895
4 0.00851394 0.05512799 0.00956246 0.00134735 0.00427429 0.00451990 0.00171616 0.00233292 0.00236351 0.00080710 0.00181839 0.00177167
2 0.00794410 0.09009819 0.00639648 0.02604732 0.00499718 0.01312993 0.00296561 0.00786279 0.00067796 0.00540849 0.00139181 0.00463892
2 0.01402822 0.09824393 0.00585653 0.03018958 0.00440933 0.01426869 0.00234822 0.00970153 0.00052102 0.00726868 0.00067470 0.00488022
6 0.02733441 0.08126532 0.01368851 0.02432032 0.00577646 0.01260059 0.00537810 0.01008954 0.00197476 0.00605173 0.00181006 0.00419934
5 0.20869400 0.07969070 0.03390339 0.06009332 0.11737167 0.03263070 0.05651201 0.01933653 0.01348790 0.00646609 0.01684553 0.00618921
0 2.65282893 0.05651415 0.07120431 0.09076542 0.30643627 0.01276133 0.04442051 0.07004347 0.11729683 0.03148786 0.00161038 0.04666821
2 0.01178182 0.06891575 0.00699432 0.02121384 0.00104103 0.01038489 0.00095912 0.00739849 0.00112937 0.00537089 0.00086546 0.00318060
1 0.58532798 0.18438783 0.19068861 0.02764958 0.01803550 0.03335927 0.03169711 0.00947864 0.03310131 0.00574229 0.01171159 0.00917387
3 0.24067791 0.23420966 0.08457582 0.02963374 0.08179282 0.01740758 0.02633538 0.00369889 0.02742418 0.00206356 0.00479249 0.01156567
5 0.11745238 0.02468564 0.02863790 0.05239927 0.08903404 0.04257271 0.03191306 0.01648937 0.03659500 0.02432880 0.01163590 0.01290282
4 0.00698764 0.08467404 0.00632209 0.01570880 0.00150289 0.00627858 0.00207883 0.00277440 0.00136630 0.00122405 0.00103012 0.00086398
0 0.03859818 0.11554596 0.01224220 0.03759587 0.00555899 0.01792367 0.00108140 0.00838917 0.00172886 0.00557166 0.00247541 0.00337709
3 0.65111905 0.27227432 0.32426068 0.25109163 0.06153753 0.07553437 0.06675463 0.07004049 0.06479335 0.03798375 0.04722479 0.01225165
0 0.03376315 0.10035053 0.01146102 0.03281044 0.00286109 0.01595845 0.00283026 0.00911414 0.00251053 0.00565639 0.00228272 0.00356423
4 0.00785235 0.11111682 0.00383850 0.02674773 0.00285832 0.00696720 0.00233334 0.00145539 0.00184741 0.00160520 0.00112158 0.00051763
3 0.04367978 0.06635957 0.03276815 0.01649388 0.00905612 0.00321432 0.00121197 0.00427470 0.00178126 0.00234565 0.00451789 0.00235235
4 0.00264328 0.10149314 0.00243109 0.01961815 0.00171218 0.00852848 0.00142061 0.00586558 0.00159673 0.00172884 0.00215851 0.00163865
6 0.03691877 0.06684531 0.02085341 0.02311392 0.00627530 0.01378759 0.00429450 0.00882061 0.00222467 0.00683582 0.00061360 0.00423425
5 0.22063662 0.19121562 0.14103995 0.06345335 0.07560434 0.06954249 0.07609289 0.00951897 0.02822248 0.00901997 0.01997415 0.00469555
1 0.03077322 0.05363640 0.01776589 0.01332328 0.00563592 0.01131758 0.00365960 0.00440175 0.00453217 0.00386932 0.00253808 0.00319494
0 0.02621678 0.11829408 0.01853766 0.04245287 0.00298490 0.02038090 0.00108802 0.00983739 0.00124482 0.00746460 0.00108555 0.00462561
3 1.37481332 0.38788298 0.15727639 0.08959948 0.16571359 0.06879596 0.03548936 0.01676752 0.07599669 0.05648597 0.01237527 0.04539526
0 0.04234877 0.10859695 0.01070483 0.03674923 0.00447555 0.01436129 0.00465704 0.00690665 0.00370481 0.00562971 0.00343968 0.00413083
5 0.22492480 0.12725264 0.03921317 0.21119669 0.00565344 0.03902365 0.01349390 0.01095860 0.01784000 0.02326190 0.01275156 0.01951265
5 0.22726491 0.13070403 0.01818718 0.14924981 0.08789314 0.03207142 0.04173530 0.03182420 0.01525025 0.01596845 0.02618344 0.01125167
1 0.02987999 0.06544962 0.01511977 0.01063597 0.00476884 0.00543660 0.00414996 0.00253633 0.00452581 0.00182870 0.00123196 0.00309801
6 0.44909412 0.11612250 0.18914968 0.02676586 0.03336341 0.03198449 0.00971370 0.01459010 0.01986586 0.00487867 0.01515020 0.00914390
2 0.02623658 0.09767000 0.00438009 0.03326825 0.00375944 0.01625698 0.00372654 0.00949200 0.00059061 0.00599725 0.00125246 0.00386589
5 0.15534134 0.04749843 0.02493848 0.03053050 0.09244236 0.04770312 0.01493872 0.01789624 0.01926506 0.03968109 0.01913483 0.01048623
2 0.01923078 0.09787957 0.00795412 0.03487387 0.00417731 0.01689704 0.00066311 0.01081262 0.00119004 0.00681602 0.00087457 0.00473738
2 2.59289742 0.32762527 0.06075943 0.05160901 0.27828258 0.08053856 0.04583538 0.04853287 0.09273686 0.03017601 0.04152836 0.03135115
2 0.00666600 0.09255601 0.00427094 0.02795054 0.00221481 0.01336436 0.00132453 0.00825898 0.00013112 0.00645168 0.00111881 0.00396174
2 0.01200382 0.07041936 0.00148277 0.02146195 0.00202246 0.00928502 0.00274297 0.00653348 0.00178071 0.00469054 0.00107098 0.00273858
6 0.04099787 0.05295918 0.02903092 0.02852364 0.00868212 0.01229563 0.00262459 0.00751463 0.00229200 0.00645446 0.00171989 0.00541620
3 0.02456794 0.06170198 0.02693260 0.00855859 0.01440145 0.00977734 0.00550148 0.00108829 0.00376103 0.00288791 0.00045192 0.00156939
1 0.15954985 0.10301495 0.04644788 0.03582873 0.01971261 0.01812104 0.01437663 0.01224855 0.00752320 0.00483430 0.00715901 0.00471682
6 1.54285502 0.30736229 0.20253100 0.15471239 0.06832529 0.05779761 0.09993199 0.09638103 0.04582225 0.06831095 0.05631835 0.05797729
5 0.09089869 0.04579467 0.03221403 0.03905025 0.05238853 0.08841516 0.00062937 0.04233440 0.03192254 0.00821219 0.00428239 0.00794739
1 0.05571535 0.06118319 0.01054693 0.01850482 0.00374619 0.01179104 0.00602818 0.00721509 0.00607257 0.00305069 0.00356580 0.00324441
3 0.97920704 0.21219125 0.23686814 0.19952285 0.07897097 0.04974233 0.08044131 0.05263089 0.08705807 0.02878313 0.05767103 0.01373456
0 0.01181514 0.11184109 0.01079329 0.03802705 0.00223841 0.01935039 0.00142298 0.01228231 0.00055239 0.00734473 0.00062133 0.00534748
5 0.21039322 0.09977165 0.03411122 0.16216831 0.05078811 0.05354998 0.00946626 0.00205683 0.00767104 0.02429933 0.01257067 0.00813892
0 0.01971501 0.11163697 0.00943148 0.03896977 0.00512428 0.01924453 0.00143781 0.01121934 0.00091584 0.00718883 0.00015903 0.00447295
2 0.03651454 0.08319756 0.01246027 0.03130189 0.00741475 0.01647284 0.00258403 0.00936630 0.00369007 0.00480721 0.00100686 0.00358079
6 0.02661567 0.06592753 0.02020348 0.01362452 0.00628203 0.01221932 0.00248726 0.01049590 0.00396822 0.00827736 0.00234109 0.00497482
6 1.09259546 0.42496246 0.27317095 0.12000874 0.16638510 0.05620979 0.06508840 0.06148054 0.02413017 0.01614931 0.00676212 0.02597192
6 0.01025950 0.06237787 0.02014516 0.02248196 0.00850167 0.01253711 0.00339204 0.01027039 0.00316203 0.00842135 0.00210868 0.00576845
0 0.00378241 0.11299572 0.00520438 0.04282336 0.00234268 0.02045687 0.00252956 0.01355004 0.00049536 0.00863023 0.00085551 0.00678243
5 0.19698139 0.15096901 0.10831397 0.06845559 0.02493599 0.02092653 0.06897780 0.02811050 0.06479483 0.01824025 0.02310078 0.02471937
1 0.03016525 0.07387593 0.01849651 0.01746079 0.00600278 0.00990803 0.00510944 0.00450366 0.00211143 0.00591103 0.00368921 0.00503836
2 0.01156348 0.06663352 0.00754235 0.02398958 0.00665234 0.01362686 0.00254343 0.00862521 0.00197432 0.00758236 0.00287549 0.00538691
2 2.55976295 0.43636101 0.50024837 0.25214618 0.36794865 0.02330946 0.01532359 0.05257913 0.00689765 0.08487422 0.06098044 0.00695682
1 1.57565916 1.80908418 0.46932957 0.31516880 0.10922154 0.10800062 0.11955256 0.05395094 0.02250087 0.06558503 0.02960351 0.07735344
4 0.00586761 0.05173594 0.01219280 0.00299516 0.00294690 0.00399635 0.00255955 0.00096576 0.00114597 0.00166559 0.00075451 0.00102871
3 0.19306484 0.13105483 0.11790474 0.15104270 0.06569094 0.01168461 0.05102032 0.03172851 0.02144132 0.01341447 0.00628458 0.01753880
5 0.13585104 0.04614136 0.01354542 0.04755074 0.11499927 0.01954023 0.03254359 0.00300734 0.01184074 0.01962844 0.02671094 0.00508097
4 0.00495223 0.10993998 0.00332171 0.02489086 0.00134606 0.00558598 0.00255109 0.00214830 0.00281119 0.00231662 0.00091531 0.00245736
5 0.13516591 0.08353445 0.07304449 0.03413741 0.01638710 0.05401398 0.08342123 0.02983170 0.02684433 0.01621622 0.02335681 0.00568437
5 0.16587387 0.06665198 0.01026367 0.09103648 0.11079503 0.01482831 0.02564036 0.01512786 0.00552255 0.00303011 0.02656415 0.01622774
0 2.24841619 0.14961527 0.07477247 0.08172239 0.21430215 0.04399332 0.03409695 0.03517894 0.06783531 0.02884494 0.02111932 0.02931802
2 0.00809292 0.05399847 0.00743119 0.01747628 0.00500256 0.00946645 0.00313597 0.00576956 0.00063229 0.00409671 0.00091296 0.00442094
4 0.00181681 0.07768147 0.00345815 0.01189487 0.00418092 0.00481956 0.00231745 0.00249480 0.00183846 0.00063652 0.00219036 0.00047320
2 3.38972545 0.80302668 0.16390721 0.09990013 0.20741768 0.27945051 0.06868818 0.05148755 0.04451719 0.11115777 0.00390069 0.03272935
0 0.02486645 0.10555936 0.00882418 0.03432768 0.00184721 0.01626937 0.00081409 0.00911564 0.00137337 0.00638219 0.00107537 0.00440799
4 1.97696066 0.28856096 0.06109599 0.05427665 0.18163754 0.05441526 0.04342235 0.01346978 0.04987807 0.01732621 0.03072460 0.00219083
5 0.74178076 0.07022253 0.20232372 0.01341510 0.13110653 0.03214793 0.04418593 0.09956641 0.15073252 0.05059341 0.06042198 0.06404399
1 0.09598880 0.10517535 0.03069907 0.03970707 0.01616435 0.02170715 0.00731203 0.01230287 0.00680868 0.00911608 0.00500439 0.00633429
1 0.11924252 0.10572915 0.03536796 0.03644221 0.02189153 0.02007972 0.01060728 0.01518777 0.00420859 0.00825833 0.00632337 0.00869845
3 0.04574452 0.07634302 0.04056574 0.01390741 0.02199911 0.00265657 0.01330053 0.00274568 0.00263896 0.00132746 0.00281674 0.00123356
4 0.00647586 0.10843737 0.00400013 0.02107447 0.00300099 0.00360775 0.00253650 0.00256105 0.00228764 0.00062970 0.00162847 0.00058076
0 0.04343406 0.10961047 0.00725041 0.03805300 0.00374633 0.01649623 0.00208999 0.00913269 0.00189767 0.00666085 0.00172004 0.00393713
0 0.00662433 0.11979941 0.00769643 0.04540707 0.00203445 0.02300698 0.00052770 0.01447804 0.00092252 0.00870316 0.00042924 0.00635132
5 0.14248721 0.05560140 0.00902294 0.09102492 0.10078733 0.03536154 0.01135621 0.01121632 0.01627132 0.01440221 0.01601575 0.01531406
6 0.02154957 0.06035097 0.02045834 0.02117532 0.00380775 0.01099418 0.00551216 0.00946711 0.00149088 0.00510563 0.00206612 0.00347628
6 0.01940667 0.09726834 0.00431044 0.03462503 0.00357698 0.01735267 0.00086955 0.01004311 0.00139662 0.00693330 0.00018696 0.00426210
4 0.01028549 0.10018957 0.00256475 0.02167654 0.00359058 0.00767159 0.00228732 0.00477307 0.00251609 0.00280115 0.00158913 0.00096902
2 0.01039752 0.08588462 0.00126088 0.02559961 0.00095813 0.01534227 0.00378299 0.00886966 0.00227257 0.00595331 0.00156709 0.00390342
1 0.74131244 0.42914498 0.74104267 0.26820391 0.06651407 0.09717995 0.05896904 0.07821632 0.06207653 0.01710793 0.02250205 0.03031459
5 0.12814127 0.04620979 0.01593875 0.04943836 0.09660259 0.06065654 0.02758298 0.02297996 0.03169964 0.03350566 0.01874417 0.01107398
4 0.00881144 0.10302007 0.00551625 0.02126382 0.00672776 0.00518566 0.00362887 0.00203551 0.00206504 0.00117592 0.00190338 0.00061604
2 0.03527818 0.09250133 0.00690611 0.03671556 0.00279476 0.01906641 0.00150482 0.01210842 0.00059892 0.00558345 0.00202079 0.00516752
2 0.03273514 0.09193315 0.00553752 0.03054314 0.00076981 0.01541480 0.00227638 0.01080982 0.00099957 0.00666211 0.00127141 0.00555680
2 0.01818829 0.10379023 0.00383108 0.03762267 0.00452645 0.01746067 0.00342714 0.01219072 0.00247697 0.00930095 0.00138060 0.00597431
2 0.00466675 0.08217449 0.00492285 0.02702113 0.00137705 0.01331635 0.00040785 0.00799007 0.00071689 0.00585170 0.00115046 0.00433790
4 2.14751172 0.33224964 0.05286034 0.05277990 0.20544979 0.07411949 0.05357097 0.00810456 0.05752265 0.02093728 0.03331740 0.00445910
6 0.00953328 0.06220469 0.01989188 0.02148513 0.00852589 0.01311310 0.00383568 0.01034912 0.00358784 0.00843606 0.00207593 0.00562865
4 0.00468764 0.10208403 0.00470451 0.02377190 0.00262208 0.00668791 0.00216152 0.00299059 0.00130667 0.00133232 0.00173081 0.00035702
2 0.03842272 0.10364939 0.00789954 0.02747636 0.00231009 0.01674402 0.00226790 0.00936953 0.00009891 0.00581249 0.00135082 0.00429625
0 0.03247933 0.10735986 0.00805130 0.02794349 0.00436670 0.01372567 0.00267343 0.00866979 0.00238146 0.00503883 0.00267375 0.00315609
3 1.01683593 0.32328942 0.11397294 0.09890059 0.03615452 0.06224504 0.01236191 0.03578125 0.01487812 0.01576995 0.01079519 0.01422481
5 0.20223022 0.07609262 0.02464491 0.03311988 0.10521187 0.07675899 0.03481477 0.01460070 0.02419736 0.02163652 0.01337339 0.00568563
4 0.01056809 0.08931250 0.00661899 0.01646075 0.00363807 0.00780036 0.00167137 0.00224170 0.00112524 0.00065060 0.00137514 0.00050535
4 0.01406105 0.07787883 0.00773638 0.00398038 0.00639191 0.00426427 0.00389925 0.00124590 0.00253260 0.00094253 0.00124994 0.00081559
5 0.13630147 0.03480787 0.02200342 0.04199452 0.11232405 0.04088748 0.02916013 0.01582560 0.02730721 0.02791567 0.02532691 0.00898007
4 0.00639112 0.09310458 0.00132732 0.01841499 0.00282914 0.00330113 0.00206609 0.00120898 0.00061709 0.00037449 0.00115240 0.00083882
3 1.21432257 0.36412531 0.07770028 0.05976792 0.03865239 0.01590866 0.09152079 0.03243839 0.04196411 0.03484187 0.00970068 0.00603363
4 0.00397810 0.07994441 0.00729218 0.01064889 0.00741504 0.00122107 0.00348506 0.00262315 0.00323381 0.00176486 0.00086182 0.00155362
3 0.00427143 0.06422462 0.02245308 0.01060853 0.00716708 0.00252679 0.01179894 0.00405569 0.00099161 0.00250742 0.00645260 0.00453633
4 0.00457824 0.08304711 0.00098915 0.01479099 0.00330645 0.00197513 0.00471049 0.00070940 0.00141657 0.00238875 0.00098894 0.00147372
5 0.12396455 0.04782231 0.02299690 0.07247373 0.11169802 0.01616073 0.02956906 0.00842195 0.00312504 0.00869479 0.03269282 0.00867422
6 0.24514490 0.05037616 0.13128002 0.04014999 0.05814060 0.01209933 0.02731939 0.01788777 0.00067064 0.00670727 0.00943270 0.01251764
0 0.01500735 0.11476819 0.00693047 0.03970357 0.00455914 0.02019827 0.00213540 0.01138676 0.00054858 0.00694838 0.00053509 0.00551590
4 0.01225422 0.04649429 0.00555109 0.00577857 0.00723827 0.00348722 0.00182916 0.00182829 0.00168207 0.00154593 0.00126487 0.00178178
5 0.12961656 0.06247585 0.09195314 0.15887602 0.08745275 0.04289331 0.04523113 0.03629244 0.01900191 0.01195593 0.01239204 0.01165859
5 0.20480922 0.11771419 0.08680421 0.16096249 0.05579995 0.04699109 0.01641850 0.01133546 0.01991640 0.02247809 0.00799181 0.02355444
5 0.17672525 0.09514122 0.04455438 0.10085179 0.10613225 0.02117820 0.00576015 0.00688926 0.01679623 0.00860618 0.02612579 0.00909992
0 1.84853721 0.19510388 0.06734534 0.17063874 0.14697838 0.06643789 0.05612287 0.06436417 0.01765895 0.01905085 0.04632514 0.02444880
0 0.05317361 0.10179752 0.00590186 0.03365455 0.00531747 0.01506123 0.00393755 0.00891045 0.00260703 0.00473941 0.00316605 0.00313688
1 0.05151815 0.06517215 0.00733938 0.02627691 0.00102321 0.01435983 0.00384576 0.00811678 0.00411480 0.00507543 0.00221852 0.00433468
1 0.10021868 0.11071955 0.03530077 0.03857597 0.01541775 0.02253811 0.00739371 0.01383545 0.00820047 0.01017783 0.00502162 0.00697601
6 0.03216385 0.04928388 0.02296786 0.02335349 0.01156245 0.01435442 0.00177273 0.00787724 0.00243612 0.00567337 0.00165242 0.00478885
6 0.44202670 0.40802383 0.08618004 0.16993295 0.04052939 0.06785959 0.01277681 0.02047761 0.00140702 0.01526085 0.00760435 0.01442732
1 0.09289151 0.11265439 0.02247590 0.04558364 0.00939262 0.02070265 0.00859181 0.01581089 0.00444531 0.00801639 0.00562891 0.00606780
4 0.00189067 0.03685869 0.00587133 0.00311262 0.00449537 0.00238039 0.00306967 0.00133992 0.00075123 0.00150780 0.00144481 0.00070721
6 2.34623408 0.63087994 0.01911269 0.16551055 0.11472332 0.17324924 0.05323111 0.03521429 0.06052257 0.04987423 0.05011088 0.04539421
6 0.70793891 0.15023975 0.04988754 0.12608996 0.04266882 0.05918546 0.08036024 0.02518725 0.00514347 0.01873164 0.01050211 0.01301343
2 0.02359801 0.09751236 0.00075404 0.03204045 0.00124239 0.01427636 0.00281384 0.00928416 0.00309313 0.00388633 0.00321558 0.00520340
5 0.22322662 0.11799151 0.03979655 0.09100895 0.14205572 0.02318713 0.04475145 0.02215802 0.01734573 0.01291820 0.01486153 0.01117282
2 0.00804087 0.09411656 0.00708966 0.02983101 0.00049430 0.01495670 0.00080470 0.00908873 0.00127419 0.00580426 0.00086469 0.00394313
5 0.18039910 0.07488748 0.09704498 0.04178149 0.15214284 0.05258071 0.05973562 0.01988306 0.01198025 0.01214683 0.00254229 0.03060162
2 0.02705370 0.08446644 0.00967624 0.03294490 0.00519863 0.01506432 0.00236914 0.00780970 0.00178390 0.00684236 0.00147967 0.00547143
1 1.75413084 0.59120786 0.01286645 0.12164560 0.03878813 0.15596625 0.04295430 0.07151387 0.03711615 0.09169727 0.01180240 0.03076509
3 0.02807468 0.01650146 0.03594315 0.02010845 0.02427920 0.01061650 0.01262242 0.00207770 0.00367368 0.00324273 0.00094015 0.00216373
3 0.00653232 0.04284055 0.02490553 0.00666181 0.01336692 0.00308185 0.00758685 0.00406787 0.00412231 0.00235227 0.00499244 0.00195020
0 0.00854555 0.10742924 0.00546730 0.03615602 0.00495855 0.01996509 0.00155694 0.01227608 0.00136366 0.00822014 0.00094710 0.00530377
2 0.03163437 0.09260050 0.00993756 0.03333133 0.00632024 0.01548902 0.00466329 0.01098049 0.00096744 0.00809404 0.00157063 0.00503765
0 0.01157050 0.11987586 0.00565841 0.04494689 0.00350542 0.02324412 0.00237576 0.01346286 0.00210304 0.00833082 0.00040791 0.00624429
2 0.00517176 0.08561135 0.00161862 0.02179032 0.00287638 0.01119734 0.00210574 0.00793798 0.00066101 0.00437976 0.00035570 0.00357651
4 0.00505210 0.07259957 0.00890045 0.00300281 0.00293974 0.00516163 0.00112624 0.00137215 0.00141228 0.00161187 0.00108542 0.00069904
3 0.92949241 0.61292732 0.10529003 0.20723477 0.06518991 0.08385207 0.02507390 0.05695586 0.00950032 0.02673908 0.01199986 0.02376018
1 0.01378043 0.11831085 0.01254060 0.04518623 0.00554614 0.01932335 0.01185616 0.01155845 0.00623435 0.00770143 0.00863186 0.00196800
0 0.01206514 0.10878584 0.00750015 0.03563999 0.00630284 0.01947247 0.00179636 0.01314923 0.00142298 0.00830538 0.00096677 0.00515596
6 1.15615571 0.30813321 0.50923961 0.19408958 0.13247126 0.03669905 0.13042076 0.03165539 0.04436269 0.01728083 0.03638574 0.03900832
6 0.03414629 0.07317150 0.01663123 0.02186925 0.00948368 0.01065740 0.00297746 0.00847358 0.00236960 0.00517460 0.00099123 0.00325813
2 0.00946058 0.07255503 0.00877148 0.02389387 0.00778802 0.01389609 0.00356462 0.00909873 0.00250921 0.00844608 0.00295222 0.00549911
6 0.02206168 0.05332942 0.02116361 0.02414891 0.01045117 0.01391755 0.00183725 0.00646799 0.00269469 0.00450562 0.00227220 0.00305576
2 0.02151527 0.08610374 0.00506944 0.02653504 0.00292824 0.01247257 0.00071584 0.01033035 0.00078231 0.00616914 0.00092570 0.00458536
2 0.01922024 0.06823696 0.00865184 0.02458736 0.00176159 0.00929243 0.00190448 0.00781915 0.00356391 0.00432029 0.00092458 0.00322767
1 2.05864429 0.37604496 0.07456758 0.02942165 0.18078788 0.05673984 0.05520647 0.03706554 0.05911936 0.03906574 0.03159827 0.02135255
5 0.20458585 0.10121138 0.04762663 0.17547019 0.03339255 0.04398433 0.01183315 0.01521326 0.00843343 0.02107511 0.02021143 0.00931084
1 2.16336560 0.34978074 0.04684457 0.03688247 0.21494441 0.06125940 0.03533255 0.02567737 0.07604723 0.02314830 0.01222025 0.00727081
2 0.01820019 0.09699964 0.00341143 0.03267017 0.00268764 0.01365844 0.00195846 0.00987904 0.00226616 0.00500224 0.00135351 0.00382691
3 0.35012668 0.03640463 0.13851944 0.10299516 0.04104679 0.01328149 0.03695001 0.03077825 0.00346905 0.02122076 0.01639524 0.00194301
2 0.01271744 0.07486283 0.00838582 0.01921856 0.00672199 0.00544925 0.00261777 0.00727483 0.00154568 0.00569971 0.00178936 0.00270359
3 0.05842875 0.03307232 0.04519951 0.02898408 0.02360278 0.00910251 0.00517846 0.00453120 0.00334989 0.00501190 0.00157954 0.00186872
2 0.02833932 0.08645793 0.00183359 0.03449536 0.00304116 0.01401033 0.00104679 0.00797878 0.00225719 0.00575996 0.00211819 0.00464712
4 0.50315851 0.07702834 0.10556492 0.00741610 0.03481662 0.00530790 0.02579048 0.00229375 0.01258598 0.00273988 0.01223850 0.00366466
5 0.11649469 0.04110591 0.01242063 0.03155697 0.10922161 0.02912927 0.04191292 0.00838107 0.00811366 0.01104184 0.00846461 0.01284408
5 0.18288758 0.15156052 0.09189407 0.06643866 0.02949626 0.00897496 0.08268116 0.00631863 0.05380929 0.00617936 0.01837317 0.02190349
3 0.05087588 0.06896871 0.03329916 0.01824341 0.02447071 0.00461206 0.00919545 0.00368234 0.00323574 0.00476199 0.00349297 0.00282767
3 0.02694826 0.06243442 0.02643393 0.00678140 0.01407847 0.01058014 0.00646355 0.00288035 0.00381256 0.00157732 0.00097545 0.00114300
4 0.00502913 0.08270340 0.00692668 0.01385831 0.00365647 0.00341979 0.00361827 0.00206143 0.00102985 0.00139304 0.00164250 0.00051992
0 0.00594213 0.11290932 0.00764335 0.03542688 0.01120456 0.01291838 0.01168476 0.00373779 0.01040418 0.00110363 0.00999220 0.00256139
0 0.01894340 0.10931435 0.01174819 0.03292613 0.00472125 0.02000275 0.00137047 0.01163696 0.00141463 0.00676628 0.00141697 0.00429043
5 0.17721070 0.10866798 0.06209597 0.04516565 0.02331860 0.09593190 0.04228963 0.01100975 0.02261217 0.00681150 0.02393750 0.02045971
0 0.03857492 0.10210599 0.01766698 0.03378847 0.00286266 0.01213553 0.00485995 0.00725137 0.00448378 0.00441389 0.00110255 0.00436378
3 0.25259832 0.11900219 0.09801035 0.06809071 0.01344400 0.04758115 0.01520463 0.02104077 0.00231588 0.00197512 0.00675206 0.00592516
0 2.19118857 0.10765813 0.02523242 0.07850043 0.24329330 0.02725578 0.02939227 0.06318051 0.07356391 0.02329417 0.01089894 0.04758006
4 0.00959366 0.07398761 0.00617143 0.01252062 0.00179556 0.00427794 0.00100475 0.00245619 0.00165079 0.00173029 0.00071355 0.00058068
6 1.31464756 0.24355215 0.26438913 0.14844401 0.07968461 0.04060554 0.11960809 0.11210348 0.02888992 0.05277475 0.04232232 0.03717389
2 0.02976998 0.07703866 0.01104532 0.02558070 0.00389516 0.01367044 0.00141022 0.00549834 0.00088036 0.00431383 0.00166111 0.00453460
5 0.17291439 0.05143293 0.02514520 0.07114486 0.12076380 0.02673159 0.03841188 0.00392982 0.01716336 0.02118761 0.02219887 0.01934125
0 0.01263933 0.11259205 0.00647377 0.03905291 0.00254125 0.01890976 0.00034620 0.01133504 0.00061643 0.00754962 0.00027158 0.00512488
5 0.69243509 0.08018373 0.20585616 0.19047520 0.04587051 0.14450809 0.10838422 0.10472959 0.04718481 0.04958450 0.01890913 0.00895148
2 0.00866419 0.10789157 0.00552191 0.03815998 0.00363943 0.01839931 0.00277926 0.01273874 0.00105837 0.00914429 0.00167215 0.00622921
6 0.00399108 0.05111900 0.01776944 0.02124235 0.00595822 0.01005303 0.00434741 0.00899803 0.00284783 0.00583582 0.00250437 0.00471494
5 0.14216378 0.06281435 0.03760214 0.03826359 0.07363831 0.08478875 0.02152511 0.02768934 0.03466363 0.01411796 0.00780937 0.01126026
4 0.00892985 0.09276185 0.00781756 0.02368556 0.00215093 0.00602024 0.00123463 0.00142023 0.00150582 0.00137762 0.00120221 0.00089230
4 0.00984832 0.10680265 0.00513137 0.02254342 0.00481923 0.00645503 0.00288190 0.00365725 0.00229129 0.00188275 0.00002752 0.00093444
3 0.40971220 0.14011306 0.05737911 0.03679406 0.02517298 0.01552066 0.01735547 0.02978896 0.01250860 0.00302731 0.00957829 0.01081517
5 0.18298200 0.07295658 0.01888299 0.04629752 0.12039809 0.04057197 0.04425703 0.01296611 0.00764774 0.02246216 0.01763610 0.01002889
5 0.11393857 0.03274324 0.02535656 0.03802484 0.10747090 0.02283148 0.04077331 0.00322726 0.01816326 0.01975804 0.02506632 0.00600008
2 0.02994884 0.09602921 0.00987138 0.03329110 0.00690522 0.01491622 0.00604650 0.01108207 0.00230774 0.00805049 0.00161613 0.00471864
3 0.33376667 0.28985149 0.08712843 0.05436929 0.04750247 0.03980090 0.02582239 0.00958412 0.02394483 0.00948640 0.01007267 0.00234964
4 0.01109743 0.06276900 0.00551640 0.00236158 0.00029256 0.00259252 0.00324955 0.00088182 0.00038677 0.00049523 0.00121430 0.00159926
5 0.11275494 0.02951688 0.01277859 0.03554864 0.09728694 0.06098559 0.02412827 0.02564569 0.03111724 0.02647026 0.01913659 0.01216996
5 0.78304601 0.09471796 0.29343411 0.06721534 0.01872598 0.10515074 0.01859229 0.03520274 0.07606361 0.14196107 0.02257218 0.01303081
0 2.56102705 0.14153607 0.03926619 0.11964550 0.26586893 0.03559107 0.01371855 0.07145898 0.08912966 0.02437655 0.00157029 0.04754147
0 0.01072872 0.12014997 0.01386875 0.04247877 0.00465014 0.01987711 0.00303986 0.01065563 0.00269592 0.00785641 0.00136311 0.00668573
4 0.00786209 0.08550464 0.00442775 0.01787805 0.00042242 0.00604405 0.00236968 0.00288159 0.00124715 0.00196027 0.00174034 0.00136658
4 0.00602817 0.06245495 0.01133550 0.00674055 0.00419159 0.00446019 0.00166840 0.00190791 0.00074912 0.00153078 0.00156278 0.00021314
1 0.87152719 0.22712460 0.17009737 0.06634680 0.05643035 0.01026861 0.06630041 0.02181647 0.01497393 0.02723528 0.02107741 0.01637418
6 0.56072462 0.28072882 0.09952956 0.15004292 0.04277650 0.02779801 0.03800439 0.04856157 0.01697466 0.01556951 0.03455644 0.02752963
2 0.02943378 0.07743832 0.00558140 0.02894702 0.00482371 0.01696335 0.00507032 0.00806397 0.00292965 0.00757741 0.00127853 0.00445948
5 0.23416157 0.11211699 0.00854048 0.12714936 0.10244589 0.02808116 0.03568029 0.02386961 0.02033619 0.02006142 0.01616189 0.00502010
0 0.00292149 0.11518198 0.00331970 0.04309239 0.00127167 0.02157725 0.00215023 0.01347848 0.00068890 0.00916301 0.00098822 0.00684240
3 1.22187781 0.38411298 0.06973401 0.06504799 0.06528313 0.04263595 0.08191357 0.01708739 0.05694821 0.01622009 0.01516135 0.00716391
6 0.38249955 0.17150678 0.07263744 0.10699893 0.03938733 0.04460521 0.01267588 0.00418039 0.00653690 0.01199491 0.00734387 0.01392306
4 0.01204890 0.06581696 0.00291419 0.01781556 0.00622373 0.00539617 0.00209619 0.00275601 0.00202800 0.00163961 0.00186006 0.00098061
5 0.87060022 0.03768715 0.17388567 0.03734668 0.11959852 0.05765471 0.05500956 0.13561261 0.07084899 0.13564907 0.06815067 0.02694924
5 0.19870687 0.07700308 0.03177717 0.07976163 0.11849990 0.05818398 0.04403351 0.01630317 0.00786273 0.02352702 0.02715676 0.00508844
4 0.18198331 0.07853876 0.09176767 0.01841684 0.03372434 0.01260515 0.01592602 0.00791267 0.01382453 0.00506945 0.01013067 0.00440078
6 0.01754696 0.06170106 0.02329503 0.02523407 0.01166049 0.01297174 0.00486795 0.00881202 0.00233562 0.00712968 0.00207010 0.00413784
6 0.02269237 0.07428574 0.01118543 0.02510463 0.00579903 0.01590424 0.00338093 0.00919927 0.00147570 0.00648299 0.00037275 0.00424983
3 0.03714918 0.06541234 0.03288922 0.00931553 0.01474998 0.00248098 0.00579267 0.00243716 0.00189572 0.00111948 0.00344199 0.00060568
3 0.96371889 0.20971653 0.25220490 0.02934971 0.06556006 0.06876568 0.08154643 0.06625494 0.03216674 0.05818823 0.02235265 0.01585860
2 0.01317039 0.10837159 0.00752094 0.03806574 0.00076237 0.01846893 0.00200148 0.01040092 0.00084151 0.00782710 0.00075876 0.00452889
0 1.93702567 0.15621577 0.02376463 0.13055390 0.18343134 0.06351911 0.03089543 0.06838205 0.03728929 0.02909721 0.02774325 0.03832431
0 2.25634384 0.06620216 0.02510037 0.12990968 0.22831003 0.05002964 0.01137912 0.05755140 0.07753024 0.02391420 0.00227247 0.04055072
0 0.00989438 0.11006018 0.00669296 0.03708989 0.00287516 0.01853071 0.00168535 0.01088129 0.00175108 0.00847996 0.00106197 0.00659433
1 1.60231090 0.42945850 0.07436225 0.04029806 0.11059392 0.00795171 0.03143813 0.03345443 0.03629778 0.00755604 0.02140745 0.00971256
2 0.01933681 0.07568450 0.00206544 0.01543185 0.00218402 0.01156928 0.00225509 0.00499560 0.00095661 0.00336579 0.00044655 0.00386820
2 0.01849443 0.08282019 0.00566639 0.01601727 0.00075282 0.01029652 0.00131628 0.00604228 0.00207506 0.00583619 0.00303510 0.00311595
0 2.57171464 0.33692932 0.11785991 0.08329322 0.26734385 0.07885253 0.05862676 0.04524879 0.06888646 0.05923767 0.02867705 0.01579181
6 0.03555338 0.07456438 0.02117312 0.02520858 0.00938216 0.01059121 0.00440678 0.00808298 0.00258088 0.00670698 0.00229067 0.00530257
2 0.02896266 0.07671472 0.01122688 0.02541300 0.00371273 0.01410451 0.00089446 0.00560844 0.00044101 0.00429932 0.00174679 0.00437351
4 0.01225097 0.10175779 0.00351171 0.02279851 0.00147694 0.00622270 0.00131722 0.00043955 0.00202024 0.00055475 0.00257008 0.00045028
6 2.58567452 0.33322304 0.02769679 0.04695923 0.26089606 0.12602898 0.01632788 0.02023846 0.07590283 0.06384070 0.00597886 0.02644600
4 0.00860813 0.09224123 0.01116953 0.01449025 0.00531872 0.00333056 0.00070207 0.00488367 0.00069880 0.00293075 0.00197778 0.00111310
0 2.48886967 0.13759142 0.03335425 0.17284660 0.24565327 0.06375645 0.02709786 0.08119848 0.06282431 0.03437636 0.02511693 0.04920572
4 0.00370074 0.09740528 0.00393798 0.01903688 0.00365891 0.00553039 0.00231874 0.00393476 0.00150701 0.00224343 0.00079628 0.00224873
6 0.80256355 0.63859230 0.00577596 0.20195900 0.09301109 0.07554723 0.02192042 0.03853017 0.03792283 0.04118152 0.00965542 0.01494207
0 0.01364225 0.11194680 0.00448601 0.03899267 0.00252046 0.01945296 0.00101767 0.01142051 0.00069037 0.00677552 0.00090740 0.00533420
0 0.00810387 0.10245308 0.01078707 0.03687314 0.00585349 0.01830116 0.00306551 0.01171142 0.00041456 0.00855434 0.00076871 0.00677569
1 0.04805878 0.07527528 0.00926402 0.02476299 0.00261390 0.01363820 0.00312571 0.00881068 0.00419598 0.00620296 0.00433872 0.00301575
2 0.01495453 0.09371655 0.00671856 0.03639141 0.00367551 0.01775399 0.00160919 0.00951164 0.00094775 0.00696614 0.00091192 0.00551355
2 0.02697558 0.10097718 0.01097601 0.03765688 0.00773662 0.01912503 0.00354974 0.01186199 0.00128807 0.00798688 0.00043918 0.00622807
6 0.67280948 0.46447915 0.14605476 0.13351439 0.09582894 0.02308289 0.03391073 0.03539773 0.04247424 0.01148438 0.01212376 0.02580817
1 1.35443246 0.27855870 0.09246131 0.11390711 0.10900057 0.07710764 0.03351140 0.04464725 0.02374292 0.03784742 0.02129707 0.02284160
5 0.08240345 0.04959134 0.05784124 0.04246147 0.11260006 0.06356342 0.04614086 0.04439382 0.01507442 0.02335685 0.01095675 0.00746741
2 0.02198868 0.10861570 0.00763979 0.03952373 0.00272260 0.01893367 0.00150607 0.01199617 0.00144034 0.00833039 0.00080966 0.00606540
1 0.01950425 0.06499942 0.02331482 0.02056994 0.00640257 0.01182603 0.00118877 0.00784307 0.00205054 0.00420547 0.00090792 0.00530578
1 0.03330726 0.06439561 0.01717955 0.01548684 0.00159081 0.00739490 0.00489146 0.00660786 0.00331094 0.00448429 0.00283776 0.00229728
4 0.00528517 0.05766052 0.00503883 0.00334652 0.00575092 0.00390543 0.00289934 0.00099041 0.00106052 0.00039664 0.00309114 0.00114905
3 0.28089917 0.12040739 0.13800468 0.31594306 0.01952369 0.07961933 0.04135073 0.06467027 0.00881662 0.01805546 0.00794417 0.01026163
5 0.85807604 0.03761868 0.18850645 0.05024303 0.07998949 0.04308567 0.04644450 0.08867645 0.08602200 0.11789561 0.02837722 0.07267815
0 0.00813586 0.11474386 0.00241901 0.03858878 0.00192050 0.01850779 0.00128528 0.00983277 0.00296245 0.00555927 0.00327421 0.00310082
6 0.01947217 0.05340869 0.01634957 0.02393064 0.00893930 0.01387484 0.00522764 0.00873410 0.00063172 0.00575496 0.00097588 0.00478465
4 0.00557170 0.09804907 0.00563730 0.01763456 0.00444887 0.00548457 0.00195124 0.00272612 0.00062389 0.00248108 0.00131651 0.00098770
3 1.19739938 0.46675640 0.13505179 0.08269834 0.04157471 0.05402215 0.05930432 0.05000817 0.01836997 0.05020847 0.03888714 0.03829785
3 1.04178178 0.35053155 0.39500076 0.13604409 0.13729762 0.05663298 0.07406103 0.01312519 0.02812405 0.03240616 0.01825045 0.02814915
6 0.01419937 0.05274791 0.02296524 0.02537265 0.00764771 0.01182261 0.00355721 0.00772213 0.00229483 0.00565718 0.00025565 0.00415807
2 0.01294470 0.10542114 0.00283414 0.03403849 0.00577695 0.01510763 0.00164670 0.01012604 0.00116967 0.00432617 0.00085650 0.00478769
5 0.18901725 0.08465012 0.04685453 0.07050543 0.12728058 0.05723954 0.04987114 0.01628541 0.00918358 0.02403714 0.01851434 0.02051805
1 0.03361205 0.06538625 0.01884831 0.01931118 0.00663448 0.00825020 0.00243257 0.00738270 0.00149237 0.00273811 0.00285938 0.00450504
3 1.04583383 0.45501050 0.07460722 0.19821244 0.10352193 0.07945633 0.03815746 0.06990470 0.02482896 0.03269220 0.01741162 0.00825365
5 0.15970975 0.05862068 0.00430659 0.06177356 0.13716035 0.03422058 0.03586642 0.00191022 0.00990595 0.02750472 0.03130708 0.01097378
3 0.45444775 0.06424627 0.07089437 0.01480283 0.01991910 0.05689324 0.02293602 0.04271720 0.02371524 0.01174864 0.00886998 0.02045762
3 0.02426915 0.03236087 0.01715546 0.00747559 0.01344001 0.00512662 0.00780716 0.00189971 0.00467992 0.00235030 0.00358393 0.00301311
3 0.00522340 0.04456848 0.03931064 0.01069296 0.01538676 0.00286474 0.01067958 0.00293438 0.00505207 0.00289988 0.00342487 0.00227944
3 0.04900001 0.06908547 0.04002995 0.01364147 0.01049609 0.00349394 0.00304751 0.00296373 0.00062562 0.00410218 0.00113832 0.00085798
6 2.21921062 0.62772000 0.03768335 0.20465247 0.15012302 0.14218412 0.05393567 0.05304775 0.02943284 0.06026237 0.03137917 0.03719665
6 1.38334119 0.32831073 0.11322460 0.12608735 0.12129758 0.08435705 0.03160913 0.03815416 0.05284774 0.01512953 0.01988857 0.02627530
1 0.01551839 0.05674978 0.02231842 0.01586472 0.00777282 0.01042584 0.00312279 0.00465328 0.00287864 0.00372038 0.00307142 0.00363111
0 2.17241621 0.10201246 0.02630913 0.13515888 0.21042818 0.05119320 0.00940436 0.06385942 0.06082441 0.03411353 0.01807181 0.04500435
6 0.26998812 0.04191451 0.10132252 0.03611891 0.05525700 0.02245809 0.02580485 0.00468052 0.00687485 0.00223660 0.00567403 0.00478963
1 1.16493022 0.31169939 0.14996679 0.10342969 0.06717369 0.03853167 0.08235196 0.02052579 0.01339203 0.01273166 0.02938562 0.01719533
4 0.00715174 0.07582680 0.01153095 0.01219665 0.00859180 0.00567742 0.00514399 0.00391620 0.00175597 0.00093332 0.00157388 0.00093243
1 0.03615199 0.04968857 0.01669256 0.01231193 0.00379613 0.00748479 0.00298948 0.00466327 0.00347560 0.00300046 0.00292923 0.00310000
1 0.10224961 0.11260296 0.02354568 0.04324813 0.00994730 0.01923679 0.00840594 0.01279443 0.00391746 0.01002883 0.00294099 0.00534981
0 0.02298638 0.11417060 0.01121465 0.03901552 0.00178850 0.01894097 0.00178398 0.01047674 0.00090291 0.00671049 0.00150623 0.00455882
0 0.00738773 0.11741942 0.01060219 0.03979980 0.00330211 0.01752427 0.00197120 0.00971719 0.00137580 0.00753668 0.00043141 0.00618836
2 3.10783553 0.33156532 0.03546385 0.03976035 0.33880737 0.06859428 0.02762210 0.01157525 0.11931770 0.01751385 0.01481762 0.00551626
0 2.35874748 0.09055075 0.01962636 0.10899689 0.23699683 0.05227135 0.01089179 0.04794397 0.07638188 0.02306409 0.00994759 0.04012854
5 0.87742478 0.05054285 0.18606287 0.02382978 0.13175042 0.02265373 0.04285581 0.09881885 0.17861524 0.04882454 0.07758450 0.06653441
4 0.01236707 0.11012771 0.00160574 0.02299343 0.00151210 0.00445244 0.00262859 0.00143845 0.00229756 0.00082229 0.00200956 0.00108588
4 0.01050702 0.10041727 0.00075213 0.02251681 0.00209471 0.00578957 0.00373392 0.00194407 0.00300708 0.00156408 0.00205089 0.00128541
2 0.01726351 0.08835182 0.00288017 0.02420336 0.00205821 0.01068475 0.00076478 0.00687573 0.00112970 0.00555212 0.00018554 0.00271181
1 1.51945436 0.16439337 0.18665612 0.20236167 0.05826289 0.03959569 0.10077003 0.08687937 0.01997645 0.05101234 0.05206406 0.02930668
2 0.03177506 0.09380787 0.00662330 0.03396475 0.00562423 0.01706081 0.00200887 0.01171016 0.00164771 0.00747202 0.00201141 0.00522925
0 0.02139033 0.11869820 0.01620029 0.03452302 0.00567097 0.01565016 0.00213946 0.01062509 0.00195641 0.00515436 0.00086906 0.00549803
0 3.12137699 0.11004810 0.02109697 0.05400161 0.34433573 0.02711488 0.01941304 0.02979662 0.10955857 0.01564303 0.01554870 0.01697440
4 0.77629882 0.23028617 0.14074731 0.07533310 0.02097732 0.01235505 0.03580971 0.02142338 0.01833310 0.01312450 0.01409460 0.01469405
6 1.79406238 0.00628289 0.25065348 0.11447861 0.12226474 0.02968005 0.12123670 0.03397911 0.05817597 0.02593135 0.05054774 0.01878312
3 0.01391308 0.02826372 0.02366854 0.00933263 0.01309860 0.00317012 0.00582342 0.00164775 0.00673042 0.00349278 0.00372422 0.00402539
2 0.01797788 0.10140713 0.00614293 0.03479197 0.00167519 0.01694148 0.00111193 0.01124554 0.00035708 0.00641410 0.00048744 0.00568104
1 0.04489741 0.06690603 0.01566241 0.02503758 0.00085927 0.01287772 0.00390165 0.00644114 0.00396842 0.00492625 0.00335414 0.00311477
3 0.26669434 0.09148259 0.08285329 0.06876202 0.02021423 0.03948549 0.01791361 0.02313191 0.01093240 0.00925456 0.00254864 0.00516785
3 0.00269807 0.04630531 0.02856420 0.00803456 0.00762445 0.00207140 0.00570425 0.00292696 0.00152024 0.00225618 0.00340333 0.00137432
6 2.75066328 0.85844451 0.07832297 0.13955937 0.05027222 0.30120078 0.09130532 0.05025857 0.08878097 0.13063839 0.06157522 0.05927467
2 0.02410287 0.06474154 0.00579690 0.01987198 0.00391921 0.00643682 0.00320861 0.00464209 0.00212594 0.00349286 0.00260347 0.00161498
6 0.04663338 0.06570209 0.02162835 0.02376954 0.00778102 0.01192436 0.00657688 0.00734115 0.00333635 0.00715883 0.00263933 0.00508599
2 0.00302446 0.08468343 0.00336430 0.02147900 0.00375263 0.00899085 0.00085040 0.00733662 0.00373070 0.00514466 0.00203297 0.00348716
5 0.84473735 0.07532464 0.10636606 0.07946712 0.07176946 0.09027187 0.15884854 0.06040415 0.08908058 0.06622625 0.09538396 0.07202644
1 2.28890967 0.75358874 0.14309306 0.12094533 0.10713145 0.28683609 0.05744605 0.07459966 0.05346163 0.09425326 0.02755826 0.02183138
3 0.00364461 0.03002707 0.01461921 0.00046733 0.01355315 0.00622348 0.00980230 0.00153260 0.00536204 0.00046626 0.00271953 0.00100861
1 0.09093573 0.11463115 0.03233834 0.04307051 0.01071257 0.02206161 0.01083582 0.01372303 0.00536752 0.01023749 0.00555093 0.00611751
1 2.08776498 0.21795541 0.05963323 0.05669903 0.21145517 0.01027250 0.03836099 0.02282094 0.06772926 0.01025221 0.01963857 0.01478185
1 0.55110693 0.72085273 0.49114221 0.09037656 0.07573146 0.08445131 0.03866712 0.03411991 0.02841662 0.03339244 0.03724820 0.03433338
4 0.00699043 0.05098275 0.00973180 0.00157841 0.00377638 0.00350290 0.00055919 0.00100385 0.00091509 0.00076783 0.00104218 0.00134094
3 1.35002518 0.62274009 0.05950969 0.19778399 0.04067634 0.08796906 0.04165621 0.05321965 0.03007491 0.02679279 0.02080181 0.01923848
4 0.00809242 0.06104960 0.01083847 0.01045307 0.00227629 0.00339950 0.00009217 0.00282206 0.00001504 0.00128794 0.00048592 0.00041278
3 0.04059116 0.06776836 0.03175795 0.01612663 0.00982582 0.00285326 0.00128785 0.00437236 0.00294548 0.00218558 0.00465563 0.00247361
3 1.08129144 0.48968491 0.05813465 0.14421183 0.08054844 0.03664182 0.04257454 0.04005064 0.04134386 0.04438514 0.02060853 0.02006817
3 0.03111571 0.01222953 0.03911595 0.02348297 0.02134588 0.01154988 0.01171396 0.00318852 0.00224299 0.00169710 0.00120746 0.00235588
6 0.01812236 0.06597494 0.01575331 0.02645673 0.00507324 0.01248427 0.00487951 0.00952295 0.00236053 0.00703009 0.00091006 0.00532717
1 1.89404440 0.66818714 0.09151956 0.12009310 0.08785510 0.20725441 0.05937595 0.08477817 0.04651608 0.06886730 0.02552903 0.01961875
3 0.27692458 0.12813129 0.05522709 0.05915709 0.04130350 0.02727941 0.04357337 0.01551749 0.00737546 0.00717462 0.01067380 0.00459035
0 1.94860160 0.17498896 0.05342111 0.17661087 0.15629835 0.06433883 0.05141044 0.07128479 0.02338368 0.02364274 0.04829505 0.02810626
5 0.18901691 0.07384304 0.02866493 0.02392392 0.11004306 0.08485828 0.03223034 0.01248902 0.02566482 0.01659621 0.01703598 0.01474979
1 2.25628710 0.30338123 0.05047689 0.03072380 0.23544933 0.05293572 0.02368054 0.00719302 0.08558109 0.01818163 0.01274939 0.00638740
2 0.00908715 0.10048758 0.00192112 0.02852639 0.00241215 0.01642877 0.00171536 0.00962611 0.00069787 0.00507446 0.00095828 0.00469335
6 1.97118402 0.29234198 0.10071868 0.03191252 0.15987079 0.10123099 0.07798804 0.02639293 0.06732505 0.04967582 0.05379756 0.02046373
0 3.23659062 0.09693512 0.02546769 0.10507575 0.36622894 0.02457075 0.02052827 0.05450949 0.13236743 0.02086823 0.01193702 0.03679113
3 0.96545541 0.48520440 0.14581183 0.25514829 0.16860704 0.03416918 0.07704918 0.03581823 0.04077649 0.02474630 0.02153144 0.01719432
4 0.00906549 0.04537772 0.01272008 0.00431008 0.00931675 0.00031333 0.00198595 0.00163065 0.00044245 0.00192046 0.00151035 0.00188205
0 0.01034041 0.11302350 0.00447804 0.03863991 0.00513557 0.02115022 0.00205714 0.01310571 0.00083432 0.00864627 0.00111433 0.00589107
2 0.15760349 0.08450416 0.06607865 0.04080255 0.03053271 0.02634658 0.01334957 0.00869774 0.00153435 0.00860281 0.00100703 0.00510656
3 0.25104240 0.21101920 0.13563624 0.32646352 0.01731166 0.06445279 0.02419058 0.07591040 0.03086511 0.02817548 0.00903732 0.01324131
4 0.00750269 0.09373443 0.00618663 0.01600590 0.00363793 0.00483184 0.00245586 0.00380492 0.00092712 0.00187834 0.00124461 0.00129347
3 0.48901662 0.04106222 0.09305246 0.02001600 0.04646852 0.00858700 0.02235566 0.00857586 0.01831902 0.00187247 0.01119950 0.00600255
5 0.90115201 0.07560374 0.17446509 0.01939880 0.09380218 0.02722864 0.04011286 0.07472663 0.14211409 0.11021615 0.06523684 0.07024053
4 0.00345623 0.08558315 0.00727241 0.02348566 0.00140011 0.00772344 0.00159481 0.00213955 0.00055311 0.00168429 0.00174661 0.00162664
2 0.04019450 0.08015912 0.00782962 0.02679918 0.00330253 0.01548502 0.00280484 0.00880598 0.00479134 0.00592783 0.00358878 0.00479272
1 0.02652746 0.06891213 0.01743632 0.01700795 0.00371477 0.00848342 0.00359129 0.00531103 0.00293212 0.00405580 0.00298230 0.00383651
2 0.01593027 0.09004874 0.00972807 0.03401900 0.00334534 0.01524178 0.00330122 0.00805945 0.00285410 0.00556406 0.00141380 0.00560242
2 0.01286091 0.09387667 0.00326848 0.02913410 0.00042425 0.01656537 0.00316779 0.00996888 0.00270713 0.00702668 0.00241059 0.00415600
1 0.80173403 0.15455797 0.01711396 0.06239851 0.01911367 0.03560663 0.01611055 0.02156368 0.00598425 0.00720502 0.00147185 0.01335437
5 0.68879813 0.10828059 0.19030884 0.00456989 0.09832090 0.01897787 0.05283673 0.10095745 0.13507575 0.06185819 0.07652288 0.03906439
6 1.11934447 0.57448810 0.08679400 0.08625644 0.07202152 0.11670788 0.02242897 0.07128750 0.03137678 0.01852551 0.01225357 0.04451915
1 0.19029696 0.19753335 0.10017914 0.09713276 0.01149330 0.02907083 0.01823974 0.00768145 0.01541832 0.01321234 0.01129338 0.01507098
4 0.00426098 0.06551447 0.00492627 0.00245917 0.00552268 0.00317236 0.00265682 0.00054875 0.00135211 0.00108487 0.00046758 0.00081968
1 0.17877522 0.02610951 0.09890329 0.02779078 0.06424249 0.02131249 0.03198477 0.00381803 0.01153096 0.00583300 0.00454279 0.00894166
2 0.00713515 0.07458694 0.00761415 0.01924906 0.00217484 0.00933603 0.00301632 0.00729600 0.00260434 0.00531462 0.00249228 0.00328563
3 1.12666404 0.60235858 0.12533557 0.17727797 0.06729124 0.06908866 0.04325730 0.09743832 0.01793080 0.03468408 0.01202465 0.03882958
3 0.02431291 0.03143615 0.01723440 0.00779615 0.01371406 0.00551655 0.00709691 0.00170090 0.00464224 0.00228852 0.00355233 0.00271448
4 0.01847259 0.05913934 0.01213932 0.00901374 0.00839933 0.00508653 0.00312497 0.00450339 0.00293146 0.00323414 0.00080197 0.00227165
1 0.92040741 1.14033818 0.69820607 0.15851362 0.09996533 0.08719482 0.05227030 0.09480972 0.02751321 0.05332386 0.04767313 0.01768117
4 0.00665651 0.07220673 0.01161799 0.01260686 0.00767480 0.00378973 0.00501280 0.00314083 0.00339557 0.00188530 0.00119688 0.00143232
6 0.00930174 0.05564174 0.01874561 0.02057797 0.00877861 0.01490187 0.00472093 0.01002296 0.00359831 0.00609857 0.00257313 0.00473301
5 0.18773419 0.08334456 0.05610688 0.05784141 0.12460006 0.06185676 0.05010414 0.01297655 0.02346505 0.01923793 0.01161240 0.02503276
5 0.40500164 0.16477877 0.05658221 0.05260168 0.10930686 0.16214673 0.04037507 0.07862881 0.06667113 0.03641371 0.01308311 0.02425501
0 0.04750090 0.09656285 0.00980478 0.03202072 0.00229379 0.01526847 0.00240261 0.00786632 0.00234964 0.00467633 0.00242336 0.00343938
3 0.74080527 0.15639596 0.25389674 0.05713375 0.09311866 0.12299195 0.09670801 0.03633718 0.02205548 0.02071866 0.03411444 0.03191780
5 0.13226025 0.04396441 0.01415758 0.05358545 0.09657472 0.05757936 0.02922243 0.02262359 0.03025088 0.03366338 0.02133631 0.00964882
4 0.00860153 0.09405407 0.00877633 0.02511946 0.00353004 0.00739742 0.00240506 0.00223770 0.00195446 0.00163799 0.00134614 0.00095830
4 0.00534087 0.05463440 0.01421164 0.01213137 0.00703604 0.00516012 0.00345644 0.00049262 0.00126344 0.00278996 0.00206583 0.00070193
4 0.00570946 0.07570488 0.00629816 0.00280868 0.00370699 0.00423977 0.00342010 0.00283147 0.00008940 0.00146113 0.00136065 0.00156493
4 0.00250001 0.06306349 0.00886428 0.01028797 0.00522297 0.00240331 0.00139413 0.00139817 0.00035225 0.00191956 0.00234084 0.00129816
1 0.87581056 0.22103143 0.15602523 0.07371459 0.04450018 0.02338519 0.06532976 0.01347077 0.01197323 0.02452146 0.01169641 0.01053578
4 1.30968559 0.55860323 0.05682507 0.12348484 0.05679880 0.08540235 0.01966677 0.06832302 0.01062643 0.04570673 0.00745958 0.02449711
6 0.22825219 0.05168141 0.11858249 0.07258552 0.05949704 0.03918666 0.02622001 0.01651026 0.01833292 0.01205880 0.01703776 0.00699109
1 0.02994654 0.06658180 0.01409168 0.01852920 0.00068421 0.01245258 0.00109791 0.00671561 0.00315231 0.00529554 0.00187487 0.00473436
1 0.10440422 0.10507413 0.04252245 0.03440552 0.02478354 0.01585939 0.01520849 0.01110463 0.01144686 0.00614688 0.00733768 0.00429254
1 0.01507211 0.06537133 0.01631952 0.01846557 0.00761360 0.00895574 0.00502410 0.00648419 0.00370148 0.00467579 0.00304213 0.00351405
3 0.71734470 0.22237605 0.16207834 0.22234946 0.16045025 0.07309255 0.04698411 0.10251491 0.02790360 0.03081905 0.01724689 0.02190664
5 0.15495934 0.04826859 0.01639618 0.01925380 0.09321337 0.05220952 0.01443763 0.01529335 0.02416213 0.03754907 0.01375928 0.00668441
0 2.55015635 0.07269596 0.03032118 0.09685519 0.27961800 0.02452098 0.01222719 0.06051856 0.08223106 0.03528345 0.00692883 0.03838763
1 0.14081652 0.05703439 0.07732137 0.01385231 0.04785911 0.01308422 0.02200281 0.00484043 0.00575734 0.01107783 0.00021678 0.01102257
2 0.02337720 0.10299447 0.00280776 0.03393938 0.00330602 0.01451913 0.00436079 0.01083020 0.00211084 0.00755808 0.00107071 0.00395698
1 0.10083904 0.11347560 0.03853531 0.04102182 0.01781161 0.01916633 0.01058162 0.01239415 0.00971606 0.00810331 0.00532413 0.00806961
5 0.86397487 0.21695814 0.25052875 0.06681769 0.13680494 0.05718968 0.09133894 0.10285438 0.11889028 0.14726202 0.07157373 0.04669315
6 0.01294041 0.08671347 0.01033780 0.02781321 0.00292357 0.01101280 0.00261981 0.00546870 0.00391780 0.00297082 0.00346080 0.00121072
2 0.00460594 0.07237133 0.00395701 0.01711759 0.00190319 0.00948976 0.00130737 0.00612872 0.00180452 0.00548859 0.00183067 0.00407022
2 2.33066225 0.15007745 0.05473651 0.04616234 0.24194437 0.02392282 0.03118366 0.02556925 0.07970787 0.00857351 0.01512492 0.01309903
2 0.86312658 0.54318154 0.07294858 0.16205940 0.09238558 0.06509592 0.03300065 0.05584579 0.03270802 0.00647426 0.00099188 0.00520451
2 0.01751978 0.10367289 0.00069194 0.03609262 0.00269111 0.01735296 0.00061951 0.01144836 0.00268506 0.00658022 0.00099779 0.00491611
2 0.02778312 0.07284827 0.00937997 0.01748826 0.00555225 0.00982292 0.00127535 0.00466704 0.00042600 0.00417362 0.00070175 0.00176076
1 0.18567275 0.08536528 0.05938138 0.01657064 0.03352240 0.00671715 0.02104955 0.00548489 0.01647594 0.00664100 0.01282101 0.00496878
1 0.00008360 0.11915516 0.00020654 0.04554851 0.00019720 0.02445749 0.00009816 0.01552552 0.00006503 0.01082730 0.00013155 0.00797022
4 2.27906847 0.28051153 0.05552080 0.10376425 0.22288801 0.04313668 0.05523636 0.02658989 0.06791853 0.00364323 0.03408101 0.01769476
3 0.18554790 0.16867428 0.07256190 0.16283825 0.03574698 0.05150542 0.02821080 0.02998415 0.01064241 0.01944495 0.01330811 0.00607444
3 0.02698293 0.03289854 0.01448360 0.01212864 0.01282012 0.00311967 0.00526407 0.00262253 0.00433945 0.00232687 0.00215022 0.00161796
1 0.08559987 0.11137471 0.02852079 0.04349369 0.01278719 0.02239079 0.00875115 0.01337658 0.00591389 0.01017783 0.00409656 0.00739483
1 0.02534062 0.08511369 0.01060327 0.02796717 0.00373197 0.01408265 0.00343160 0.01053215 0.00190679 0.00616537 0.00101927 0.00351895
6 0.18626320 0.08881926 0.10152850 0.04654866 0.04899511 0.01462022 0.01532291 0.01387575 0.00687650 0.01565576 0.00637569 0.01153656
1 0.00928041 0.05949904 0.02259751 0.02111662 0.00634840 0.01135869 0.00165817 0.00695423 0.00087634 0.00526591 0.00106130 0.00297541
0 0.01772167 0.11264059 0.01294756 0.03432637 0.00125867 0.01689091 0.00129453 0.01148047 0.00135267 0.00744163 0.00149331 0.00435400
5 0.12674648 0.02712804 0.00783274 0.04509341 0.10154390 0.03085795 0.03597355 0.00224332 0.02674954 0.02667768 0.01525046 0.00996859
3 0.00339751 0.05993510 0.03627764 0.00218545 0.01179016 0.00118350 0.01014331 0.00319823 0.00409644 0.00202359 0.00317157 0.00189936
5 0.26207766 0.09541010 0.10121640 0.15305063 0.02746475 0.01669309 0.01883806 0.01205993 0.02322724 0.01039236 0.01321925 0.03270047
3 0.01073636 0.04019134 0.02848486 0.01974797 0.01665552 0.00498635 0.00828561 0.00137374 0.00561767 0.00017653 0.00381172 0.00105226
2 0.01386510 0.06949867 0.00616034 0.01591275 0.00513741 0.00838745 0.00362625 0.00789310 0.00323968 0.00461198 0.00251808 0.00473005
2 0.02045620 0.08714294 0.00302625 0.02190264 0.00341635 0.01336087 0.00085773 0.00938998 0.00122013 0.00526308 0.00101216 0.00411380
4 0.00214023 0.10200785 0.00448918 0.02181097 0.00392865 0.00953636 0.00165623 0.00371922 0.00117578 0.00221415 0.00042317 0.00180699
1 0.85213029 0.65895146 0.55427194 0.15849496 0.08602596 0.09655468 0.01064410 0.05943706 0.02974584 0.00927898 0.03116249 0.01641915
4 0.00286220 0.05311022 0.00629986 0.00786457 0.00035974 0.00438114 0.00387120 0.00057659 0.00215191 0.00133739 0.00139805 0.00050852
3 0.22303452 0.06221260 0.05655748 0.07353809 0.03104594 0.03121244 0.02453096 0.01912412 0.01398676 0.00291321 0.00464518 0.00432725
2 0.01840395 0.10102173 0.00780384 0.02789794 0.00485960 0.01671363 0.00102892 0.00838033 0.00194352 0.00690888 0.00103362 0.00513179
6 0.87537855 0.66866547 0.03597255 0.11976618 0.09581721 0.07090364 0.01840281 0.07975812 0.03357178 0.03620105 0.02548714 0.01263754
0 2.51598048 0.32265076 0.11363216 0.08740938 0.26819274 0.07155732 0.06792746 0.06082782 0.07649772 0.04520204 0.02253141 0.00877848
4 0.02637219 0.05202954 0.01987864 0.00877392 0.00803543 0.00451910 0.00425974 0.00295835 0.00068907 0.00313381 0.00043590 0.00124412
6 0.49784634 0.56193113 0.11786278 0.10605320 0.07104603 0.06539804 0.05877248 0.03882769 0.04864426 0.01893820 0.05691725 0.02536902
5 0.40965194 0.14548947 0.08918619 0.11026921 0.12732986 0.06507498 0.08955210 0.02805601 0.02825453 0.04033997 0.03086283 0.01879496
2 0.02353353 0.08619010 0.00328092 0.03210215 0.00270720 0.01659160 0.00070465 0.00956064 0.00316921 0.00686179 0.00144213 0.00447820
6 0.02055629 0.07908360 0.00915926 0.02325256 0.00414104 0.01510638 0.00497163 0.00934939 0.00182645 0.00685335 0.00066754 0.00513264
4 0.02006489 0.06784535 0.01083294 0.01417852 0.00479818 0.00421963 0.00252879 0.00051202 0.00263587 0.00188635 0.00148465 0.00202851
6 0.02925046 0.06498267 0.02331545 0.02681168 0.00736562 0.01268209 0.00390986 0.00684927 0.00307593 0.00655406 0.00169627 0.00524330
6 2.43714690 0.62216991 0.07234176 0.16541119 0.12607780 0.18711674 0.04534793 0.05198963 0.02051257 0.09205265 0.02708150 0.02704803
1 0.03160190 0.06867773 0.01122942 0.01852062 0.00141285 0.01180923 0.00468449 0.00487137 0.00455449 0.00456751 0.00272962 0.00414349
