1440 12
4 0.01274565 0.08582960 0.01236245 0.00246458 0.00864658 0.01056440 0.00371078 0.00453297 0.00043148 0.00099068 0.00048692 0.00085892
4 0.00342767 0.06405882 0.00516280 0.00704566 0.00406453 0.00976988 0.00246209 0.00294926 0.00085377 0.00218319 0.00090503 0.00197815
3 0.01241663 0.06381751 0.02324238 0.00847562 0.01409760 0.00304288 0.00457686 0.00176669 0.00205474 0.00250284 0.00379538 0.00190765
2 1.07299437 0.54113772 0.06443274 0.09230079 0.10758002 0.11907955 0.02703182 0.07013653 0.02881801 0.02306864 0.01129270 0.02984504
5 0.35506373 0.10819133 0.08617620 0.27577343 0.10010771 0.02358391 0.04021720 0.02571080 0.06305655 0.01649267 0.04485579 0.11272263
3 0.00831528 0.06048222 0.03762455 0.00589648 0.01446523 0.00715210 0.00774703 0.00259888 0.00245027 0.00438224 0.00284608 0.00106719
3 0.32559996 0.30199411 0.08531872 0.18563174 0.09582377 0.06067036 0.03941846 0.01575459 0.03729617 0.04184633 0.03504364 0.00922364
6 0.02133166 0.04369762 0.01879074 0.02053631 0.00779194 0.01209443 0.00527805 0.00657845 0.00516967 0.00450495 0.00432775 0.00248452
0 0.00690998 0.11160245 0.01086065 0.04059201 0.00537017 0.01817425 0.00366201 0.01288511 0.00054288 0.00851777 0.00051184 0.00652452
1 0.01375628 0.04423265 0.01792310 0.01835938 0.00658689 0.00863227 0.00052714 0.00550486 0.00074574 0.00244557 0.00087351 0.00288423
6 1.85403839 0.90623269 0.35458575 0.17191761 0.09579079 0.19722877 0.15526276 0.13419612 0.08788161 0.11070199 0.04125951 0.08860488
6 0.02945169 0.05000230 0.02851039 0.02558852 0.00952270 0.01286338 0.00501676 0.00682568 0.00477726 0.00565617 0.00277210 0.00379588
1 0.04132551 0.07766770 0.00813313 0.02619822 0.00005512 0.01293854 0.00374445 0.00767550 0.00298088 0.00512346 0.00288186 0.00360705
0 0.16047484 0.06367193 0.10471644 0.03925937 0.04544856 0.01293298 0.01008399 0.01545133 0.00437864 0.01574644 0.00507748 0.01012378
1 0.18011591 0.02879381 0.02932943 0.05638779 0.04167032 0.02077510 0.00771402 0.00865403 0.01807476 0.00848354 0.00927455 0.00213177
5 0.16545566 0.05751578 0.01568261 0.07379213 0.10604146 0.01339863 0.03138214 0.01093601 0.00444106 0.01339276 0.03267381 0.01256331
6 0.02524861 0.10809687 0.00705064 0.03210841 0.00487815 0.01522953 0.00198175 0.00839139 0.00317137 0.00568215 0.00114279 0.00393613
3 0.06102812 0.08422534 0.04486072 0.01802301 0.01770365 0.00873548 0.00927923 0.00851807 0.00118266 0.00483178 0.00100609 0.00342639
2 0.01856178 0.06059861 0.01009267 0.02056833 0.00354626 0.01023225 0.00273508 0.00568608 0.00212069 0.00359588 0.00300100 0.00318481
3 0.04410225 0.03834907 0.04502991 0.03351002 0.02625862 0.00827029 0.00873211 0.00213440 0.00216575 0.00065520 0.00107360 0.00217085
1 0.17499947 0.12441173 0.04400960 0.04124135 0.02331763 0.02043152 0.01760517 0.01291598 0.00836606 0.00835272 0.00455102 0.00724099
4 0.01686387 0.11016194 0.00130934 0.02276967 0.00294681 0.00480442 0.00361734 0.00370898 0.00303356 0.00199158 0.00163616 0.00116561
2 0.00283131 0.11043141 0.00635074 0.03719037 0.00195349 0.01791118 0.00121441 0.01032740 0.00182535 0.00546426 0.00116800 0.00417911
1 1.48546323 0.27851283 0.04156152 0.12611682 0.09969629 0.04910705 0.02600883 0.05148510 0.01745467 0.00513372 0.02024354 0.02478855
3 0.01507401 0.06607290 0.03543150 0.00327168 0.01062696 0.00307276 0.00750443 0.00587973 0.00399656 0.00319005 0.00392192 0.00276368
0 0.01017032 0.10821146 0.01164759 0.03254930 0.00167830 0.01374521 0.00125101 0.00865670 0.00184926 0.00686746 0.00135962 0.00493811
3 0.02346522 0.00595106 0.02989197 0.02723238 0.01822473 0.01159153 0.00898104 0.00432345 0.00451850 0.00448223 0.00314704 0.00128971
3 0.01628246 0.03869854 0.03063637 0.02494447 0.02529730 0.00687698 0.01162997 0.00293929 0.00308500 0.00276137 0.00320737 0.00264277
6 0.03198475 0.08791757 0.01271468 0.02412585 0.00644759 0.01204113 0.00573902 0.00756748 0.00366330 0.00521936 0.00358716 0.00247469
4 0.00335212 0.08109741 0.01346290 0.00655791 0.00516967 0.00832297 0.00357040 0.00347802 0.00216587 0.00061311 0.00198375 0.00089232
3 0.50896005 0.05945788 0.11314952 0.07367246 0.05546744 0.02544656 0.04263825 0.01534664 0.02921829 0.00379396 0.01652336 0.00850951
0 0.06351347 0.07624637 0.00857067 0.02333108 0.01286147 0.00890567 0.00959820 0.00513767 0.00585222 0.00436954 0.00463857 0.00189652
2 0.03124429 0.10133181 0.00451772 0.03325094 0.00559793 0.01563713 0.00195881 0.01128336 0.00253655 0.00462539 0.00115088 0.00376252
1 0.03554039 0.04585988 0.01675528 0.01953886 0.00235771 0.00882016 0.00839750 0.00561732 0.00404805 0.00615394 0.00268742 0.00425745
6 1.15838246 0.33139120 0.40627272 0.22306959 0.09940528 0.09556862 0.11595228 0.03467422 0.02890386 0.02361094 0.00748660 0.02395183
4 0.02092692 0.10797856 0.00399576 0.03229706 0.00474986 0.01073231 0.00532797 0.00317320 0.00417342 0.00137813 0.00304693 0.00060229
1 0.12852924 0.10149602 0.05037022 0.03251583 0.03207542 0.01505137 0.01833348 0.00820757 0.01260937 0.00734337 0.00894908 0.00465161
1 0.08716371 0.11954369 0.02883626 0.04380954 0.01449322 0.02080892 0.01054865 0.01130907 0.00811149 0.00750215 0.00505476 0.00666440
6 2.68655982 0.84235315 0.05226545 0.09897275 0.17331099 0.23293297 0.03817246 0.09727727 0.05395906 0.07335955 0.02664938 0.02659015
5 0.22922979 0.24018862 0.07105357 0.06223603 0.20887392 0.08856347 0.02017578 0.05410300 0.03000518 0.03448830 0.04738918 0.05661443
5 0.38814630 0.11321324 0.07540588 0.08392454 0.07972463 0.03682654 0.17194155 0.06923171 0.02138382 0.02885133 0.01198226 0.01512172
0 0.01688542 0.11368531 0.00753549 0.03387335 0.00200560 0.01644894 0.00180689 0.00898917 0.00234372 0.00627418 0.00212968 0.00389333
6 0.00942788 0.03815261 0.03970032 0.00857389 0.02395694 0.00221171 0.01463424 0.00194594 0.01322066 0.00415916 0.01016354 0.00271661
4 0.00262900 0.07667926 0.00351223 0.00497600 0.00527977 0.00945527 0.00341440 0.00352281 0.00191121 0.00134912 0.00179198 0.00230933
1 1.12407887 0.71420565 0.54490820 0.21041349 0.03234323 0.11283427 0.01191705 0.06160188 0.04496207 0.02316517 0.01107485 0.02500981
0 0.01572943 0.11612453 0.00825424 0.03783180 0.00432365 0.01697429 0.00248887 0.01053255 0.00167607 0.00674529 0.00173843 0.00461576
4 2.02453780 0.41538043 0.05105669 0.01363905 0.20543852 0.09286000 0.04045252 0.01388946 0.06358411 0.03208086 0.02770708 0.01189903
3 0.03250339 0.07857978 0.04107316 0.01964300 0.01529758 0.00948472 0.00619943 0.00361931 0.00183191 0.00651942 0.00162267 0.00294461
3 0.01734399 0.06728486 0.04286318 0.02660865 0.02397646 0.00529168 0.00495364 0.00304875 0.00319913 0.00397652 0.00174726 0.00261076
6 2.25864091 0.26877421 0.05552436 0.06143220 0.24379518 0.06978209 0.02032503 0.03096713 0.09593400 0.03340555 0.01367785 0.01700706
5 0.91931974 0.13383557 0.19759819 0.09531176 0.06270425 0.04581733 0.06565955 0.11396987 0.11492475 0.01904879 0.06618868 0.06912199
5 0.83464657 0.01868735 0.18426137 0.03182124 0.13330242 0.04413372 0.05883215 0.09836073 0.16948936 0.05664037 0.05917405 0.07615710
6 0.03165871 0.07013564 0.01339080 0.02534928 0.00443753 0.01533656 0.00384187 0.00700270 0.00334506 0.00544044 0.00175032 0.00330958
5 0.18479023 0.07904993 0.10319526 0.03362185 0.15472397 0.04613307 0.06322259 0.02987754 0.01033067 0.01094749 0.00957363 0.02902530
5 0.20622537 0.07233963 0.02136124 0.15103355 0.06478928 0.05045199 0.01812627 0.00264139 0.00608039 0.01845710 0.00697508 0.00387106
0 0.02830088 0.09706103 0.00738387 0.03136121 0.00964132 0.01355038 0.00328504 0.00535445 0.00330213 0.00643690 0.00174754 0.00378571
3 0.01161006 0.05282746 0.02927978 0.01256834 0.02096330 0.01312372 0.00804971 0.00486724 0.00447187 0.00328307 0.00162918 0.00244894
2 0.01510452 0.07888778 0.00124538 0.02589852 0.00413174 0.01320791 0.00193070 0.00980927 0.00135157 0.00678688 0.00058415 0.00468351
0 0.00350651 0.11671704 0.00394831 0.04301058 0.00114743 0.02181619 0.00205970 0.01311380 0.00062509 0.00930236 0.00071513 0.00683341
3 0.02313200 0.05596627 0.01912072 0.00620990 0.00843831 0.01020964 0.00521283 0.00104800 0.00352405 0.00211023 0.00175298 0.00310877
0 2.07597517 0.07346956 0.04477013 0.07223352 0.23054641 0.03196295 0.01611794 0.03291214 0.07285480 0.01070378 0.01923394 0.02142356
5 0.07606637 0.10888520 0.08725249 0.10484537 0.06101604 0.08290746 0.09693084 0.03404384 0.01822948 0.01316664 0.01899092 0.01228559
6 0.04774361 0.08522709 0.01426101 0.01447652 0.01293264 0.00125490 0.01102251 0.00481852 0.00995712 0.00456212 0.00845258 0.00341979
0 0.00680104 0.12335562 0.00433703 0.04678416 0.00306806 0.02553515 0.00054792 0.01450555 0.00094811 0.00887444 0.00053989 0.00581199
0 1.78125998 0.10458389 0.07803514 0.07688271 0.17245306 0.04168009 0.03146675 0.05265647 0.04221144 0.01981904 0.01492250 0.02884376
5 0.11705759 0.09879296 0.12048297 0.11456382 0.09121525 0.08112393 0.03732324 0.03683859 0.01192667 0.00438238 0.01521198 0.00836915
4 0.01049033 0.12616860 0.00369379 0.03985514 0.00449804 0.01244318 0.00458651 0.00503717 0.00401190 0.00165886 0.00349173 0.00063144
6 1.00872231 0.68604339 0.52538832 0.23216606 0.06867565 0.13073832 0.03552209 0.05051599 0.04095088 0.02580133 0.02016819 0.00737867
1 0.03276035 0.04902447 0.00992677 0.01178707 0.00599114 0.01295076 0.00439478 0.00333532 0.00312871 0.00425854 0.00440285 0.00362679
3 0.03169583 0.05302379 0.02450424 0.00725250 0.00516157 0.00781692 0.00456129 0.00249904 0.00775164 0.00315187 0.00295005 0.00275471
5 0.60712118 0.06325909 0.13839534 0.04469453 0.06682551 0.10056172 0.06001156 0.18821474 0.07717031 0.00216434 0.02949861 0.01970770
0 0.04952078 0.08428918 0.00949432 0.03245017 0.00753950 0.01255825 0.00693458 0.00579110 0.00456676 0.00432906 0.00388821 0.00178047
2 0.02085328 0.08040683 0.00437087 0.01532714 0.00256683 0.00687132 0.00331015 0.00778120 0.00283350 0.00375926 0.00263063 0.00393671
2 0.00652787 0.07277120 0.01186927 0.02413148 0.00593181 0.01397349 0.00311163 0.00968540 0.00096305 0.00572578 0.00249684 0.00493055
0 2.77713526 0.09858799 0.01998254 0.16683178 0.29752965 0.05040329 0.01591414 0.08042087 0.09172282 0.03774256 0.01969068 0.05184774
1 0.11129767 0.11080883 0.03156158 0.04207459 0.01710457 0.02260509 0.01359179 0.01333867 0.00699684 0.00939196 0.00498935 0.00642730
5 1.24250226 0.59828260 0.17664979 0.07772118 0.07591148 0.06019621 0.28490015 0.11290297 0.20380439 0.08611136 0.03828086 0.07902520
6 0.12185216 0.10046586 0.05443763 0.02971498 0.03121279 0.01384851 0.02218425 0.00643455 0.01551241 0.00515450 0.01217417 0.00527939
3 0.83295874 0.20062811 0.12299268 0.08016716 0.04081746 0.05223181 0.00966701 0.02023599 0.01191683 0.02210682 0.00930279 0.01480722
2 0.01024744 0.08702980 0.00253802 0.02774802 0.00430790 0.01156765 0.00171827 0.00632205 0.00335554 0.00563275 0.00106209 0.00201513
4 0.00668930 0.12658427 0.00659648 0.03642912 0.00287730 0.01231951 0.00074947 0.00487309 0.00040752 0.00241685 0.00165850 0.00203960
1 1.86775888 1.10429566 0.25815115 0.22675873 0.12686618 0.29764344 0.04197784 0.06217017 0.02004867 0.02731245 0.06249804 0.02701205
1 0.02306073 0.04826839 0.01568358 0.02047620 0.00374682 0.01083200 0.00148174 0.00581393 0.00254832 0.00588343 0.00099436 0.00433814
3 0.02688983 0.05525726 0.01994939 0.00824573 0.01430515 0.00629299 0.00315718 0.00309343 0.00387308 0.00238005 0.00331046 0.00212869
1 0.04607017 0.04568726 0.01753202 0.02191947 0.00505054 0.01003499 0.00248171 0.00934364 0.00426084 0.00399011 0.00345524 0.00386385
1 0.03972560 0.03617023 0.01262762 0.01520190 0.00353546 0.01095312 0.00307448 0.00359954 0.00421619 0.00470712 0.00187626 0.00265966
2 0.01273515 0.09828253 0.00912261 0.03767186 0.00372375 0.01780315 0.00244998 0.01138833 0.00180993 0.00709298 0.00065598 0.00462769
2 2.78817026 0.35137722 0.05271534 0.02091301 0.32389433 0.06670257 0.02457287 0.01726904 0.11510652 0.03121331 0.02447272 0.00903821
4 0.01260806 0.09072438 0.01473501 0.00465521 0.00774234 0.00665531 0.00253713 0.00444488 0.00077649 0.00150504 0.00051105 0.00108043
0 0.01998253 0.12268926 0.01667758 0.03457359 0.00345210 0.01436117 0.00201535 0.00902896 0.00271232 0.00317303 0.00360930 0.00353278
4 0.01057729 0.05062170 0.01408709 0.01586807 0.00925979 0.00320613 0.00557982 0.00127365 0.00281582 0.00170756 0.00255062 0.00177605
0 1.84818048 0.11085644 0.04658082 0.02881417 0.20556993 0.01063094 0.02571779 0.00509729 0.07859454 0.00738962 0.01666445 0.01677576
1 0.04311833 0.06453419 0.02062307 0.01595246 0.00109351 0.00691854 0.00725739 0.00281174 0.00526599 0.00286113 0.00434151 0.00277013
1 1.38727321 0.35853235 0.38764138 0.20271080 0.05384726 0.16324624 0.11014956 0.03573258 0.00478410 0.02764008 0.03045993 0.02441833
5 0.07460122 0.04519712 0.04826824 0.04248997 0.03792349 0.08010646 0.05324027 0.05089172 0.01679941 0.01263218 0.00430042 0.00832613
1 0.03194356 0.04695948 0.00973285 0.01916368 0.00432960 0.01170666 0.00242983 0.00437112 0.00369013 0.00426763 0.00283231 0.00434828
0 2.30796830 0.06537553 0.01954500 0.08860016 0.25183097 0.01839300 0.01981803 0.05243977 0.07959790 0.02309461 0.00858338 0.02922738
5 0.12378638 0.02487958 0.02421672 0.01613814 0.09803976 0.05641567 0.02512468 0.01601544 0.02232640 0.01636651 0.01285664 0.00590726
6 2.00001297 0.69812235 0.10010662 0.19832660 0.11333675 0.14120912 0.09442727 0.06494712 0.01655328 0.09132561 0.01256728 0.00947612
0 0.01847628 0.10390769 0.01419477 0.03586527 0.00005671 0.02008568 0.00166119 0.01004682 0.00129543 0.00632816 0.00086816 0.00391039
1 0.00328346 0.03996079 0.02044453 0.01712099 0.00526006 0.01111678 0.00164578 0.00484320 0.00183059 0.00379799 0.00167167 0.00354825
1 0.30874840 0.04872726 0.07852975 0.00242693 0.04401281 0.00928376 0.02696756 0.00865889 0.02039678 0.00610222 0.01276241 0.00349096
1 0.14360325 0.06999230 0.07861248 0.00451500 0.04677176 0.01042565 0.02918508 0.00621206 0.01793330 0.00378824 0.01126232 0.00352905
3 0.70471445 0.10121295 0.37165966 0.14454981 0.07387082 0.03927886 0.09879144 0.07674050 0.03649226 0.05311302 0.03676820 0.01600846
3 0.01667583 0.06390997 0.03915107 0.00559502 0.01364654 0.00771383 0.00759687 0.00424304 0.00185411 0.00409271 0.00284019 0.00099743
2 0.01281052 0.08814601 0.00498905 0.02526189 0.00539498 0.01260479 0.00492597 0.00738697 0.00279946 0.00528950 0.00292591 0.00321291
3 0.03061460 0.04415032 0.01421530 0.01124060 0.01892196 0.00561473 0.00804391 0.00293348 0.00449516 0.00301111 0.00296316 0.00169658
5 0.39815110 0.09524717 0.11636244 0.11794707 0.09383434 0.09668406 0.10860211 0.03920403 0.04384871 0.01615168 0.00195354 0.04000497
4 0.01380675 0.06180283 0.01029349 0.01345143 0.00648396 0.00952320 0.00148789 0.00415909 0.00169034 0.00355689 0.00214418 0.00037655
5 0.14591382 0.28192219 0.12710671 0.04581553 0.01321466 0.01530692 0.02871450 0.06912746 0.01427717 0.05533046 0.02298740 0.00687998
1 1.30692578 0.25614656 0.06091994 0.09493899 0.09347881 0.07821541 0.01710262 0.02210492 0.01904343 0.02409464 0.02008948 0.01659257
1 0.96772879 0.62201767 0.52669611 0.18434855 0.00974093 0.12752467 0.02228382 0.06372875 0.04196276 0.01736145 0.01610635 0.02055865
4 0.00984588 0.09167805 0.01862057 0.00563761 0.01138451 0.00835136 0.00388317 0.00445668 0.00128562 0.00206734 0.00272410 0.00139173
2 0.21987532 0.09194915 0.03411201 0.07252311 0.01108102 0.00833838 0.01460930 0.01221256 0.00540626 0.01278786 0.00474695 0.00346851
1 0.10347324 0.11319939 0.04315078 0.04384312 0.02031359 0.02086100 0.01266694 0.01190587 0.01050522 0.00870134 0.00620523 0.00602422
1 1.31480744 1.65622372 0.35987295 0.35231593 0.05224319 0.10667111 0.11582141 0.01770324 0.06398249 0.05307008 0.04089404 0.06631364
5 0.82300540 0.04661804 0.20434288 0.07886159 0.11141317 0.08211068 0.05303224 0.11162289 0.10952207 0.08026466 0.04657953 0.11027654
2 0.02310142 0.10668675 0.00372637 0.03542540 0.00088254 0.01856739 0.00140883 0.00848127 0.00217537 0.00687658 0.00235852 0.00451840
6 0.69042211 0.45484240 0.21734932 0.16369456 0.04191346 0.09065940 0.01039965 0.01748414 0.05983404 0.03334299 0.04167121 0.02120256
2 0.02245334 0.09310937 0.00187092 0.02213762 0.00320120 0.00841673 0.00339346 0.00734791 0.00176633 0.00468083 0.00158325 0.00526535
0 0.07089999 0.10371262 0.01799289 0.03880315 0.00725066 0.01116526 0.00640981 0.00536123 0.00619885 0.00278553 0.00469319 0.00182350
2 0.00681307 0.11152687 0.00069615 0.03811388 0.00178541 0.02144431 0.00137426 0.01145051 0.00167356 0.00686783 0.00105606 0.00469744
4 0.00901728 0.07537318 0.00652645 0.01498615 0.00494720 0.00224353 0.00229417 0.00123050 0.00198648 0.00119754 0.00196911 0.00045483
3 0.01521762 0.06639434 0.02213844 0.00354612 0.00680174 0.00294315 0.00524221 0.00418565 0.00222049 0.00222692 0.00241563 0.00210599
0 2.13139052 0.08634011 0.05136020 0.12322935 0.22214258 0.03392672 0.03288871 0.06763021 0.06100294 0.02284614 0.01852006 0.03485677
3 0.21243343 0.54901481 0.29758490 0.07358146 0.04070063 0.03254372 0.02321001 0.03937875 0.02255237 0.04433061 0.02205926 0.01233855
0 0.05942841 0.08943910 0.00923273 0.02947598 0.00918226 0.01136970 0.00603105 0.00482582 0.00565843 0.00267677 0.00496265 0.00226740
6 1.26673686 0.52362119 0.09504993 0.10230523 0.12051785 0.09416846 0.09995515 0.04871086 0.04315472 0.03317674 0.01543134 0.02681789
3 1.01989034 0.32878898 0.39335772 0.09951829 0.16344000 0.10304016 0.05790869 0.06876621 0.06430730 0.02243899 0.04203033 0.02027821
2 0.00600431 0.10326869 0.00318870 0.03282949 0.00059082 0.01555078 0.00191908 0.00708686 0.00101652 0.00488882 0.00114916 0.00645741
3 0.05094818 0.06368415 0.02623599 0.00424423 0.01091573 0.00504712 0.00477170 0.00544054 0.00496271 0.00172012 0.00292648 0.00151783
4 0.01719272 0.08850825 0.00465314 0.01558349 0.00131326 0.00244388 0.00172843 0.00058943 0.00071742 0.00066737 0.00075190 0.00085181
3 0.98329623 0.42873582 0.14832765 0.16035998 0.09661263 0.07324651 0.04075501 0.06762751 0.01477613 0.02196553 0.01472033 0.02675538
5 0.23103168 0.11431732 0.03070325 0.12602323 0.10983099 0.00573971 0.04256243 0.02823863 0.00694214 0.00559666 0.02755922 0.01350268
3 0.86028580 0.24675850 0.29289840 0.15571443 0.11381698 0.03157702 0.04503405 0.04056295 0.03217650 0.00797969 0.00414489 0.01025373
4 0.01400363 0.03345912 0.00442198 0.01347283 0.00186500 0.00635041 0.00062449 0.00178751 0.00225510 0.00261508 0.00136454 0.00005603
1 0.00326930 0.07171253 0.00555996 0.01330284 0.00176690 0.00323030 0.00300348 0.00332264 0.00233582 0.00172150 0.00231368 0.00175060
1 0.01564072 0.04517427 0.01687599 0.01913455 0.00511082 0.00994987 0.00103479 0.00453500 0.00173605 0.00654145 0.00316990 0.00382366
6 2.32713693 0.29290364 0.07195634 0.05356652 0.23986837 0.02259322 0.02545357 0.03004705 0.08297363 0.00390791 0.01993606 0.02179755
0 2.05929975 0.09696402 0.05146598 0.05546642 0.23458472 0.01573339 0.02204642 0.03766158 0.08235454 0.01406753 0.00524520 0.01606556
0 2.05234766 0.06087508 0.04234233 0.10618785 0.20347820 0.02859290 0.02042390 0.05762386 0.05991331 0.01947542 0.00729211 0.04264353
1 0.01769623 0.04399296 0.01370236 0.01598888 0.00361101 0.00878387 0.00320317 0.00475137 0.00425807 0.00333236 0.00306019 0.00379556
0 0.03758717 0.09174788 0.00972181 0.02414401 0.00693704 0.01425284 0.00537054 0.00730090 0.00355969 0.00542224 0.00281154 0.00390720
3 0.04716342 0.07016044 0.03096376 0.01496479 0.01327701 0.00331393 0.00340162 0.00589355 0.00165032 0.00423840 0.00059954 0.00318985
0 0.03337948 0.11418788 0.01342957 0.04030027 0.00642732 0.01932552 0.00386732 0.01297888 0.00183999 0.00520673 0.00082904 0.00353518
6 0.01296010 0.06404448 0.01466933 0.02471683 0.00669649 0.01274301 0.00314394 0.00892931 0.00347506 0.00518741 0.00390829 0.00450425
6 0.56555799 0.11266311 0.13265484 0.02841344 0.02423889 0.03594304 0.04427005 0.02609933 0.00631062 0.01809285 0.01037388 0.01108124
3 0.02644086 0.03965935 0.02832687 0.02342511 0.02299203 0.01132384 0.00832476 0.00780142 0.00604958 0.00128357 0.00252810 0.00368377
4 0.45917320 0.05377784 0.10207429 0.00515288 0.03708085 0.01220896 0.02749133 0.00365061 0.01241380 0.00704076 0.01134274 0.00439354
4 0.00996357 0.04446257 0.00752737 0.01063372 0.00831490 0.00395514 0.00180140 0.00260810 0.00219632 0.00103251 0.00027792 0.00140093
2 0.01610155 0.07749426 0.00379107 0.01978520 0.00266846 0.01103812 0.00373489 0.00739049 0.00226165 0.00474197 0.00285486 0.00268718
0 0.04740756 0.11798239 0.01815959 0.03881755 0.00188911 0.01073624 0.00487855 0.00620476 0.00453549 0.00261366 0.00484530 0.00373020
3 1.46001376 0.65694592 0.10811673 0.17034863 0.03730943 0.12610810 0.04719624 0.10211781 0.02089088 0.05983501 0.01755995 0.04316417
1 0.00197362 0.11828428 0.00096616 0.04479326 0.00159606 0.02291387 0.00230291 0.01316844 0.00241490 0.00837740 0.00207183 0.00677168
4 0.01530959 0.11668291 0.00084903 0.03314513 0.00089292 0.01100044 0.00102882 0.00296536 0.00063525 0.00064034 0.00056991 0.00180645
2 0.01779077 0.09567994 0.00738037 0.02519274 0.00151027 0.00963164 0.00086982 0.00749449 0.00056040 0.00614296 0.00113954 0.00279543
0 0.00852990 0.12068795 0.01538891 0.04148249 0.00612312 0.01688545 0.00380391 0.00818154 0.00369564 0.00666599 0.00270133 0.00578129
3 0.43405065 0.28774151 0.04916044 0.04307043 0.02791779 0.03092109 0.03528750 0.02793429 0.03880120 0.01578651 0.01120266 0.00616728
3 0.24372258 0.09962839 0.09777583 0.07998155 0.02491458 0.02414249 0.01835128 0.03504179 0.01225980 0.00969413 0.00377935 0.00174117
1 1.72703285 0.94530531 0.21508852 0.24002521 0.11795543 0.22861906 0.02826793 0.03810833 0.03170687 0.00576001 0.06384491 0.00786184
4 0.00280561 0.07182995 0.00882418 0.00528037 0.00573734 0.00866725 0.00324568 0.00217238 0.00048893 0.00078292 0.00140695 0.00063951
4 0.00943107 0.04544510 0.00654968 0.01749392 0.00241725 0.00802933 0.00092204 0.00353844 0.00256242 0.00408777 0.00125211 0.00095938
6 0.03900737 0.08685023 0.01332493 0.01848041 0.01022508 0.00883405 0.00525788 0.00696172 0.00459117 0.00608885 0.00093124 0.00483894
6 0.51192691 0.16778914 0.18109189 0.00804308 0.02768548 0.02449459 0.02138310 0.01049665 0.03094137 0.00453449 0.01884803 0.01081346
5 0.15805799 0.06634308 0.01982061 0.08461717 0.10377254 0.00835381 0.04591323 0.00955871 0.00855705 0.01458973 0.03915139 0.01121781
6 0.63565113 0.09447985 0.06681771 0.07214508 0.01613870 0.03985505 0.03559631 0.02102211 0.00426242 0.01444404 0.00156187 0.01568851
4 0.02927296 0.10211676 0.00468689 0.02604341 0.00401082 0.00800697 0.00307057 0.00149134 0.00290498 0.00112045 0.00287319 0.00166526
1 1.41358583 0.47529360 0.51671443 0.28714900 0.03588407 0.15444694 0.09952370 0.02151844 0.01587867 0.01626967 0.02510298 0.03501593
4 0.01226734 0.07792789 0.00204777 0.00499749 0.00608976 0.00785229 0.00325603 0.00315497 0.00228812 0.00176956 0.00105210 0.00263670
3 0.04802039 0.06296694 0.02640947 0.00392516 0.01150021 0.00604151 0.00466110 0.00434530 0.00569707 0.00082677 0.00277489 0.00142585
6 0.07414923 0.06643408 0.00880218 0.01946050 0.00574020 0.01119095 0.00505218 0.00636856 0.00324028 0.00404631 0.00257036 0.00174823
1 0.02890244 0.04980610 0.01905672 0.01259294 0.00235659 0.00937050 0.00153554 0.00771705 0.00181235 0.00582370 0.00119192 0.00384599
0 0.01291376 0.10129373 0.00126633 0.03175302 0.00176307 0.01675310 0.00125256 0.00927475 0.00107545 0.00676035 0.00039053 0.00452081
2 0.02090171 0.07440754 0.00634998 0.02080848 0.01048822 0.01160816 0.00955130 0.00607610 0.00643668 0.00323844 0.00509403 0.00121257
5 0.15689254 0.06928650 0.02848426 0.10606923 0.08017431 0.04485846 0.01441797 0.01042625 0.01201250 0.02579663 0.00860412 0.01347119
2 0.01645215 0.09312153 0.01324548 0.03609033 0.00339349 0.01502125 0.00249460 0.01103581 0.00100451 0.00691150 0.00055751 0.00550989
2 0.03678415 0.08252745 0.01233796 0.02574369 0.00496636 0.01011092 0.00031143 0.01046038 0.00351543 0.00359828 0.00273937 0.00399688
3 0.06120172 0.08875403 0.02651754 0.00350556 0.01181036 0.00631185 0.00888975 0.00303340 0.00563686 0.00100680 0.00407701 0.00194907
6 0.14172524 0.09128683 0.07346293 0.02125470 0.05257191 0.01237544 0.02873943 0.00783937 0.02081265 0.00635979 0.01144874 0.00587556
2 0.06580365 0.09861209 0.01638216 0.03078535 0.00082552 0.01471525 0.00264981 0.01041836 0.00195718 0.00496838 0.00300556 0.00366081
2 0.02132115 0.10468282 0.00338068 0.03197479 0.00195470 0.01609928 0.00249365 0.00667204 0.00232539 0.00535442 0.00377166 0.00431152
6 0.00623159 0.05516731 0.01456597 0.01618387 0.00924356 0.01321495 0.00435903 0.00672529 0.00414829 0.00431257 0.00489922 0.00284423
5 1.26955361 0.32541250 0.15902711 0.14329762 0.09546743 0.08824321 0.13025518 0.09040448 0.11034134 0.05241855 0.01917179 0.00878327
1 0.03762093 0.05459465 0.01892502 0.01085497 0.00716639 0.00657012 0.00155247 0.00601484 0.00443504 0.00475634 0.00287318 0.00381340
0 1.20640508 0.54209525 0.13565974 0.15047980 0.10215351 0.09748821 0.11054146 0.03291955 0.01561558 0.01205476 0.04717361 0.02141775
0 0.00951553 0.11556210 0.00303616 0.04015934 0.00214934 0.01881629 0.00121710 0.01056261 0.00059446 0.00630597 0.00039765 0.00487149
1 0.01799022 0.04199412 0.02077310 0.01934744 0.00415517 0.00981688 0.00086287 0.00456533 0.00132483 0.00402571 0.00218849 0.00273324
6 1.58127973 0.52752479 0.30176640 0.11207464 0.06847917 0.20505421 0.05394083 0.03996989 0.02939470 0.05724444 0.03084234 0.02142385
3 0.04927078 0.04344749 0.02183163 0.00487652 0.01329300 0.00827505 0.00614112 0.00321982 0.00570844 0.00210594 0.00406699 0.00272900
0 0.03496448 0.08388573 0.00803425 0.02562447 0.00500035 0.01114633 0.00511331 0.00686815 0.00465736 0.00440796 0.00326447 0.00301796
5 0.21847528 0.11955948 0.07280581 0.05067133 0.11086849 0.03800100 0.02866932 0.01869714 0.00965563 0.01386003 0.00645905 0.01294534
0 0.05082575 0.10033693 0.00543040 0.03257008 0.00699001 0.01247823 0.00799847 0.00656840 0.00455762 0.00415923 0.00298843 0.00371602
0 0.00424044 0.11140980 0.01010892 0.04024216 0.00521792 0.01890590 0.00410394 0.01324190 0.00109526 0.00875832 0.00069610 0.00669574
4 1.64938959 0.52608487 0.03136930 0.05203952 0.12384594 0.13853362 0.02034110 0.06560706 0.01336733 0.03345638 0.01064731 0.03584217
3 1.28237917 0.49039912 0.08735396 0.09518417 0.05872841 0.08894174 0.02505776 0.05459012 0.01396787 0.01275892 0.01371632 0.03036657
1 0.03992325 0.06601529 0.02087830 0.01441351 0.00083478 0.00681149 0.00694506 0.00411794 0.00558693 0.00338012 0.00400076 0.00287522
2 2.63705518 0.38869879 0.03234280 0.03158125 0.30192150 0.07270470 0.01654905 0.01615298 0.11312085 0.03453874 0.01301364 0.00540496
4 0.00558755 0.08394408 0.00258714 0.00268700 0.00468762 0.00938643 0.00112110 0.00277032 0.00019816 0.00093855 0.00173026 0.00156844
2 0.00719749 0.06772835 0.01198569 0.01786724 0.00432645 0.01243520 0.00165937 0.00740216 0.00132377 0.00537537 0.00100916 0.00313945
1 0.02932846 0.05111371 0.00927547 0.01369901 0.00230003 0.00896081 0.00362598 0.00572569 0.00290328 0.00520571 0.00333616 0.00332474
0 0.05981998 0.09263695 0.01775694 0.02614951 0.00630412 0.01277638 0.00785156 0.00431647 0.00649061 0.00320455 0.00408353 0.00147936
4 0.00347980 0.07163318 0.00564436 0.00912792 0.00545833 0.00842780 0.00178533 0.00292427 0.00131926 0.00120086 0.00074862 0.00170418
0 0.03000181 0.09793185 0.00999625 0.03160750 0.00745759 0.01530387 0.00116572 0.00817014 0.00164075 0.00662539 0.00133265 0.00382584
4 0.00287141 0.07318250 0.00615641 0.00962817 0.00613751 0.01098893 0.00159562 0.00451264 0.00058499 0.00069128 0.00133037 0.00178650
1 0.11425821 0.10990472 0.04863287 0.03513889 0.02154149 0.01733918 0.01460242 0.00836197 0.01304997 0.00762108 0.00827298 0.00367079
5 0.13287467 0.04300153 0.01961726 0.05970546 0.09859213 0.00825242 0.03164767 0.01452616 0.00692127 0.01793289 0.03284703 0.00861149
3 0.00655643 0.05690473 0.02056970 0.00543919 0.00739134 0.01062729 0.00504568 0.00332946 0.00634852 0.00197547 0.00279294 0.00248078
5 0.10018276 0.02325374 0.01314814 0.01327458 0.10541265 0.04878715 0.02922004 0.01063285 0.01924115 0.01222762 0.01242323 0.00720356
0 0.01044005 0.10196624 0.00975265 0.03068165 0.00239020 0.01300330 0.00189910 0.00782094 0.00168749 0.00675046 0.00109631 0.00477067
5 0.12232704 0.03509395 0.02689466 0.03833593 0.11139813 0.03397983 0.03130933 0.01502349 0.02364240 0.02442246 0.02237200 0.00805370
5 0.97179308 0.12055727 0.23501014 0.08842228 0.08390997 0.07872245 0.08464164 0.10246892 0.08001492 0.12318919 0.08860054 0.03484750
1 0.07623928 0.11965289 0.02209263 0.04491975 0.00853520 0.02282624 0.00681030 0.01422737 0.00486595 0.00943976 0.00364604 0.00811919
3 0.02035672 0.06614579 0.02926136 0.00580277 0.01850378 0.01072021 0.00784743 0.00624007 0.00522130 0.00334138 0.00400109 0.00360194
5 0.08739779 0.00842042 0.03140328 0.02454823 0.07276714 0.07683112 0.02450458 0.04136465 0.02589647 0.01515713 0.01498013 0.00768567
6 0.39912148 0.07383547 0.07425014 0.11357861 0.02120898 0.02788387 0.05007229 0.04216387 0.01619438 0.00825457 0.00774485 0.00320393
6 0.01508048 0.04303123 0.02244087 0.02218074 0.00607094 0.01159189 0.00508398 0.00806285 0.00066399 0.00554841 0.00099632 0.00466112
3 0.06514483 0.05796597 0.02839995 0.01476700 0.01024254 0.00570460 0.00670838 0.00190680 0.00629069 0.00108017 0.00202313 0.00264388
1 0.01595172 0.04149852 0.01362390 0.02088962 0.00283337 0.00717401 0.00237556 0.00375893 0.00155828 0.00386473 0.00192777 0.00239257
3 1.19230266 0.38756265 0.44070643 0.12369262 0.15359522 0.06659945 0.12518578 0.03585709 0.03587789 0.03590371 0.03068820 0.02122591
1 0.03678209 0.04985692 0.01410265 0.02459818 0.00670730 0.00928192 0.00326489 0.00499557 0.00372110 0.00282327 0.00302646 0.00164439
2 0.01227343 0.10522736 0.00321549 0.03649718 0.00103169 0.01532702 0.00193959 0.00866896 0.00169109 0.00541159 0.00289219 0.00348582
1 1.77518922 0.20750878 0.07352646 0.12762620 0.17948902 0.05453550 0.03398331 0.06391453 0.04926039 0.02859319 0.02088948 0.03466023
0 0.03018469 0.09736776 0.00558490 0.03055519 0.00245218 0.01614656 0.00132558 0.01136622 0.00222690 0.00629561 0.00248054 0.00316279
4 0.01410057 0.08059607 0.00670998 0.01841164 0.00110183 0.00391341 0.00054651 0.00237588 0.00012458 0.00300048 0.00169522 0.00210233
0 0.04366049 0.09485738 0.00783190 0.02581211 0.00642967 0.01348233 0.00354047 0.00762061 0.00313759 0.00390612 0.00425725 0.00349536
0 0.02899978 0.10378630 0.00938626 0.03594639 0.00800338 0.01696196 0.00480674 0.00891561 0.00187506 0.00422203 0.00209000 0.00231425
0 0.00560666 0.12077425 0.00093558 0.04320843 0.00143415 0.02269012 0.00052892 0.01354138 0.00046505 0.00895259 0.00079668 0.00577997
0 0.03613045 0.12492445 0.02303377 0.03126916 0.00585908 0.01688373 0.00257321 0.01181307 0.00345954 0.00492434 0.00242669 0.00336702
4 0.00542675 0.12195176 0.00817725 0.03331886 0.00560534 0.00893405 0.00560720 0.00147626 0.00217773 0.00101454 0.00190787 0.00085424
4 0.01480212 0.06450872 0.01288775 0.00270213 0.00932791 0.00386799 0.00447149 0.00286012 0.00205196 0.00313833 0.00160653 0.00177818
1 1.79914374 0.28962461 0.07731970 0.02117055 0.17322121 0.04433489 0.03710454 0.02852312 0.05353917 0.02628959 0.02371326 0.02010690
0 2.04596824 0.05627281 0.03510901 0.08392159 0.21219357 0.04420412 0.00450153 0.06208172 0.06011801 0.03251064 0.01526401 0.03362821
1 0.03538636 0.06060956 0.00711625 0.01957706 0.00432823 0.01197990 0.00431517 0.00841288 0.00239426 0.00596901 0.00141033 0.00428572
1 1.73792659 0.57746422 0.02158530 0.07924872 0.14315663 0.08929830 0.01194710 0.06264955 0.02769676 0.04703271 0.00641531 0.02713925
6 0.03801254 0.08951910 0.02002845 0.02099703 0.01385589 0.00651467 0.01490692 0.00144871 0.00952829 0.00223201 0.00581285 0.00099020
0 0.00696216 0.12371954 0.00130705 0.04415103 0.00119390 0.02269992 0.00066679 0.01343877 0.00053355 0.00872296 0.00048575 0.00600741
3 0.94879752 0.53850817 0.12869624 0.17997589 0.06020291 0.03262762 0.02447569 0.01363754 0.00729872 0.02102363 0.01299600 0.01824487
6 0.21810759 0.00746890 0.12806944 0.04625854 0.06677459 0.02624255 0.02814549 0.00464960 0.00910583 0.00911754 0.01075771 0.00387284
2 0.03408361 0.09380734 0.00906757 0.03714317 0.00618696 0.01604801 0.00611871 0.00861788 0.00159722 0.00601401 0.00179490 0.00503735
0 1.02990464 0.18517103 0.06435256 0.10993795 0.03743576 0.03246493 0.06646582 0.01700046 0.00751937 0.00763330 0.02925768 0.00450184
2 0.02639943 0.09979016 0.00892182 0.04137577 0.00436868 0.01658232 0.00160186 0.01249615 0.00080710 0.00780422 0.00044183 0.00519175
0 1.36560197 0.53458579 0.14238955 0.17576890 0.08984158 0.14749083 0.08821143 0.05366123 0.00324339 0.01806327 0.03831077 0.01816547
0 1.99998658 0.17182139 0.05389028 0.16793909 0.17361481 0.06313091 0.04903874 0.07287570 0.03291058 0.02613035 0.04480980 0.02855631
4 1.97909982 0.29490347 0.04070549 0.06391199 0.20936341 0.06460122 0.03164176 0.00406765 0.06968565 0.01633681 0.02266425 0.00129488
3 0.25003015 0.09960018 0.06270678 0.03314824 0.05115698 0.03419203 0.01137080 0.01429678 0.00952373 0.00741454 0.00950141 0.00887721
5 0.16377449 0.04358699 0.03247992 0.07467558 0.10785016 0.01717873 0.02920056 0.02507293 0.00611627 0.01686737 0.02333267 0.01288179
5 0.13631696 0.03939913 0.00493229 0.05212137 0.11392523 0.01725366 0.03811931 0.00674890 0.00715401 0.01195073 0.01133214 0.00968393
6 1.71492703 0.81644183 0.12743493 0.25686517 0.09928184 0.00978301 0.15526821 0.13192072 0.08220205 0.04178229 0.04952348 0.02577874
3 0.95685386 0.49271830 0.16907259 0.10812953 0.05471440 0.03550222 0.05409838 0.03658498 0.02748483 0.02149417 0.02345370 0.02259362
1 1.03151269 0.18516071 0.33594512 0.17664628 0.06405344 0.11402539 0.09223363 0.01820921 0.01738034 0.02979291 0.00361040 0.02780881
4 0.00176228 0.12716223 0.00413107 0.03505132 0.00385308 0.01240802 0.00241258 0.00338995 0.00198438 0.00221175 0.00186318 0.00203420
6 0.02327515 0.09602660 0.00663723 0.03102459 0.00530309 0.01202204 0.00177174 0.00561414 0.00090539 0.00512046 0.00098297 0.00311335
1 1.49741240 0.16433048 0.21124865 0.21457230 0.05349863 0.06246956 0.10760897 0.07069783 0.02660814 0.04970622 0.05594334 0.02512291
2 0.02323087 0.09226447 0.00393420 0.02775418 0.00317094 0.00841791 0.00310420 0.00515945 0.00398905 0.00317043 0.00195680 0.00061280
4 0.01330224 0.10783521 0.00211642 0.02464093 0.00114069 0.00525555 0.00349948 0.00153478 0.00337330 0.00224415 0.00173751 0.00196614
5 0.13743458 0.03703288 0.00525211 0.01884154 0.08654581 0.06286851 0.01027151 0.01817154 0.03133268 0.02572438 0.00123753 0.01396275
3 0.04995378 0.01191948 0.05275522 0.02599331 0.03200918 0.01040510 0.01380495 0.00193600 0.00480625 0.00276294 0.00266676 0.00190286
4 0.00620405 0.08661663 0.00334282 0.00871318 0.00242644 0.00889762 0.00233084 0.00616946 0.00208433 0.00297344 0.00045937 0.00135222
3 0.34611809 0.29369701 0.11474357 0.04102085 0.04176994 0.03615271 0.01260621 0.02715232 0.01789741 0.01941645 0.02680056 0.00673191
4 1.90324818 0.24824252 0.02993138 0.07165642 0.20309608 0.03553895 0.02476876 0.01355566 0.06974914 0.00975107 0.02134399 0.00904211
2 0.00458487 0.09508970 0.00135902 0.02913997 0.00289926 0.01154790 0.00183109 0.00717914 0.00207601 0.00462361 0.00148593 0.00205647
6 0.13887576 0.06374676 0.07302132 0.01945432 0.05593193 0.01971796 0.03464320 0.01017660 0.01904482 0.00352252 0.00786087 0.00760698
2 0.05608775 0.09999252 0.01312109 0.03253678 0.00256112 0.01458501 0.00480912 0.01034770 0.00384915 0.00662661 0.00279653 0.00255676
6 1.01915910 0.26097554 0.25099290 0.07154257 0.14464839 0.06738561 0.06787942 0.07598225 0.01819853 0.02372005 0.02290796 0.01410908
0 0.00393556 0.11350452 0.00484509 0.04250013 0.00119912 0.02035214 0.00187109 0.01301835 0.00031291 0.00904462 0.00078946 0.00633045
5 0.12556163 0.04064246 0.02630884 0.10004939 0.05700563 0.12254849 0.07920927 0.01472775 0.01078815 0.00610515 0.00739604 0.00494734
6 0.04337592 0.08146107 0.01263468 0.01845900 0.01142594 0.00850903 0.00303034 0.00578837 0.00388179 0.00406048 0.00163574 0.00260618
1 0.09622505 0.12135820 0.03674157 0.04199347 0.01549600 0.02268094 0.01275534 0.01377002 0.00549972 0.01061585 0.00414689 0.00656197
2 0.00520092 0.07325851 0.00737403 0.02572470 0.00549622 0.01135050 0.00321705 0.00714939 0.00322573 0.00503575 0.00144622 0.00354734
5 0.21681729 0.10418710 0.05744445 0.15931093 0.01098888 0.03781064 0.03028380 0.01458459 0.01709896 0.00888428 0.02364604 0.01309138
4 0.01480288 0.06688643 0.00879032 0.01090459 0.00597759 0.00948049 0.00189934 0.00317131 0.00288829 0.00252435 0.00252152 0.00220335
4 0.00446114 0.11306571 0.00274425 0.03090201 0.00125075 0.00801745 0.00240472 0.00158999 0.00170117 0.00257022 0.00114100 0.00240139
1 0.00016264 0.11917052 0.00016478 0.04548219 0.00020571 0.02435959 0.00013777 0.01522051 0.00028618 0.01057813 0.00022488 0.00780511
1 1.31084112 0.40957913 0.49256261 0.25314471 0.07784045 0.14653907 0.09011642 0.02861330 0.03053090 0.00625404 0.02007667 0.04319579
3 0.04580671 0.06637642 0.02188681 0.00762448 0.01298880 0.00688291 0.00690124 0.00185971 0.00472210 0.00061095 0.00456045 0.00139199
5 0.22746010 0.06908317 0.04012436 0.16058111 0.04921640 0.05786997 0.02315703 0.00687016 0.01010463 0.02031871 0.01372209 0.01561004
6 0.38700267 0.18810978 0.11574496 0.13080979 0.01345795 0.01072415 0.00436358 0.02469175 0.03432292 0.02904837 0.01772444 0.01619799
4 0.01051292 0.12710327 0.00297712 0.03565925 0.00376396 0.01202564 0.00308795 0.00354720 0.00324407 0.00209214 0.00167913 0.00283458
1 1.43346695 1.02195810 0.38377360 0.19571393 0.15168423 0.17153061 0.05994455 0.03319059 0.03878725 0.03116810 0.03204505 0.03252450
6 1.18209366 0.67668727 0.08715907 0.17126511 0.09310474 0.10391942 0.00070218 0.04704781 0.01951721 0.01818121 0.04649014 0.01227465
6 0.02352173 0.09518340 0.00291238 0.03296534 0.00268514 0.01745351 0.00420945 0.01005292 0.00121442 0.00674843 0.00069444 0.00423232
2 0.01487476 0.09687915 0.00280382 0.02544211 0.00153501 0.01178992 0.00164673 0.00645018 0.00128803 0.00473613 0.00135496 0.00157301
4 0.01177298 0.06944346 0.00979597 0.00600224 0.00325583 0.01066640 0.00059670 0.00371776 0.00151323 0.00147319 0.00105603 0.00212003
2 0.01129050 0.10240511 0.00200253 0.03268011 0.00433924 0.01384942 0.00368928 0.00765940 0.00247549 0.00487863 0.00290607 0.00324475
0 0.01456614 0.11983572 0.00660423 0.04313834 0.00403006 0.02243558 0.00322251 0.01227413 0.00085323 0.00693030 0.00192484 0.00462525
2 0.01499130 0.10828119 0.00380691 0.03644236 0.00266037 0.01636033 0.00114710 0.01076234 0.00151091 0.00539594 0.00170728 0.00379359
3 0.74956309 0.38029554 0.47203566 0.20529321 0.01677214 0.07863966 0.04211061 0.03393851 0.03125553 0.00674920 0.02690271 0.02682560
2 0.02131900 0.10196143 0.00655161 0.03816795 0.00453724 0.01993572 0.00294348 0.01127961 0.00067685 0.00841649 0.00070318 0.00585711
1 0.74664834 0.52205451 0.66691990 0.20323959 0.04110188 0.01495725 0.09727831 0.07547790 0.04696503 0.04358659 0.01274929 0.05905752
6 0.03974198 0.10376314 0.00713334 0.03370814 0.00241651 0.01558175 0.00146130 0.00893289 0.00180274 0.00564330 0.00106319 0.00301693
3 0.19403957 0.23517891 0.04305526 0.09179129 0.04308667 0.01338893 0.02615873 0.01104883 0.00470599 0.00960467 0.00769748 0.00780376
4 0.01459730 0.05480093 0.00687403 0.01522703 0.00385126 0.00708440 0.00072586 0.00370681 0.00204658 0.00200283 0.00230763 0.00131991
2 0.01067555 0.06770940 0.00725210 0.02369132 0.00399272 0.00852003 0.00349009 0.00676581 0.00261194 0.00402769 0.00391016 0.00354021
0 0.01301691 0.10732164 0.00677117 0.03449480 0.00725820 0.01922823 0.00267496 0.01108338 0.00201020 0.00663059 0.00191811 0.00405824
2 0.02315951 0.10772916 0.00800036 0.04008080 0.00313267 0.01948795 0.00149413 0.01260431 0.00114135 0.00841108 0.00092431 0.00652732
1 0.77602448 0.14866576 0.16017578 0.05671247 0.03465517 0.02949171 0.03370812 0.01925613 0.01913662 0.01292197 0.00773194 0.01906042
2 0.01517573 0.09069126 0.00341075 0.02430958 0.00293376 0.00998158 0.00094487 0.00515987 0.00362239 0.00348730 0.00162910 0.00285938
4 0.01238582 0.05723987 0.00692107 0.01409834 0.00454096 0.00863281 0.00135362 0.00192498 0.00173700 0.00294104 0.00193734 0.00159696
0 0.02981849 0.11142807 0.00778199 0.02848111 0.00335680 0.01776407 0.00324756 0.01061818 0.00230698 0.00460991 0.00172214 0.00400859
4 0.00956349 0.10713257 0.00309061 0.02840561 0.00222586 0.00867802 0.00395415 0.00258557 0.00344928 0.00027585 0.00280925 0.00066087
4 0.01290820 0.11717780 0.00571347 0.03539953 0.00463311 0.01167017 0.00334467 0.00313944 0.00184035 0.00088194 0.00192570 0.00059272
1 0.00556983 0.03427329 0.01042621 0.01892681 0.00669785 0.00894077 0.00406781 0.00749492 0.00290599 0.00258337 0.00426661 0.00164033
5 0.25077504 0.09145408 0.09714114 0.13283850 0.02481569 0.03149921 0.03078923 0.00971791 0.01437961 0.00279678 0.01037268 0.03308804
6 0.00675116 0.04255289 0.01208387 0.02623722 0.00815084 0.01308227 0.00857727 0.00732560 0.00600342 0.00257849 0.00403520 0.00113878
4 0.01732464 0.10299915 0.00464578 0.02756873 0.00687769 0.00818637 0.00622551 0.00231628 0.00461532 0.00090001 0.00257109 0.00034258
1 0.12066892 0.11057947 0.03592972 0.03967106 0.02104826 0.01947729 0.01412590 0.01365960 0.00901048 0.00912924 0.00663696 0.00615016
3 0.02013059 0.04981036 0.01688924 0.00433216 0.01489820 0.00893470 0.00696473 0.00309977 0.00085413 0.00244279 0.00233922 0.00263760
3 0.95007354 0.51591268 0.09938119 0.20345023 0.07767678 0.04177376 0.01506744 0.05258276 0.02339292 0.02801598 0.02053561 0.01493695
2 0.02089446 0.10744824 0.00753418 0.03763562 0.00306960 0.01693196 0.00219060 0.01043218 0.00163244 0.00712445 0.00137425 0.00518548
2 0.02384481 0.09429410 0.00709546 0.02594690 0.00296446 0.01150904 0.00253077 0.00829057 0.00292469 0.00425612 0.00161384 0.00611034
0 0.05041709 0.10875983 0.02212449 0.03286888 0.00846613 0.01093074 0.00671970 0.00265432 0.00421237 0.00389577 0.00474584 0.00146878
5 0.11936883 0.02931442 0.00488340 0.00999786 0.06194676 0.08067665 0.01951164 0.05106514 0.02780931 0.00213049 0.00852109 0.00725374
3 0.04702432 0.03724230 0.04534176 0.03416176 0.02572440 0.00846458 0.00950659 0.00187255 0.00230412 0.00045685 0.00125467 0.00232626
2 0.02403544 0.06253975 0.01781868 0.02174410 0.00906798 0.01274006 0.00406646 0.00552369 0.00333537 0.00421064 0.00258646 0.00276215
3 0.01502672 0.06698989 0.03276806 0.01560505 0.01369187 0.01012382 0.00967061 0.00180164 0.00272783 0.00494097 0.00116542 0.00383353
3 0.04534486 0.01267635 0.03937328 0.02701833 0.01989280 0.01230152 0.00495668 0.00305100 0.00465762 0.00280674 0.00403662 0.00074725
1 0.18861652 1.27407962 0.30618410 0.07210467 0.01510574 0.01879583 0.06299531 0.11656770 0.06257289 0.02156597 0.00608768 0.01073138
1 1.77091887 0.59377796 0.03067185 0.05476280 0.13052369 0.07653113 0.01788303 0.05790206 0.02443331 0.04146807 0.02064350 0.03656694
6 0.02957285 0.06343822 0.02189551 0.02621520 0.01120486 0.01320737 0.00203788 0.00898617 0.00166358 0.00751701 0.00072499 0.00490972
1 0.10820472 0.12104195 0.03118949 0.04360545 0.01526491 0.02234493 0.00974850 0.01315732 0.00598400 0.00914719 0.00568756 0.00488702
2 0.01498955 0.09668617 0.00143361 0.03427470 0.00093664 0.01484636 0.00128689 0.00809098 0.00183036 0.00508034 0.00162831 0.00570650
0 2.19573478 0.13718001 0.02602449 0.14593029 0.21059824 0.05557936 0.01994514 0.07230479 0.05383847 0.02897532 0.02650415 0.04236635
5 1.07741214 0.55145643 0.15740433 0.06268996 0.05535057 0.02228776 0.28541690 0.09881657 0.11990286 0.10307882 0.02759269 0.07394119
3 0.25151337 0.15684175 0.07660837 0.12399264 0.06544845 0.02177178 0.06904212 0.00459115 0.01212845 0.00969730 0.01441011 0.01000133
4 0.03140103 0.08693262 0.00639263 0.01738110 0.00259527 0.00279094 0.00201040 0.00242229 0.00158389 0.00242729 0.00066528 0.00088400
2 0.03560385 0.09811883 0.01280432 0.04322725 0.00653670 0.01483182 0.00204041 0.01164210 0.00047270 0.00629271 0.00092388 0.00424528
4 0.02430379 0.10623886 0.00694462 0.02574589 0.00512064 0.00805932 0.00406875 0.00259994 0.00369983 0.00055219 0.00226023 0.00172815
3 0.22170588 0.29142969 0.06742069 0.10257202 0.04982127 0.01486506 0.01748198 0.00194904 0.01390855 0.01590040 0.00381423 0.00408148
3 0.25206746 0.26731115 0.04530129 0.07919055 0.04194278 0.02637119 0.02575417 0.02674174 0.00527827 0.01283185 0.00101295 0.01313914
6 0.10966108 0.07960882 0.05546837 0.01178628 0.04324990 0.00994259 0.03082139 0.00941952 0.01719539 0.00875385 0.01113220 0.00754535
4 0.00402043 0.11199059 0.00219423 0.02757265 0.00192884 0.01007450 0.00200568 0.00309622 0.00187996 0.00108190 0.00180448 0.00060869
3 0.03873970 0.03561134 0.02614858 0.00829445 0.00402453 0.00704382 0.00634981 0.00209302 0.00497739 0.00081302 0.00260581 0.00209554
0 0.03012775 0.09996605 0.00371120 0.02852474 0.00666248 0.01739023 0.00333531 0.01060723 0.00172403 0.00546384 0.00327869 0.00490355
5 0.14392740 0.05674030 0.03930824 0.07489630 0.08808641 0.00189810 0.04630642 0.00548786 0.02086655 0.02734075 0.02889709 0.01677540
4 0.01562826 0.04963702 0.00636389 0.01176050 0.00615379 0.00383666 0.00139031 0.00078103 0.00254026 0.00206454 0.00149461 0.00090288
0 2.19359269 0.09911402 0.02087896 0.06700307 0.25029003 0.02048310 0.02675704 0.05383638 0.07672586 0.01604584 0.01365190 0.04254443
2 0.01677081 0.09857863 0.00170462 0.03047168 0.00093598 0.01279498 0.00059777 0.00733396 0.00057156 0.00565033 0.00202462 0.00361991
3 1.48860429 0.60825504 0.10215007 0.03730752 0.11018308 0.07773400 0.07989811 0.04212126 0.02778812 0.02903775 0.02413950 0.04416391
4 0.03763495 0.06954009 0.01192722 0.01788948 0.00608410 0.00623638 0.00265376 0.00584088 0.00041529 0.00319632 0.00123788 0.00253331
2 0.01378438 0.09594730 0.00477682 0.03020214 0.00333602 0.01251297 0.00015485 0.00813679 0.00125149 0.00497838 0.00034313 0.00367597
3 0.04425397 0.03120621 0.01470872 0.00709819 0.01531757 0.00653852 0.00575822 0.00866126 0.00372087 0.00479279 0.00252044 0.00317404
2 0.02929706 0.08445102 0.00517722 0.02583184 0.00335891 0.00839526 0.00055884 0.00686939 0.00057651 0.00472843 0.00184586 0.00480980
3 0.03966420 0.06635383 0.02897429 0.00677359 0.01528571 0.00401469 0.00613564 0.00096863 0.00689957 0.00195204 0.00435555 0.00192986
5 0.11583031 0.06542902 0.05562329 0.03709255 0.02532639 0.07070843 0.06683586 0.03636249 0.01508780 0.01507255 0.00888415 0.01713677
1 0.11382017 0.10668722 0.03984882 0.03825026 0.02067335 0.01935322 0.01534893 0.01399068 0.00922523 0.00929064 0.00689013 0.00696472
0 0.00452253 0.12405239 0.00764956 0.04678916 0.00213543 0.02418496 0.00116200 0.01363272 0.00067270 0.00859991 0.00118818 0.00546691
5 0.20920317 0.07256711 0.02030874 0.06979056 0.11816565 0.03459818 0.04589509 0.01581317 0.01867562 0.01581217 0.01899257 0.00898970
3 0.87818205 0.40852223 0.17407899 0.17231470 0.09206749 0.09860875 0.04938550 0.05633920 0.01089603 0.02223369 0.02200502 0.01296948
3 0.71355682 0.21609741 0.28773537 0.29386664 0.11736863 0.04212974 0.06392404 0.10791585 0.05489182 0.02534653 0.03432511 0.02048302
0 2.22399625 0.04295925 0.02492130 0.12947461 0.21487599 0.05099929 0.00643667 0.06085623 0.06122731 0.02227982 0.00592702 0.04747007
6 0.18411350 0.05160493 0.07339222 0.01453543 0.05445929 0.01551578 0.03506497 0.00898352 0.02265829 0.00269155 0.01099551 0.00700894
2 0.01481213 0.11823200 0.00144709 0.03820562 0.00177134 0.01995598 0.00074344 0.01326378 0.00049880 0.00793471 0.00105218 0.00490842
1 0.86660784 0.54834279 0.59454559 0.20036303 0.08708830 0.02929213 0.06590879 0.04339416 0.06389016 0.01165754 0.03405143 0.02775345
4 0.01556365 0.10195478 0.00657507 0.02229119 0.00291560 0.00580840 0.00079330 0.00086166 0.00071620 0.00113126 0.00046615 0.00036499
5 0.11724073 0.01569437 0.00444277 0.02332624 0.09699647 0.05641187 0.03155065 0.01301241 0.02821188 0.02093661 0.01144577 0.00489934
2 0.03103465 0.10382826 0.01158166 0.03395272 0.00329266 0.01444471 0.00239549 0.00882172 0.00198515 0.00568045 0.00108515 0.00400469
0 0.05388390 0.10918007 0.03095776 0.04151403 0.00356327 0.01671981 0.00238025 0.00983871 0.00398247 0.00634931 0.00252174 0.00488499
1 2.26644576 0.59449842 0.05728587 0.11913170 0.13518150 0.08962474 0.03577973 0.03599210 0.03161512 0.04491893 0.02461498 0.04101835
1 0.27566188 0.06197662 0.07570362 0.00420055 0.03585995 0.00722786 0.02839572 0.00997896 0.01824269 0.00993056 0.01213438 0.00705105
4 0.01442132 0.06082018 0.01073062 0.01398235 0.00643066 0.00909002 0.00171155 0.00450327 0.00166414 0.00404037 0.00179168 0.00065011
5 0.12508709 0.06797472 0.03302042 0.03523985 0.05298431 0.09080456 0.01024349 0.04102844 0.03432868 0.00842390 0.00813675 0.00627724
0 1.66842752 0.02262386 0.04486340 0.04607233 0.17781674 0.02644295 0.01685383 0.03219650 0.06140632 0.01920997 0.00173325 0.02583187
0 0.02705605 0.08819987 0.00278804 0.02802218 0.00508536 0.01300464 0.00340363 0.00721299 0.00365038 0.00548563 0.00259149 0.00422341
0 1.87700526 0.04044742 0.02994863 0.05694318 0.19825369 0.01752238 0.03139514 0.01693357 0.08224695 0.00978302 0.02081060 0.01739822
3 0.04901850 0.03563934 0.04717685 0.03371623 0.02356997 0.00950565 0.00591725 0.00339321 0.00358528 0.00220401 0.00189108 0.00043598
3 0.01162974 0.04702311 0.02805906 0.02347760 0.02617230 0.00411684 0.01037803 0.00494894 0.00694269 0.00146246 0.00316310 0.00450268
4 0.01003534 0.07095791 0.01295103 0.00394739 0.00580169 0.00864081 0.00138313 0.00452474 0.00084630 0.00055725 0.00160426 0.00249934
2 0.00867636 0.06683862 0.00737073 0.01344760 0.00394867 0.01194925 0.00186326 0.00726068 0.00119109 0.00527886 0.00061759 0.00246511
2 0.62046472 0.56096995 0.11280968 0.17193107 0.11128947 0.02561587 0.03241230 0.02898575 0.03353029 0.01597451 0.00855891 0.01564719
6 0.01333548 0.06015405 0.02138081 0.02172853 0.00365649 0.01339871 0.00727159 0.00980740 0.00313997 0.00463212 0.00422009 0.00389755
5 0.20688194 0.07513586 0.00540140 0.07016713 0.11797986 0.04133563 0.05031461 0.01634022 0.00916095 0.01311877 0.01530115 0.01128232
0 2.19449451 0.19717152 0.13221486 0.04805135 0.21389065 0.06778200 0.06248464 0.02449339 0.06397205 0.03021341 0.03678877 0.02926866
2 0.00624888 0.09217912 0.00536836 0.02918938 0.00276583 0.01445812 0.00363358 0.00734511 0.00236936 0.00529289 0.00239205 0.00473230
1 0.78022906 0.19296369 0.18966020 0.05505543 0.04193542 0.02102207 0.04902012 0.01724144 0.02963319 0.01333562 0.00861322 0.01257454
3 0.03802635 0.06834749 0.03109143 0.01155380 0.01444133 0.00517394 0.00384844 0.00476115 0.00213229 0.00354079 0.00076256 0.00334641
5 0.11921034 0.02710607 0.03514288 0.06000334 0.09137053 0.03766282 0.03130936 0.00802340 0.04017799 0.02677924 0.01262513 0.01255902
4 0.00197103 0.06198805 0.00651990 0.01225634 0.00441845 0.00303792 0.00056799 0.00421289 0.00189960 0.00208107 0.00069228 0.00059422
0 2.49096559 0.12282114 0.01351762 0.12645698 0.27499787 0.04018557 0.00643477 0.07248109 0.08426227 0.02950862 0.02086874 0.04678558
3 0.25523817 0.14555176 0.12311204 0.05196463 0.02821256 0.04597659 0.01961860 0.02465573 0.00975364 0.01146692 0.00632574 0.00622780
0 0.03619633 0.08424814 0.00747070 0.02519154 0.00884955 0.01141227 0.00680975 0.00623588 0.00478848 0.00388022 0.00399758 0.00225131
4 0.01944769 0.07620248 0.00585472 0.00809864 0.00646092 0.01073363 0.00135257 0.00582568 0.00188844 0.00092534 0.00257004 0.00087695
3 0.95144184 0.64510784 0.07555034 0.22102674 0.07328075 0.07922419 0.00976799 0.04657541 0.00841104 0.03092962 0.00987725 0.02095392
4 0.01179482 0.05885770 0.00406260 0.01255798 0.00310369 0.01186389 0.00053074 0.00380065 0.00230904 0.00257756 0.00203056 0.00237299
6 0.02839295 0.05111836 0.02738685 0.02497016 0.00471673 0.01498552 0.00351618 0.00847394 0.00265067 0.00654620 0.00143187 0.00400800
5 0.04451033 0.09374292 0.08365369 0.02578474 0.04131321 0.02401549 0.09014303 0.04884334 0.02533748 0.01557172 0.00735420 0.01247082
1 2.07859687 1.29601324 0.29251147 0.28026568 0.18228044 0.27144876 0.07678397 0.02154119 0.04119807 0.00737807 0.09273054 0.01373855
0 0.04916730 0.10841274 0.02728422 0.03604985 0.00262781 0.01482744 0.00488178 0.00632756 0.00630647 0.00537900 0.00478650 0.00292032
3 0.32456470 0.42889618 0.44250223 0.20570207 0.11283420 0.08167070 0.06198890 0.04969807 0.00953159 0.02429525 0.02769935 0.02237021
0 0.05059272 0.10358740 0.01349088 0.03570760 0.00685856 0.01241129 0.00595576 0.00669064 0.00507106 0.00336331 0.00528719 0.00184287
5 0.23129551 0.13907376 0.04759578 0.20289877 0.02221036 0.04645162 0.01545885 0.01007286 0.03372449 0.01669725 0.01164602 0.02045157
5 0.22859326 0.10460308 0.02673677 0.12426273 0.10867427 0.00942432 0.04058529 0.02967136 0.00444396 0.00660132 0.02607730 0.01310171
1 2.28408375 0.26247883 0.04183357 0.04843947 0.25409176 0.03289767 0.02835661 0.01062405 0.08732883 0.00981325 0.01604054 0.00814143
6 0.42538394 0.15178899 0.16951904 0.04701641 0.02958952 0.02667292 0.02685299 0.01071062 0.02516518 0.00455364 0.01461203 0.00527215
2 0.02524210 0.10396001 0.00173462 0.03705504 0.00158299 0.01888186 0.00081910 0.01064003 0.00128945 0.00664817 0.00221052 0.00414707
5 0.15743491 0.05136635 0.03584000 0.04937912 0.09548733 0.03660429 0.01933249 0.00766562 0.01224391 0.03185097 0.03574317 0.00190552
2 0.01039956 0.10463157 0.00445954 0.03777282 0.00269786 0.01836107 0.00094446 0.01061190 0.00055459 0.00739118 0.00085008 0.00478022
2 0.17052695 0.08148927 0.05538741 0.04611983 0.01438390 0.02448509 0.00056820 0.01048871 0.00273277 0.00498825 0.00169496 0.00721690
2 0.00864974 0.09800710 0.00462932 0.02769258 0.00252493 0.01214917 0.00194699 0.00775865 0.00187820 0.00558774 0.00094632 0.00537232
2 0.01109965 0.09507799 0.00230084 0.02541551 0.00227635 0.01010549 0.00369516 0.00499519 0.00380883 0.00389158 0.00182072 0.00254699
6 0.03175747 0.03708336 0.03840950 0.03270920 0.00604056 0.01152464 0.00595849 0.00707198 0.00397796 0.00645410 0.00258805 0.00399595
3 0.01902775 0.04982432 0.02970811 0.02079177 0.01829652 0.01164561 0.01192433 0.00385901 0.00425142 0.00301868 0.00098963 0.00205701
1 0.12973633 0.04328695 0.02918583 0.03410484 0.02764473 0.01815938 0.00761790 0.00986538 0.00426848 0.00642581 0.00179637 0.00326583
6 1.50953383 0.31501347 0.20556212 0.15593032 0.05190956 0.05867478 0.10443863 0.09376483 0.04276014 0.06782199 0.05992488 0.05106285
5 0.07324252 0.04506996 0.04969541 0.04194440 0.03576950 0.07857364 0.05552822 0.05078079 0.01369583 0.01393787 0.00604746 0.00796031
1 0.06320342 0.05686101 0.00997952 0.02143134 0.00661917 0.01419495 0.00576142 0.00758197 0.00622014 0.00426999 0.00162340 0.00321539
3 0.27581112 0.07417750 0.04036482 0.10199986 0.03738588 0.00979226 0.01037317 0.00926085 0.01316785 0.00736062 0.00936010 0.01005856
0 0.01215899 0.10882968 0.01145484 0.03405875 0.00060908 0.01690413 0.00217541 0.01066868 0.00099753 0.00595000 0.00086913 0.00459859
5 0.20690070 0.07245610 0.05332879 0.14679092 0.06673972 0.05475159 0.01229027 0.00739139 0.01203606 0.02131745 0.00908275 0.01092761
0 0.01631757 0.11645402 0.00894858 0.04039056 0.00544350 0.01996062 0.00258786 0.01142047 0.00134096 0.00712635 0.00048917 0.00405540
2 0.05042172 0.09229673 0.00788155 0.03228347 0.00238929 0.01818110 0.00295286 0.01231583 0.00086223 0.00549024 0.00219585 0.00392865
6 0.03988721 0.08047876 0.01296522 0.01621029 0.00890782 0.00889873 0.00453935 0.00829384 0.00377887 0.00689033 0.00081400 0.00442681
6 0.42640832 0.08035300 0.14390665 0.02868703 0.02884087 0.06750775 0.03661417 0.03180269 0.01609167 0.00608833 0.01337412 0.00688449
6 0.02002129 0.03973228 0.02393848 0.02428495 0.00877670 0.01266110 0.00482396 0.00894378 0.00552352 0.00671601 0.00476039 0.00217981
0 0.00380337 0.11356665 0.00374791 0.04268608 0.00084942 0.02074503 0.00143618 0.01332601 0.00049559 0.00882162 0.00097781 0.00656300
5 0.40516726 0.14260414 0.07997023 0.19091218 0.09353610 0.07593174 0.05788069 0.02243125 0.03754177 0.03996367 0.02558115 0.06216300
1 0.03964555 0.05163831 0.01127019 0.01629432 0.00403889 0.00923390 0.00491274 0.00821367 0.00290500 0.00434313 0.00313458 0.00413613
2 0.02234517 0.08576933 0.00663863 0.02737053 0.00421058 0.01481081 0.00271216 0.00942481 0.00160024 0.00691485 0.00286564 0.00633943
2 0.01909306 0.07409623 0.01182622 0.02053981 0.00735965 0.00973598 0.00447703 0.00729311 0.00462390 0.00178567 0.00401513 0.00113233
1 1.45703433 1.80164036 0.43539366 0.31489853 0.11668258 0.12137441 0.15143780 0.05545748 0.01751246 0.07269517 0.03466774 0.08488325
4 0.01383035 0.06679302 0.01370567 0.00534784 0.00463649 0.00880343 0.00286948 0.00297107 0.00297583 0.00159883 0.00035750 0.00185436
3 0.85758617 0.34053050 0.45951586 0.14634179 0.10333170 0.05609800 0.02578709 0.06545294 0.02870679 0.01038451 0.01019307 0.00661379
5 0.11414366 0.02256229 0.01039335 0.01055737 0.09410291 0.06486248 0.02026955 0.01868557 0.02425943 0.01796469 0.00568110 0.00366893
4 0.00422151 0.09253352 0.00688028 0.00683635 0.00286887 0.01010347 0.00280945 0.00718875 0.00041415 0.00257360 0.00166368 0.00112301
5 0.09227402 0.11508312 0.10197664 0.08671277 0.04886421 0.06142042 0.11435611 0.01157135 0.01671377 0.01315600 0.02760942 0.01600007
5 0.14867971 0.04415609 0.01694607 0.03461786 0.11870387 0.02071502 0.03548441 0.00980351 0.01303168 0.01186601 0.01475877 0.00660072
0 2.61726196 0.24065847 0.12171077 0.12366522 0.28274275 0.07255528 0.04238401 0.04655032 0.08677292 0.03684113 0.03332192 0.03805500
2 0.00744608 0.08113446 0.00768102 0.02015630 0.00678623 0.00930665 0.00542570 0.00675592 0.00199465 0.00337877 0.00224244 0.00462810
4 0.00347329 0.07130176 0.00563235 0.00579583 0.00489924 0.00965873 0.00238006 0.00257466 0.00093879 0.00163050 0.00147238 0.00140775
2 0.02008323 0.06408611 0.00493670 0.01813526 0.00253862 0.01046585 0.00342866 0.00694642 0.00236468 0.00446309 0.00149842 0.00374288
0 0.02589870 0.09020089 0.00620498 0.02679964 0.00590279 0.01262172 0.00351498 0.00754910 0.00314041 0.00581807 0.00244081 0.00362972
4 1.93313670 0.36776422 0.05545665 0.02852677 0.20103709 0.07499778 0.04021817 0.00728577 0.06612377 0.02087359 0.02906223 0.00609661
5 0.69304800 0.10002166 0.19150421 0.02212143 0.13360946 0.02826994 0.04198625 0.07212948 0.15754472 0.03327694 0.06834490 0.05383444
1 0.02566181 0.04561926 0.01574570 0.01320971 0.00312372 0.00737070 0.00162724 0.00800829 0.00233478 0.00405442 0.00166340 0.00570994
1 0.04209832 0.04017674 0.01284893 0.01927514 0.00088619 0.01110597 0.00296058 0.00587414 0.00451130 0.00517331 0.00340313 0.00504449
3 0.88973802 0.27764485 0.14527864 0.26122675 0.16223528 0.12274689 0.01632658 0.12632575 0.07293251 0.06183232 0.03512611 0.02940502
4 0.00967449 0.11675553 0.00557367 0.02993081 0.00178140 0.00976423 0.00153771 0.00277090 0.00190719 0.00120544 0.00110598 0.00085438
0 0.04369432 0.09739750 0.00306772 0.02871093 0.00565659 0.01233939 0.00395393 0.00775548 0.00298608 0.00602827 0.00128671 0.00377867
0 0.01418619 0.11717406 0.01331057 0.04031234 0.00422247 0.01960573 0.00152689 0.01180180 0.00077624 0.00671597 0.00029531 0.00550716
5 1.08869191 0.14534506 0.26998628 0.07760485 0.12086792 0.07995497 0.10034408 0.04375873 0.21398578 0.07665584 0.07946622 0.04087080
6 0.14709068 0.08554602 0.07848226 0.02260657 0.04767270 0.01057253 0.02916277 0.00485091 0.00949103 0.00926689 0.01192579 0.01209258
6 0.00564700 0.05645124 0.02212421 0.01725315 0.01077742 0.01333563 0.00326256 0.00903929 0.00157183 0.00736716 0.00278626 0.00410812
4 0.01146217 0.10251917 0.00191095 0.01981790 0.00489013 0.00281030 0.00295187 0.00214686 0.00120984 0.00242808 0.00106264 0.00270614
2 0.01557576 0.09888145 0.00526732 0.02893569 0.00457196 0.01608916 0.00119948 0.01021056 0.00057462 0.00701475 0.00038950 0.00413844
1 0.13993376 0.09822400 0.05013669 0.03235979 0.01891272 0.01754887 0.00902719 0.01013462 0.00760161 0.00599896 0.00781855 0.00478991
5 0.10940340 0.03199508 0.00772619 0.01545991 0.07867143 0.07914358 0.00059421 0.03723729 0.03075277 0.01525749 0.00494164 0.00628143
4 0.02033138 0.08799281 0.00242700 0.01769716 0.00545425 0.00297922 0.00378950 0.00066580 0.00112243 0.00019981 0.00178698 0.00080055
2 0.03354495 0.09979326 0.00603522 0.03623650 0.00059979 0.01976369 0.00263117 0.01330098 0.00045445 0.00733639 0.00199041 0.00539615
2 0.02915408 0.10214140 0.00436326 0.03792486 0.00470591 0.01816591 0.00119671 0.01014192 0.00191138 0.00762774 0.00160628 0.00470687
2 0.02508922 0.08179873 0.00706100 0.03264146 0.00292380 0.01935391 0.00180968 0.01148441 0.00126222 0.00719752 0.00185046 0.00449681
2 0.00772116 0.07339542 0.00731167 0.01732640 0.00320172 0.01018318 0.00142159 0.00686146 0.00176772 0.00465539 0.00073921 0.00406561
4 0.01994249 0.06021341 0.00741667 0.01360865 0.00330703 0.01153752 0.00280439 0.00230190 0.00190318 0.00192360 0.00259971 0.00136046
6 0.02798540 0.10128163 0.00448172 0.03524260 0.00393282 0.01652769 0.00191636 0.00809773 0.00210374 0.00526440 0.00106288 0.00326876
4 0.00690055 0.06899780 0.00830736 0.00533608 0.00339098 0.00965890 0.00245146 0.00374400 0.00070965 0.00117684 0.00089811 0.00183199
2 0.03277385 0.10357214 0.00763583 0.03570508 0.00308069 0.01709661 0.00119639 0.01052838 0.00222356 0.00688279 0.00129617 0.00516883
0 0.03438908 0.08504596 0.00625572 0.02615605 0.00293424 0.01479943 0.00688664 0.00773895 0.00435736 0.00549453 0.00292414 0.00358581
3 1.14747842 0.43399347 0.06432242 0.14003537 0.02507648 0.08017689 0.01364398 0.05407182 0.01234751 0.03048986 0.00964426 0.02009783
5 0.18978319 0.07072055 0.02486783 0.02206537 0.10442585 0.08287369 0.02972093 0.01270320 0.02374343 0.02319581 0.00987152 0.00698620
4 0.01191050 0.06182795 0.00933322 0.01652127 0.00346265 0.00984477 0.00101291 0.00259545 0.00194486 0.00227783 0.00229914 0.00046403
4 0.01555231 0.11306413 0.00568423 0.03030333 0.00301079 0.00999884 0.00194227 0.00371707 0.00240706 0.00022413 0.00202543 0.00042299
5 0.09540507 0.09768688 0.08969540 0.10186110 0.05602391 0.03671958 0.12273730 0.00687770 0.02594342 0.01664401 0.03428964 0.01874270
4 0.00327604 0.05436080 0.00629701 0.01112136 0.00448018 0.00393887 0.00240624 0.00104447 0.00117742 0.00280497 0.00100166 0.00230455
3 1.21457619 0.40100223 0.05635427 0.06241074 0.05720050 0.00987451 0.09888601 0.03456385 0.04118243 0.03403791 0.01799311 0.00464764
4 0.01327815 0.07593777 0.00041567 0.01191171 0.00612102 0.00452721 0.00427694 0.00288799 0.00247142 0.00079677 0.00051845 0.00103963
3 0.01248335 0.07788640 0.02103475 0.00861309 0.00694983 0.00718779 0.01195173 0.00660418 0.00016804 0.00140446 0.00535665 0.00484838
4 0.00561169 0.04978088 0.00252925 0.01496359 0.00334656 0.00672734 0.00218407 0.00216991 0.00283710 0.00268480 0.00126127 0.00167512
5 0.13696985 0.05546312 0.02237354 0.08069125 0.09999647 0.03027977 0.03055296 0.01182388 0.00258340 0.00320767 0.03374213 0.01267103
6 1.07231232 0.18616288 0.06836009 0.05649114 0.09604003 0.04717119 0.03766249 0.04217510 0.01541421 0.01952984 0.03781373 0.00911939
0 1.83981416 0.17971764 0.05961021 0.16032166 0.15032882 0.06094143 0.05350383 0.06426627 0.02353407 0.01983673 0.04450936 0.02483079
4 0.01100477 0.06771618 0.00533627 0.00499865 0.00800601 0.00774736 0.00295408 0.00281347 0.00156433 0.00147584 0.00175297 0.00223460
5 0.02838705 0.09426312 0.14070259 0.06042090 0.15190973 0.04831592 0.01542348 0.02328406 0.01165663 0.01668581 0.02304873 0.01746280
5 0.21917114 0.12168920 0.08936109 0.16488966 0.04044383 0.04318633 0.02827938 0.01430034 0.01499662 0.02185708 0.02074198 0.01840045
5 0.18009896 0.08835645 0.04604370 0.08144410 0.11924368 0.01813869 0.01170854 0.00743949 0.01662880 0.00419455 0.02157366 0.00841756
0 0.01451281 0.12213444 0.01006219 0.04218866 0.00390842 0.02131092 0.00099457 0.01015927 0.00094146 0.00692216 0.00107394 0.00551639
0 0.05563687 0.08589403 0.00955652 0.02494785 0.01228521 0.01013962 0.00754513 0.00615145 0.00474652 0.00226512 0.00477223 0.00165209
1 0.05106062 0.04905483 0.00416894 0.02601310 0.00426711 0.01391577 0.00533666 0.00790211 0.00378085 0.00586852 0.00242053 0.00438591
1 1.58855167 0.30054625 0.08571762 0.03131890 0.15414703 0.01857505 0.04390075 0.03347841 0.05932253 0.00235208 0.01199159 0.01208915
6 0.04029445 0.06017714 0.02178712 0.01907935 0.01264911 0.01123632 0.00276888 0.00697609 0.00174981 0.00516084 0.00260933 0.00441563
6 0.12835154 0.11870922 0.04185484 0.03689477 0.02174328 0.01073839 0.01882483 0.01023585 0.01532144 0.00842265 0.00825433 0.01080918
1 0.00008745 0.11907646 0.00029591 0.04544069 0.00008313 0.02446721 0.00004482 0.01531829 0.00006375 0.01055922 0.00005004 0.00768115
4 0.01101541 0.04977915 0.00539625 0.00674969 0.00280275 0.00784330 0.00331423 0.00233167 0.00068214 0.00152336 0.00042076 0.00123112
6 0.14729199 0.10765267 0.06000905 0.04073866 0.03075409 0.02018062 0.01412313 0.00436919 0.00740114 0.00429058 0.00950456 0.00533274
6 0.89364024 0.27247407 0.15910607 0.19478544 0.03752860 0.12010125 0.02298104 0.03135094 0.03346121 0.01355352 0.02146441 0.01999358
2 0.01210631 0.06644062 0.01158339 0.02131476 0.00653072 0.00905836 0.00618896 0.00586705 0.00538377 0.00084974 0.00312952 0.00155156
5 0.23047262 0.11652656 0.04765829 0.08730948 0.14365575 0.01504635 0.04007662 0.03243939 0.00901518 0.01186031 0.01293772 0.01267787
2 0.00030792 0.10019760 0.00370584 0.02937043 0.00088052 0.01178804 0.00192009 0.00750365 0.00212633 0.00483125 0.00092876 0.00505426
5 0.14480249 0.05844078 0.05834346 0.03897639 0.08708210 0.12340793 0.01057501 0.03670186 0.02770604 0.01822932 0.01309633 0.00965820
2 0.02358740 0.09321177 0.01516529 0.03681793 0.00949971 0.01771397 0.00618119 0.00848945 0.00293958 0.00626687 0.00115114 0.00466629
1 0.11061207 0.11483700 0.03986884 0.03919375 0.02119143 0.01846556 0.01566283 0.01166252 0.00978959 0.00779692 0.00656818 0.00443145
3 1.41201055 0.61420739 0.11212289 0.18608172 0.03618527 0.09503466 0.06849410 0.06599299 0.03401185 0.02843579 0.03501909 0.03207086
3 0.03078628 0.04952377 0.02287473 0.00612175 0.01205120 0.00598267 0.00565338 0.00367906 0.00522480 0.00273918 0.00494231 0.00167809
0 0.00777739 0.10100600 0.00735971 0.03186192 0.00309127 0.01714673 0.00197702 0.01125710 0.00183482 0.00631251 0.00070986 0.00425438
2 0.03202423 0.10757892 0.00991049 0.03669411 0.00858948 0.01496185 0.00495044 0.01096223 0.00334252 0.00762127 0.00081024 0.00577155
0 1.83720724 0.18256774 0.05545303 0.16390686 0.14586314 0.06257630 0.05613621 0.06224128 0.02046202 0.01813763 0.04600930 0.02111282
2 0.00924173 0.07365004 0.00250399 0.01560672 0.00060375 0.00902408 0.00220564 0.00726937 0.00159921 0.00500680 0.00116981 0.00484239
4 0.00718319 0.09294362 0.01208437 0.00416444 0.00635440 0.00967474 0.00174866 0.00538003 0.00068786 0.00178372 0.00060162 0.00070234
3 0.94628231 0.62494842 0.10041617 0.21795634 0.06964917 0.08680546 0.01137251 0.05615959 0.00816010 0.02568597 0.01318949 0.02040216
1 0.13444373 0.10660714 0.05648436 0.02776462 0.03096409 0.00839258 0.01840313 0.00521705 0.01224579 0.00233397 0.00844340 0.00118184
0 0.01129281 0.11672804 0.00532775 0.04065547 0.00660941 0.01873000 0.00341657 0.01068358 0.00183117 0.00655053 0.00156837 0.00467120
6 1.97403602 0.06313563 0.20552398 0.09002934 0.09599831 0.08547719 0.11639176 0.06309252 0.06031550 0.08253141 0.07425182 0.04421066
6 0.12183407 0.11527109 0.04812315 0.03478259 0.03745309 0.02120293 0.02274220 0.01218983 0.01104288 0.00324698 0.01113355 0.00227315
2 0.01331496 0.09438943 0.00640844 0.02927208 0.00601759 0.01451120 0.00259331 0.01037989 0.00309376 0.00823921 0.00225051 0.00593208
6 2.52481665 0.39925204 0.06745087 0.02586735 0.27578891 0.06742581 0.02454555 0.00436927 0.09837243 0.03590183 0.02138681 0.00778063
2 0.02459422 0.10307436 0.01053556 0.03135259 0.00191699 0.01490041 0.00086039 0.00993916 0.00021227 0.00687554 0.00085949 0.00520251
2 0.02222680 0.08151945 0.01387219 0.02556566 0.00338058 0.00814323 0.00297292 0.00805981 0.00568740 0.00431608 0.00183465 0.00291632
1 0.10661714 0.10866861 0.04045378 0.03737875 0.02507713 0.01513499 0.01401614 0.00953830 0.01255079 0.00380116 0.01308989 0.00832128
5 0.21025947 0.10788974 0.04166999 0.17574535 0.01812522 0.04663183 0.01086837 0.01908648 0.01864871 0.02110766 0.02060272 0.00839105
1 2.12374216 0.33370114 0.03424580 0.02442727 0.22292789 0.05300540 0.02277901 0.01234259 0.08484756 0.01422370 0.01486537 0.00637625
2 0.02210012 0.08428752 0.00133634 0.02583737 0.00585784 0.00729314 0.00487710 0.00742013 0.00204805 0.00251188 0.00287535 0.00194205
3 0.52452435 0.03869429 0.13809069 0.01635339 0.05313732 0.01430909 0.04109301 0.01210767 0.01048126 0.00889499 0.01542520 0.00671050
2 0.01768390 0.08585348 0.00990547 0.02621280 0.00654237 0.00561995 0.00441374 0.00579517 0.00308555 0.00464097 0.00144086 0.00482823
3 0.04816890 0.07146539 0.04448820 0.02313097 0.01747926 0.00953197 0.00365500 0.00468505 0.00304877 0.00601916 0.00068714 0.00147596
2 0.03224579 0.09175124 0.00817792 0.03662397 0.00598445 0.01575433 0.00510241 0.00863345 0.00149880 0.00597143 0.00179990 0.00455375
4 0.10809296 0.10784420 0.03933542 0.03389157 0.02111700 0.01631129 0.01248381 0.01471085 0.00848175 0.00712847 0.00785072 0.00422459
5 0.86512870 0.08820368 0.19861019 0.10014965 0.09162124 0.11153318 0.08411114 0.05467202 0.13791340 0.04852700 0.08344790 0.01290543
5 0.14731109 0.28695311 0.11694020 0.04499523 0.01928652 0.01666181 0.02723140 0.07910754 0.02186221 0.03465602 0.02833649 0.00938320
3 0.27980252 0.25062666 0.07576599 0.03579990 0.04357945 0.04412540 0.03688128 0.02703171 0.02618587 0.00676132 0.01170387 0.00801542
3 0.04021870 0.06671614 0.02250056 0.01060831 0.01214996 0.00771486 0.00497254 0.00132060 0.00444008 0.00115291 0.00177718 0.00285858
4 0.01391156 0.10650204 0.00282033 0.02572197 0.00105881 0.00584188 0.00240164 0.00081213 0.00103061 0.00113677 0.00219159 0.00145520
0 0.00707668 0.11748819 0.00384162 0.04024344 0.00581540 0.01724724 0.00720357 0.00692013 0.00657705 0.00262855 0.00734920 0.00063502
0 0.02070487 0.10184672 0.00840513 0.02659954 0.00158328 0.01820210 0.00274159 0.00994165 0.00404911 0.00432130 0.00275949 0.00293556
5 0.18138891 0.06174376 0.02378498 0.08871223 0.11165364 0.00882652 0.04268481 0.00892492 0.01411074 0.02365352 0.03206822 0.01839871
0 2.26075672 0.00776723 0.03822864 0.10083336 0.23780793 0.03973018 0.01488865 0.04149541 0.08796335 0.02765439 0.00450659 0.03281311
3 0.93823769 0.69124056 0.04751049 0.18856459 0.08047409 0.04195092 0.01324604 0.05312277 0.00998761 0.03887197 0.00285239 0.00402258
0 2.05894896 0.07135092 0.03183526 0.08903661 0.23321096 0.02457544 0.01913908 0.06636844 0.06121675 0.02504485 0.01067301 0.04398597
4 0.00871377 0.06792209 0.00800700 0.00668840 0.00381717 0.00939864 0.00222424 0.00375652 0.00043891 0.00109077 0.00084991 0.00153426
6 0.02440811 0.07750102 0.00829755 0.01973060 0.00692993 0.00805417 0.00290594 0.00486109 0.00108931 0.00324723 0.00117282 0.00252667
2 0.02259514 0.09350896 0.01039597 0.02399752 0.00698700 0.01214099 0.00590243 0.00979560 0.00398022 0.00411739 0.00144496 0.00465081
5 0.12480462 0.08052708 0.06356141 0.03119864 0.05054755 0.04975414 0.07190607 0.02755657 0.02781048 0.02694113 0.01967211 0.00617978
0 0.01405358 0.11012718 0.00683259 0.03369820 0.00386758 0.01669749 0.00183730 0.00842549 0.00265316 0.00488182 0.00179907 0.00346660
5 1.02516059 0.47496680 0.29184278 0.13615501 0.08685504 0.10493823 0.02029043 0.16933181 0.00723524 0.06508921 0.04794455 0.07032063
2 0.02760463 0.11071119 0.00395339 0.03581232 0.00135629 0.01688186 0.00121964 0.00972759 0.00146203 0.00770704 0.00038908 0.00485981
6 2.43577619 0.32753538 0.05211029 0.02271191 0.25097215 0.04503816 0.04320855 0.01040594 0.09630110 0.01435133 0.03189894 0.01338057
5 0.13204486 0.05469662 0.03637267 0.02766492 0.06204346 0.09090672 0.00536007 0.03812569 0.02990116 0.01414594 0.00698732 0.00735195
4 0.00442301 0.05351158 0.01054348 0.01343227 0.00562546 0.00582993 0.00205909 0.00169240 0.00230380 0.00072506 0.00176431 0.00073754
4 0.01046632 0.11246891 0.00883472 0.02583480 0.00418882 0.00472331 0.00125957 0.00244715 0.00061549 0.00040063 0.00118333 0.00022495
3 1.35602760 0.49748009 0.29926115 0.38828501 0.03000213 0.16076132 0.10396550 0.06683319 0.05458037 0.09309698 0.05393882 0.05185750
5 0.16785509 0.07559140 0.01844602 0.01671540 0.12284342 0.06695606 0.03532382 0.00883202 0.00060138 0.01441169 0.01003670 0.01709779
5 0.66353665 0.12276349 0.20036528 0.01929773 0.12014988 0.03319729 0.01161921 0.07660453 0.14528149 0.01685196 0.07466123 0.04776033
2 0.02919698 0.09637072 0.00739391 0.03448460 0.00285446 0.01910639 0.00269724 0.01185803 0.00052737 0.00809378 0.00153243 0.00524575
3 1.14028745 0.49114527 0.06007427 0.07686676 0.12838082 0.02240349 0.07691620 0.03251900 0.06176545 0.01651194 0.05181553 0.01249451
4 0.01614844 0.05180941 0.00545839 0.00721612 0.00201375 0.00660313 0.00294627 0.00245897 0.00119051 0.00132847 0.00185431 0.00184772
5 0.13443070 0.04124041 0.01177247 0.04822654 0.09788387 0.04160471 0.03861814 0.01429881 0.02657341 0.02633055 0.02782517 0.01469768
5 0.14634536 0.05855671 0.02529321 0.06563778 0.10345859 0.01106419 0.04806291 0.00623997 0.01807988 0.01821340 0.03515072 0.00643604
0 0.02324466 0.09863969 0.00160287 0.03030372 0.00584718 0.01315225 0.00246299 0.00740989 0.00038675 0.00654058 0.00133350 0.00478579
0 0.00998222 0.11387656 0.01168733 0.03778632 0.00322887 0.01915623 0.00108081 0.01190384 0.00089082 0.00681302 0.00110676 0.00433781
4 0.01163744 0.10222003 0.00278415 0.02427075 0.00056765 0.00515837 0.00216600 0.00154195 0.00218197 0.00290425 0.00167942 0.00236937
4 0.01562961 0.07340542 0.01132050 0.00953005 0.00734245 0.01114564 0.00007221 0.00470924 0.00259302 0.00143283 0.00099138 0.00171803
1 0.09839176 0.11463822 0.03684490 0.04402287 0.01664395 0.02098619 0.01229658 0.01346797 0.01014236 0.00882183 0.00534502 0.00574616
6 0.33615289 0.06149366 0.11570839 0.02549638 0.03000751 0.03766520 0.04410489 0.02225327 0.01690792 0.01902781 0.02373404 0.01017991
2 0.03028343 0.08669124 0.00464911 0.03264718 0.00683888 0.01759658 0.00177485 0.01055839 0.00336727 0.00654972 0.00043158 0.00606042
5 0.21326723 0.08454269 0.00374940 0.04498483 0.12556332 0.03674557 0.05023705 0.01717410 0.01131457 0.00933106 0.01797082 0.00610141
0 0.01122676 0.10187558 0.00553115 0.03545738 0.00271505 0.01808147 0.00158104 0.01142993 0.00259489 0.00693176 0.00106565 0.00500870
3 0.02394748 0.02964709 0.01786351 0.01180615 0.01970617 0.00766329 0.00948436 0.00103299 0.00527666 0.00367476 0.00268420 0.00224904
6 0.37112163 0.13762071 0.09451026 0.16413181 0.02469801 0.02185598 0.04345545 0.02845703 0.02281749 0.03284373 0.00858627 0.00735913
4 2.21075416 0.45753173 0.04265434 0.02049604 0.24674722 0.10233695 0.03384548 0.00550425 0.07909415 0.02442766 0.02394968 0.00656431
5 0.80213510 0.17824928 0.24767675 0.07495323 0.07096417 0.05033172 0.06449385 0.03690431 0.14861465 0.13895314 0.04088014 0.01178331
5 0.21311315 0.08102558 0.03073817 0.08879476 0.11800227 0.03468968 0.04108483 0.02227420 0.01067336 0.02098006 0.03671626 0.00430657
4 0.00181005 0.11818795 0.00079144 0.04480018 0.00124266 0.02293102 0.00179588 0.01328101 0.00216712 0.00835479 0.00205870 0.00638963
6 0.02579634 0.09850765 0.00269887 0.03635995 0.00278876 0.01757245 0.00116820 0.00836587 0.00033346 0.00503030 0.00093776 0.00274192
6 0.01218878 0.05599837 0.01701040 0.02509814 0.00758511 0.01632448 0.00307981 0.00831176 0.00299527 0.00583652 0.00204379 0.00313084
3 0.05359757 0.06574972 0.02878407 0.01444673 0.01104987 0.00499615 0.00566782 0.00172563 0.00346309 0.00237066 0.00298733 0.00088406
3 0.27571048 0.05727130 0.04460262 0.06233066 0.03067659 0.00713076 0.00754004 0.00722366 0.00551931 0.01083535 0.00389814 0.00752641
2 0.01761395 0.08787054 0.00744613 0.02526006 0.00449660 0.01593346 0.00602177 0.00918498 0.00440501 0.00513622 0.00343517 0.00341982
0 1.88759666 0.15256340 0.03140739 0.13122095 0.17771337 0.05679969 0.03882297 0.06808412 0.03479326 0.02474458 0.03460012 0.03249765
0 2.12411350 0.03501257 0.03971412 0.10435760 0.21062253 0.03710887 0.02655725 0.03838020 0.07304614 0.01859976 0.01000832 0.02914231
0 0.01540023 0.10174636 0.00445815 0.03302316 0.00291382 0.01653807 0.00159495 0.01072925 0.00071303 0.00766555 0.00056696 0.00568808
1 0.11124499 0.11208443 0.04225035 0.04102523 0.01904477 0.02139770 0.01114024 0.01328981 0.00611658 0.00885120 0.00548162 0.00685938
2 0.01404039 0.09498555 0.00160124 0.02086171 0.00246067 0.00998608 0.00473259 0.00386086 0.00237817 0.00194069 0.00211069 0.00327853
2 0.02834964 0.09823022 0.00437847 0.02121228 0.00403385 0.01010296 0.00272536 0.00563893 0.00315996 0.00535705 0.00051383 0.00454025
0 3.81267030 0.28623307 0.06170536 0.05903518 0.42920900 0.08088022 0.04066844 0.04286725 0.15777027 0.03909157 0.02393331 0.02897414
6 1.93127052 0.37230060 0.13866448 0.17534747 0.16665279 0.12302129 0.01152681 0.05593445 0.03959853 0.05303437 0.04145066 0.03027477
2 0.03064952 0.09654169 0.00505295 0.03448335 0.00370161 0.01559502 0.00136613 0.00751686 0.00109036 0.00415379 0.00126308 0.00411595
4 0.01456178 0.11340058 0.00402364 0.02774205 0.00230567 0.00755786 0.00154960 0.00229099 0.00101935 0.00019137 0.00210775 0.00098806
6 0.39625114 0.11451274 0.13038488 0.01657475 0.03041102 0.01940504 0.02483089 0.01676472 0.01874568 0.00520759 0.01026862 0.00887767
4 0.01104774 0.10976105 0.00469975 0.02652047 0.00488534 0.00825793 0.00313793 0.00152176 0.00255255 0.00133842 0.00070382 0.00234050
0 0.01236392 0.11900078 0.00986346 0.03813985 0.00537139 0.01742875 0.00477843 0.01019448 0.00362816 0.00720982 0.00190664 0.00385942
4 0.01215909 0.07866371 0.00605155 0.01041401 0.00345281 0.01045723 0.00201837 0.00529374 0.00149036 0.00045728 0.00222167 0.00197377
6 0.02940425 0.06551279 0.01831095 0.01440833 0.01047646 0.00894670 0.00382612 0.00731766 0.00287270 0.00431824 0.00213881 0.00400959
0 0.01421501 0.10313667 0.00275354 0.03397638 0.00072709 0.01552483 0.00169518 0.00954038 0.00214898 0.00548367 0.00155921 0.00511775
0 0.00587542 0.10946425 0.00978452 0.04037246 0.00555123 0.01900698 0.00410138 0.01310560 0.00098956 0.00922003 0.00173540 0.00771374
1 1.85860709 0.19036848 0.10773168 0.01974424 0.19791959 0.02562110 0.04147238 0.01246736 0.07528244 0.02163794 0.02217970 0.02027295
2 0.01535061 0.09915835 0.00984038 0.03744711 0.00730580 0.01910482 0.00313454 0.01142960 0.00117901 0.00794428 0.00172065 0.00613212
2 0.04047542 0.09593232 0.01367592 0.03227432 0.00691330 0.01613306 0.00210886 0.01126465 0.00042363 0.00752185 0.00189461 0.00424193
6 1.38565389 0.62519467 0.07402641 0.15479020 0.04851531 0.14643328 0.03398951 0.09057435 0.03631659 0.02620537 0.00743380 0.05273902
1 1.38024351 0.26524376 0.09237184 0.12434327 0.10976829 0.08081102 0.03106336 0.04336935 0.01877743 0.04295666 0.01853652 0.02028264
5 0.32145271 0.26229968 0.11349408 0.06470709 0.06421572 0.14731532 0.10380225 0.07100468 0.02581222 0.00844576 0.01596194 0.04351080
2 0.02311263 0.09296435 0.00958077 0.03483898 0.00504278 0.01547218 0.00392281 0.00681299 0.00538500 0.00467215 0.00233080 0.00453267
1 0.02634469 0.04914830 0.02175828 0.01931470 0.00045188 0.01117121 0.00130524 0.00722072 0.00258601 0.00424173 0.00091749 0.00527203
1 0.03812494 0.04760654 0.01178425 0.01450905 0.00359968 0.01035539 0.00475528 0.00644372 0.00204265 0.00515437 0.00387415 0.00263088
4 0.00155414 0.06560908 0.00818141 0.00830744 0.00669500 0.00884431 0.00506265 0.00317794 0.00185879 0.00090022 0.00147056 0.00206393
3 1.38362794 0.60334584 0.10893452 0.07641518 0.06275132 0.12465294 0.08604126 0.07877951 0.01078939 0.04660836 0.03469116 0.00744271
5 0.75362101 0.18177969 0.05267081 0.11316032 0.15188735 0.12060362 0.12214360 0.01923521 0.06081584 0.09457959 0.05023153 0.04621306
0 0.00765723 0.12256519 0.00219611 0.04482897 0.00197595 0.02329012 0.00055338 0.01382697 0.00086526 0.00842138 0.00086775 0.00598820
6 0.02099566 0.06383308 0.01473140 0.01985855 0.01089621 0.01271264 0.00742667 0.00938330 0.00164911 0.00651533 0.00046734 0.00482103
4 0.01023743 0.07093924 0.00608723 0.01472560 0.00249092 0.00458673 0.00279238 0.00231506 0.00098047 0.00179757 0.00045517 0.00117640
3 1.30932428 0.48106598 0.04468724 0.01431873 0.07223388 0.04190163 0.07301368 0.03051110 0.03470785 0.02242489 0.02664664 0.02955830
3 0.29472887 0.26389370 0.05832208 0.07333129 0.03831842 0.03128974 0.02203265 0.02824249 0.01654698 0.01159454 0.00239337 0.01040501
6 2.12594509 0.35058239 0.08620697 0.04592032 0.22166985 0.03279916 0.05375696 0.01481509 0.07520671 0.00067676 0.03543594 0.02163292
2 2.03539694 0.44089000 0.06283046 0.09522293 0.17733553 0.12498642 0.05538471 0.04837336 0.07082342 0.03919949 0.04631368 0.02992924
5 0.20214378 0.08623100 0.04149312 0.08230927 0.12472185 0.03430266 0.04882549 0.02387209 0.01125207 0.02347165 0.02910143 0.02066200
1 0.03893962 0.04588440 0.01257665 0.01853202 0.00793956 0.00795731 0.00169704 0.00798707 0.00317378 0.00349763 0.00321473 0.00588697
3 1.05974347 0.43099092 0.08874467 0.19263086 0.11577392 0.08420837 0.03358958 0.07005171 0.03610859 0.02975789 0.01244913 0.00602352
5 0.17020349 0.07000395 0.00857617 0.07322907 0.13203719 0.01720520 0.04094815 0.00338981 0.00482444 0.01795691 0.03872496 0.01049758
3 0.06127945 0.05709353 0.03338342 0.00881554 0.01320397 0.00668579 0.00967360 0.00127941 0.00492478 0.00018280 0.00340966 0.00113642
3 0.03366257 0.04278862 0.01493731 0.00837378 0.01544948 0.00528747 0.00728703 0.00595441 0.00268380 0.00298564 0.00158268 0.00250388
3 0.03421175 0.04295323 0.03578003 0.01348211 0.01466005 0.00546799 0.00762769 0.00164124 0.00677153 0.00254839 0.00424003 0.00244411
3 0.06168169 0.06983542 0.03100706 0.01979377 0.00794073 0.00087257 0.00196759 0.00670240 0.00332378 0.00512050 0.00035050 0.00103041
6 1.78070358 0.38966152 0.05381077 0.15831179 0.15944927 0.10609196 0.00573471 0.03791750 0.04864582 0.04783162 0.02143356 0.02873939
6 0.03816360 0.08043071 0.00638437 0.03309161 0.00853619 0.01588696 0.00196234 0.00905789 0.00178198 0.00562987 0.00030258 0.00492986
1 0.25886650 0.09740004 0.07619882 0.02335696 0.02904134 0.01924373 0.01951701 0.00993446 0.01414158 0.00646432 0.01082452 0.00420996
0 2.03954244 0.12778392 0.03888291 0.14214809 0.18957182 0.05208363 0.02245057 0.06277565 0.05174865 0.02952840 0.01870012 0.04060486
6 0.26497573 0.05332964 0.08660869 0.06352446 0.02823298 0.05093983 0.00640574 0.03160833 0.01160228 0.01634281 0.01296838 0.01002165
1 0.00017199 0.11907692 0.00016831 0.04542739 0.00016215 0.02431391 0.00015330 0.01528542 0.00014021 0.01052680 0.00010040 0.00784957
4 0.01095381 0.07162837 0.01687064 0.01519052 0.00751647 0.01186264 0.00309852 0.00260653 0.00100542 0.00168728 0.00129939 0.00055395
1 0.03047884 0.06863142 0.01834655 0.01181844 0.00258703 0.00586294 0.00184622 0.00376690 0.00363999 0.00223158 0.00341267 0.00206964
1 0.22328029 0.02815623 0.12761744 0.02664067 0.06442267 0.00420540 0.01591319 0.01398578 0.00256359 0.01577316 0.00573656 0.01014770
0 3.14406098 0.09253062 0.03037399 0.11434465 0.35010558 0.03195546 0.01796003 0.05189362 0.12475184 0.01612460 0.01168642 0.03897043
0 0.00932177 0.11238720 0.01070188 0.03570122 0.00172214 0.01607513 0.00064022 0.00955517 0.00060928 0.00693930 0.00212434 0.00506010
2 0.00391995 0.10633861 0.00100250 0.02937401 0.00321004 0.01235541 0.00264645 0.00738207 0.00248343 0.00363178 0.00032496 0.00407554
0 2.52838807 0.09275870 0.01732312 0.09193108 0.26067450 0.03245755 0.01240035 0.04463719 0.09060967 0.01130856 0.01176756 0.03025822
5 0.85789994 0.02735186 0.18722150 0.02745732 0.13952477 0.02360321 0.04893359 0.10012897 0.17260613 0.05874144 0.05480244 0.06695467
4 0.01426601 0.11296276 0.00072297 0.02653912 0.00108607 0.00457568 0.00184707 0.00045025 0.00188140 0.00172930 0.00122965 0.00177323
4 1.92479483 0.32089784 0.05701450 0.04339567 0.21116780 0.05272826 0.03482405 0.01583182 0.06953297 0.00965185 0.02463569 0.00568508
2 2.31181442 0.26330660 0.03815862 0.01231180 0.26003836 0.06343561 0.02817879 0.00914812 0.08913785 0.01521441 0.01827857 0.00365986
1 0.18384062 0.08490912 0.05409763 0.02531831 0.03082611 0.00392968 0.01542717 0.00162329 0.01516861 0.00412943 0.01028185 0.00557835
2 0.01968300 0.10781993 0.00995534 0.03789290 0.00626077 0.01949765 0.00411704 0.01244462 0.00171453 0.00860017 0.00078869 0.00568979
0 3.08224325 0.02335203 0.02216003 0.17733879 0.32894583 0.03230096 0.00330190 0.07466237 0.11339153 0.02859949 0.00783165 0.03936274
0 0.03060865 0.09775147 0.01554309 0.02849577 0.00533582 0.01251141 0.00482069 0.00659987 0.00520232 0.00533233 0.00405388 0.00043404
4 1.19107874 0.55384590 0.07359421 0.13479858 0.05655439 0.09044553 0.02288276 0.07156678 0.00905754 0.04750078 0.01366829 0.02200849
6 1.67715959 0.20667683 0.10339010 0.07539417 0.17715265 0.04467100 0.04791921 0.03442624 0.05426325 0.00748721 0.03233406 0.02171129
3 0.01533084 0.04552417 0.02428979 0.00348301 0.01114612 0.00637824 0.00722274 0.00187184 0.00364544 0.00335429 0.00341599 0.00513101
2 0.00588726 0.06629226 0.01048619 0.02734115 0.00746275 0.01247935 0.00721421 0.00706413 0.00398219 0.00413188 0.00348965 0.00247097
1 0.04957586 0.06815639 0.01328784 0.02310537 0.00274882 0.01337750 0.00381554 0.00789080 0.00366472 0.00407402 0.00352153 0.00312263
3 0.03604375 0.05631310 0.02710223 0.01041514 0.01517636 0.00790817 0.00530905 0.00147641 0.00497473 0.00084037 0.00412394 0.00237191
3 0.03665908 0.05309943 0.02504039 0.01159393 0.00479081 0.00434047 0.00414720 0.00348950 0.00319133 0.00358575 0.00250931 0.00158781
6 0.28654023 0.01902655 0.09109393 0.03090145 0.04155182 0.01258369 0.01491280 0.01941175 0.00374225 0.01487177 0.00885151 0.01087350
2 0.02687998 0.09099328 0.00485536 0.02518717 0.00191394 0.00897760 0.00396555 0.00349839 0.00231455 0.00313589 0.00387939 0.00129186
6 0.03872917 0.05267339 0.02874486 0.02502125 0.00548245 0.01361743 0.00712754 0.00751488 0.00374263 0.00676615 0.00406415 0.00308033
2 0.00218056 0.08558225 0.00161995 0.02041436 0.00087673 0.00980741 0.00158377 0.00808641 0.00250334 0.00462294 0.00211691 0.00228207
5 0.06348481 0.04878845 0.06522192 0.09041334 0.06269572 0.07776257 0.08505971 0.03158718 0.02187810 0.00520607 0.01557047 0.01158296
1 2.62989956 0.60583716 0.10024973 0.07078046 0.15974211 0.24758533 0.07578976 0.08120541 0.04588805 0.13815641 0.03838755 0.05201353
3 0.00530004 0.04851367 0.01965266 0.00998334 0.01016984 0.00599574 0.00529249 0.00254449 0.00142289 0.00388851 0.00144816 0.00255833
1 0.08171768 0.11611393 0.03111375 0.04512062 0.01389655 0.02166863 0.01156316 0.01425424 0.00647693 0.00897546 0.00394055 0.00652231
1 1.95799737 0.27419471 0.05765750 0.03239805 0.19229774 0.03303054 0.04203695 0.01669659 0.05830637 0.01027555 0.02897860 0.00987822
1 0.55673218 0.71125609 0.48215916 0.10194855 0.07459028 0.08813817 0.03906981 0.03471049 0.02624014 0.02839443 0.03765271 0.03552696
4 0.00356334 0.06734851 0.01196867 0.00552620 0.00567510 0.00917850 0.00096171 0.00324128 0.00100577 0.00108811 0.00036903 0.00160115
3 0.73516028 0.17987632 0.11882380 0.09990353 0.05481751 0.01934037 0.02566539 0.01101895 0.01919259 0.01996398 0.01157128 0.01231902
4 0.02108494 0.09197081 0.00214376 0.01630591 0.00090459 0.00392958 0.00053830 0.00134860 0.00115173 0.00047795 0.00067533 0.00135618
3 0.03565982 0.04804051 0.03956550 0.03000936 0.02021102 0.00556222 0.00426120 0.00287851 0.00189399 0.00204794 0.00314899 0.00182176
3 1.07230775 0.45724617 0.05537488 0.15493977 0.09793191 0.04457481 0.03742574 0.02947188 0.04490165 0.03811467 0.02913713 0.01909708
3 0.03397816 0.01314734 0.03673615 0.02684309 0.02057974 0.01395561 0.01119718 0.00382923 0.00355565 0.00110702 0.00181641 0.00191475
6 0.01645777 0.04918943 0.01952477 0.02700467 0.00508023 0.01141643 0.00578849 0.00995416 0.00163831 0.00684546 0.00097336 0.00501768
1 0.08237325 0.11678243 0.02835894 0.04399129 0.01122961 0.02362514 0.00750313 0.01432378 0.00704610 0.00850732 0.00452814 0.00712573
3 0.26839912 0.12609954 0.05133488 0.05897459 0.05308220 0.01692025 0.04270863 0.01939721 0.00994095 0.00628318 0.01447570 0.00282029
0 0.01553110 0.12643890 0.01095572 0.03831743 0.00436978 0.01844706 0.00192506 0.01145922 0.00183349 0.00666849 0.00088306 0.00489347
5 0.20690312 0.08813228 0.06570021 0.07051289 0.12549405 0.03832399 0.05239540 0.02834960 0.01787560 0.01769891 0.01483897 0.02190573
1 2.12927339 0.38048367 0.04632516 0.04875805 0.21420358 0.08488351 0.01983216 0.02040851 0.07092700 0.03793791 0.01739113 0.00866354
2 0.01766695 0.07966156 0.00255263 0.01979844 0.00125506 0.01066596 0.00086433 0.00813412 0.00094550 0.00528133 0.00150875 0.00210942
6 0.15960553 0.06355434 0.09923305 0.03935040 0.05378209 0.01554336 0.02492326 0.01203081 0.00292005 0.01288337 0.00172991 0.00990403
0 2.60358634 0.03698948 0.01295006 0.10564046 0.28646932 0.03131972 0.00620877 0.05724706 0.09721469 0.02475891 0.00356226 0.04020270
3 0.03007069 0.04166846 0.02085205 0.01440553 0.01595779 0.00419380 0.01033783 0.00634249 0.00616810 0.00341591 0.00222878 0.00360279
4 0.03078423 0.09770636 0.00746147 0.02504704 0.00501965 0.00465132 0.00361976 0.00084968 0.00275588 0.00156760 0.00186029 0.00178643
0 0.00907157 0.11452412 0.00403232 0.03931254 0.00448562 0.01730526 0.00158740 0.01001058 0.00146825 0.00693180 0.00160602 0.00513501
2 0.01411891 0.10417993 0.00074825 0.03582373 0.00360296 0.02124378 0.00300347 0.01203747 0.00191468 0.00684645 0.00123369 0.00595455
3 0.41802408 0.14056737 0.08065669 0.32521043 0.12870360 0.11910585 0.06808875 0.04012045 0.05165828 0.03065680 0.03343813 0.01691241
4 0.01492413 0.07100314 0.00386481 0.01304832 0.00422933 0.00259827 0.00188881 0.00121595 0.00156965 0.00136410 0.00186486 0.00089068
3 0.48300956 0.04029894 0.09975971 0.02595915 0.03473349 0.00879397 0.02066981 0.00892278 0.02130926 0.00338381 0.01218128 0.00658542
5 0.89229435 0.06558670 0.17753424 0.02459513 0.10079178 0.02908116 0.03392863 0.08046203 0.14561772 0.10191856 0.05710372 0.06020404
4 0.01376432 0.04055258 0.00663447 0.01434118 0.00243198 0.00390425 0.00140630 0.00175173 0.00098573 0.00192203 0.00131422 0.00200839
2 0.05303337 0.09380099 0.02280662 0.02919645 0.00896942 0.01603866 0.00458440 0.01031948 0.00144419 0.00659130 0.00161522 0.00594894
1 2.12547662 0.28300955 0.02573507 0.02666847 0.21400805 0.02359079 0.01780792 0.01255948 0.07160072 0.00394618 0.00791712 0.00506257
2 0.02369413 0.09313661 0.01525574 0.03712280 0.00998885 0.01770757 0.00638061 0.00863965 0.00337219 0.00654250 0.00235675 0.00539799
2 0.02516527 0.09197944 0.01389733 0.02887030 0.00841088 0.01610062 0.00289696 0.01056282 0.00187594 0.00630940 0.00265034 0.00374994
1 0.13184921 0.10613183 0.04897933 0.03776266 0.02266890 0.01815205 0.01414460 0.01018147 0.00843031 0.00820508 0.00544330 0.00561532
5 0.14615809 0.31640982 0.09901206 0.04459489 0.01449730 0.02752586 0.04105370 0.06659756 0.03670922 0.02480371 0.03426644 0.01988222
6 1.08376340 0.59634525 0.06276780 0.09297757 0.05620332 0.10353480 0.02475275 0.08475931 0.02826658 0.02205226 0.01084513 0.03776979
1 0.18833743 0.09356799 0.04772041 0.02626670 0.03432254 0.01152672 0.01752358 0.00778124 0.01221406 0.00548963 0.00908805 0.00334468
4 0.00249881 0.08938563 0.00710064 0.00324050 0.00504401 0.00964367 0.00354079 0.00394121 0.00062483 0.00155792 0.00032907 0.00065924
1 0.02230403 0.03924099 0.02246766 0.01701806 0.00648767 0.01009609 0.00147053 0.00264681 0.00139572 0.00398789 0.00197419 0.00504456
2 0.00388091 0.08432795 0.00362358 0.02369554 0.00411138 0.01259233 0.00353846 0.00814036 0.00227188 0.00478191 0.00211648 0.00379184
3 1.23155931 0.62962822 0.11243703 0.16428527 0.07883987 0.06631406 0.03858154 0.11213154 0.02513378 0.04750661 0.01473013 0.04494417
3 0.05472789 0.03932768 0.01875968 0.00620748 0.01390751 0.00502257 0.00826648 0.00278221 0.00749546 0.00218512 0.00160171 0.00197117
4 0.03755932 0.09638090 0.00509055 0.02292545 0.00430830 0.00642648 0.00443950 0.00276490 0.00364614 0.00296229 0.00359066 0.00230824
1 0.95389032 1.19237268 0.69455879 0.16540465 0.10587342 0.07414576 0.05641312 0.08863664 0.03219581 0.05475195 0.03726430 0.01847264
4 0.01883303 0.07015924 0.01242324 0.00772644 0.00659973 0.01084957 0.00158227 0.00449762 0.00062700 0.00144330 0.00135128 0.00106278
6 0.02549791 0.09715599 0.00142965 0.03428926 0.00154396 0.01863151 0.00310127 0.01088976 0.00094862 0.00715569 0.00064791 0.00448154
5 0.18836404 0.09860419 0.05391686 0.02659016 0.11714422 0.08840267 0.03156843 0.00487725 0.00981540 0.02322499 0.00768072 0.01059993
5 0.65555158 0.01747167 0.22137100 0.05962329 0.06117116 0.10066974 0.05890174 0.10949509 0.04610322 0.08173757 0.08512899 0.02728547
0 0.05008558 0.07933864 0.00957742 0.02544405 0.00710495 0.01196258 0.00533962 0.00609980 0.00464005 0.00370597 0.00409033 0.00240900
3 0.89015532 0.16736563 0.22218764 0.03635120 0.08541122 0.07625162 0.08026452 0.06586256 0.02768452 0.05199710 0.02745388 0.00906696
5 0.14491648 0.05093204 0.01678758 0.05965769 0.09583502 0.04296512 0.03981959 0.01622058 0.02586297 0.03438708 0.03028118 0.01398145
4 0.01951654 0.10286825 0.00353577 0.02051870 0.00374152 0.00643265 0.00069385 0.00110475 0.00050955 0.00190533 0.00128879 0.00182057
4 0.01071171 0.07171143 0.01673317 0.01485395 0.00716513 0.01260944 0.00362265 0.00246414 0.00082037 0.00187874 0.00138759 0.00126567
4 0.00592414 0.10064015 0.00733289 0.00622540 0.00334001 0.00546827 0.00369606 0.00530450 0.00226192 0.00220601 0.00075152 0.00140281
4 0.01565011 0.08518122 0.00254363 0.01375038 0.00442815 0.00380158 0.00361030 0.00226633 0.00278791 0.00141705 0.00044108 0.00056411
1 0.08812175 0.11364445 0.03179777 0.04239530 0.01253406 0.02053599 0.01138468 0.01386284 0.00612303 0.00875330 0.00354196 0.00598871
4 1.27945685 0.51415817 0.06701950 0.11757889 0.06947539 0.09345687 0.02295199 0.07100151 0.00914464 0.05299030 0.01080474 0.02749619
6 0.13418079 0.08830279 0.05727593 0.02352944 0.03927226 0.01331840 0.02587969 0.00946943 0.01704206 0.00749598 0.00991032 0.00580678
1 0.03172411 0.04783795 0.00736093 0.01586195 0.00322218 0.01296219 0.00157383 0.00619503 0.00440096 0.00620005 0.00190704 0.00478113
1 0.82664770 0.46139014 0.75837454 0.15232627 0.11482620 0.15737049 0.09385500 0.08336414 0.04451820 0.02177808 0.03915131 0.01764179
1 1.70989988 0.49065244 0.03043011 0.06658517 0.01964315 0.15036025 0.03466664 0.05445422 0.02926350 0.06950748 0.01691211 0.03440144
3 0.03426862 0.06590604 0.02529243 0.00751420 0.00984484 0.00717097 0.00496472 0.00178782 0.00418384 0.00192781 0.00192570 0.00308373
5 0.14611291 0.04423287 0.01845721 0.01533855 0.09182986 0.05565072 0.01470882 0.01885842 0.02909233 0.03354394 0.00890596 0.00866106
0 2.88981844 0.08848414 0.04187128 0.09151373 0.31160886 0.02003792 0.02724154 0.05431062 0.10732801 0.02628624 0.00573228 0.03879067
1 0.01530112 0.05308085 0.00932417 0.01371487 0.00877001 0.00608012 0.00383447 0.00472636 0.00395307 0.00190984 0.00176752 0.00270604
2 0.02641296 0.10760648 0.00203371 0.03771912 0.00134964 0.01669297 0.00163035 0.01267258 0.00105710 0.00805630 0.00068130 0.00418653
1 0.35113182 0.08176917 0.17830369 0.05802206 0.05111145 0.01441342 0.02024644 0.01237778 0.01273815 0.00281756 0.01483052 0.00679353
5 0.20851528 0.25790750 0.21964434 0.05293410 0.05514214 0.06355291 0.03441445 0.14504989 0.00544979 0.05406704 0.01381347 0.01983070
6 0.00652502 0.05098198 0.02449183 0.02702987 0.00359325 0.01411430 0.00569241 0.00979351 0.00188731 0.00650403 0.00088232 0.00472470
2 0.00742105 0.09405664 0.00746019 0.02431762 0.00261784 0.01027003 0.00163013 0.00521004 0.00273273 0.00520254 0.00104316 0.00405227
2 0.02405653 0.09759323 0.00336943 0.02319425 0.00346894 0.00572214 0.00179029 0.00505097 0.00102725 0.00512233 0.00074751 0.00420132
2 0.89756986 0.54386370 0.07631348 0.16739309 0.12075147 0.06838117 0.03158007 0.05534856 0.03529812 0.00516055 0.00737727 0.00699556
2 0.01864697 0.07984683 0.00640897 0.02564679 0.00271856 0.01280150 0.00546204 0.01007341 0.00230007 0.00505457 0.00095516 0.00561739
2 0.03600377 0.09551097 0.00731939 0.02393712 0.00713448 0.00968067 0.00302473 0.00390449 0.00317611 0.00314065 0.00098325 0.00089217
1 0.80136543 0.34891310 0.10487927 0.05500015 0.04863234 0.06592722 0.02357985 0.02489281 0.03434649 0.00872482 0.00981714 0.01951725
1 0.09681795 0.11671230 0.03390497 0.04596058 0.01608736 0.02439036 0.00609323 0.01477816 0.00613889 0.01006460 0.00431550 0.00657231
4 0.02326202 0.11565604 0.00619418 0.02893304 0.00113875 0.01023535 0.00072546 0.00362107 0.00123231 0.00126410 0.00137274 0.00024422
3 0.95879049 0.29115467 0.28192870 0.15982486 0.12521935 0.02059897 0.07337539 0.04527412 0.03212490 0.03993072 0.00861947 0.02453059
3 1.31052557 0.38473191 0.03098450 0.04607688 0.08168888 0.04803315 0.03142342 0.01929665 0.05236157 0.01434982 0.03689169 0.02138404
1 0.27160978 0.07603988 0.06276626 0.03526630 0.03295209 0.01619010 0.00602081 0.00386365 0.00332118 0.00702285 0.00339794 0.00685080
1 0.04370887 0.06620171 0.01702305 0.01994063 0.00431762 0.01055552 0.00502020 0.00613100 0.00195461 0.00361296 0.00282951 0.00274193
6 1.09808873 0.29105179 0.26649829 0.15792034 0.09178765 0.05456330 0.06474599 0.11366066 0.01445475 0.03497101 0.03359433 0.03465315
1 0.02025698 0.04081667 0.02148815 0.02206546 0.00107238 0.01043563 0.00136107 0.00643085 0.00160061 0.00494091 0.00198012 0.00301204
0 0.01669273 0.10715450 0.01049890 0.03577577 0.00205210 0.01801838 0.00206640 0.01052518 0.00275085 0.00666798 0.00173611 0.00551763
5 1.30850505 0.26281302 0.18940455 0.06775030 0.11829467 0.11390408 0.09057488 0.13221159 0.07020892 0.08269059 0.10475907 0.04294151
3 0.04152378 0.06508634 0.03091147 0.00238110 0.00966308 0.00838401 0.00871260 0.00170783 0.00556297 0.00132007 0.00296497 0.00208076
5 0.25622995 0.07600894 0.10748649 0.16253458 0.02440044 0.00998395 0.02197196 0.01108126 0.02341849 0.01296419 0.00937402 0.03069108
3 0.01233018 0.04890474 0.02512466 0.01160503 0.02018146 0.01086688 0.01100815 0.00658875 0.00533036 0.00199866 0.00263851 0.00074997
2 0.01827824 0.09593392 0.00184857 0.02176597 0.00453952 0.00923510 0.00357061 0.00645625 0.00306599 0.00490074 0.00240752 0.00526866
2 0.01031149 0.08842639 0.00385195 0.02838631 0.00413954 0.01105392 0.00288589 0.00778783 0.00110561 0.00637219 0.00094707 0.00292375
4 0.01063327 0.04481422 0.00663593 0.01758611 0.00243054 0.00821891 0.00075676 0.00361731 0.00211361 0.00390167 0.00078971 0.00057007
1 0.88980934 0.82904621 0.48455851 0.14648861 0.06052030 0.12632814 0.02200701 0.06710345 0.01923575 0.01516204 0.01622443 0.01742356
4 0.01490231 0.06750435 0.00432636 0.00678028 0.00213513 0.01036273 0.00316553 0.00385222 0.00148460 0.00160429 0.00195658 0.00094590
3 0.19231789 0.06491689 0.01753705 0.08339137 0.04993159 0.01584125 0.00736691 0.00575922 0.02147887 0.01159073 0.00752680 0.00476671
2 0.02431218 0.07155115 0.00529321 0.01637034 0.00465603 0.01484652 0.00157227 0.00713995 0.00240358 0.00550885 0.00308741 0.00324605
6 0.81074369 0.67487410 0.05661087 0.13919550 0.07329401 0.04481798 0.01559774 0.07043913 0.03552654 0.04746600 0.01574790 0.02072761
0 0.01965270 0.11382638 0.00964030 0.03809810 0.00301193 0.01605195 0.00367021 0.00680496 0.00379706 0.00232547 0.00365447 0.00121740
4 0.01342731 0.06615370 0.02092520 0.00696771 0.01289926 0.00232260 0.00506040 0.00228348 0.00012517 0.00311737 0.00088921 0.00064596
6 0.02695568 0.06887016 0.01601611 0.01884973 0.00629969 0.01369343 0.00381271 0.00890686 0.00088288 0.00445513 0.00066964 0.00230075
5 0.23892803 0.13774252 0.03834429 0.15048346 0.06810675 0.04684050 0.03221986 0.03013160 0.01579046 0.02426528 0.02102256 0.02371494
2 0.02187643 0.10266886 0.00675009 0.03770009 0.00450602 0.01986726 0.00344829 0.01217810 0.00084123 0.00872598 0.00019524 0.00544753
6 0.03277459 0.08860741 0.01088113 0.02096720 0.00572473 0.01098077 0.00600777 0.00769885 0.00314147 0.00587818 0.00059482 0.00390006
4 0.03232628 0.10365361 0.00507088 0.02855794 0.00264944 0.00891992 0.00415569 0.00316283 0.00210604 0.00111759 0.00111233 0.00065588
6 0.03792734 0.05407417 0.02488638 0.02209337 0.01067621 0.01289343 0.00498511 0.00838915 0.00514112 0.00522603 0.00372137 0.00371954
6 2.64125938 0.78804780 0.05490882 0.21542464 0.06133459 0.18425631 0.08103439 0.06490238 0.04202011 0.08200021 0.03017348 0.02881170
1 0.03155054 0.05624901 0.00849738 0.01670129 0.00613875 0.01101852 0.00827067 0.00437065 0.00546879 0.00470390 0.00264234 0.00320238
